-0.12786013,-0.17867203,-0.12976754,-0.16728196,-0.16133253
-0.34671566,-0.25301015,-0.12518919,-0.027102837,-0.007013712
-0.22123505,-0.152965,0.020224065,0.04139463,0.009228671
-0.13384643,-0.035210002,0.023088813,0.030707527,-0.054594077
-0.08195309,0.09426847,0.1534323,-0.000114478826,-0.077277415
-0.2497309,-0.17096922,0.016469955,-0.085455835,-0.0840079
-0.20187734,-0.11598374,0.11417875,-0.07653429,-0.1487536
-0.13104212,-0.023949366,0.0042649033,-0.07780043,-0.03172891
-0.12423786,-0.06274876,-0.044565268,-0.15424,0.031226829
-0.16192894,-0.00488983,0.032585297,-0.070759825,0.011666786
-0.04662222,-0.14609627,-0.069227636,-0.08265618,-0.10140666
-0.0753669,-0.041935317,0.03394656,0.09092798,0.0814559
-0.20105727,-0.17432348,0.096055515,0.05738374,-0.088755585
-0.16431983,-0.007862896,0.1459772,-0.07294284,-0.1091736
7.6262375e-05,0.12093766,-0.010278541,-0.16033225,-0.118037514
-0.062563494,-0.028391069,-0.07241621,-0.028560668,-0.01926788
-0.0713423,0.040241946,0.08702351,0.009125911,-0.088673264
-0.12708828,0.11192699,0.16074745,-0.029331073,-0.09925678
-0.024196314,-0.0027721168,-0.007845155,-0.11530537,-0.08015475
0.161851,0.13332604,-0.11598238,-0.15832269,-0.04127855
0.022062019,0.06459778,-0.000762758,0.009337099,0.048740562
0.008187624,0.0476234,0.0024741793,0.03246006,0.03950738
0.01924728,-0.033007465,-0.013980417,-0.07014187,-0.016478864
0.004996194,0.0082957735,-0.011360182,-0.03369747,0.049309272
-0.018865023,-0.070231415,-0.008045452,0.0168883,-0.013670201
-0.08550055,-0.029965658,0.13188551,-0.011003028,-0.0744893
0.0050327806,0.047361787,0.12334724,-0.033382062,-0.042098366
0.0023039249,0.009844139,-0.03573965,-0.07138492,-0.030504916
0.021019178,0.01053433,-0.23034681,-0.070674896,0.008612876
0.09255695,-0.018646486,-0.12854078,-0.05185394,-0.009267263
-0.013506822,-0.035501443,-0.0074647064,-0.039340656,0.025956232
-0.0072833123,-0.043582074,0.0251966,0.013906342,0.009589277
-0.015990015,-0.008865675,0.011476751,-0.093174376,-0.03641276
0.015330614,0.0453449,-0.017451948,-0.06125433,0.018991418
-0.07976575,-0.0062112794,-0.057916544,-0.045240004,-0.020275615
-0.10296418,-0.052926894,-0.013639078,-0.0027351081,-0.06793306
-0.13246848,0.034635976,0.10381911,-0.032782584,-0.08567677
-0.034322944,0.05857207,0.014048561,-0.113592185,-0.04383139
0.0023865402,0.05528333,0.0250677,-0.116936535,-0.08092486
0.0043336274,0.10922891,0.03561927,-0.07679553,-0.013839752
-0.07729951,-0.033524714,0.08032794,0.09105571,0.03761262
0.0747074,-0.065390565,0.02388968,0.0642924,0.013333343
-0.018947033,-0.015455313,0.032082107,-0.0282606,0.039558247
-0.03243176,-0.05687981,-0.047891114,-0.053188305,0.016218882
-0.07091044,-0.07488657,-0.14132015,-0.0452894,0.074265726
-0.032372028,0.029156005,-0.03631535,-0.11372468,-0.12949063
-0.052681018,-0.05534219,-0.027273353,-0.09174498,-0.02602491
-0.17798749,-0.19828695,-0.17039575,0.041441087,0.042575188
0.06758899,-0.21002515,-0.17141438,-0.04323715,0.0026293574
-0.15877266,-0.23288082,-0.1151559,-0.024696155,0.032755993
-0.12900463,0.01034806,0.09130439,0.0470234,-0.03624957
0.014695826,0.04014542,0.10415371,-0.050491307,-0.08130635
0.066989735,0.025412621,-0.07331907,-0.039764434,0.011168119
0.037693337,0.014009999,-0.09868383,-0.078498185,0.0046940367
0.04581141,-0.07951877,-0.09752814,-0.012726192,-0.033511136
0.012826366,0.0008572741,0.041041132,0.0235781,-0.023616826
-0.043041006,0.02671681,-0.041142046,-0.026240056,0.043422066
0.013188068,-0.00063511124,-0.033978432,-0.008364014,0.0060004354
0.026514469,-0.017536223,-0.007861064,0.008914687,-0.04392667
-0.014243941,-0.040802974,-0.015658557,-0.026436118,0.021914607
-0.24692479,-0.22738187,-0.051023714,0.035228115,-0.109505564
-0.12936553,-0.0017526272,0.058975596,0.03247602,-0.12504144
0.005982358,0.0025120603,0.05503082,-0.03610928,-0.09908084
0.03957473,-0.13644966,-0.026215708,-0.004023512,0.06747739
-0.18426643,-0.14359085,0.080092296,0.11488857,-0.05565412
-0.0194276,-0.024528706,-0.044198465,-0.022466877,0.036904108
0.028534312,0.011458415,-0.013149629,0.0060830605,-0.008331049
-0.03661592,0.03036905,0.02329676,0.03857698,-0.041789763
0.0070093074,0.025233084,-0.006187982,0.020746479,0.022195293
-0.021984408,0.032883085,0.011320258,-0.004888402,0.016241236
0.03823336,-0.09198567,-0.088002376,-0.03883354,-0.10524792
-0.008396088,-0.044438515,-0.052323565,-0.028336681,-0.018163314
-0.036666658,-0.10008485,0.00874034,0.0388406,0.055274047
-0.067238905,-0.039529458,0.0028319792,0.13003956,-0.040815663
-0.055574484,-0.035048995,0.13472909,0.10237156,-0.10228795
-0.028233249,-0.09499815,-0.089483716,-0.09134839,-0.09867884
-0.013700806,0.044440944,-0.08754259,-0.12986472,-0.11456689
-0.03121921,0.03915093,-0.095174566,-0.18561555,-0.024710145
0.034825284,-0.009107176,-0.14757389,-0.09991973,-0.012783918
-0.02265509,0.066779494,-0.08315917,-0.13633847,0.0048650447
0.030455755,-0.044761747,0.042877786,0.013203972,-0.03794588
0.07427485,0.16576304,0.029345341,-0.07532014,-0.06338874
0.11316576,0.062404122,-0.07498228,-0.05168342,-0.06608081
0.029501162,0.047035053,-0.08656187,-0.013088877,-0.07109512
0.11335061,0.11139695,-0.10935417,-0.08091192,-0.06747151
-0.08599274,-0.02516633,0.011287782,-0.024473086,-0.028946908
-0.06614543,0.079785876,0.10124702,-0.009950099,-0.10892212
0.008591312,0.06620713,0.0473791,-0.10565789,0.009120065
0.034654964,-0.019468933,-0.049005836,-0.0816633,0.03926112
0.023763115,-0.059094492,-0.07179893,-0.060807854,-0.05397181
-0.05946539,0.057765495,0.08189951,-0.005384738,-0.06947342
-0.020763086,0.06570672,0.0064075375,-0.09087637,-0.09215481
0.004232882,0.047519706,-0.016196404,-0.1653788,-0.026378246
0.015144131,0.064112104,-0.06182936,-0.15934797,-0.04933228
0.15266064,0.08931425,-0.072081506,-0.073299386,-0.10276356
-0.14541136,0.035050012,0.13262556,-0.006092385,-0.060719173
-0.0881434,0.09466302,0.08524794,-0.033450883,-0.12601489
-0.10988125,0.11900738,-0.044890948,-0.17356372,-0.13121133
-0.0004696729,-0.0034163184,-0.20766212,-0.1400909,0.028744068
0.12701839,-0.05552278,-0.15374064,-0.062695116,-0.08023957
