-0.03137403,-0.04377263,-0.014681984,0.0090074465,0.007795793
-0.014617626,-0.030796323,-0.035405185,-0.029261312,-0.044421587
-0.018821165,0.019263443,0.025542513,-0.054125078,-0.038945567
-0.046314627,0.034181632,0.00090591016,-0.03301514,-0.04722954
0.038059894,0.01854101,-0.034348898,-0.045939192,0.02390854
0.0020086416,0.018945657,0.046176553,-0.027277866,0.043211233
-0.02057232,0.005793927,-0.024312843,-0.022112379,0.0050709066
-0.0029180332,0.0311691,0.066738114,0.03327737,-0.026096301
0.012627222,-0.03985574,0.020550705,-0.008564957,-0.028483873
0.04060162,0.039539915,0.0153340055,0.019452333,-0.020047873
-0.046720143,-0.005797032,-0.020032912,-0.020190759,0.017788913
0.018645016,-0.0029211289,-0.014149145,-0.026733104,0.0076551256
0.0063177557,-0.02746431,-0.055274684,0.0076830257,0.016406469
0.022069609,0.015982328,0.022834148,-0.023325598,0.019375054
0.00863876,-0.021489458,0.014947346,-0.009614454,0.013931384
-0.00714165,-0.004874798,0.025062287,-0.010135555,-0.00816266
0.035467774,0.0036192024,-0.025643287,0.010697915,0.04196521
-0.037899826,-0.006428972,-0.0040767407,0.02084371,0.018907707
-0.013327043,0.013199871,0.041826215,-0.00055127917,0.006636213
-0.0044195238,0.01286745,-0.034267608,0.009564561,-0.030158825
0.028845001,-0.013182852,0.035004187,0.01550664,-0.0075315526
-0.0073192874,-0.04865742,-0.012017181,0.012313388,0.045532964
0.017907951,0.04726322,0.0051676887,-0.022735503,0.050308578
-0.022271942,0.005975959,0.011508764,-0.05257088,0.042021878
-0.037528124,-0.0454996,0.03905941,-0.02704233,-0.037711114
0.045584198,0.043963615,0.018767051,0.026024444,-0.014598088
0.004401676,0.033689708,-0.017108068,-0.018984262,-0.036405135
-0.024141181,-0.0053712456,0.02368255,-0.038115256,0.03010821
0.028965637,0.0017549021,-0.0076449136,-0.053132575,0.01231494
0.019147005,-0.049591653,-0.025408417,-0.068618216,0.009659436
-0.04012052,-0.015161324,-0.018503228,-0.023500485,-0.022902139
0.023569802,-0.034029532,-0.033557694,0.0020829977,0.04227564
-0.0021933997,-0.037298776,0.009703407,-0.030256383,0.019356508
-0.030123195,-0.0082647605,0.0011649108,-0.050456394,0.02996055
0.012345548,0.013872835,-0.02259327,-0.011277866,0.022258028
0.006769541,0.03622769,0.032852165,-0.015444118,-0.01940316
-0.046378907,0.015062094,0.05565064,0.0080548385,0.003270627
-0.01991986,-0.019297173,0.02251222,-0.021877434,-0.03295409
-0.0057210685,-0.025853692,0.033286758,0.019987348,0.041721568
-0.013746241,-0.003936838,-0.054986384,-0.040980823,0.061596267
-0.014765179,-0.0047892537,0.018339342,-0.00036937767,0.008299705
0.017633,1.888195e-05,0.054613378,0.0015097323,-0.022425946
0.026719619,0.010155441,0.002659483,0.034646958,-0.035198808
-0.022644725,0.04327492,-0.0025276106,0.0058313985,-0.01579724
-0.03659191,-0.022365512,-0.013791521,-0.025134515,0.04042725
-0.028287385,0.011841802,-0.023306942,-0.022981659,-0.0055775833
-0.024446588,0.032049146,0.0068125394,0.012188031,-0.0056065456
-0.011117645,-0.024921857,0.0056987153,0.004755792,0.00960547
-0.02473279,-0.041677482,0.053184774,0.016727008,-0.055517927
-0.03936693,0.00084986136,0.0026000484,-0.0009172463,-0.004255475
-0.055265862,0.0059571373,0.022095868,-0.011841043,0.042252176
-0.04205732,-0.023174379,-0.02955802,0.034095723,-0.020250551
-0.042650573,-0.022830084,-0.018912185,-0.05435263,0.016926775
-0.013656913,0.022294471,-0.012361492,-0.05941706,-0.018852353
-0.023407869,-0.019646762,-0.008307709,-0.04518063,-0.054008953
-0.014703384,-0.030081237,-0.05228236,-0.07142859,0.014269711
0.0009011853,0.027091967,-0.0200443,-0.03408165,-0.052727744
-0.010667743,-0.007197123,-0.016870169,-0.03035777,-0.026868658
0.0049782465,-0.026203971,-0.012400474,-0.019123064,-0.02496321
0.005981714,-0.03532855,-0.052418157,-0.056371596,-0.043967713
0.012090153,0.01038519,-0.027423488,-0.008582832,0.004048929
-0.034011252,0.030755328,0.025394177,-0.01688406,-0.0047195237
-0.040755335,-0.022278624,0.06891542,-0.001378302,-0.03752695
0.04290957,-0.046542406,0.05178536,0.05737923,0.008057019
-0.01069459,-0.010426804,-0.03186571,0.038389843,0.03508204
0.017062368,-0.0045007193,0.031917576,-0.034359965,-0.05295984
-0.0078414865,0.015660007,0.08206032,0.026462073,0.0016325435
0.024309557,0.025280237,0.04435905,0.034169618,0.03302782
-0.040158477,-0.015189275,-0.015636997,0.06491601,0.018575162
-0.053266726,-0.043205995,0.028854892,-0.043023866,0.046657704
0.03532772,-0.024354912,-0.027691444,-0.055397455,-0.049291056
-0.045112915,-0.048909474,-0.03835873,-0.032190923,0.0010489512
0.036003105,-0.013959634,-0.026705949,-0.053960357,-0.058760513
-0.046841253,-0.017702742,-0.010731764,-0.022948634,-0.009107006
-0.050380815,0.009506889,-0.048562907,0.025965147,-0.011923101
-0.02362509,0.035565495,-0.00072294264,-0.035310257,-0.043218132
-0.04347851,-0.0010095934,-0.027842099,-0.03216651,0.022651596
-0.037528977,-0.026189148,-0.04757256,-0.048636984,-0.040556565
-0.031021276,0.022935966,-0.012646511,0.025949718,-0.046388347
-0.037647627,-0.0023347167,-0.037689533,0.023975814,-0.036941297
0.04394038,0.0039896937,0.06044925,0.0061210776,0.0038679417
-0.021127414,0.03155636,0.030748151,-0.02782913,-0.0050848047
-0.0064208386,-0.047936853,0.028794395,0.01042392,-0.0380886
-0.0008432674,0.0085946005,0.03065362,0.02786297,-0.023211552
0.0014402498,0.029134085,0.030378424,0.014255307,0.058083195
-0.040555082,-0.0012937732,-8.5606305e-05,-0.013374467,-0.024038244
0.0074505406,-0.015545301,0.028532358,-0.011125545,-0.0017633293
0.010908706,0.00034158002,0.034659233,0.049327012,-0.061301775
-0.022278393,-0.0014988009,-0.02279476,0.016569577,0.00081421714
-0.056395955,-0.05712199,0.044311486,0.05059066,-0.015772402
0.027005548,0.023865355,-0.058449417,-0.036864612,-0.010325
-0.051088832,0.032057468,0.008015926,-0.03964683,-0.004316567
-0.036109306,0.0045796717,0.0030070972,0.026187053,0.008314275
0.030017804,0.033333216,-0.021097424,-0.029432667,0.029217515
0.031478673,-0.053843953,-0.011604455,-0.056942236,-0.04031185
0.025147308,-0.047444005,-0.05978774,0.0015482634,-0.01849257
-0.041481644,0.023831656,-0.025839312,0.00677588,-0.0034687638
-0.03918243,-0.056329932,0.00856301,-0.023108441,-0.015272826
-0.04857653,-0.018314498,0.036941893,-0.0023527981,0.009870976
-0.04423295,-0.03118913,-0.036414158,-0.020799147,0.014515883
