0.020183751,0.04258408,-0.050842762,0.043779373,0.05046595
0.022083035,-0.11070429,-0.053608496,-0.042603258,-0.092196696
-0.10732459,-0.049886424,-0.055828992,0.008106231,-0.0010115856
-0.14957146,-0.04214906,0.0040893382,-0.032178283,-0.0109152105
-0.04759151,0.045145515,-0.047335703,-0.02275845,0.0369028
0.020983087,-0.03877838,0.15318383,-0.045798026,-0.020360965
-0.025073837,-0.065247215,-0.031732455,-0.020467965,0.026660874
0.013189027,-0.016833438,0.026684942,-0.016022738,-0.05160056
0.04034107,0.0962205,-0.008255635,-0.06932263,-0.009414724
0.09142508,0.028587682,0.035667617,0.014981982,-0.056619756
-0.02678629,-0.008020201,0.03301974,0.03501698,-0.030271642
-0.0013296987,0.15910752,0.14686136,-0.014980209,-0.024763973
0.010820732,0.017017245,-0.056323197,0.088655956,-0.0065943636
0.01903753,-0.033959188,0.021326007,-0.015952647,-0.0691352
-0.053280104,0.059518263,0.021862978,-0.13110279,-0.109080665
0.0038312813,-0.07001333,0.030557932,0.06908506,-0.041370653
0.0056449147,0.03635261,0.09192294,0.06443512,-0.03368102
-0.016655285,-0.004074709,-0.0650238,-0.016566437,0.0030700315
-0.0063623497,-0.086433634,-0.076771304,-0.009068005,-0.07293342
-0.04190745,-0.03946685,0.01252611,-0.019169169,-0.090319395
-0.0017472283,0.028088925,0.09816501,-0.032388434,-0.0609228
0.100329794,0.05119823,-0.1743843,-0.19257484,-0.13452892
-0.057246067,-0.10771208,-0.17029282,-0.03940585,-0.027025292
-0.05406256,-0.11641051,0.012744117,0.08073542,0.074076355
0.020980373,0.04789223,0.061870202,0.084857374,0.0147960475
0.02301328,0.007268442,0.032865025,-0.090146445,-0.13423459
-0.08063053,-0.099441685,-0.17153785,-0.027945956,-0.05402738
-0.09541213,0.01236865,-0.050206505,0.020503828,-0.018472062
0.013961565,-0.006818791,-0.055837832,-0.00081904937,-0.012632533
0.08343162,-0.08178152,-0.01943138,-0.035673905,-0.026202075
-0.029555757,-0.07454998,0.04706965,0.0008785389,0.029031008
0.03970359,0.080248736,0.072177134,0.006286217,-0.06361048
-0.040859476,-0.010887684,-0.07956858,-0.005538248,-0.0026838977
0.002581915,-0.14464669,-0.070144385,-0.04415384,-0.042046648
-0.037037734,0.058009055,-0.024421146,-0.060057603,-0.12719321
-0.031492725,0.01987118,0.049917154,-0.031600457,0.03321305
-0.055327054,-0.047183998,-0.017480826,-0.092224084,-0.02075248
-0.09475062,-0.049039397,-0.017463926,0.0018104702,-0.003233505
0.057476994,0.028312344,0.084748216,0.0747563,-0.039016567
-0.043146256,-0.08017069,-0.049761035,-0.03321364,-0.039026912
0.05624928,0.10653814,0.043896552,-0.095609106,-0.062510505
-0.020166978,-0.022408295,-0.13790487,-0.09244736,-0.034836918
-0.07771515,-0.10045995,-0.086972974,-0.12673889,-0.04186508
-0.12070799,-0.0649735,-0.062098213,-0.047612324,0.050126594
-0.024607848,0.0006259577,0.013553062,0.035536293,-0.03379594
0.06773795,-0.033235986,-0.031197023,0.044795558,0.031808265
0.016737532,-0.028101088,0.02566037,-0.013556325,-0.0465846
-0.015909122,-0.05513177,-0.07796199,-0.050109632,-0.0073444247
-0.04255441,-0.06208327,-0.010759483,-0.024572192,-0.0039462824
-0.06399862,-0.0493411,-0.008094024,-0.053777758,-0.06759963
0.00039163907,-0.1457455,-0.092915945,0.022067763,-0.03162767
0.08333449,0.20539667,0.29780048,0.04238427,-0.13099334
-0.012942057,-0.046640556,-0.24138272,-0.09198774,-0.0036587354
-0.04181029,-0.16054714,-0.115563296,0.03530041,-0.04118168
-0.09334619,0.027901353,-0.0048242486,-0.028682591,-0.10242466
0.016725456,0.03568351,-0.03732475,-0.19595106,-0.115247585
-0.09512435,-0.14886121,-0.25103325,-0.1608623,0.066941544
-0.10269822,-0.18806764,-0.07854111,0.06961624,0.036690842
-0.16361041,-0.0704809,-0.063649386,-0.011367009,-0.06164177
0.05242652,-0.05809537,-0.109899,-0.15693061,-0.045806494
-0.008464083,0.0606794,0.1569524,0.15317021,-0.027381035
0.06201519,0.09580956,-0.007947679,-0.012809814,0.0057703103
0.035307,-0.0885978,-0.09756268,-0.05216867,-0.056171972
0.026722034,-0.07993238,-0.031410743,-0.07462886,-0.07199766
0.062765166,0.034405407,0.0045806575,-0.030019045,-0.07586787
-0.07991642,0.097707994,0.055476103,0.18440546,0.054251086
0.04217098,0.09449954,-0.08260623,-0.09637788,-0.038290687
0.10396113,-0.09112894,-0.03128904,-0.019568793,-0.08441223
0.022463756,-0.08078303,0.23166277,0.08708917,-0.002674128
0.113476716,0.097094014,0.13963623,0.13616946,0.035782274
-0.018599683,0.022538198,-0.031223267,-0.022980126,-0.021516785
-0.036835182,-0.073156774,0.10167496,0.1405969,0.0062924805
-0.02246258,0.082344905,0.23308235,0.07454406,-0.01737424
0.003948432,0.013927277,-0.09586586,-0.13822673,-0.075368665
-0.04198972,-0.10236042,-0.14177564,-0.06675734,-0.102551475
0.027640138,0.11644028,0.023024518,-0.0046757273,0.05652131
0.055542503,-0.03270516,0.0669115,0.023286557,-0.014630238
-0.019942082,-0.043473482,0.047753815,-0.022152646,-0.010834061
-0.115345,-0.08145197,-0.08465515,-0.056383006,-0.03300509
0.020981453,0.00015681368,-0.034061074,0.042578034,-0.042805094
0.026780773,0.048419926,0.062792234,0.080243066,0.047355384
-0.0398853,-0.0033301176,-0.015141073,-0.09829686,0.049154803
0.10759527,-0.04772248,-0.11535081,-0.041190844,-0.021810101
-0.13094857,-0.07747024,0.057560325,0.044027664,-0.03645941
-0.05562394,0.04325243,0.07422017,0.04639892,0.004467219
0.01031765,-0.084559515,-0.07978262,0.10240689,0.03864119
-0.022504263,0.023779416,0.14414729,0.04490848,-0.033994466
-0.1253953,0.054051723,-0.028480068,-0.12745595,-0.1362093
-0.03812903,-0.16109769,-0.19243851,-0.21780646,-0.20254678
-0.10731304,-0.22782207,-0.096776485,-0.06816548,-0.1989097
0.009820122,0.043189295,0.13203615,-0.027896043,-0.16992405
-0.027758043,-0.09853691,-0.11731878,-0.123363145,0.04395012
-0.13393123,-0.1377415,-0.053160626,-0.006153329,-0.011590083
-0.13109386,-0.05306243,-0.039448,-0.11584648,0.030828588
0.11108512,0.06657131,0.015996406,-0.026231736,-0.05280098
0.009478844,0.020326434,-0.074966654,-0.04908786,0.0045359805
-0.042997014,0.005930959,0.18915857,0.21917555,-0.019048575
-0.0835768,0.051245593,0.13712893,-0.06290315,-0.055725638
0.086057186,0.075978644,-0.09723297,-0.09043352,-0.122620985
-0.14613424,-0.23090273,-0.09617349,-0.12082098,-0.13537593
