-0.001681387,-0.080253094,-0.06185426,-0.077022284,0.049732815
-0.027450228,0.013538203,-0.08510938,-0.05605539,0.07113094
-0.030004743,-0.065243386,-0.029856168,-0.03273209,0.08115024
-0.06528591,-0.06440545,-0.09894144,-0.06313453,-0.023918755
-0.04182075,-0.04182539,0.012918866,0.010331304,0.039930813
-0.07919176,0.05937217,0.082270876,0.0564159,0.05818732
-0.052205745,0.028932927,0.014248647,0.014802009,0.006978146
-0.06627272,-0.0011279074,0.043485824,0.041896075,-0.07256469
0.020449467,-0.014079176,-0.033132665,-0.013059273,0.02113189
0.013171706,-0.05337926,0.08617909,0.055282347,0.007352832
-0.04016285,-0.057592772,-0.042125694,0.020458777,0.054018263
0.010782979,-0.007910753,-0.007229124,-0.04389261,0.046333544
-0.010671239,-0.02307986,-0.043428276,-0.10355552,0.067366995
0.031186061,0.110330224,0.024806162,-0.103711106,-0.06602945
0.023034055,0.03071082,-0.06718158,0.013259354,0.119387455
-0.005849793,0.052081306,0.0068301703,0.01200058,-0.048388105
-0.0359328,-0.004875239,0.015584639,-0.03872518,0.01511584
0.00761203,0.0064297765,0.04752677,0.103683494,-0.04159177
-0.0010688587,-0.017404277,0.029687269,0.026293613,0.047006417
-0.031109089,0.03806625,-0.036779955,0.011643593,-0.01867993
-0.083459474,-0.07475946,-0.155414,0.01523635,0.17495081
-0.019991472,0.0038521313,0.011788207,-0.075176395,0.14407332
0.07150927,0.06699417,0.090686955,0.045538083,-0.08974293
-0.08381847,-0.05954789,0.029407915,-0.052773625,-0.18159102
-0.048469022,-0.0055811596,0.0104946755,-0.027279165,0.0019016956
-0.005872758,0.024189262,0.0729751,0.08917998,0.092412375
-0.011697958,0.0024841952,-0.058453467,-0.023876866,-0.058061272
-0.027020885,-0.076555915,-0.048198827,-0.08662669,-0.09924046
-0.017519439,0.014110744,0.035082303,-0.015602163,-0.07213574
0.030031346,0.011856758,0.04788256,0.07430229,-0.03552516
-0.082206696,-0.079171345,-0.006229777,-0.025223171,-0.023613848
-0.061940745,-0.032381784,-0.10228003,-0.05680048,0.01987393
0.0036565876,-0.024200914,0.011993733,0.013335738,-0.045222726
0.046961203,0.0708485,0.04546623,-0.030862516,-0.110223524
0.04587801,0.07067248,0.016640387,-0.021239342,0.014472203
-0.047666293,-0.08623797,0.019443173,-0.007027339,0.0033663702
-0.03645174,-0.09706367,-0.048192464,0.081756525,0.009419698
-0.027730027,0.008605123,-0.01861084,-0.10444183,0.052205298
-0.008667282,0.04686374,0.030425629,-0.12516466,-0.029401092
-0.06526946,0.032422446,0.059664562,-0.007714811,-0.15736894
-0.11150024,-0.07745346,0.03906194,-0.0025508525,0.021631625
-0.0045728227,0.042549044,0.08649923,0.06774795,-0.050695486
-0.04417364,-0.052852422,0.0051993667,-0.033471927,-0.12298676
0.02075935,-0.035539888,-0.13662109,-0.15610166,-0.07044526
-0.0036489877,-0.012430608,0.017355349,-0.12001227,-0.062290974
-0.0021151463,0.035545174,0.049647115,0.049738243,-0.08617723
-0.00036291673,0.0005246339,0.048477642,0.0128621645,-0.04989589
0.010855062,-0.023044854,0.009798049,0.026039818,0.0095908055
-0.052173942,-0.003998809,-0.08849796,-0.06738375,-0.023370914
-0.0053215134,0.04103622,0.025511544,-0.0016915842,-0.050848268
-0.023256667,-0.09190123,-0.102878004,-0.0834749,0.04196011
-0.017199004,-0.082549095,-0.061571322,-0.0024084824,-0.001562047
-0.029899407,0.051634416,0.03471707,-0.029307876,-0.2049953
0.019003104,0.08201885,0.18313615,-0.007835958,-0.10000824
0.08102873,0.21437916,0.026349908,-0.08331493,-0.054306842
-0.10288012,-0.034039266,-0.09656726,-0.15180218,-0.08143298
0.016110605,0.052404966,-0.0019211554,-0.14331473,-0.093440644
-0.020592634,-0.047896836,-0.06217824,-0.114813946,-0.08562801
0.08308365,-0.05325665,-0.036877338,-0.052213896,-0.11551996
0.086029746,-0.09602153,-0.043936454,-0.029494772,-0.007866506
-0.037167035,-0.04462177,0.034745242,0.008004392,0.0689694
-0.00048323092,0.01700339,0.031821214,0.08118601,-0.030582141
-0.057871837,0.04984096,0.042202603,0.17646456,0.048174117
0.007888359,0.047176797,0.0013580914,-0.01437086,-0.062415935
-0.0026720145,-0.081475034,-0.032237127,-0.040117078,0.0522391
-0.011816849,-0.1520747,-0.0010604758,0.1834073,-0.10929781
-0.043447305,-0.046371147,-0.040362045,0.31209922,0.27788836
0.03699184,-0.040893894,-0.060715478,0.064988144,0.16441683
-0.044986427,-0.0876876,-0.14892535,-0.116496414,-0.033924785
-0.059800528,-0.0903406,-0.038381115,-0.03310971,-0.03193156
-0.014499909,-0.03317776,0.012191968,0.013527044,0.073354565
0.009740617,-0.061117567,-0.12091729,-0.049463462,-0.026978113
-0.07062653,-0.04040934,-0.14486772,-0.01641372,0.09333361
-0.11495886,-0.023380885,0.065684885,0.080264084,0.00845249
0.025425266,0.0070338356,0.11343211,0.112466045,0.04662549
-0.061076075,-0.08574307,-0.09190649,-0.03022689,0.10786956
0.0036229112,-0.02786116,0.032058846,-0.04654246,-0.020718718
-0.0377518,-0.015175391,-0.04169816,-0.050768968,0.032508153
-0.040245134,0.02375034,0.0068162056,-0.0074867113,0.022194019
0.020020202,0.044149403,0.06545059,-0.030226098,-0.05009874
-0.05906672,-0.106420904,0.057018593,-0.014695805,0.043917622
0.009008604,-0.07041431,-0.06263958,0.1848039,0.06789767
0.063860044,0.02972145,-0.031342126,0.03365469,0.15767574
0.048386738,-0.019454475,-0.01537642,-0.0641526,0.03565562
-0.04618408,-0.04678564,-0.1332861,-0.07391852,-0.043074824
-0.06267115,0.011692664,0.07290309,0.03193392,-0.17140688
-0.07310287,-0.116442546,-0.05116023,0.08544446,-0.10683131
-0.03982667,-0.1522951,-0.08958376,0.11931294,0.023454277
-0.11417317,-0.13570423,-0.00074030465,0.032942448,-0.00071468606
-0.037584618,0.08903659,0.046126783,0.0010421695,-0.054103415
-0.098271355,-0.01512683,-0.0300687,0.060195126,0.11975043
-0.054327417,-0.059681617,0.054778043,-0.001989447,-0.016188826
-0.03925242,-0.047564626,0.015550659,-0.05806673,-0.13885824
0.05180838,-0.0058607846,-0.06454294,-0.11277925,-0.092042446
0.025703533,-0.032384038,-0.038440257,0.029991401,0.0016655287
-0.08021307,0.04090022,-0.053633623,0.017720345,0.027029399
-0.07795982,-0.038490284,-0.06625016,0.0007131324,-0.11340552
-0.07319668,-0.08014227,-0.0048831683,-0.04853843,-0.029055253
-0.04924824,-0.06931857,0.0832516,0.1036588,0.029980002
-0.0312498,0.040828466,0.105054036,0.005770681,-0.07771096
