0.06386169,0.062691785,-0.030279007,-0.0071178842,0.03379408
0.054553445,0.043170933,-0.0067056254,-0.023684334,-0.0024372027
0.063920446,0.0598945,-0.055869512,-0.0037498514,-0.04572254
0.06650938,0.03868597,-0.013632071,-0.001739304,-0.031105734
0.039579786,0.023223631,0.006137031,0.030438052,-0.002072313
0.06657203,0.035667084,-0.019885588,-0.05034181,-0.03420445
0.053979084,-0.017831476,-0.042911865,-0.009211879,0.002657881
0.046982452,-0.012320383,-0.002711806,-0.010646727,-0.028626187
0.050056793,0.010733442,-0.014220915,-0.004533093,0.02202156
0.019929944,-0.00019724939,0.02311603,0.024890488,0.014895982
0.056281317,0.0017469048,-0.043166593,-0.029779963,0.012223008
0.05549863,-0.020018226,-0.016015457,-0.029239532,0.022680843
-0.022410534,0.029908778,-0.041348588,-0.04521353,-0.015756622
0.024934942,-0.023975335,-0.020491997,-0.015661016,-0.025278434
0.010996369,0.030918987,-0.019914953,-0.042947818,0.045010727
-0.021389307,-0.009841754,0.0005392867,-0.04481514,0.042617224
-0.023661353,-0.021165073,-0.014788342,0.0014433956,0.036416233
0.029160647,0.023953767,0.021253133,-0.012059294,-0.01875285
0.022603488,-0.05268357,-0.017851327,-0.0036516765,-0.012233581
0.019380301,-0.02577617,-0.041455295,-0.017740184,0.04212875
-0.045316637,-0.010711001,0.0410279,-0.0045845164,0.015354526
0.01471581,0.010055996,0.038117446,0.040857807,-0.006969471
-0.007575924,0.045054045,-0.040760268,-0.038854577,0.032017574
-0.031556185,0.015210959,-0.012655468,-0.032081943,0.040769342
0.014250836,-0.023026923,0.006765853,-0.008794196,-0.019082196
0.030353725,-0.011009738,-0.013000446,-0.04371415,-0.0002797735
0.02807484,0.014605286,0.008344342,0.011373805,0.032407958
-0.0077961846,-0.046755686,-0.027553834,0.009386464,0.031801373
0.039504576,-0.0124995345,-0.025360826,0.04700016,-0.040028214
0.044579342,-0.043789566,-0.006094754,0.02955859,0.014547522
0.042763293,0.0042634304,-0.042330943,0.025659345,-0.008400491
0.045632098,0.030413775,0.0027168863,0.021713383,-0.021524686
-0.038401626,-0.031219658,-0.014959185,-0.032387953,-0.039612025
0.024020076,-0.013413161,0.026394505,-0.0059903827,-0.01949703
-0.041727804,-0.040984172,0.029608708,0.016471427,-0.0025948877
0.009919694,-0.038744394,0.035090383,0.04228897,-0.02876466
0.032928042,-0.036906008,-0.048121713,-0.010455612,-0.031692434
-0.014863327,-0.02073481,-0.058124233,0.0028274106,-0.0310342
0.059423633,0.03235346,0.033859096,-0.043855876,0.02702546
0.05224512,0.010946069,7.87869e-05,0.029566139,0.022056507
-0.016002757,-0.04236916,-0.03018716,0.019308345,0.031854082
0.0035369906,-0.02014722,0.018270237,-0.011073162,0.014307708
-0.031225057,0.023045383,-0.022962345,0.0059597115,0.007933773
0.04381363,0.039481882,-0.038287595,0.021353815,-0.036136482
-0.02086081,0.01608696,-0.03179542,0.039421268,0.019120576
0.0005575557,0.02190291,-0.037871044,0.0104227625,0.020074679
-0.027045494,-0.019043231,0.016140584,0.038256235,-0.016304327
0.022165798,0.02078354,-0.031830475,-0.03903229,-0.006236749
0.024602069,-0.03828926,-0.035975143,0.029565323,-0.026636316
-0.029790612,0.0028490336,0.043687116,0.02617246,0.021144591
0.01584171,-0.020330546,-0.04009938,0.017081486,0.009068233
0.016171154,-0.02036911,-0.051687986,-0.0021711234,-0.009908795
-0.006634523,-0.0017733977,-0.032715745,-0.033260647,-0.013770007
0.015001438,-0.029634103,0.043691956,-0.04062049,-0.024132065
0.012606947,-0.045792717,-0.0195355,0.03336764,-0.0203378
0.014326481,-0.023836846,-0.02113734,0.0077589247,0.004332076
0.04056244,0.009303868,0.007785726,-0.023229312,0.038869374
-0.00058472384,0.026758414,-0.035797566,0.023397854,0.03633484
0.028988317,0.037365083,-0.020328844,-0.032086875,0.016102342
0.019412687,-0.027168166,-0.014363884,-0.0005736864,-0.0037512165
0.05243203,0.044411004,0.0033833946,-0.024432141,-0.030766832
0.06417314,0.021135489,-0.040289007,-0.049992304,-0.03579183
0.061478216,-0.0038124698,-0.055597488,-0.052794483,-0.02407309
0.012575416,-0.0004923801,0.024125677,-0.015898688,-0.018769745
-0.017549714,0.008280643,0.061309304,0.016722543,0.029293189
-0.043324307,0.027306681,0.007063223,-0.0049456637,0.0008085771
-0.020660758,-0.034716383,-0.022382732,0.014026527,0.037772864
-0.031142762,0.020576192,-0.021737982,0.033718143,0.0054567344
-0.040632404,-0.0385775,0.010760266,0.024977606,0.013199671
0.012306354,-0.00702038,-0.02231393,0.0077137775,-0.035451762
0.020942058,-0.0050378456,-0.034126807,0.00643079,0.020273997
-0.034667958,-0.009699766,-0.0014852757,-0.021585736,0.034337174
0.0069013475,0.0012352761,-0.03152776,-0.039341304,0.011906093
-0.009711798,0.015506564,0.008553836,0.027150368,-0.00078881014
0.023344304,-0.034122787,0.02865202,-0.042591233,-0.012627756
-0.032676518,0.020177284,-0.010672375,-0.04024607,-0.024647683
0.05062184,0.02380945,0.021529166,-0.043894134,-0.020521319
0.039521884,-0.010475822,-0.03586546,0.039281,-0.027802175
0.053852957,0.026748076,-0.049058955,-0.033936597,-0.02878641
0.049624134,-0.03316834,-0.002083199,-0.012964663,-0.0076717995
-0.024105985,-0.041202065,-0.038496923,-0.004038906,0.00073494477
0.017452613,0.00845925,-0.017861018,0.029026436,0.027760034
-0.023889098,0.028931059,-0.0049654217,0.00418065,-0.03916811
0.033120673,0.01038332,0.010343042,0.026664602,-0.034205597
0.047782093,0.027823227,-0.011608668,0.028290188,-0.012833257
-0.005928221,-0.0064959577,0.020455157,0.02249013,-0.017270477
-0.026836425,-0.003715775,-0.02986788,-0.007246279,0.022174899
0.037833653,-0.0012058966,0.009720498,0.0035420614,-0.020535408
0.030300833,-0.029400552,-0.0042028544,-0.020343864,0.0044649406
0.03498195,0.0152651835,0.0048540263,-0.03192347,-0.024881655
0.005667737,-0.022377914,0.0027372886,-0.049511574,0.037833054
-0.0011781566,0.02095177,0.019586902,0.029186005,-0.009719462
0.014970805,0.0139860585,-0.044769894,-0.0063665397,0.018851181
0.016303217,-0.037703257,0.0013079242,-0.0051675797,0.03499909
-0.022560794,-0.0013807878,-0.0028443534,0.012566828,0.05330474
0.023895344,0.006934018,-0.050758164,-0.029377101,-0.040295716
0.016660087,-0.0073905136,-0.0041799285,0.022703802,0.0037029185
-0.022625536,-0.0274063,-0.035045538,-0.036986675,0.004110587
-0.03212757,-0.031992443,-0.010877023,-0.033055604,0.030045098
0.02046033,0.035648566,0.026939146,0.001107783,0.007850205
