-0.0009594787,-0.030857572,0.035982136,0.0099141095,-0.0029878796
-0.018246965,0.043629926,0.01794298,0.02311193,0.010675592
0.057579607,0.05561526,0.010319544,0.03241814,0.01908718
0.057556555,0.03511809,0.011298303,0.0063140485,0.02511037
-0.0064674593,-0.040344235,0.03805051,0.013617764,-0.04160129
0.019812187,-0.00053229765,0.04031398,0.0020131432,-0.0066757076
0.031986915,0.0053870017,-0.018664053,-0.054242726,0.014327576
0.014239884,0.022395246,-0.03679202,0.04379041,0.06955715
-0.049304795,-0.090280145,-0.017449,0.046475764,0.054798115
-0.047608532,-0.026039276,0.060797162,0.0446191,0.046971623
0.03939916,0.020599727,0.017772086,0.016303644,-0.011453346
-0.012469104,0.00019869425,-0.030397566,0.00095773325,0.032464202
0.04631324,0.00475113,0.039033517,0.008029753,-0.011615247
0.05789034,0.046684224,0.06118669,-0.04638143,-0.04293444
-0.013263734,-0.004579014,-0.058530707,-0.04185656,-0.012409503
0.021250581,0.013671805,0.03261271,-0.023400927,-0.047066692
0.035070237,0.06948123,0.013859611,0.016810413,-0.035309203
-0.021400992,0.06613554,-0.025112133,0.00079698476,0.0029746697
0.029840952,-0.056501687,0.013060554,-0.015027358,-0.03256987
-0.03375629,-0.017196922,-0.040760625,0.024693597,0.011663445
-0.004629671,-0.037404433,0.04152644,-0.00060917996,0.026024403
0.018537495,-0.0111145275,-0.0142798945,0.049495634,0.047902986
0.0091879,0.021380264,-0.0071199313,0.08785115,0.06338281
0.0011476537,0.028944317,0.01859447,0.023887089,-0.026595315
0.04887746,0.0034485506,0.028861988,-0.01591843,-0.011197706
0.04081216,-0.030713044,0.013192407,0.029993808,0.006244654
0.014312568,0.0043361695,0.04666946,-0.015393863,-0.024260253
0.021731952,0.0330177,-0.086282685,-0.07394111,-0.007285887
0.021149285,-0.05208598,-0.047045287,-0.0609145,-0.024247399
-0.0700971,-0.057753377,-0.0070500122,0.04771893,-0.005023314
-0.030933626,0.0013893232,-0.026259622,0.02331858,-0.050265152
0.016484685,0.08169159,0.057586934,0.025948327,0.040841203
0.008845386,0.039197095,0.022804864,-0.024726575,-0.014545582
0.06385876,0.033810023,-0.0068938565,0.003295319,-0.03287671
0.0013605667,-0.02244846,-0.035120502,0.008281945,-0.022686118
-0.023529386,-0.025946165,0.018915743,0.016376477,-0.02250208
-0.03315937,0.06250578,0.05872207,0.059487298,-0.012276676
0.016167914,0.06367008,0.015428841,-0.019167094,0.005311507
-0.009520716,-0.016097084,-0.02318347,0.00013196458,0.01601013
-0.032380432,0.021457937,0.041869886,0.024428714,0.032460127
0.0012685428,-0.009551145,-0.006069468,-0.012094263,-0.019057369
-0.022507835,-0.003813751,-0.032013346,-0.029758349,-0.025038963
-0.010027167,-0.008024291,0.020932749,0.021594295,0.013779163
0.051772177,0.08691374,0.011348811,0.04357692,0.027018191
0.090070166,0.09089863,0.06195838,0.004618951,0.028023478
0.042678397,0.03325182,0.018007495,0.017225187,-0.035398144
-0.037274815,-0.0320427,-0.040610038,0.007489066,-0.017799018
0.016320512,0.024980962,-0.0027791245,0.055935286,0.028177952
0.005354328,0.055971354,0.045150828,-0.013158276,0.026890652
0.07252602,0.07286256,-0.024065765,-0.006957809,-0.014102111
0.031233417,-0.026114756,0.0022595455,0.044519346,-0.014033735
-0.040276803,-0.0072630392,0.0281752,-0.030546876,0.021534443
-0.054452978,-0.029327765,-0.04152958,0.052183207,0.047010496
0.04721443,-0.015029592,0.008981615,0.07917563,0.06645053
0.04002269,0.083264664,-0.00034560912,0.032967757,-0.04075935
-0.030513324,-0.0037931225,-0.01968991,0.0071220393,-0.03578398
0.012367854,-0.013541062,0.016427292,0.0064262394,0.017874995
0.049986903,0.006817529,-0.011628292,-0.0049606096,-0.0023025067
0.0007967503,0.0034717566,7.7499775e-05,0.00020061107,0.013166033
0.038255714,0.032970846,0.010143227,-0.046091314,0.01824286
0.03903922,-0.014242975,0.02506224,-0.04152454,0.017920058
-0.017384423,-0.040442612,0.032370448,0.032997347,0.014839975
-0.023984805,-0.012657331,0.039283294,-0.013542746,-0.03654591
-0.03283351,0.03456253,0.017611908,0.04712079,0.028940246
0.015760725,0.037970327,0.013288295,0.028417585,0.002071729
-0.018820204,0.029091422,0.04392872,0.022844875,-0.03346596
-0.041676126,0.03541687,0.053748094,-0.018087659,0.04912542
-0.043621074,-0.040150706,-0.0051400647,0.0020742705,0.017717863
0.044446077,-0.03003748,0.028771495,0.0102774855,0.010775599
-0.023462737,-0.042567626,-0.008943608,0.011177656,-0.009493965
-0.013843314,0.025922142,-0.037937455,0.030557958,0.037610743
-0.019823436,-0.002562033,-0.010544944,-0.036106236,-0.0025784576
0.019124705,-0.0114587,0.025079064,-0.038389158,-0.0045807348
0.0477823,-0.033837143,-0.009220904,-0.034523647,-0.010189422
-0.018176215,0.009430088,-0.017511705,-0.066732295,0.024828661
0.007461686,0.019485941,0.0060490044,-0.05000813,-0.02786531
-0.03171925,0.0242148,-0.030621879,-0.028198354,-0.014296516
0.050767824,0.03323233,4.7001027e-05,0.0015730128,0.006068265
0.037180137,-0.0104099205,-0.018273072,0.02896088,-0.029626742
-0.014210465,-0.02486619,0.04106522,-0.025988111,0.0026531732
-0.008688601,0.040556416,0.019693643,-0.012857496,0.038766142
-0.010922118,-0.03278089,-0.0044278246,-0.053658545,0.0060167206
-0.022856614,-0.0017542101,0.012194614,0.015324955,0.023324577
0.0029932053,-0.03210027,0.0070132287,-0.021430548,0.0039015322
-0.036855295,-0.042401403,-0.02676122,0.041941203,-0.019338366
-0.015187356,-0.019434806,0.035120804,0.04125713,-0.017601583
0.011431262,0.025923258,0.019091707,-0.02788278,0.024202382
-0.00013327395,-0.0069450266,-0.006931121,0.033991795,-0.018647142
0.006014987,-0.02290786,0.022526992,-0.034017295,-0.025939522
0.034869503,-0.011987007,0.029899685,0.028578682,-0.004971073
-0.035271022,-0.01064735,-0.019222684,-0.0133886095,0.016028969
-0.03427568,-0.03493847,0.004009834,0.034477133,-0.02436449
0.010749946,0.042629022,0.012131461,-0.017483035,-0.067421876
0.01973854,-0.014107396,-0.010918582,-0.07144723,-0.055998515
-0.03748104,-0.0733776,-0.028024903,0.0015232445,-0.02881753
-0.019859431,-0.0048489296,-0.020882305,-0.023268698,0.025854247
-0.048596136,0.014547043,-0.037448328,0.022163188,0.027988266
0.005598697,0.02760173,-0.0066394233,-0.026703453,0.008807813
-0.0125405425,-0.020520195,0.057010986,0.022453042,-0.02469353
0.01563416,0.044082195,0.04407724,-0.023068033,-0.021310851
