0.04271852,0.030553944,0.0162719,-0.018285146,0.019142753
-0.009990401,-0.017990185,-0.0036067541,-0.03680783,-0.005888105
-0.043460704,-0.018182853,-0.037948806,-0.0021968714,-0.027882233
-0.005714748,0.0029770941,0.01773525,0.03828172,0.013685094
-0.034157753,-0.006698932,-0.01269662,-0.0049521956,-0.029885463
-0.018312668,-0.04426258,-0.042730194,0.017232757,0.009020108
0.03457084,-0.039832268,-0.02122359,0.012056881,0.0116306245
0.017882612,-0.027211048,-0.01640321,0.033227444,0.0067394003
-0.0025415746,-0.036420345,0.020624883,-0.030514056,0.0050768475
-0.022164276,-0.00083488744,0.010681247,-0.025997251,-0.0100871455
0.038132925,-0.022178577,0.028708983,0.0132068675,-0.026372822
-0.031807512,-0.016993616,0.008491675,-0.007465424,-0.032867514
0.009403043,-0.024272934,-0.015413954,-0.0026951476,-0.012138069
0.025878007,0.032787047,-0.043633293,-0.0012403824,-0.002174238
0.012934132,0.026524976,-0.03801556,0.014875489,0.03813065
-0.03871587,0.0062364102,0.011258108,-0.013221207,-0.028044207
0.042283192,-0.019393787,0.017851572,-0.008102376,0.016721759
0.01639983,-0.03190435,-0.019204278,-0.026983863,-0.029755076
0.017570686,-0.004361145,0.035696514,0.015991617,0.03127728
-0.037143722,0.011074113,0.03574746,-0.027513009,-0.014584176
-0.04274373,-0.03871559,0.015794037,0.024569595,-0.01450722
-0.022327373,0.033863153,0.004405415,-0.007619036,0.015247351
-0.040327482,0.012641365,0.0009803019,0.03175479,-0.0017751593
0.03704719,-0.02204394,0.019436413,0.033530302,0.014707687
0.016994558,-0.04147261,0.012077125,0.021004122,-0.025593815
0.015152526,-0.010347087,0.007891646,-0.02960779,-0.02673121
-0.04488481,0.024107276,-0.034915894,-0.016191613,0.021505587
-0.03734575,-0.032714885,0.011211671,-0.013973068,-0.030054055
-0.015870111,-0.0022258048,-0.037032027,0.020934723,-0.04154982
0.039472997,-0.0018503098,-0.043516036,0.0400781,-0.01097027
-0.03361019,0.019616144,-0.042612508,-0.026267666,-0.012218433
0.011273344,-0.024889372,-0.042087533,-0.024237018,-0.041271318
0.026543751,-0.014835491,0.017768335,0.046052344,0.03780368
-0.0047801887,0.047107607,0.03159093,0.029312214,0.029590925
0.01527337,0.014643817,-0.01836953,-0.025539625,-0.031070594
0.037490815,-0.011822033,-0.0387081,-0.02863262,-0.036307707
0.026363324,-0.0010515508,-0.020281553,0.023828972,0.035092786
0.028991958,-0.0104923425,-0.03392291,-0.045465395,-0.035060514
-0.0453745,0.0057199853,-0.018689016,0.036795508,0.03553146
0.031135611,-0.022782423,-0.024770034,-0.03696193,-0.033494715
0.019097567,-0.013054196,-0.027381567,-0.01020829,-0.0009839934
-0.016244197,-0.006037643,0.019497057,0.021828875,0.036517408
0.008866097,0.024549723,0.04172756,-0.01868515,0.02908303
-0.0022843315,-0.035500936,-0.017187743,-0.04628197,0.034011815
-0.035341337,0.03372933,-0.044434596,0.035439603,-0.016049687
-0.021341437,0.041193243,-0.027304262,-0.003618148,0.028999344
-0.00032734062,-0.03188587,-0.0101721715,-0.038275477,0.041048575
-0.04273951,0.010930629,-0.02034089,0.015049088,-0.02739244
0.025128081,-0.03355491,0.039972555,-0.04252249,-0.012424979
-0.021038974,0.01652724,0.015975494,-0.010955482,-0.008951764
0.007325531,-0.0012774469,0.0007913985,0.030546244,-0.037787464
-0.029524583,0.017960265,0.041054506,-0.033041585,0.01408406
0.013631086,0.03282943,0.0094604185,-0.009058676,-0.0376194
0.037125453,0.019743023,0.02454115,0.033698935,0.04533804
-0.042639967,-0.014586942,0.016886726,-0.03406102,-0.019267762
-0.026900986,0.036876354,-0.03487396,0.03650488,-0.002580428
-0.022837956,-0.021541158,-0.045604292,0.02140606,-0.0252187
0.013228902,-0.016587378,-0.036785863,0.01260612,0.013887339
-0.01658924,0.017935492,0.018251088,0.02176973,-0.01678177
-0.005935792,-0.03236251,-0.013337802,-0.008114668,-0.002346731
0.043521345,0.039958533,-0.009757431,0.013028547,0.024864106
0.003783278,-0.045028225,0.03305192,-0.018013416,-0.014424517
0.011909246,-0.014118722,0.0052475105,0.012333464,-0.038994882
0.043760728,0.032955177,0.010028373,0.02445689,-0.0419655
0.037592314,0.028421078,-0.040875714,-0.012147726,-0.0051452434
-0.007272181,0.020276697,0.009372654,-0.007426525,-5.4927044e-05
-0.041887127,-0.023122488,0.035629466,0.012904688,0.010353958
-0.024977675,-0.04086211,0.001427836,0.039391737,-0.003984546
-0.028196279,0.025784489,0.009489826,-0.006130468,0.013760365
-0.0036262828,-0.00806475,-0.00033581594,0.020183178,-0.038392562
0.040154334,-0.0100662345,0.0036424112,-0.023632726,-0.024719886
0.03488318,0.037217237,0.029977426,-0.012938636,0.006498152
0.043042853,0.026608877,0.03067143,-0.036249857,0.008580652
-0.04554158,-0.026053684,-0.04672395,0.009894461,0.023773214
0.03415395,0.024026815,0.034145515,0.032222807,-0.025489554
-0.012016847,0.0015028077,-0.037942264,-0.0068234284,0.009554056
-0.030909164,0.015291208,-0.029575752,0.039823253,-0.025135834
0.03936003,0.017467404,-0.025125926,0.037931312,-0.035293132
-0.008325481,0.011436865,-0.028293455,0.03462659,-0.0059256805
0.0040038247,0.024013542,-0.023866946,0.029745826,0.018833049
-0.0013630851,-0.019320946,-0.018147187,-0.0056742034,-0.012526456
-0.046821304,0.02644893,-0.010772959,0.03503802,0.0004581676
-0.03276723,-0.007984334,-0.03611321,-0.035697058,0.035898503
-0.010374653,-0.031578764,-0.0061329436,-0.019378036,-0.037643664
0.03087358,0.03521124,0.008948806,0.03235057,0.014564688
-0.034550074,-0.0010572213,-0.007841533,-0.00049450505,0.0071809315
0.029131869,-0.019715799,-0.0227752,-0.021760779,-0.030257402
0.04332894,-0.03972528,-0.034565106,0.026753962,-0.018152583
-0.02358328,0.022053447,0.0008374455,-0.017585473,-0.04559746
0.010028409,0.0058293394,0.027601132,-0.029154088,-0.036993884
-0.032502666,-0.036524706,-0.0018972195,-0.0141238,-0.033553414
0.036675543,0.028541183,-0.00327941,-0.03387981,0.026576392
-0.026107652,-0.013762429,-0.01342977,-0.010232243,-0.014302194
0.028878428,0.043902095,-0.011796189,0.023668503,-0.0034227937
-0.02194126,-0.03477525,0.0015045321,-0.03331683,-0.036152553
-0.018073095,0.030539183,-0.0048215557,0.003801167,0.029453825
0.03123312,-0.01609992,-0.024237297,-0.025658507,0.007293046
-0.017537534,-0.012247557,0.03181629,0.00075254194,0.020841839
0.044925995,-0.017359277,0.006355298,0.0438633,0.022729646
0.019722307,0.028223326,0.032329325,-0.012229113,0.038475085
