-0.0019841243,0.011534885,0.0067927553,-0.006584922,-0.02308478
0.0070754034,-0.0155128045,-0.003490531,0.049770847,-0.00625702
0.014939428,-0.031260263,0.01234882,0.022614934,0.015099566
0.04678712,-0.010778326,0.003833681,-0.020579323,-0.016507158
0.03718936,0.05432909,0.0036600311,-0.026042921,0.020256234
-0.0018124825,0.04505803,0.03495262,0.015805958,-0.016149353
-0.0184551,0.056184154,0.005614097,-0.0005490104,-0.014655713
0.028533548,0.052606706,0.016087623,0.03341582,0.007709918
0.044559658,0.024832742,-0.050896056,-0.01986735,-0.0018692488
-0.03718813,-0.057935018,-0.005570557,-0.028296372,-0.035735466
-0.018222392,-0.0037443356,0.017183414,0.010121644,0.00038107525
-0.0046377713,-0.003449442,-0.030868484,-0.0019379627,0.038272124
-0.04489931,-0.0058170324,0.0024297705,0.056958776,0.0025607643
-0.029653084,0.056765426,0.06901187,0.059211403,0.01620665
-0.0043944744,0.018988466,0.03421641,0.00046159624,0.011168094
-0.05370853,0.01498609,-0.007804514,0.022857757,0.046030004
0.012211881,0.012523533,0.07110924,0.049242627,0.0017711635
-0.014999681,0.076628104,0.063847646,0.04322446,-0.013937558
0.022487072,0.026543444,0.0441902,0.0025168073,0.010747188
0.03157181,-0.02760459,0.0090163825,-0.03874566,-0.057460777
-0.024865603,-0.0035752452,0.010933094,-0.06412575,-0.0058062593
-0.0004789293,0.014212626,-0.013447062,-0.050946467,-0.06129812
-0.025230123,-0.033680752,-0.052084997,-0.034482263,-0.0067270063
0.004304751,-0.0008197091,-0.0507961,0.0018420594,-0.022407444
-0.03733723,-0.0075407955,0.0014953598,0.045926582,-0.021536244
-0.015941216,-0.012207506,-0.022889497,0.060857195,-0.004671367
-0.07327906,0.023321537,0.08711398,0.069534466,0.076878086
0.043036867,0.04216233,0.09224601,0.020827243,-0.026171649
0.0655059,0.020552002,0.018757313,-0.05721893,-0.024905829
-0.0221723,0.016049132,-0.043944128,-0.044791,-0.06203379
0.0075284187,-0.0086400155,-0.050594166,0.020438334,-0.022558048
-0.04283462,0.00017641131,0.058990527,0.086226635,0.076266386
0.00521255,0.027838413,0.07025287,0.057734367,0.013987997
0.0635004,0.04748067,-0.02431414,-0.004923977,-0.020348271
0.006070242,-0.020380782,-0.047004092,0.008837063,-0.034911502
-0.042997535,-0.0433939,-0.034954805,0.014995538,-0.04765958
-0.011090835,-0.030624619,0.012341513,0.009670757,0.032559674
-0.039752956,0.016501533,0.046920937,0.032421205,-0.0154375965
0.010272831,0.030535182,-0.031462163,-0.02295994,0.021100214
0.04336752,0.021882236,-0.023717776,0.00843817,0.04596321
0.0077474094,0.036639277,-0.012389866,-0.016671158,-0.027360888
-0.037500046,-0.014807098,-0.021272706,-0.018166553,0.01392587
-0.025294889,-0.04798411,-0.036150146,-0.048730884,-0.027571553
-0.080056466,-0.071920946,-0.0716904,-0.0019850081,-0.032749306
0.010208245,-0.036447633,-0.0082246335,-0.015420011,0.013669256
0.008979686,-0.012779123,-0.037098307,-0.009885314,-0.012006034
-0.036755554,-0.048787203,-0.06060851,-0.05333248,-0.034348313
-0.03829149,-0.018813737,-0.002762138,-0.008692179,-0.011010558
-0.05464826,-0.036312014,-0.026294433,0.015882159,-0.030982424
-0.02721704,0.028861145,-0.023823567,-0.03906136,-0.0020986644
-0.03742772,-0.021727486,0.010291804,0.029825918,-0.0058655166
-0.026499014,-0.031062022,0.011472219,-0.027723176,0.010693459
-0.0060626906,-0.031544212,0.0033935108,0.019878736,0.010010453
-0.037349083,-0.039129958,-0.025549136,0.00014873834,0.011881239
0.01496149,-0.03683662,0.04380416,-0.00087125204,-0.012510953
0.04124835,0.022188378,-0.051413298,-0.0034185918,0.016512904
-0.04961714,0.010794909,-0.030413568,0.013688419,0.020812547
-0.036350667,-0.037964042,0.036049075,0.004383908,-0.0061473344
0.031178987,0.031257432,0.022079144,0.047665935,-0.03489569
0.04243214,0.011816433,0.025570603,0.0069514397,0.01719078
0.014279097,0.024495697,-0.033448346,0.021456705,0.016497912
-0.037349656,0.03716381,-0.04101869,-0.021355744,-0.042002637
0.024260245,0.027904544,-0.02417827,0.040080115,0.0050754915
-0.041992564,0.031473104,-0.02544817,-0.02773215,-0.032436557
0.02531601,-0.03731102,-0.0012697245,-0.0142490305,-0.022212371
0.037550665,0.00345871,0.013184629,0.009878043,-0.004185531
0.026955754,-0.04623588,0.028287211,0.043080755,0.03240928
0.014683415,0.011080547,0.030424654,0.0021914602,0.028415846
0.02106505,0.0019233464,-0.0031433492,0.013279347,-0.03889022
-0.042135883,0.012319688,-0.018743096,0.0071151205,0.023148427
-0.00041090665,-0.018028518,-0.02256474,-0.064376615,-0.023354633
-0.027531851,-0.020199107,-0.008038884,-0.0649477,-0.039495353
-0.044989984,-0.038663775,-0.031603865,-0.069963835,-0.013980856
-0.020352319,-0.016877607,-0.010405965,0.0061132535,0.0034934252
0.02267499,0.053483386,0.050038796,0.038376577,-0.008568809
-0.026242364,0.032103665,-0.03067151,-0.020143371,-0.007840879
-0.037544504,-0.044777814,-0.0121507915,-0.009964704,-0.018320136
0.031804703,-0.0069561563,-0.027803194,0.018704547,0.019657921
0.042777702,-0.045728266,-0.004382304,0.003225935,-0.014349802
0.0011166107,0.002284437,0.02409225,-0.0011733255,0.008844192
-0.026284315,0.042539895,0.047113273,0.04457022,-0.017369203
0.035895012,0.048256204,0.0164715,-0.0025259713,-0.025541216
0.037129544,0.052277107,0.07208151,-0.017387455,-0.043270428
0.02052019,0.027090752,-0.028735721,-0.02752642,0.010065024
-0.002794163,-0.004924463,-0.052956674,-0.049267508,0.022059742
0.025266709,-0.00027188554,0.025102682,-0.04896584,0.0073757246
-0.017342027,0.03547484,-0.012407516,0.026541585,0.027377974
0.02507645,-0.006558938,-0.015568379,0.027066324,-0.019678757
0.011401538,-0.034419898,0.015229705,-0.00813097,-0.0025364507
-0.026807196,-0.034110986,-0.0060098367,0.043297824,0.0037830116
0.03621991,0.0026034147,-0.030825168,0.037557017,0.03251157
-0.021263925,-0.009583171,-0.048907164,0.02489885,0.024752822
-0.076711796,-0.011114332,-0.012646543,0.04442974,-0.025301397
0.0107184695,-0.009515786,0.047162343,0.039998632,0.0053788093
0.06821627,0.03596454,-0.025073167,0.015962264,-0.055725235
-0.03121306,-0.03965647,-0.0017268272,-0.013197853,-0.054360475
-0.00071693474,-0.04319015,-0.013846168,0.019194957,-0.055502396
0.01020677,0.019359028,-0.036295395,0.02997998,0.025463708
-0.0099743,-0.04181606,0.025658919,-0.021208236,-0.02031424
-0.013609562,0.036253136,0.0040220134,0.03205037,-0.01905707
