0.0216921,0.044501476,0.00016854309,0.0062517077,0.01142432
0.019700557,-0.03429456,0.04128816,-0.0005085771,0.028064488
-0.0007285385,0.020074293,-0.028671049,0.008063894,0.0083331335
-0.039302636,-0.0051116445,-0.029520694,-0.04031856,0.035729893
-0.030714119,-0.045650132,-0.04070757,0.040022686,-0.040041167
-0.017695293,-0.02605796,-0.0362481,-0.033887085,0.021202402
0.03662538,0.053697903,-0.024356114,0.04055975,0.0043184566
0.025335835,-0.017440982,0.047554795,0.043766137,0.004557359
0.04278768,-0.010948914,0.025190288,0.001977341,0.048708595
-0.029289924,0.01587221,0.0019722208,-0.018322738,0.016084375
-0.04360424,0.047771145,-0.009622486,0.020756846,0.0053544487
-0.03615889,-0.010862474,-0.030498883,-0.02728357,0.03785002
0.030064369,-0.029962476,-0.026214875,0.004087215,0.047524843
0.001171717,-0.009938346,0.032662258,0.028896281,0.012410561
0.031059897,-0.00030656692,-0.011306847,0.022920715,0.033881776
-0.008317343,-0.012583022,0.010905823,0.018000722,-0.009479258
0.004670062,-0.009749716,-0.03463047,-0.034123648,-0.013852258
0.018515632,0.03177025,-0.034618508,-0.04070809,0.039905764
0.014371159,0.01767546,-0.03894095,-0.035700496,0.0070804595
-0.037633184,-0.043315224,0.003538092,-0.020478271,-0.015207319
0.0287541,0.030824311,-0.035536256,0.0030380462,-0.0017407138
0.0050644763,0.0057184845,-0.028069317,0.01173977,0.046071846
0.035976082,-0.03200835,0.045228932,-0.04275653,0.0072067133
0.0076598753,-0.033663634,-0.04099733,0.017472718,0.021111853
-0.024500612,-0.024142921,-0.03867285,-0.0046114167,-0.03582546
0.0011576501,0.018277228,-0.027635407,-0.025577283,-0.0014670595
0.034483127,-0.03024016,0.030952077,0.04234787,-0.009413026
-0.02899849,-0.035144527,-0.029572899,-0.029648062,-0.0021702074
-0.022789283,-0.019342784,-0.030297494,-0.013291647,-0.022553837
0.002460441,-0.013350591,0.02702287,0.022169,0.03646056
0.009410851,-0.01717718,-0.029637977,0.007625521,0.015098642
-0.0012786402,-0.017406417,0.009229239,0.033035785,0.03776561
-0.03237585,-0.03165584,-0.02136918,-0.020912586,-0.019639613
0.039861653,0.007844074,0.03842692,0.016125325,0.01768511
-0.013092583,0.010150208,-0.0117264185,0.030409059,-0.026556483
0.0007618811,0.019923609,-0.042562522,-0.013824989,-0.01568348
0.011231252,0.009566234,-0.029065492,-0.010247781,0.026153093
0.040556528,-0.04144745,0.023288697,0.011459022,0.021484526
0.020095492,-0.020688025,0.044290975,-0.004830336,0.03838834
-0.033906206,-0.0284951,0.023899257,-0.02260976,0.023004642
0.04322659,-0.025799781,0.013600335,-0.026742648,-0.0032430075
-0.014324914,0.031606134,0.010861257,0.0108602075,-0.017338127
-0.026930828,0.027477881,-0.019315911,-0.01294769,0.04696474
-0.034833964,0.021802882,-0.015015388,0.037025772,0.04054696
-0.007981413,-0.026595293,0.041192885,0.025549037,-0.040505946
-0.02292789,-0.013497288,0.018459383,0.03333378,-0.024533039
-0.008888353,0.013354224,0.04516851,0.015055126,-0.01446145
-0.014104821,-0.04483266,0.009425964,-0.016096251,0.035268534
0.009003821,0.0077175717,0.010955911,0.008479961,-0.021026246
-0.03216799,-0.015982669,-0.03381432,-0.03035993,0.04884304
0.022352552,0.021191867,0.008496601,0.03908864,0.0036927299
-0.017251454,-0.024459649,0.034742355,-0.014507839,-0.00680153
-0.021643696,-0.044657096,-0.017771482,-0.0053503243,0.0062769866
0.037047174,0.036692373,0.016446883,0.030574212,0.0105831865
0.022335395,0.043128308,-0.003534355,-0.022319572,0.020293312
-0.033226974,-0.018290415,-0.041812025,0.020302441,-0.016799755
-0.026941154,-0.021328438,-0.018850772,0.024272714,0.05131891
0.033170186,-0.0463374,0.005123728,-0.008195135,0.0679087
0.040563934,0.037455123,-0.016249605,-0.02204995,-0.0016848993
-0.017365085,-0.012049645,0.018676657,0.028313322,0.048901845
-0.0007072004,-0.00230242,0.0065023215,0.0034951535,0.041891742
-0.0050688614,-0.00507205,-0.016433239,0.02849981,-0.025674693
0.0060189315,-0.0051359925,-0.0033590891,0.01481226,0.056556705
0.023992883,-0.020311862,0.024051555,0.025468705,0.00960834
-0.024377283,0.011476458,0.011929319,-0.03254838,0.008975174
-0.029832028,-0.02662899,-0.007602818,-0.02355306,-0.036445744
-0.0009615069,-0.03812056,-0.04564819,0.00052157085,0.03775376
-0.000754529,-0.011838015,0.014185815,0.037639063,-0.006240399
0.013780311,-0.031101815,0.008222422,0.049996935,-0.027486656
-0.0074003916,0.008294828,-0.0036887426,0.024793256,0.01919035
0.04090597,-0.001363759,0.0055364147,-0.018058745,0.0122755505
-0.025451614,-0.009052637,-0.027027743,0.006361624,0.039610542
0.03183606,0.012682231,-0.0313294,-0.019060502,-0.045565773
0.01273823,0.020057304,-0.0012715405,-0.015167406,0.022519045
-0.001956052,0.05036759,0.00952852,-0.01412243,-0.032771375
0.027292345,-0.03229743,-0.028366603,0.03599345,-0.017793141
0.037193894,0.04489386,0.05115131,0.015670406,-0.045457326
0.018233571,0.008166465,0.017079782,-0.013015224,-0.02229334
0.0009291208,0.04400611,-0.004987743,-0.029462947,-0.022921912
-0.04624087,-0.03571832,-0.001736232,0.035500124,0.008434709
0.002957092,0.052640654,0.047185667,0.0076860846,0.012495603
-0.032743134,-0.00607436,-0.0025111327,0.014630374,0.0153249735
0.018347217,-0.035284054,-0.008189104,-0.026914313,-0.005968665
-0.030318936,-0.0064236387,-0.020217687,0.032953862,-0.04476387
-0.00916551,0.03428747,-0.015629554,-0.047194615,-0.037754968
-0.03993299,0.013105509,-0.031493124,0.009999118,-0.021497296
0.046267573,0.0018904785,-0.016238034,-0.01591887,-0.005328227
0.019141821,-0.038617626,-0.016961467,0.039906118,0.026878035
0.023113605,0.01898775,0.018151198,0.02939179,-0.042634595
-0.0043829563,-0.02054207,-0.033183075,-0.034702457,0.0035880061
-0.03524053,-0.037136544,0.008317538,0.015678225,0.023751393
-0.013522409,0.0007518266,0.016000293,-0.0050476883,0.005779286
-0.014262864,-0.024952976,-0.019694798,-0.021622553,0.010973136
0.04241339,0.047033098,0.043465216,-0.038209654,-0.0029801806
-0.03130636,-0.034019276,0.045227747,0.017756768,0.006783381
-0.010362599,0.033553172,-0.028256282,0.017588967,-0.021655152
-0.02433125,-0.024740538,0.0345105,-0.013120423,-0.021484205
0.024430923,-0.029085875,0.01484351,-0.021463286,-0.025377503
0.044146057,-0.02226966,0.04307997,-0.0063105323,0.030732598
0.021308199,-0.0456314,-0.02946378,-0.017378548,0.0018490313
