0.018435262,-0.017470771,-0.031031104,-0.03894494,-0.028756734
-0.029105928,-0.009863192,-0.02470666,-0.020321641,0.018525222
-0.024347747,0.02714976,-0.015087941,-0.0419058,0.027124941
0.02394458,-0.040638406,-0.02977219,0.016713018,0.028700402
0.013156085,-0.03750678,0.012198346,-0.032735776,0.03326516
0.0057646176,-0.02357375,0.0009988848,-0.026660062,-0.005615831
-0.018747767,-0.04911516,0.027579103,0.0092353225,0.025776094
-0.026099266,0.026367184,0.0035019466,-0.03432589,-0.015526452
0.012813958,-0.028339257,0.0045276047,-0.02065769,0.0005975287
0.05202436,0.012892531,-0.007037381,-0.0020679128,-0.008666614
0.029210212,0.019039072,-0.029355414,0.02398183,0.0026598384
0.039909855,0.0038720937,-0.02769345,-0.04385343,0.006460407
-0.020182872,0.015955083,0.02207834,0.035855025,0.02768199
0.028538087,-0.029153245,0.042872544,0.0060557052,-0.016059112
0.007080574,0.01943453,-0.0017908157,0.036068365,-0.030759798
0.037814904,-0.028698698,0.019868918,0.02530308,0.01485106
0.013583165,0.036640316,-0.034727454,0.031452827,-0.03974169
-0.0014532034,0.04295625,0.009398211,0.041030917,0.033664703
0.00089620106,0.02284194,0.028791534,-0.011281355,0.02596052
-0.04444621,0.014664619,0.032793082,-0.016412828,-0.036010187
0.044915605,0.02171108,0.024047164,-0.008271367,-0.0015826774
0.0331643,0.03964774,0.022966336,0.03104309,0.0387029
0.033655126,-0.022703972,8.052438e-05,-0.027738918,0.015069581
0.030600857,0.0010949135,0.044166777,-0.036776222,-0.0021487933
0.010975333,0.037279803,0.031668402,0.013524088,-0.018944927
0.04263171,-0.02517384,0.02782386,0.014699531,-0.015751941
-0.0006828334,-0.029183682,-0.016273573,-0.036554363,-0.017753884
-0.028910328,-0.023583325,-0.015369802,-0.031441968,-0.022996645
-0.0036377346,-0.0063905143,0.014547996,0.01574442,-0.033793066
0.040969066,0.0069144573,0.009586642,0.04049249,0.023939345
0.010749968,0.010371166,0.00921011,0.038423583,-0.009444669
0.008134905,-0.045111146,0.01918288,0.005403762,-0.03312385
-0.033377443,0.023598347,0.033899263,0.013098472,-0.018112749
-0.03044665,0.034355965,-0.0032335238,-0.0019161294,0.04839304
-0.05062914,0.0039187646,0.010232147,0.030708075,-0.02760019
0.013068309,-0.019968612,-0.04195226,0.034399875,-0.004553782
0.022158075,-0.023812955,0.014880925,0.021521237,0.0490511
-0.02373286,-0.040585816,0.0286604,0.04711648,0.019006774
-0.018587463,0.028220583,0.044919074,0.010794039,-0.03429123
-0.024056386,0.03640509,-0.02124661,-0.013708232,-0.024961444
-0.01869814,-0.035361502,0.008190909,-0.00853449,-0.040924914
0.027495956,-0.03714928,0.018365959,-0.02920351,0.011764305
0.0024245568,0.048256584,-0.034416344,-0.019779122,-0.0028992712
0.032222223,0.012344582,0.021586988,0.029136429,0.0027331498
0.012087515,0.009110742,0.034991894,0.029571135,-0.036685806
-0.03600569,-0.034064144,-0.0050287754,0.018996079,0.028112845
-0.017196339,-0.019986335,0.023537809,-0.00990781,0.02735966
0.044245195,-0.03320505,0.036404524,-0.021337641,-0.024053087
-0.019333797,0.01613096,0.038242467,0.0012416047,0.023088116
0.008050777,-0.0025393723,0.046835594,0.044600368,-0.0027006757
-0.011401707,0.033326082,0.039032634,-0.010060269,0.030980047
-0.024877371,0.003970019,-0.016778206,-0.027346827,0.031499684
-0.0230739,-0.009788829,-0.03439934,0.011608013,0.027520122
-0.04569926,-0.028153123,0.0148834875,-0.044924717,0.0070402944
-0.037688978,0.0039243666,-0.017753962,0.021711439,0.02007954
0.023408167,-0.007098572,-0.021942502,0.017852385,-0.008336804
0.061589602,-0.013095077,-0.024704225,0.0053900415,-0.018214315
0.015719224,-0.022362009,-0.015391033,0.020820018,0.034976173
0.02352803,-0.02957892,-0.005089905,-0.013173851,-0.018944973
0.039046407,0.027150216,0.017273407,-0.0023197846,0.014853718
0.005171097,-0.033856872,-0.006683411,0.046569444,-0.03624823
-0.036846302,0.02957193,-0.010855471,-0.041589785,-0.0223503
0.007100398,-0.019687876,-0.029143427,0.009490059,0.014398806
-0.022980535,-0.004922612,-0.017027695,0.052022066,0.057227835
0.02692767,-0.021431053,-0.023102626,-0.0035455816,-0.031893015
0.010880488,0.04581464,-0.0015128162,0.02763327,0.04470503
-0.009502215,-0.0054648654,-0.037744693,0.01550246,0.04328409
-0.032729447,-0.025956273,0.044268288,-0.032245237,0.022745898
-0.02657053,-0.011116695,-0.0078419335,0.028836275,-0.030894741
-0.033235088,0.00871473,0.0057590306,-0.020647906,-0.03569336
-0.031635433,-0.01789343,0.053569604,-0.031204158,0.03820254
0.002602873,0.011469172,0.04202694,0.024130864,0.016852612
0.004827134,0.013245324,-0.013145464,-0.027316106,0.0047495873
-0.042246975,-0.013553726,-0.021752048,0.033023834,0.03656679
-0.007192331,-0.04135746,-0.014321847,0.0015352885,0.02522271
0.024734506,-0.024435686,0.017775629,0.03799834,-0.00640297
0.006696707,-0.042140946,-0.029276052,-0.0397374,-0.040194288
-0.03986074,-0.026995337,-0.03525934,0.028479295,-0.037476126
0.028985431,-0.0015521153,-0.010674428,-0.009378455,0.009096731
-0.01577651,-0.03380369,0.0072250166,0.030504005,-0.027546268
-0.010878032,-0.012532677,0.058321066,0.03264121,-0.016958488
0.03667652,-0.02975689,-0.007992511,-0.025158862,0.021345705
-0.0008355582,0.040720727,0.00848878,0.016998302,-0.03008747
-0.028489726,0.048812862,0.010714263,0.04623469,0.0148171885
-0.028731352,-0.03975214,-0.0180338,-0.0035172035,-0.014202492
0.0020002096,0.024308333,0.0042010173,-0.024388429,0.0416875
-0.0195063,0.043402296,-0.022448849,-0.0034176435,0.04393416
0.026548257,-0.008961526,0.040099323,-0.0115888305,-0.028890187
-0.047451258,0.013437568,-0.019523961,0.034030594,0.008579685
-0.032326616,-0.04272255,0.043343756,-0.018630628,0.012340545
-0.03290429,-0.034989964,0.009481556,-0.00703262,-0.003361856
0.038754776,0.022560311,0.008764903,0.042119786,0.0051832045
-0.014670021,-0.010088631,0.027269924,-0.030927239,-0.03176074
-0.010617502,-0.028916564,0.012848992,-0.0019935626,0.0035616218
0.02833956,-0.0027279153,-0.006891921,-0.03603606,0.011728286
0.013363208,0.0072693313,0.01803374,-0.033948883,-0.039857425
0.041284412,0.011290644,0.035369925,-0.008767631,-0.027015144
0.0050105243,0.04578222,0.016156517,0.04300192,-0.021411669
0.033623774,-0.00441727,0.02137939,0.010159922,-0.003002388
0.031662755,0.029390298,0.007319834,0.012596147,-0.012973495
