-0.0040584668,-0.021613725,-0.028403612,-0.003496314,0.032228235
0.0562579,0.028084703,0.014136101,0.04617611,0.031611256
-0.015315162,-0.013246378,0.024165196,0.03415549,0.022060758
-0.021779539,-0.048000354,-0.04630835,-0.028676897,0.030927317
-0.052032568,-0.034464233,-0.02403154,0.0047642495,-0.03778857
0.04082862,-0.013253181,0.030644154,0.023036039,-0.018244918
-0.031938568,-0.03788701,-0.008908798,0.008116966,0.033813853
-0.02827307,0.015416074,0.013877893,-0.030700756,0.017333386
0.0125784585,-0.02462297,-0.06312824,0.044780932,0.018661866
0.0011445252,-0.069256596,-0.0040669725,0.038095377,0.06335863
-0.02998466,0.04670542,0.05298483,0.037854943,0.025393924
-0.039743338,-0.020812271,-0.030526815,-0.012363796,-0.02657273
-0.0062702,0.014636175,0.0049306634,-0.070880644,-0.023851117
-0.04694277,-0.058664385,-0.07416018,-0.032494072,-0.029764248
0.028172467,-0.024696866,0.011637322,-0.0438797,0.012703879
0.020794163,0.00932268,-0.026163373,0.0053347037,-0.043379623
0.015029509,0.051920015,-0.023557076,0.00084163464,-0.033800337
0.0097533865,0.0053069536,-0.04196457,-0.048753712,0.022031618
-0.0092625795,-0.021282265,0.030574653,-0.012918681,0.04617119
0.03992648,0.011973642,-0.023175873,-0.0031749138,0.033056397
-0.025905164,0.028925847,0.0025406436,0.035383727,0.028460493
-0.00070141465,-0.0013306192,-0.034926843,-0.013693106,-0.00056637905
-0.04064992,0.03580392,0.019047791,-0.012263294,0.036958937
0.040997513,-0.016313983,0.034295384,-0.047322515,0.008343722
-0.044949286,-0.027073326,-0.031831317,-0.046131786,0.024638811
-0.024089878,0.025248231,-0.034300353,-0.050665792,-0.034218244
-0.04206379,-0.024595536,-0.06285548,-0.04752624,-0.029516444
-0.023406904,0.029186761,0.035268493,-0.03533313,-0.033598963
-0.044776376,0.025391813,0.041763674,0.028550321,-0.01339495
0.037126075,0.053084202,0.0421486,-0.0002766332,-0.029366266
0.013650522,0.044295818,0.013348317,-0.0022182707,0.034056485
-0.028982531,0.054222856,0.031908154,0.030480007,-0.0135713145
-0.032262754,0.0023486514,-0.034303714,-0.007525518,0.016244253
-0.002700102,-0.047503665,0.009551642,0.00793203,-0.030054886
-0.025298148,0.011394853,-0.057765767,-0.06301461,-0.0009913074
0.008256628,-0.028045472,0.04369925,0.033068955,-0.0130194705
0.011909627,-0.022888096,0.040239178,0.010749624,0.031881794
0.0062875906,-0.018991932,-0.038667887,-0.013240585,0.002395823
-0.025211785,0.0006918177,0.021473635,0.008234705,0.029898372
0.012665674,-0.026468428,0.030425029,-0.021331748,0.04691108
-0.01810967,-0.00024993578,0.033414032,0.0046733664,-0.018893415
-0.009198976,0.035520025,0.039730426,-0.013298047,0.043054584
0.034167085,0.023563433,0.0118028615,-0.01915766,0.019559598
-0.03706251,-0.046311606,-0.031484827,-0.057462405,0.004431797
-0.027267318,0.00044241163,-0.031402536,-0.013048281,0.018802708
0.010924011,0.014597937,0.048045125,-0.0027703717,0.04458194
0.04105958,0.012132742,-0.0033332293,0.012936079,0.029960481
0.029197823,-0.03159032,-0.06916974,-0.03359961,0.01983784
-0.023033489,-0.05586152,-0.0036931825,0.011928815,-0.013406355
0.037945185,-0.048709173,-0.042468235,0.042423297,0.028335363
-0.030356104,-0.051889475,-0.049421668,0.010542502,0.022544328
0.01734168,-0.03771151,-0.031983007,-0.03666772,-0.025556922
-0.0006511708,0.033195235,0.059128437,0.023918167,-0.031320542
7.404988e-05,0.013283978,0.005072926,0.009353701,-0.012561652
0.05049278,0.034633864,-0.0034127897,-0.02104922,0.015902927
0.039939478,-0.011400245,0.011020126,-0.043238256,0.031975854
0.020107763,0.02991068,-0.005280596,-0.033157308,-0.02567767
-0.038975608,-0.011669555,-0.021045215,-0.049850952,0.024780877
0.0192359,0.04657006,0.0068623833,0.016280241,0.09969901
0.027147338,-0.042662177,-0.015601404,0.021510815,0.05337661
-0.036053833,-0.007272608,0.013389284,0.004813212,0.04607983
0.013571272,-0.027365265,-0.02056775,-0.0548018,-0.03422963
-0.009634715,-0.053088762,-0.0011945996,-0.058898754,0.005047611
0.025718652,0.016118895,-0.013059993,-0.016575316,-0.038469765
-0.019526225,-0.02814535,-0.039575763,-0.020880923,0.018596489
0.017647581,-0.033533752,0.044111002,0.029939512,-0.004631407
-0.036772814,0.053018913,-0.009343163,-0.0039696586,-0.033948682
-0.013371898,-0.008483697,0.008690833,0.041439638,0.025041007
-0.0235763,0.041741244,-0.026274407,-0.005847166,0.02833514
-0.0316369,-0.015750505,-0.020801565,0.015576254,0.03768464
-0.043853965,-0.003687942,0.006609175,0.009915077,-0.014591744
-0.021214793,-0.035764966,-0.056309063,-0.004955266,-0.02996022
0.0026068287,0.04304859,0.057667766,-0.0029654023,-0.028346162
-0.0014460708,0.034147725,0.038860753,-0.026377475,-0.04122777
0.0020980856,0.023403522,0.0381135,0.02389307,0.017874671
0.053935625,-0.023241566,0.07205531,0.066094436,0.005603615
-0.0039553577,0.06459322,0.063589275,0.03492872,0.05442686
0.012787815,0.040133037,-0.0042480077,0.019701613,0.018025849
0.016392585,-0.04738705,-0.042862073,0.0053560613,0.035032585
-0.060625304,-0.046867177,-0.04277718,0.0370216,-0.04483324
-0.0023998045,0.0601258,0.061009657,0.0036214855,0.043921664
-0.020526504,0.031722806,-0.058891546,0.0046668937,0.024541847
-0.0024135872,0.00090823264,-0.0016598324,0.031572856,-0.036384106
0.020189038,0.010565736,0.02147312,-0.008925674,-0.048500754
-0.040843733,0.016137345,0.038171094,-0.03997367,-0.05506041
0.032775618,0.021941995,-0.025703391,0.037531797,0.027600154
0.04481977,-0.012014091,0.021115996,0.031396035,0.040064305
0.027981218,0.014591226,0.019060336,-0.015483158,0.021759719
0.02854986,0.012974813,0.03095708,-0.025134197,-0.011717354
0.015328142,-0.015060518,-0.023952356,-0.028815005,0.015817447
-0.017343733,0.01145083,-0.005862143,-0.024745028,-0.010834778
0.027770935,0.033737555,0.031435277,0.050875984,-0.009213639
0.031466763,-0.031100595,-0.03523511,0.03630966,0.014550001
-0.028066223,-0.020092728,-0.01096404,-0.02415416,0.017643193
0.011048462,-0.0155905085,0.006257413,0.00011615953,-0.0085240975
-0.019605568,0.046421204,0.036460403,0.019664494,-0.008501806
-0.017650794,0.04637416,-0.006738643,-0.03507638,0.0031858336
0.012530991,-0.042543117,-0.033317268,-0.04597993,-0.0010675236
-0.03546518,-0.01785625,0.011826119,-0.043924734,-0.028523562
-0.00935305,-0.019582052,-0.001701235,0.03806041,0.0135404365
