-0.011852217,-0.02267804,-0.016397396,0.032644026,-0.021742072
-0.03285223,-0.0008473517,-0.047860805,-0.01581171,0.0060157515
-0.049870644,0.028270312,-0.018945614,-0.014982799,0.032999057
-0.015002199,-0.04884181,-0.011911744,0.029128073,0.021161549
-0.017124351,-0.0038453487,-0.04486891,0.018257214,-0.033033714
-0.06072941,-0.060347103,0.017356904,0.081111334,0.024200367
-0.067749545,0.014294446,0.0523504,0.056688387,0.013543107
0.01599128,0.015474323,0.051006168,0.018009393,-0.03453625
0.051234033,0.044726804,0.021285564,-0.030071687,-0.0042684795
-0.011382924,0.008375358,0.017450362,-0.012945509,0.026379008
-0.0054082978,-0.009384706,0.052967634,-0.041088477,-0.004949063
0.07894868,0.0025283846,0.0026385426,0.0146645745,0.04266309
0.023026653,0.013994064,0.0055612754,0.028128348,-0.0037220423
-0.018243536,0.03371852,-0.018943777,0.037237186,0.03554634
0.011091193,-0.028319973,0.028117206,0.022021715,-0.050369963
0.0046454356,-0.07089818,-0.06352328,0.0021649513,-0.0047863605
0.00038975946,-0.029794693,-0.06630918,0.005531918,-0.023904731
-0.056193992,-0.022351403,0.009658932,0.03286763,-0.015836317
-0.06364529,-0.0026320561,-0.024298046,-0.028111463,0.008453636
0.03287101,0.008883696,-0.035360187,0.03440928,-0.015618859
-0.00019317759,0.0014749862,0.083474614,0.0066384966,-0.002769531
-0.045464806,0.08193871,0.029404545,-0.02057712,0.008140544
0.046593383,0.06431237,0.03311069,-0.04638738,-0.015712796
0.020546,-0.02828589,0.014380328,-0.050939474,0.019130837
0.031938385,0.011847668,-0.01791168,0.030083152,0.016841637
0.04412828,-0.030851994,-0.10448892,0.054634307,0.034458213
0.042882644,-0.073514454,-0.028489426,0.08608877,-0.008796393
-0.04695004,-0.041486386,0.04880213,0.08630758,0.0031233449
0.04744536,-0.018457681,-0.0138727985,0.031476207,0.024779726
0.025948351,0.047491673,-0.01948388,0.022017824,0.034329724
0.00039550365,-0.049711376,-0.0716893,-0.020811433,9.915189e-05
-0.026511732,-0.081590086,-0.059585605,-0.020122146,-0.0571104
-0.083081506,-0.042794697,-0.061993744,0.016672915,-0.028848376
-0.075953245,-0.065944,-0.059637144,-0.04654068,-0.007405255
-0.047026243,-0.0006904048,-0.0021113008,0.024840046,-0.03274109
-4.972212e-05,-0.051800236,-0.035793364,-0.004206465,-0.02391749
-0.030286904,-0.051446322,-0.032809503,-0.012094867,-0.030676955
-0.029970119,-0.020474732,0.031838614,0.0042849323,-0.008005087
-0.07080847,0.025861362,-0.027533136,-0.026818963,0.032183688
-0.04755576,0.006502227,0.011966409,0.010850828,-0.03706961
-0.012592644,0.019035745,-0.0189015,-0.03242395,0.037262127
0.04815476,0.0053433725,-0.034382265,-0.05368335,-0.048607014
-0.002988746,-0.031976774,-0.07172554,0.00997726,-0.008556979
0.0044606347,-0.003757626,-0.01883948,-0.046486683,-0.03244239
-0.06397509,-0.0037403563,0.010036626,-0.038239438,0.048281576
0.017552074,-0.0070642782,0.06750617,0.017539768,0.02147934
0.03232933,0.05120195,0.011986261,-0.04866069,0.010813782
-0.003971696,0.027359532,-0.023164378,-0.0030461284,0.009897029
0.036108382,-0.002607226,-0.043017708,-0.030351378,-0.016109738
-0.025001692,0.029228423,-0.04494883,0.026875773,0.037725616
0.0098909745,-0.010067296,0.014484718,0.033621516,-0.0027349943
-0.026034283,0.045017198,0.06075002,0.01797802,-0.039585657
-0.014932073,0.059931044,-0.019238807,-0.014579304,0.011306504
0.0058300477,0.017711526,-0.016437024,0.022483774,-0.029143186
-0.0041368664,-0.040597737,0.022750499,-0.049576964,-0.0061579705
0.05277192,0.054858003,-0.038939383,0.024917632,-0.0051248753
0.032954402,0.02416766,-0.04818239,-0.011471017,-0.01856086
-0.005250513,0.011952763,0.0034904142,0.03552756,0.03435498
-0.05040941,-0.028218953,0.003368892,0.0017198452,-0.036256433
-0.023155482,0.010878515,0.00517606,0.038120516,-0.033373952
0.042457417,0.024836937,0.019413935,0.051281463,0.03380074
0.029936977,-0.015547382,0.015730387,-0.01948693,0.001324617
-0.013300281,-0.0032425977,-0.022329735,0.019211482,-0.012457244
0.01776601,0.015292673,0.019190006,0.008238659,-0.0038969787
0.034948204,0.0022290344,0.00074511033,-0.0072116717,-0.02063725
-0.03575829,-0.03938157,-0.021358259,0.024961088,0.034038343
-0.048256475,-0.016258836,0.00919652,0.03071058,-0.051436458
-0.01003709,0.007652206,0.03368212,0.015353605,0.021086214
-0.036200855,0.034955416,0.0072228326,-0.023487926,-0.004307291
0.013549125,-0.034264974,-0.0052096364,0.02613297,0.024240766
-0.013340963,0.039151993,0.055093788,-0.04291434,0.011613607
-0.004540164,0.054652277,-0.025421811,0.020227762,0.027991291
0.047622126,0.0828039,-0.024379484,0.006542285,-0.013712716
0.0007604443,0.039934184,-0.0011964937,0.0341819,0.057408478
0.042081732,0.010127206,-0.025522467,0.029725023,0.049545005
0.0123189725,-0.017244538,0.054187573,0.054599296,-0.010671158
0.023047172,0.0510135,0.09488028,0.025229873,0.027478557
0.0016963658,0.06875456,0.05656323,-0.019008003,-0.021906007
-0.005069752,0.02773698,0.0044921334,0.018465405,0.033021245
0.044484735,-0.042835876,-0.0062874574,0.028156562,-0.009530133
0.02818579,3.1034404e-05,-0.003999609,-0.023969589,0.028649088
-0.06664747,-0.007162976,-0.0023284855,0.00972324,-0.032244172
-0.0122222295,-0.039344385,0.02542329,0.029293105,0.009810044
-0.030044412,0.025946658,0.021724723,0.017181102,0.015332695
0.03450798,-0.019320432,-0.0131397415,0.029909685,0.0014293612
-0.007295292,0.0043136836,-0.04743983,0.021107595,-0.036337372
-0.038009625,0.018704385,0.017220635,-0.045391046,0.008158349
0.0040275976,0.01752362,0.012314348,-0.01860133,-0.01542578
-0.03361194,-0.0014336111,-0.042158566,0.02101566,0.005600492
-0.0044795694,-0.023059169,-0.038187414,-0.047482457,0.019797757
0.06222976,0.080578804,-0.040922944,0.005686782,-0.0008083629
0.07679263,0.0028434016,-0.00530459,0.064058624,0.020870397
0.060223762,0.036674246,0.027105248,0.089290544,-0.012815619
0.061892096,0.018905658,0.0071994956,0.008109658,-0.008040841
0.02537852,0.013863238,-0.007605594,-0.030420782,0.026570382
0.020381117,0.03784371,0.008854431,0.01286698,0.023706272
0.013959575,-0.031087646,-0.033610616,0.0076907007,0.024239896
0.027235545,-0.0067240116,-0.018701246,-0.04456177,0.0033480823
0.026047306,-0.04123558,-0.033598833,-0.00485868,0.015603812
-0.0063837008,-0.005762267,-0.0016455823,-0.022489415,0.050985448
