-0.0041269097,-0.031836096,0.0060992446,0.040880516,-0.0313765
-0.0077379644,-0.046698455,-0.052727714,0.026687086,-0.0065521365
-0.043625277,-0.0658782,-0.03886047,0.031567514,0.03480279
-0.055240054,-0.057082396,0.00798213,0.022884712,-0.017976549
-0.043844495,-0.037592452,-0.036035307,-0.012216504,-0.011495922
-0.011230271,0.00051683607,0.07152932,0.049325872,0.0043609347
-0.014926799,0.0151691055,0.093183815,-0.026688615,0.050837032
-6.018371e-05,0.04308653,0.084016725,-0.013519135,0.012192481
-0.024638498,0.00559652,0.09688108,0.0319041,-0.012152316
-0.03281166,0.05471999,0.07481248,0.056540865,0.0021595797
-0.046117995,0.0061565237,-0.0060383645,-0.030268118,-0.016675914
0.008369998,-0.03721741,-0.0018222807,-0.028223855,0.014036279
-0.002918787,-0.022670468,-0.039299883,-0.011620956,0.018397775
-0.040206667,-0.031213006,0.03526996,-0.008710408,0.032743305
0.032667805,0.019436965,0.0566566,0.04258543,0.0034821106
0.017673787,-0.053437606,0.021117235,0.001028523,0.030614752
0.003309129,0.050350912,0.011564267,0.083028734,-0.0005149555
0.014583115,0.043324668,0.081831366,0.066847116,-0.029308343
-0.0031474007,0.01418257,0.038356278,-0.0073761353,0.010665514
-0.0066852537,-0.0029646845,0.004297025,-0.03842451,0.011471639
0.00025034387,0.0028176017,-0.00090624596,-0.049771864,-0.004728191
-0.046224095,-0.0005034954,0.0045906142,-0.04672379,0.010699105
-0.012262135,0.01605691,-0.03539723,0.013914719,-0.04209994
-0.044642035,-0.047125746,0.0154880835,-0.02163437,-0.023661677
-0.04515891,0.03318367,-0.0011042005,-0.00855864,-0.02314231
0.038773946,0.025069343,-0.02009967,-0.030101987,0.015765755
0.035634443,0.05961791,-0.05194955,-0.057095047,-0.040803187
0.02600356,0.033392027,-0.060418136,-0.024202129,0.0018209803
-0.015459183,-0.036790445,-0.0072929175,-0.040547583,-0.04553782
-0.024665704,0.0041800416,-0.019900259,-0.051613875,0.057051033
0.034814272,-0.0062305075,-0.024538696,0.061840896,0.035560742
-0.0087426,-0.035679206,0.011275154,-0.010358088,-0.01481805
0.00881997,0.04105716,-0.049625233,0.0108469315,-0.00029901235
0.013485344,-0.052555673,-0.07431059,0.045323968,0.026334986
-0.04403916,-0.00016685159,-0.034342702,-0.012347779,-0.010106553
0.04072192,-0.029647326,0.02160293,0.018433573,0.007500122
-0.03747915,-0.026526917,0.0029633539,0.047806866,-0.013127491
0.018781917,-0.041906253,0.02646285,0.025101174,-0.024944274
0.021405987,-0.027775675,0.028089773,0.029767998,-0.020441057
-0.014089116,-0.02849035,0.012232348,0.046947096,0.048751764
0.029704824,-0.04468637,-0.03124005,-0.010843311,-0.02145174
-0.007944326,-0.006032266,-0.055167094,-0.028721036,-0.0040458147
-0.023364598,-0.024996582,-0.047044598,0.02119189,-0.0008681281
-0.04504699,-0.04952053,-0.0009533176,0.01835196,0.063179314
-0.040724862,-0.03521359,0.05634269,0.051747218,-0.024789648
-0.056572694,-0.00092353154,0.056437187,0.052844774,0.032699924
-0.06411633,0.032468557,0.019665059,0.05906163,0.016929992
0.012576414,0.032572094,0.05982969,0.011208178,-0.026893524
0.019031627,-0.00938192,0.048662685,0.037636407,-0.011126938
0.0077969283,0.03819145,0.040499672,-0.046212673,-0.07938175
0.036389094,0.038518008,0.003508051,-0.0028815286,0.006192208
0.016855882,0.037428457,0.007143042,-0.035297062,0.035573725
0.03264225,0.029462533,0.01143766,0.02421981,0.016663201
0.033902507,-0.037635487,0.00894083,-0.0030606133,-0.04050962
-0.010630665,0.01393156,-0.045675576,-0.013470931,-0.01970423
-0.02749817,-0.062077887,0.061811276,0.08917202,0.068643026
-0.028139874,-0.049920682,0.09853185,0.11915627,0.008220491
0.014529413,0.021364015,0.10598273,0.082494654,0.035818752
0.031552654,0.094329335,0.10681568,-0.02720363,-0.020079814
0.05066317,0.07691947,0.0013229614,-0.038124476,-0.021649512
-0.020690123,-0.05901462,-0.018432917,0.037974834,0.021118622
-0.04324002,0.025419107,0.013416849,-0.035963573,-0.011640735
0.042882416,-0.025327206,-0.07198841,-0.013200574,0.031379245
-0.03606982,-0.038283765,-0.058890108,0.024553744,0.0029394813
-0.01763045,-0.018263817,0.010537202,-0.00067911413,0.0075226407
0.025851632,-0.010271671,0.03985134,-0.0021784839,-0.0070635364
0.014740707,-0.023016779,0.012241927,0.021830142,0.0031733399
-0.031381723,0.011079784,0.052059717,0.06310958,0.006088647
0.032257743,0.040275685,0.04647733,-0.05140699,0.0121355485
-0.013553538,-0.012497875,0.02114326,-0.05196467,0.016474247
0.06475066,-0.01245717,-0.014449328,-0.045611735,-0.023004413
0.053523157,0.031760857,-0.05761371,-0.010942147,-0.03215446
0.002459261,0.034664232,-0.028554372,-0.053157795,0.03261348
0.044782113,0.018506734,-0.058665685,-0.028772552,-0.009656579
0.06482839,0.03609369,-0.03684922,-0.02866769,-0.01342536
-0.025875585,-0.040372435,-0.026476838,-0.049287803,-0.030057296
-0.026882567,-0.07239019,-0.02405141,-0.02054155,0.008282433
-0.050963156,-0.0033015597,-0.05474258,-0.01688759,-0.029496452
-0.03543413,-0.011297966,0.010300954,-0.012306291,0.019364184
-0.024738796,-0.006582957,0.010456881,0.0667918,0.035595004
-0.019418597,-0.018998526,-0.007586851,0.057282746,0.021714864
-0.008852613,0.048404485,0.051899187,-0.038825385,-0.023348674
0.051078454,0.0068925475,-0.021357872,-0.065207966,-0.045219593
0.01067101,-0.061065216,-0.030126182,0.018087111,-0.020654878
-0.024111325,-0.052581295,-0.04774864,-0.014602246,-0.016629927
0.005471642,0.038112193,-0.0043067057,0.037156604,0.006426302
0.0550586,0.020154543,0.025601627,-0.00992794,0.023501541
-0.020733025,-0.027256414,0.00081445277,-0.012494029,-0.017979825
0.03432344,0.047630884,-0.006878918,0.008372394,-0.0002143985
-0.03146304,0.048406716,0.024521053,-0.0014529214,0.044134837
-0.033202615,-0.0042257695,-0.006441092,0.041566137,-0.009667086
0.035449304,0.0008637152,-0.006508371,0.020549338,0.029495517
-0.05134324,-0.024993513,0.059713457,0.012247902,-0.010504523
-0.04221646,0.025389927,0.037683353,0.00897691,-0.009764303
-0.003942443,0.0028088095,0.030357875,0.0483191,-0.019891014
0.033582885,0.0015257047,0.0070735756,0.029074956,0.058159035
-0.028110467,0.020695131,0.022462988,0.017771818,-0.016045317
0.01921292,-0.012722785,0.04305277,0.033826858,0.008515668
-0.012116612,0.013816006,-0.011920148,0.06219193,0.011686815
-0.01743183,0.055057406,0.03049778,0.03733804,0.019370003
