0.034161054,0.031301364,0.010364788,0.011239769,-0.028590858
-0.020542754,0.012061222,0.035474863,-0.013710814,0.024268962
0.011072686,-0.032152552,0.042107265,-0.044747114,-0.037726022
0.01720504,0.02370762,-0.0036041993,-0.038837105,-0.021391224
0.02237023,-0.03525847,0.0031192815,-0.020942627,-0.018759897
-0.034089237,-0.03366525,-0.0051386193,-0.003920603,-0.02722374
0.0015046968,0.044092935,0.01609131,-0.033260897,0.03287683
-0.0057270387,0.006500398,-0.013335402,0.03641259,-0.03619497
-0.039730653,-0.029659541,0.034610387,0.014471611,-0.025977088
0.056006063,-0.004129029,0.017705124,0.0414276,0.0006225045
0.040843293,-0.013686635,0.04070825,0.036397733,-0.009533657
0.021966409,-0.01331644,0.015785204,0.013303653,0.0050317333
-0.016689647,-0.02538121,-0.0063041565,0.016839871,-0.03554756
-0.029025553,0.025869114,-0.03217822,-0.022408687,-0.00032573272
-0.02870616,0.0043228227,0.006529826,-0.026274715,-0.003699157
-0.030223846,0.0053082616,0.041995827,-0.018487012,-0.040964637
-0.034066852,0.00914206,0.005310148,-0.02615781,-0.0032582001
0.024298906,-0.022400092,-0.012228527,-0.00427888,-0.023583867
-0.024251316,0.019769369,0.03782884,-0.018568166,-0.033432588
0.035418827,-0.004515787,0.007884415,-0.0017045109,0.001587671
-0.03309151,-0.003976121,-0.03262151,-0.025332246,-0.0376279
-0.04217449,-0.010986562,0.017565338,-0.01045615,0.038939085
0.008285082,-0.00048734617,0.027132425,0.0042279735,0.045259256
0.0011739321,0.04133499,-0.04414737,0.020061124,-0.033415534
-0.028123094,-0.02764483,-0.03374714,-0.015043092,-0.0015168102
-0.018314322,0.031659722,0.021080762,-0.0060854442,-0.017537815
0.0003858697,0.0065909754,-0.020164656,0.039417848,0.0029858637
0.052128755,-0.036362763,-0.019696712,-0.04159033,-0.03923233
0.04772946,-0.027302517,-0.033642344,-0.035438165,-0.0034547884
0.003191336,0.031032905,-0.016868431,-0.04459849,0.016587242
-0.04861443,0.028458638,-0.021660177,-0.029137189,0.024052192
-0.04966138,-0.047366798,-0.0048707724,0.020821074,0.030741818
-0.007460844,0.030908933,-0.012378688,0.0494993,0.019063288
-0.0024590548,0.019584557,-0.0315192,-0.0029152632,-0.005529581
0.017463481,-0.009243581,-0.020757914,0.0105269095,0.046611104
-0.0056560296,-0.013478338,-0.014016682,-0.00020403913,0.04685798
-0.0111316815,-0.009018333,0.0429038,0.012512132,-0.031038998
-0.004617183,0.019182801,-0.0071381084,0.026421107,-0.020427907
0.0112904105,-0.03785826,-0.03845317,0.027207747,-0.03219852
0.025623847,0.014460945,-0.038696352,-0.0042788507,0.0113233365
-0.009098316,0.0006592852,0.032155618,0.01373793,-0.030370971
-0.021660756,0.03011678,0.038983557,-0.029673364,0.022170193
0.034290787,-0.0027876168,0.026304936,0.02132475,-0.00400446
0.012722419,-0.011800877,0.044480868,-0.025728146,0.0006418059
-0.007179662,-0.0088428,-0.034249026,0.04235363,0.04266643
0.014306091,0.039327685,-0.04816671,-0.032679576,-0.023156274
-0.0013139881,-0.03680862,-0.009106959,-0.041135605,0.024099525
-0.040858023,-0.035835825,0.04365293,0.005762465,-0.03236416
0.024003271,-0.0016071209,0.022187345,-0.04359818,-0.04895661
0.059746347,0.024130914,-0.041330263,-0.03960661,0.012886739
0.030033631,0.028717313,0.019549279,0.03525613,0.021288274
-0.033519894,0.03758993,0.020805718,0.034072004,-0.00926299
-0.010833755,0.027699184,0.03171314,0.022163056,-0.035471484
-0.04064475,-0.018952556,0.03410235,0.006337523,0.009675754
0.014431231,0.018193759,-0.038538124,0.011462214,0.032776676
0.028520565,0.016819084,0.031352844,-0.047336422,-0.0010181331
-0.013219747,-0.04159433,-0.030320808,-0.02315805,-0.00663802
0.024612574,0.026713206,-0.028299998,0.026017206,-0.013674026
0.04475006,0.038342718,0.03392338,0.013193449,-0.034470126
0.01759932,0.050848786,0.006070475,0.00372515,0.043086614
-0.037988607,0.011471278,-0.038684007,-0.00065432594,-0.0013066133
-0.045793626,-0.003040858,0.009718155,-0.0105317,0.024753038
0.003848356,-0.006462778,-0.0030966625,-0.04955629,-0.025642822
-0.0154564455,0.03440831,0.03749042,-0.019183764,0.0322227
0.018255003,0.005150698,-0.0014175611,0.02336613,-0.010885104
0.036847487,-0.04143553,0.042050827,0.03175068,-0.035193548
-0.028243618,-0.021310287,0.013145811,-0.004160393,-0.036497854
-0.049822625,0.03506039,0.017966837,0.0392158,0.022816397
-0.009901522,-0.008644178,0.01748166,0.009859077,-0.008676796
0.047601324,0.040465478,0.039959323,0.0013528697,0.028358331
0.021009335,0.032370582,0.022527678,0.042185668,0.017548498
0.03954765,0.036919266,-0.011378947,0.019464022,-0.043287233
-0.0007219636,0.04004993,-0.050647464,0.021828497,-0.023827575
0.0163723,-0.017859224,-0.017762125,-0.025687704,-0.023760527
-0.028987702,0.023088504,0.024378458,0.0013046158,0.010095555
0.0072351033,-0.01414339,-0.002514452,0.05084879,-0.03596895
0.0108062355,-0.009639931,-0.04571562,-0.005129625,-0.0013186138
0.015850319,-0.042737998,-0.0034934874,0.044623856,-0.012161737
-0.021458663,-0.0057141893,-0.01907557,0.024922352,-0.043094028
0.03811466,0.0050671897,-0.02289601,-0.03084062,-0.034697708
-0.0054267826,-0.025805306,0.022145808,-0.015510631,-0.021273147
0.034911096,0.0043476126,0.035997916,0.005697832,-0.015659118
0.02061843,0.009225588,0.03230224,-0.028311938,-4.24401e-05
0.02810685,-0.04042984,-0.04614412,0.016771395,-0.028870538
-0.038387675,-0.009367787,-0.015616261,-0.04057957,0.006530369
-0.015441771,-0.0019442791,0.03332453,-0.021512242,0.044368055
-0.014844899,-0.0077332705,0.03730285,-0.029164959,-0.039597716
0.027826717,0.020722544,0.03560378,-0.012503467,-0.014269667
-0.012807884,0.03848719,-0.031022355,0.035948023,0.0070534945
-0.04085436,-0.017952865,0.042927444,-0.022421613,0.029274235
-0.03538609,0.0017259086,0.034325555,-0.003910835,0.02808315
-0.03354917,-0.040194646,0.026247568,-0.01719242,0.040957984
-0.003850332,0.030681098,-0.020762203,0.019210503,-0.028996583
-0.014887508,0.01442042,-0.008570266,0.032620966,-0.021964628
-0.021074299,-0.004664572,0.0409013,0.020209555,-0.00037055076
-0.019355115,0.01246815,0.02384314,-0.015400591,0.031483337
0.013889233,-0.032290507,-0.03795396,-0.040488575,-0.005552706
0.015922176,0.045210406,-0.00075541233,0.04385347,-0.038678344
-0.045390032,-0.011050775,0.039585166,0.016084123,0.01819496
0.021364443,-0.015619198,-0.015023389,-0.020016339,-0.010117645
