-0.011944273,-0.017058078,-0.042817406,-0.008202366,0.03204593
-0.010425917,0.0030620454,0.0010498977,-0.05286131,-0.024571158
0.017758118,-0.0043313084,-0.02790685,0.006060315,-0.0055610267
0.026854714,-0.033553723,-0.024897454,-0.030463649,-0.001418197
0.029996885,0.04674593,0.05837352,-0.0054681646,-0.030516522
-0.0052716825,-0.026181258,0.043427885,-0.043357145,0.0036021033
-0.0067380215,0.030181875,0.046349883,0.007411726,0.02879803
-0.040867195,0.03015517,-0.025622422,-0.048352677,-0.048823643
-0.017027214,0.015338535,0.015140687,-0.008992057,0.040372685
0.031016449,0.059148096,0.047493305,0.037378266,-0.0119572
0.01079232,0.04199335,-0.014694243,-0.021481039,0.021696001
-0.0030905092,0.02114718,-0.0045699407,-0.045435723,0.0036994498
-0.010247163,0.027861359,-0.017639736,0.035416845,0.017763324
-0.037609,-0.024143199,0.05635885,0.0023863825,0.07039346
-0.036528196,0.0065234425,-0.002367074,0.05937523,-0.011242553
-0.031899128,-0.014976955,0.025817351,-0.034149338,0.0048006894
0.010155966,-0.010693093,-0.050728556,-0.030593399,0.01709884
-0.038043458,0.0042098584,-0.0023571725,-0.037141472,-0.030177267
0.012282729,0.0450459,0.04833398,0.04908789,0.012043683
0.031038513,-0.012938108,0.026418976,0.017278776,0.0008708494
-0.025182867,-0.003593702,0.039038297,0.025322799,-0.043933682
0.010738066,-0.011707938,-0.034984846,-0.052880295,0.031978995
-0.022214038,-0.019060805,-0.006795597,-0.04764356,0.013300037
-0.018295538,-0.00042289624,0.035217088,-0.010613699,-0.028992292
-0.034623418,0.010920624,0.031405695,0.034103796,0.04002801
-0.00085590803,-0.016841682,-0.02746367,0.010299129,0.06543379
0.027820146,-0.035420384,-0.014367363,0.06073171,0.017836316
0.034266006,0.0052216733,-0.024242599,0.017878957,0.01872375
-0.0006966264,-0.040945105,-0.032126777,-0.01289987,0.02722737
0.016891893,-0.05594706,-0.05261971,-0.023019124,-0.054991744
0.025889153,0.035349324,0.016703876,0.03345186,-0.04782961
-0.03538277,0.030643642,-0.003495609,0.027832078,-0.0541804
0.04269969,0.033103008,-0.01645864,0.029436309,-0.02386778
0.027270928,0.023747576,-0.006322266,-0.01681277,0.019485718
0.030394452,0.03261491,0.06074731,0.07337916,0.009935922
-0.018565772,0.027822994,0.023358935,0.0477327,-0.0043273303
0.030845836,-0.016808515,0.025346903,0.0038501685,-0.0323669
0.04477286,-0.012524917,0.00857764,0.023574987,-0.014095384
0.018248705,0.001461246,0.036654998,-0.018956762,0.036821663
0.023393923,0.029773496,0.006435227,-0.0180735,0.01572965
0.019229278,0.049811136,-0.0052962233,-0.030670326,-0.036197867
-0.014800375,0.04765368,0.024293829,0.0057293614,-0.03216626
0.014528372,0.019281458,0.033167295,-0.012645323,0.029999174
0.034228705,0.028038682,0.035396527,-0.0010042844,-0.0073869242
-0.0077506406,-0.008386989,0.054356962,0.0658446,-0.025136486
0.01349689,0.026429644,-0.02783102,-0.005990965,-0.037402228
-0.06020213,-0.048744097,0.022287251,0.015535935,0.02315698
-0.035345916,0.032115627,-0.007002312,-0.03847213,-0.04492454
0.057681702,0.049721096,0.07373783,-0.0140620675,-0.01910068
0.0024190422,-0.0010342504,0.07571397,0.032164305,-0.010625137
0.01038511,-5.1890624e-05,0.0048762416,-0.0076559847,0.021521231
0.010676203,-0.034159996,0.010714176,0.015177232,-0.01871375
0.0076258285,0.034018613,-0.006392711,0.032252233,0.008257369
-0.021215376,-0.04191352,-0.02731517,-0.040859476,-0.047694594
-0.020452665,-0.021965966,0.011754203,0.004964885,-0.025798777
-0.019588452,0.011826069,0.009288578,0.041070815,-0.055774283
-0.036334105,0.0499088,0.061823066,0.046091344,0.023100335
0.003579376,-0.017879447,0.06874039,0.02169886,-0.03003808
-0.05214497,-0.026050782,0.079566725,0.0711602,-0.017881582
-0.021939632,0.03315893,0.0378408,0.032253813,0.06331951
-0.03506311,-0.028629433,-0.01866065,-0.06150241,-0.063927256
0.04304725,0.007030649,-0.012541071,-0.018788166,-0.02612616
0.014507357,0.02890088,-0.039383966,-0.035164032,0.019654535
0.04536558,0.0073081795,0.028423112,-0.0007426552,0.031247897
0.0095812855,-0.005226567,0.0381079,0.010282794,-0.0028300784
-0.049421158,0.037809737,-0.0322408,0.0055870726,0.015995914
0.022724852,-0.006472523,-0.014955609,0.0034992495,-0.012215195
-0.04377745,0.00576813,-0.014318508,0.018584011,0.03576253
0.024316909,0.005697261,0.037505396,-0.04074737,-0.028442457
-0.017942037,-0.013012123,0.010635354,0.021910535,-0.006710711
0.008161182,-0.03179031,0.010229607,0.036259092,0.049831808
0.028821709,-0.005932191,-0.024301432,0.019403553,0.010639141
0.015930327,-0.04163836,0.01864453,0.04412372,0.038743384
0.030778488,-0.054606188,0.0042636744,-0.053145245,-0.019856965
0.0051760552,0.004652341,0.014495473,-0.035875555,-0.059208617
-0.011867667,-0.006948648,-0.009287091,-0.0011813869,-0.037148576
-0.024452081,0.034046616,-0.012663735,-0.074468896,-0.04676321
0.039258014,0.027653819,-0.037160218,-0.030909874,-0.06912556
-0.022966605,-0.03539059,0.00064548576,-0.043519575,0.018694611
-0.015441491,0.06078445,0.058280546,0.08727855,0.003164092
0.008131456,-0.025699656,-0.010274431,0.005083743,0.0069716363
-0.01424213,0.019013034,-0.00697808,-0.024295775,0.00065980793
0.045052223,0.049767524,-0.05836265,-0.030972736,0.04653495
-0.00039899495,0.039904024,0.014915004,0.060977794,-0.008056666
0.018827265,-0.012628973,0.03074202,0.047133993,0.034821466
-0.007047652,-0.03242483,0.021530738,-0.0105205905,-0.014140168
-0.0011337564,0.015195292,0.0033885264,-0.0020537537,-0.024375126
-0.029188082,0.014098087,0.017072923,-0.010415094,0.0386775
0.047324266,0.025408804,-0.033752095,0.037978698,0.00044286405
-0.009934834,0.013721183,-0.0031130298,0.010713622,-0.024878053
-0.036770225,0.009764761,0.030499209,-0.044637863,-0.008889419
0.007279455,0.044092305,0.0012388716,0.0021991935,0.03761239
-0.02152298,-0.03639671,-0.02602575,0.040128667,-0.02591019
-0.0027364597,-0.011374567,-0.004704207,-0.009645982,-0.049802415
-0.039628137,-0.015804147,-0.018682463,0.00018815808,-0.011526169
0.0026412003,0.015118958,-0.008348393,-0.028535891,0.0070292507
0.026154041,0.019594487,0.016683074,0.021222273,-0.021336095
0.023698313,0.039794914,0.022441324,0.03118242,0.0018394055
0.028585268,-0.016452333,0.06279142,0.055253025,-0.035268296
-0.008265896,-0.036081854,0.008694669,0.017945733,-0.014329406
