0.04592263,0.052367292,0.046833634,-0.0073708454,-0.0355464
-0.032438856,0.004032224,-0.03193248,-0.0065235915,0.01530114
0.04397493,-0.02291695,-0.00022037016,0.0073041413,-0.019051874
0.0118370745,0.046167444,-0.024690168,-0.006580571,-0.0025448145
0.0355993,0.038185727,0.039885096,0.04224538,0.016879411
0.0006573165,-0.0377819,-0.01263684,-0.025827477,-0.025420656
0.033628587,-0.018165141,0.041802935,0.02116248,0.043051906
-0.017722765,0.02373413,0.015219473,-0.011148393,-0.017488183
0.011800156,-0.058326382,-0.017117543,0.00496255,0.011713814
0.013092045,-0.04470419,0.0036046768,-0.026906507,0.03287822
0.021841934,0.041588083,0.015160149,-0.026943464,-0.015651995
-0.017832361,-0.03208447,0.02824001,-0.032730643,0.03543475
0.052581664,-0.011599272,0.01929167,-0.044391684,0.059155222
0.029476076,-0.040214315,-0.008685486,0.0689854,0.06441473
-0.022355143,-0.004789261,0.018580358,-0.021162573,0.021335153
-0.026269337,0.04288585,0.03985073,0.037508745,-0.02415027
0.017599905,-0.0028399532,0.024938475,0.03142403,-0.031381566
0.0062906565,-0.0069018737,-0.054310422,0.033184823,0.02192993
-0.050587997,-0.048680194,-0.03183297,-0.001536809,-0.04470323
0.019869475,0.024295712,-0.013679705,0.020759538,0.0013215151
-0.04536249,-0.0073404624,-0.021313464,0.0051448545,0.03142381
0.003325634,-0.023295026,-0.03111531,0.012741371,-0.034302607
0.0061544958,0.01336865,-0.024461789,-0.029864699,-0.019444017
0.031670462,-0.008401341,-0.0073219338,-0.003659534,0.041784193
0.010394215,0.0036853552,0.0075925193,-0.0058894027,0.0030978785
-0.0056380373,-0.026938355,0.043472428,0.026351154,0.03570369
0.007869329,0.010036187,-0.035780765,0.044528916,0.031267628
-0.019101739,0.00082015677,-0.07605554,0.0029055746,0.018433144
-0.005653842,0.020376297,-0.024303729,-0.018061066,-0.045620915
0.055194076,-0.018623915,-0.04853706,-0.036201663,-0.027260283
-0.01725786,0.06320447,0.023397194,-0.033562146,0.01103659
0.014919557,0.049652997,-0.042912547,-0.014194737,0.043099567
-0.054700848,-0.05327276,0.008709937,0.034798123,-0.0414718
0.010183268,-0.0022622005,0.014387098,0.022575716,0.021893041
0.031523485,0.016299317,-0.031760164,-0.014234218,0.009215588
0.044218644,0.025938638,0.02552424,-0.02368641,0.0038054122
0.03854648,-0.0024272737,0.022542495,-0.036304306,-0.00065710844
0.004034935,-0.043115143,0.011550402,-0.031017132,-0.025109895
0.009149102,0.032057825,-0.014497637,-0.012583521,-0.066815324
-0.03366102,-0.02707098,-0.04175435,-0.010372743,-0.012083965
-0.015219348,-0.01043443,-0.0140448455,0.020465944,0.0015922604
0.033983856,0.026587998,0.013960318,-0.032740895,0.01444659
-0.026675742,0.019912234,-0.0012953555,-0.062903345,0.0012573339
-0.020627799,-0.009568668,-0.030610142,-0.04490211,0.011064001
-0.010883101,-0.016132822,0.024868593,0.019059645,-0.031196916
0.028518453,-0.013750348,-0.031011965,0.040453456,0.030529859
-0.0068762987,-0.035659555,-0.035181563,-0.024180735,0.02723121
-0.015819045,-0.01589743,0.026848901,0.016279968,-0.025336774
0.015645992,0.023909621,0.0470098,0.042816468,0.009888328
0.007566277,-0.025853965,0.017784642,-0.022868266,-0.045215555
0.043631505,-0.028720086,0.034563433,-0.03400381,-0.027956517
-0.0054352833,0.030188443,-0.0011296296,0.0022850013,0.011168774
-0.020053564,0.04385449,0.020842683,-7.4209594e-05,-0.037061445
0.01236838,-0.03192287,0.0066156336,0.017451374,-0.004905627
-0.02872334,-0.039024487,0.008249337,0.0334725,-0.022764646
-0.018278383,0.01659684,-0.0388508,-0.020322632,-0.039757185
0.036551233,-0.050654467,-0.03623512,-0.014889124,-0.047150474
-0.024309596,-0.040470812,-0.0011965382,0.009232354,0.033872426
-0.025448192,-0.011869797,-0.033371475,-0.01106431,0.016606858
0.031536873,0.049865045,0.030114973,-0.004649669,0.0002984991
0.01722456,0.020032426,0.027104963,0.041866373,0.022628922
0.032195058,-0.0061599677,0.0107272575,0.04700366,0.017397227
0.026097246,-0.01646791,0.022679573,0.04542052,-0.005031006
-0.016592506,0.028013278,-0.020050835,0.02594264,0.03399801
-0.03809725,-0.0028396014,-0.003095166,-0.021794986,0.046039205
-0.020553408,-0.0137790395,0.02124411,-0.026819453,-0.0051042642
-0.020887606,0.037494265,-0.00687636,0.0029409914,0.040207934
-0.021750724,0.03402205,0.031090563,-0.028790776,0.037661705
0.03102269,0.03791188,0.0257628,0.041799333,0.014819002
0.016510082,-0.0017585765,-0.012002369,-0.009582919,0.039749365
0.014205922,-0.045073107,0.009449051,0.017380457,0.021502858
-0.034355,-0.013429352,0.05578269,-0.034782168,-0.026955992
0.015794653,-0.007693414,0.062551595,0.034525745,0.042002432
0.021535851,0.06180436,0.022689322,-0.032131772,0.026968764
-0.021354692,-0.0024586958,0.049093843,0.041445244,0.004501587
-0.03779488,0.016643621,0.039551795,0.041878507,0.002504262
0.038902894,0.018464012,-0.003611884,-0.025105312,0.029715266
0.043403126,0.046984095,0.02861799,0.060644068,0.029806359
-0.023130713,0.04411661,-0.0051444825,0.034639314,-0.005681715
0.036566325,-0.00736147,-0.0013377421,0.059707437,0.015817462
0.027045058,0.04696053,0.025131129,-0.0028839582,-0.02341041
0.009227992,0.011016273,-0.032277804,-0.009371695,-0.010731684
-0.05329628,-0.036163907,-0.05068197,0.020870162,0.005421032
-0.0298763,-0.023922017,0.029494295,0.01257135,-0.026979683
-0.026002126,0.009433009,-0.04944732,0.04280225,-0.011629323
-0.02306645,-0.042622566,0.020457227,-0.02433788,-0.016548432
0.0008111124,-0.011433729,0.040350035,-0.017436422,-0.021145016
-0.0050574522,0.0037246512,-0.022755858,-0.014446355,0.039688434
0.031708572,0.011208131,-0.008022975,-0.012810241,0.015184651
0.015115732,-0.009740725,0.008398277,-0.015380406,0.02674149
-0.0376015,-0.015341768,-0.03324073,-0.01566909,0.0047780983
0.016396694,0.006699128,0.029760428,0.02841013,0.043263875
-0.028811168,0.044499695,-0.012992337,0.040639862,0.03906445
0.0064495644,0.03522424,-0.004634097,0.0052226656,-0.01912702
-0.012641355,0.02755581,0.039051604,-0.02751644,-0.0409125
-0.04635487,0.040328678,0.006684819,0.03696447,0.045004006
0.03775598,0.02218998,0.018738437,-0.009421843,-0.013212957
0.008284271,0.021017106,0.0033235734,-0.0065170364,-0.043898065
0.026869053,0.0011563464,-0.035984103,-0.030504424,-0.01602836
0.00031403173,-0.014183599,0.041326225,0.026345018,0.002485251
