-0.0002671241,-0.014791118,-0.01604539,0.018265387,0.050981462
-0.030299718,0.019604916,0.017122507,-0.0062759332,0.006301292
-0.008151112,0.011712104,0.016887411,0.009463642,0.017236695
0.027335463,0.02266485,0.041852266,0.029835505,0.0059566787
0.041134454,0.017655222,0.049823746,-0.034692068,0.025319248
0.021172434,0.026492752,-0.02527743,-0.04519464,-0.0116599
0.034499228,0.033321787,0.026055858,0.019399147,-0.04562444
-0.01599371,-0.028376471,-0.022294238,-0.031605296,-0.033866517
0.027766122,0.02392775,0.013951348,-0.05076212,-0.036044046
-0.012664235,-0.009270657,-0.00521859,0.0035454764,0.053449158
0.008516577,0.012435713,-0.03353392,0.02066904,-0.026283288
-0.015997704,-0.02797345,0.014111713,-0.037206177,-0.0060758833
0.047585513,-0.003731861,-0.012735296,0.0019326556,-0.053092647
-0.002668744,0.008751126,0.045598317,0.054567944,0.00020488538
-0.009466032,0.046420485,0.012340837,0.03254506,-0.020498713
0.009875214,0.06426301,-0.01618097,0.043437913,0.030495435
-0.019111197,0.035464577,-0.032584734,-0.022553677,-0.044230018
0.040424418,-0.028617729,-0.020105096,-0.042377904,-0.06464141
0.049526256,0.04404049,-0.007780584,-0.05860162,-0.012661466
0.06045589,-0.009178483,-0.03917071,0.024678178,0.014507914
-0.0006141155,0.02062267,0.02967111,-0.04414869,0.008140332
-0.003983711,0.049461912,-0.0021885764,0.011295762,0.01045645
0.019366264,0.008833849,0.04120747,-0.023223177,-0.0211681
0.00099528,-0.028441576,-0.023734365,-0.016685026,0.009000623
-0.020194797,-0.047812734,-0.023801178,0.029991666,0.009542859
0.0011282382,0.035280164,0.028025046,0.017927205,-0.006881947
0.039190885,-0.008330861,-0.009051951,-0.0143397385,-0.07447312
-0.0080945175,-0.02239772,0.008020924,0.019263566,-0.08410023
0.02834149,0.03668114,0.023260541,0.016452877,0.0040821023
-0.013858406,-0.0149982,-0.03892055,0.0128362095,-0.04463431
0.023248507,0.07075927,0.006167208,0.02594603,0.02535728
-0.022827236,0.006255654,-0.027215255,-0.062790416,-0.017619746
-0.014873458,-0.043054126,-0.0039535225,-0.063627094,0.017110987
0.044553813,0.03632427,-0.02402125,-0.00523148,0.011383268
0.0307771,0.013992146,0.021828687,0.010464944,0.018634144
-0.011307595,-0.0048173047,0.057659786,0.058561612,0.009659536
0.001798361,-0.003069311,0.016012426,0.0062766373,0.053702217
0.017808415,-0.03979225,0.012725816,-0.022950336,-0.010554685
0.01674105,0.01108716,-0.053817675,-0.063563354,-0.01972489
0.03634698,-0.031469967,-0.027380738,0.007680237,-0.041952256
0.04355381,0.02708866,-0.027334599,0.034897238,-0.016496684
0.016969524,0.017577412,0.06283694,0.052520357,0.04991793
-0.038355794,-0.004867378,0.041465845,0.040016875,-0.022161681
-0.010601406,0.0037600286,-0.0022218565,0.012202799,-0.021913428
-0.013202172,0.043404464,0.0016499022,0.032341126,0.021134546
-0.021590823,0.0019427598,-0.008676915,0.011065296,-0.02446666
0.00080134324,0.027079714,0.00096498744,-0.022570089,0.01630288
0.016633216,0.032653064,0.015034371,0.0064299284,0.011148497
-0.012808414,-0.044326324,-0.0333932,-0.03498346,-0.008772667
-0.012779749,-0.014088339,-0.02537654,-0.042757075,-0.032907758
-0.035024576,-0.019701196,0.027873158,-0.016162476,0.014407823
0.0049448595,-0.03623159,-0.025157867,0.067341655,0.016066577
0.038869716,-0.0024644383,0.04133682,0.055948853,0.052656054
0.03225098,0.017612915,0.0032637403,-0.019866116,0.054205243
0.023266902,0.033839572,-0.036236323,0.005138521,-0.024881778
-0.001758539,-0.04934155,-0.01915259,-0.03273132,-0.033525087
0.009530604,-0.021092515,-0.04251994,0.029660475,0.012308612
0.027102549,-0.044741668,0.04093323,0.0115552405,0.012919356
-0.044971183,0.006201472,0.037965726,-0.016540533,-0.0067669195
-0.042885117,0.025064802,0.03943107,-0.027095232,-0.0020768845
-0.03963553,-0.0032980314,-0.015918022,0.020585531,0.026660625
0.009966998,0.04579808,0.03350169,0.012214896,0.006472738
0.032951795,-0.02870918,-0.012146849,-0.024790062,-0.037863746
-0.03967109,-0.03206907,-0.03968195,0.026472518,0.048433524
-0.041274216,0.019493215,-0.026393035,0.015227081,-0.0118930135
0.030871484,0.0029687432,0.04855688,-0.026955368,0.04131617
0.03213961,0.03391554,0.0018483651,-0.03224355,0.03368631
-0.033130478,-0.006859274,-0.03627963,0.034169864,-0.02742553
-0.011693511,-0.011351351,0.030590462,-0.01635862,0.04148485
0.019010348,-0.021010643,-0.019348716,0.019107236,-0.011770638
0.008598287,0.03619783,0.008750215,0.015900286,0.0017248514
-0.026787823,-0.022690058,0.017107263,0.0528208,0.07570266
0.03281508,0.011991209,-0.030234307,0.036791764,0.045397196
0.041068282,0.036985207,0.023412831,0.016037447,0.047907285
0.011557546,-0.046990637,-0.015375756,0.013189447,0.041121252
-0.017714996,0.0017773899,0.019790258,0.02755407,-0.0069217402
-0.00034566122,-0.043364123,0.010746088,-0.026725559,-0.014211172
-0.022859927,0.017660556,0.011452784,-0.0032525496,0.035297066
0.037379723,0.018917188,0.03864263,-0.025935622,0.00012113758
0.016000012,0.012695495,-0.030662978,0.0069070556,-0.002598868
0.056003347,0.0031353373,0.0007098674,0.027451294,-0.031146057
0.016419418,-0.037955955,0.017027423,-0.05450676,-0.03653301
0.02935976,-0.028082741,-0.018174434,-0.05667936,0.00044398662
0.04966938,-0.03142484,-0.034558915,-0.01692368,0.025084358
-0.033290744,-0.004741061,0.007437613,0.019536741,-0.04053039
-0.0074469643,-0.008121868,-0.01088722,-0.031758983,0.003844685
0.03972157,-0.0024460515,-0.023923347,-0.014091626,-0.0018473116
0.04054634,0.02932195,0.046948772,0.022000348,0.0039772494
0.01782844,0.013632191,0.022989193,-0.033989917,0.023004206
-0.023804234,-0.0018644067,0.017488334,0.03264137,-0.039982688
-0.01568622,-0.03302678,-0.05166185,-0.02790241,-0.03369157
0.025181802,0.042863626,-0.026523575,0.0027891328,-0.02235579
0.0136066275,0.015624292,0.04405933,0.041089617,-0.051536836
0.017256165,-0.009573638,0.07065639,0.09342917,0.027567815
-0.015398262,-0.008504132,0.03194333,0.014947662,0.009538686
0.0015296612,0.03848386,0.044508155,-0.02947987,-0.04605869
-0.008945062,-0.027866405,0.044909276,0.029434618,0.01390946
0.017323159,0.028223187,0.0030828791,0.056140285,0.015110006
0.006675582,-0.02919727,-0.043523517,0.024361242,0.026446221
0.01800355,0.028365608,0.0049380898,0.025016295,-0.03812004
