0.03489595,-0.023871236,0.01210589,-0.03985087,-0.031777605
0.020670634,0.0020121236,0.0019838442,-0.029541528,-0.00033710044
0.035115767,0.02847452,0.040633325,0.007988488,-0.03907729
0.0017629709,-0.007006699,-0.018101385,0.00033621636,0.02339767
0.004227544,-0.027208872,0.049993318,-0.012937212,0.028191306
-0.009716837,-0.056229666,0.009125215,-0.0183643,0.031398438
-0.045466058,0.018814247,0.009264863,-0.024578929,-0.015371296
0.02620251,0.014685892,0.008813771,-0.023111152,-0.042373702
-0.0004925665,0.027433211,0.000746618,-0.020792669,-0.018924471
0.034523714,0.04573885,-0.039892793,-0.011610599,0.023093749
0.036397826,0.0017953273,-0.033796057,0.008941022,-0.043693088
0.071511775,0.06257474,0.05799845,0.034885276,-0.023029039
0.013297788,0.06393383,0.00076320855,0.023865972,0.05635628
-0.040530257,0.019754587,0.014826527,-0.01479159,-0.029276269
0.023515776,0.022056295,-0.052640084,0.018586744,0.024237178
0.034015063,-0.0129103875,0.03141823,-0.00155526,-0.023336522
0.022276312,-3.471409e-05,-0.029065693,-0.018945342,0.02940712
-0.011083736,0.03708709,-0.031038648,-0.0049627293,0.019566648
0.005651514,0.033331707,0.051441006,-0.004577364,0.020864673
0.011926776,-0.005549709,0.034419414,-0.04316563,-0.0029977474
0.020798359,-0.04114075,0.013748284,0.039803017,0.009916091
0.015614425,0.020267913,0.034362458,-0.039573785,-0.020871185
0.03903856,-0.03772075,0.013255551,-0.044446103,0.020901432
-0.005214013,-0.039836805,0.029415375,0.0068381783,-0.0066970456
0.0009168093,0.045245595,0.016056655,-0.012105416,0.011021512
0.0094558755,-0.021353085,0.018708456,-0.033851866,-0.011499501
0.045336854,0.041554533,0.06319259,0.054079544,-0.027703192
0.034497347,0.004774514,0.045179058,0.00035086978,0.031639364
-0.019649027,-0.015443489,-0.039485376,-0.06765039,-0.042755093
-0.026264487,-0.024698734,-0.041013952,-0.0016685696,0.030329017
0.005810673,-0.006364509,-0.028547196,-0.026424345,-0.0326161
-0.0368031,-0.008142186,0.0016392091,0.046887584,0.03456687
0.014387924,0.06457929,0.058974247,0.0073176282,-0.00114644
0.03508612,0.05812603,0.002959572,0.043632485,-0.013766974
0.022398397,0.023652561,-0.004147242,-0.051766578,0.025454983
0.036292013,0.011898257,0.039794195,-0.018082812,-0.03870751
-0.0072145937,-0.034694012,0.024549546,0.033156708,-0.013611652
-0.029946199,-0.04684832,-0.019803729,-0.01484214,0.014191877
-0.052363083,-0.01866267,-0.04042301,-0.008610516,0.01594648
-0.022494074,0.015017151,0.007306324,0.035705704,-0.009462484
-0.029162547,-0.045740508,-0.028314816,-0.033372525,-0.049092878
0.011987481,-0.037159678,0.005849229,0.009067284,-0.0036815125
0.0012855002,0.040046558,0.0138443895,-0.0065046106,0.031234717
-0.024859302,-0.022767665,0.013602958,0.018138003,0.0015155482
-0.026146937,-0.012820025,0.015416583,-0.03762734,0.051213156
-0.050619837,-0.03861197,-0.019852169,-0.04430664,0.016444847
0.020639801,-0.029225873,-0.040988237,0.011838371,0.052597325
0.023496415,0.024601668,0.009992035,0.046390742,-0.03561084
0.075145185,0.06135735,0.008070974,0.049681634,-0.02322991
0.027693864,0.0077432306,-0.032528203,0.028845822,0.008740755
-0.0033845678,0.032574046,0.047714643,0.0024421334,-0.006044679
-0.0015372637,-0.016144045,0.0049260496,0.0070288847,-0.04551715
-0.0012561209,-0.04698066,-0.0096645,-0.050840706,-0.025614187
-0.011095102,-0.020821497,0.023719143,0.016519122,0.00965577
-0.017121747,0.03008264,0.04026734,-0.022991365,-0.0060432674
-0.05396244,-0.007071054,-0.059233766,-0.031918336,0.012695376
0.005932141,-0.028143663,-0.04856353,-0.036994755,-0.020886319
-0.055205263,-0.02187185,0.034245282,0.013340921,0.06322112
0.032978997,-0.021999521,0.06012061,0.011939516,-0.010797159
0.043205664,0.04623865,0.024229972,-0.01280973,0.03704701
0.03291267,-0.009365431,0.0021487873,0.016004466,0.005760805
0.032836154,0.056575794,0.07216158,0.060722426,-0.02307461
0.029712392,0.10439111,0.078150876,-0.02241017,-0.03519118
0.035207134,0.044172775,-0.044569492,0.00043683738,0.022263873
-0.021398354,0.020804277,-0.043999147,-0.05280748,-0.018708115
-0.039490674,-0.053496726,-0.047435723,-0.027759114,-0.009107774
0.0032770345,-0.045065377,0.0229976,-0.05716085,0.011077585
-0.036975577,-0.04746912,-0.034885418,0.03721462,-0.009876588
-0.0016112924,0.037884735,0.053995404,0.014137884,0.017197112
0.061837282,0.07061978,0.0015339168,0.005259486,0.033015937
0.05169789,-0.01065659,0.002320501,0.010999408,0.020337056
0.029417593,0.019026214,0.03239362,0.028521398,-0.048005305
-0.037367985,-0.05030019,-0.02345199,0.024380885,-0.04841365
-0.06803377,-0.06998927,0.013732857,0.020764625,0.02445829
0.0032912788,-0.015384269,-0.047264103,-0.0026435934,0.036898524
-0.04235793,0.03069381,-0.014674665,-0.030582786,0.017732985
0.025510501,-0.04903988,-0.059817698,-0.061905906,0.0012283162
-0.0014723219,-0.017232593,0.041808028,-0.023687767,0.002206957
-0.0066683046,0.011109491,0.058741827,-0.0019063671,-0.029554384
0.003190667,-0.016771704,0.041708257,-0.011592214,0.007915864
-0.012920854,-0.037984617,-0.008401306,-0.009783245,0.008876628
0.037845694,0.06811635,0.04987588,0.06731328,-0.026630523
0.048908662,0.009422688,0.022446183,0.03462965,0.014960286
-0.005533796,-0.0012114863,-0.04758598,0.019000351,-0.014798618
-0.050182234,0.004153171,-0.0148723945,-0.043321703,-0.0008450284
0.0018217387,-0.02057727,-0.013081296,-0.018723425,0.0018802936
0.043320213,0.015680598,0.046298817,0.0035508596,-0.0071056336
0.036348235,-0.0015556094,-0.042447846,-0.018822024,0.019778986
0.033770535,-0.01204603,0.025991566,0.0081001865,-0.019981889
-0.018112151,0.01061355,0.0115942275,-0.042012647,-0.023212211
-0.05358198,-0.019600498,-0.052781984,0.008492816,0.027249292
-0.03911268,0.0020378816,-0.025683254,0.0113091245,0.013391473
0.030196166,-0.028641475,-0.010577714,0.014360249,-0.04979302
-0.0102916425,-0.0021872714,-0.025713505,0.028096182,-0.035595085
-0.0119553525,-0.016707346,0.006506601,0.04997171,0.022895874
0.025746422,-0.04002418,-0.025845641,0.016204458,-0.021363497
0.03022664,0.042753927,0.036088284,-0.03238582,0.027649954
-0.04266256,0.014921206,0.04503133,0.02930343,0.04355436
-0.052657988,-0.043140776,-0.021957869,-0.024686743,0.047625735
0.03842881,-0.011914296,-0.035374023,0.022615265,0.0010789651
