0.037232652,-0.037571043,0.05002752,-0.009447143,0.024547517,0.019545048,-0.03972064,-0.04556046,-0.05923169,0.03807228,-0.02375554,-0.0458151,-0.047164004,0.054986157,-0.035192344,0.045506686,0.019010017,0.03929237,0.01584712,0.04272814,0.048792154,0.017581696,0.028870847,0.034203213,0.0084880935,0.08111232,0.07211897,0.056629978,0.039579786,-0.036499258,0.036397792,0.06830356,0.0009425574,-0.06732782,-0.07140988,-0.036470115,0.05869537,-0.004890973,0.030268712,-0.04979864,0.07343278,-0.021573469,0.008967192,-0.03484101,0.029483821,-0.010884754,0.012944707,0.050331518,0.095989175,0.08911944,0.019711284,-0.09555104,-0.0068621417,0.02349204,0.009695072,0.0077836486,0.03182019,-0.06714068,0.0523732,0.018167803,0.044414382,-0.046468277,0.016890308,0.0084827375,0.038162496,-0.09208553,-0.025943443,-0.03763523,0.013076577,0.023461431,-0.024217136,-0.038774442,0.07751789,0.012708219,0.09024811,-0.04904016,-0.022364583,0.011763073,-0.029749643,0.0038661323,0.04583551,-0.029713372,-0.0462361,0.027193353,-0.013449692,-0.024665799,0.048531514,-0.004930343,-0.07414953,-0.025226342,-0.010543204,-0.03811952,-0.024297053,0.08616529,0.00075391924,0.037913993,0.023998035,-0.055827416,0.039189074,0.03194237,-0.06474958,0.0017307085,-0.01902805,-0.087306835,0.03636132,0.014827271,0.027560811,-0.055626452,-0.0030709966,-0.06396389,-0.0017382604,0.03887066,-0.050697256,-0.017464872,0.080605306,0.059051383,0.037356216,-0.0064402814,0.009388927,0.12790474,-0.008407061,0.03910502,0.05793067,0.005477034,0.0054262057,0.010247467,-0.016035128,0.03329592,-0.025642727,0.0017641352,-0.013059033,-0.016814306,0.030995648,-0.056925576,0.04021245,0.03658672,0.0053869844,-0.02662284,-0.0012147173,0.012622658,0.041445915,0.03738281,-0.03652212,-0.05718583,0.022813596,0.06497853,-0.09315078,-0.031472836,0.016247155,-0.03681772,0.030952955,0.028308654,-0.04055798,0.02728431,0.046655357,0.068593636,0.013813506,0.016042555,-0.03552254,-0.03174352,0.003415212,0.072631136,0.0128674675,-0.023937587,0.05956439,0.010197379,-0.0062713386,-0.001054643,-0.028592315,-0.05818136,-0.03719521,-0.030836064,-0.031503987,0.04864406,0.0053280853,-0.053036105,-0.002036593,0.0075398795,-0.041741177,-0.0127594005,-0.0064462787,0.05881417,0.041752808,0.052123014,-0.026091753,0.049475756,0.011650888,-0.03159902,-0.03523459,0.0208053,-0.037576605,0.04241413,-0.04321927,0.038778737,-0.073978476,0.06691697,0.02010674,0.045455135,0.023642423,0.014043871,0.022302255,-0.043310955,0.041036777,0.018858254,0.090609826,-0.008819156,0.06758699,0.013222098,-0.02016379,-0.008957809,-0.019666715,0.03940307,-0.00067850394,-0.06584216,-0.002854455,-0.07432113,-0.010446829,0.044553787,-0.008770329,0.022649454,-0.02474735,-0.010323549,-0.024532763,0.036791667,0.0010544879,0.0021900155,0.014999985,0.014343855,-0.0004752776,0.013870951,-0.00260827,-0.039408855,-0.017384097,-0.037162904,-0.030077532,0.020947007,-0.09666535,0.07638174,0.047627226,-0.018349107,0.028233953,-0.037627865,-0.048842605,-0.02061004,-0.06674823,0.035103038,-0.05220648,0.04065316,0.007105891,-0.019603537,0.0037884745,0.035761263,0.017936543,-0.0039265105,0.040926073,0.027852012,-0.027131587,-0.010312754,-0.0012361311,-0.027169311,-0.029337306,-0.012894961,-0.016177477,-0.022763846,-0.018924374,-0.0052581434,-0.03621128,-0.02405039,0.03537211,-0.0842918,-0.044909198,-0.0093451515,-0.02608001,0.023904474,0.029811094,0.0044288067,0.0016720387,-0.0011837678,-0.05586532,-0.038982783,0.023267107,-0.0112005435,0.023250993,-0.07505589,0.037832897,-0.018613826,0.04242323,0.03010442,0.07352111,-0.0902832,0.027137434,0.023347145,-0.022777386,-0.014257579,-0.032309458,-0.025133982,-0.018045288,-0.05517683,0.07727821,0.01374639,0.042831488,-0.045454986,-0.053528927,0.101030394,0.026919277,0.02947335,0.02372129,-0.066090785,-0.021565638,-0.054515343,-0.09748439,0.005687735,-0.00012014924,-0.01253454,-0.021650102,-0.029246207,-0.016189264,0.0069674486,-0.013304168,-0.065879844,-0.00030194482,0.04610651,0.088599674,-0.039688915,-0.007329788,0.011630296,0.040255968,0.002889691,-0.020553453,-0.046639513,0.081952,-0.078452095,-0.017413713,-0.040298425,0.0044361744,-0.021638734,-0.008984659,-0.039957207,0.024201605,-0.057670992,0.045328144,-0.03797588,-0.036929496,0.022356614,0.046873588,0.02063638,0.025142653,-0.032364123,0.022417106,0.039785538,-0.0038453974,-0.011833745,-0.01469704,0.04941672,0.035680104,-0.02934703,0.0032958542,-0.0067307204,-0.062387258,0.056780107,0.0134979095,0.020729298,0.033515383,-0.07817145,-0.08755313,0.038415447,0.02901409,0.0044379164,0.028819583,0.004848994,0.07018781,0.041464716,0.03455976,0.09740105,0.032414198,0.018482821,-0.018068869,-0.023633186,-0.024926744,-0.10351657,-0.0054902467,0.07121287,-0.07703395,-0.047889534,0.018370364,0.0035527376,-0.09523222,0.013985528,-0.028440373,0.063898966,0.062846996,0.0073762597,0.093178086,0.004242541,0.016018808,-0.03900188,-0.012047532,-0.07052811,-0.00657282,0.002959595,0.017743183,-0.016594034,0.0147342095,0.053267747,0.00830491,-0.020177603,0.089075334,-0.0026143987,-0.031982575,-0.0075638434,0.07732979,0.08050592,-0.026148934,0.0036283669,-0.097463496,-0.033441897,0.0087953685,-0.0018664856,0.06211953,-0.08869746,0.08327136,0.037144043,-0.016673425,0.023065444,0.026314398,-0.0029759938,-0.07785086,0.015020625,-0.03778426,-0.025939802,-0.019715307,0.03082239,0.08671259,-0.021203648,-0.07762715,0.02890555,-0.010186284,-0.012785347,0.03321787,-0.0834658,0.04346148,0.03749947,-0.029810347,-0.10434962,0.037289202,-0.017609349,-0.006985596,0.018741433,-0.028994791,-0.030433452,0.040401787,-0.022102907,-0.096631214,0.06734036,-0.07104768,0.0054217135,0.029987736,0.02906908,0.024360865,-0.023057336,0.03705468,-0.003504217,-0.101839095,0.019186264,0.039190203,-0.031193916,0.014666413,0.0004209534,-0.06971934,0.05022283,-0.037877377,0.060342573,0.03898023,-0.11215111,0.019795433,-0.05080891,-0.0103760315,0.049342975,-0.0122077465,0.104050346,-0.034100413,-0.063571334,0.02570834,-0.016142476,-0.07063949,0.0038805658,0.03102967,0.043432124,-0.031462733,-0.033970743,-0.021542182,-0.056813296,0.036804993,0.024428116,-0.04241739,0.06971488,0.038835514,-0.068033576,0.0036559072,0.0073671727
-0.06287573,0.085306756,-0.07472999,-0.0003638079,0.003407601,-0.019617658,-0.032644745,0.038218543,-0.019624641,0.021768572,0.03215885,0.07428335,-0.042498317,-0.09862418,0.10087652,-0.06586531,0.013531312,0.0034831318,0.009298625,0.029636012,0.021309821,0.025978155,-0.0008983548,-0.079263315,0.09606021,-0.0782233,-0.091835886,-0.021726895,0.07349673,-0.00017208957,-0.017186988,0.031530272,0.0005377725,-0.035497252,0.029849099,-0.004299802,0.006055381,0.05155263,0.0006504777,0.079503804,-0.03845644,-0.0045880224,0.006326039,0.018371036,0.058922,-0.013681319,0.013508081,0.038956784,-0.047412578,-0.027975207,0.038994934,0.020696672,0.004617531,-0.085932426,0.06829446,0.110165745,0.011556363,0.016421381,0.018673036,-0.020936677,0.05361672,-0.015330544,0.04430244,0.024866037,0.04829083,0.05286797,0.0054902416,0.040854357,0.03477053,-0.044671185,0.011346641,-0.05682174,-0.077523455,0.028872356,0.0076008374,0.007817836,0.0326903,-0.019984428,0.1012616,-0.04208879,0.085819736,0.037099782,0.039827492,-0.028899476,0.0057484126,-0.04263021,0.018604914,0.05551865,-0.02656105,-0.039086416,-0.051667232,0.015323607,-0.0388858,0.011346492,-0.05404068,0.049959246,0.033694174,-0.052672345,0.024060605,0.06072877,-0.00039181294,-0.013369599,-0.014986606,0.059600398,-0.03731691,-0.06920662,-0.00067627797,0.050761625,0.0003498781,0.04337895,-0.0034520647,-0.0031046467,-0.012368558,-0.053315938,-0.052065972,0.019512413,0.059058715,0.05555849,0.020893108,-0.084644765,0.027783679,0.02075848,-0.043426223,0.012563374,-0.03955667,-0.026554998,0.015980937,-0.022017147,0.02022977,0.005726277,-0.042211276,-0.04063596,-0.043331753,0.071037635,0.019312913,-0.03265965,0.07818743,0.02117545,0.10415351,0.0015417369,0.06743404,0.034974676,0.040636946,-0.06525828,0.08668727,0.016545428,0.05107519,-0.003043059,0.0064970646,-0.013662759,0.028658899,0.07470903,-0.03959733,0.007826893,0.039704476,-0.008534148,0.05630156,-0.07133601,0.012513166,0.01341256,0.09392033,0.05195474,0.061320998,0.0057774177,0.0043381522,-0.039262705,0.11063319,0.014465919,0.034230463,-0.017751189,0.07081461,0.043772504,0.00858591,-0.07337842,-0.039365787,0.031368338,0.051842023,0.04098626,-0.023762252,-0.018655987,-0.03092126,0.022156296,0.02727923,0.029144103,0.01569139,-0.03672409,-0.0063143075,0.0029299995,-0.021216681,-0.0644392,-0.009319289,-0.07182561,0.020189138,-0.008312179,0.051215384,-0.037995584,-0.026356943,-0.118167095,-0.08621821,0.022630185,-0.041973148,0.039988156,0.08396307,0.027204264,-0.035301737,-0.022538261,0.03737321,0.03133245,-0.005781103,0.02659344,-0.03344713,0.045420296,0.016079668,0.05796046,-0.068111904,-0.0032400035,-0.016239963,-0.0776985,0.005449005,0.07826846,0.05036446,0.0739985,-0.013389496,0.06450359,-0.0289731,0.010364053,-0.03996043,-0.09780042,0.094264954,0.026860451,0.04525005,0.065193616,0.05039684,0.028886244,0.031664096,0.07845439,-0.053441066,0.10511791,-0.021000179,0.056934815,0.039999537,-0.04179282,-0.04023701,0.017090337,-0.07116746,0.056172993,-0.054838724,-0.012293751,-0.019096954,-0.023478277,0.0070224307,-0.006847454,-0.03748572,-0.050266378,-0.095002025,0.031555507,0.005562974,0.014878164,0.059454564,-0.034701623,-0.020284684,0.0381944,-0.026410965,0.0141311865,-0.004756605,-0.016772779,-0.017345719,0.05892204,-0.04621654,-0.045504004,-0.0057794373,-0.025419777,0.028528716,-0.061506893,0.012821498,0.02815695,0.05886623,0.017473234,-0.05288231,0.027947418,0.10064949,-0.012754861,-0.047659546,0.043505725,0.039158583,-0.0061241863,-0.026940446,0.016920917,-0.015570224,0.095721476,0.027906349,0.04280979,0.029946836,-0.037631534,-0.0075991126,0.021973103,0.016302595,-0.009206227,-0.013023391,-0.005797696,0.0075106914,-0.08196955,0.041452795,0.06365499,0.039848518,-0.05758033,0.03347394,-0.036121603,0.023612292,-0.039581858,0.10707311,-0.015097516,-0.0038677924,0.042903744,-0.053229384,-0.029156392,-0.0016839775,0.06260895,0.043596044,-0.057597402,0.08684871,-0.01625409,-0.11006646,0.028034355,0.05991538,0.03011206,-0.012482821,0.09918223,0.027303204,0.046115015,-0.10654774,-0.06651351,-0.03336952,0.03749007,-0.090489425,0.034264278,-0.0069732694,0.06949908,0.039983347,-0.10144261,0.012804829,0.018045142,-0.038707867,0.00013130651,-0.003576167,-0.053260345,-0.033037193,-0.05766043,-0.043131813,-0.009436613,-0.029198803,0.07091863,0.022152264,-0.014454719,0.010796791,-0.037389252,-0.01849784,-0.009677951,-0.097157165,0.041208237,0.07936645,-0.08185443,-0.035524614,0.05862598,-0.026289556,0.025182433,-0.03294534,-0.033500824,0.07293525,0.015984314,-0.08812125,-0.07524901,-0.030477105,0.03567947,0.06388948,-0.01450389,-0.04213274,0.10867869,0.028227018,0.037328172,0.017699657,0.0044808267,-0.045102917,0.02754878,0.034132645,0.00026202493,-0.025105618,-0.04266345,-0.00052228605,-0.031721957,-0.053754404,-0.01518201,0.0031663245,-0.061630085,-0.0143392,-0.017951885,-0.0065857526,0.02147849,-0.0488183,0.0372535,0.048533514,-0.0046276757,-0.08372333,-0.06732508,-0.015528655,-0.029876452,0.042637687,-0.034912016,0.0120471995,0.020070085,-0.08193832,-0.010047133,0.065649234,-0.027867138,0.04283658,-0.0012081742,-0.0067856587,0.102458335,0.018064246,0.05601218,-0.08571741,-0.008354486,-0.07748484,0.034444667,-0.0032180608,0.0029789773,-0.0021341275,0.08120718,0.009689688,-0.025256272,0.03380148,0.051907953,-0.06060383,0.056779668,-0.032740667,-0.010731274,-0.01940796,-0.022427738,-0.043388546,0.019495646,-0.022770366,0.02768182,-0.022484308,-0.01902311,0.004809186,-0.043016132,0.03594698,0.028956309,-0.013913101,0.018734593,-0.039403155,0.007935419,-0.090804555,-0.009153684,0.0060302736,0.071448825,0.027676547,-0.012077553,-0.07849212,0.018449057,0.024634846,0.011898911,-0.052772686,0.08660655,-0.00856061,0.0398652,0.0716801,-0.022643885,-0.05569953,0.10791869,0.065960854,0.028817892,0.04640529,-0.05381976,-0.009755311,-0.003119553,0.020104652,0.042013727,0.012912293,-0.039345037,0.045643594,-0.09288471,0.08447924,0.057595916,-0.07530416,-0.015131034,0.024446072,-0.006266639,0.0521791,0.04391355,-0.040689196,-0.0011066672,0.051615052,-0.08217791,0.02280902,0.031904407,-0.04545284,0.0018678438,-0.021433465,0.0749486
0.04528448,-0.08765097,-0.016257506,0.01135339,-0.051863812,-0.04346136,-0.044666644,-0.008410707,0.0033516344,-0.04217461,-0.09671618,-0.07728134,-0.053123374,0.08377248,-0.0010935192,0.020154573,0.02293423,-0.0013804993,-0.032920953,-0.076006465,-0.020828424,0.019958425,-0.011825902,0.019364178,0.06881603,0.051497675,0.06461542,0.04057556,0.051569164,-0.015875401,-0.048234094,0.041494787,-0.048976786,-0.097063996,-0.08131491,-0.060375705,0.019513534,-0.03679469,0.053222775,-0.013471397,-0.07513185,-0.08056412,0.028608939,0.0054026865,-0.034435265,-0.051458854,0.0079281125,0.03347405,0.040781327,0.043531366,-0.0441061,-0.08337135,-0.07553028,0.06424834,0.09468496,-0.071211606,-0.04491413,0.080712594,0.024133485,-0.013049262,-0.048900273,0.039991066,0.010507057,0.03146456,0.027668642,-0.04907969,0.038364965,-0.07201556,-0.0025959206,-0.013879348,-0.039742783,0.019764854,-0.04664289,-0.060006432,0.05965936,0.014338713,0.09552196,0.028136456,0.0001991037,0.019675273,-0.019813927,0.06722684,-0.11717688,0.024320936,0.07933766,0.059992474,0.074335314,0.060534537,-0.0035673839,-0.01675294,0.014893185,0.0050154296,0.0582017,-0.08320349,0.09384815,-0.031927686,0.015290104,-0.019971771,0.04722071,0.017385712,0.08913153,0.0050888844,0.06787094,0.06496902,-0.037209712,-0.015666798,-0.0067823203,0.06079854,-0.0064771627,-0.06040043,-0.051728014,-0.017222917,0.021423,0.058785513,0.015494673,-0.06995634,0.058433354,0.0017345484,-0.040472776,-0.00034887923,-0.050636996,-0.02146459,0.091184326,-0.015943058,0.006831374,-0.007911876,0.03486438,-0.011902645,-0.024978112,-0.057141256,-0.00056791754,0.014741653,-0.013967948,0.059977014,0.063934766,-0.03740443,-0.12503941,0.036941454,0.06721445,-0.01143417,0.0743775,-0.005551752,0.020171203,0.023614902,-0.0034487615,0.068326816,-0.109872095,0.06435087,0.055550206,0.06118349,0.05041338,-0.0928714,-0.041989222,0.09510905,-0.012724396,0.044552956,-0.06254287,-0.034478985,0.013182302,-0.02526078,0.060531013,0.014888656,-0.14778696,0.014591483,0.05879227,-0.0419104,-0.044849966,-0.036848117,-0.008886435,-0.017956274,-0.017594494,0.00940601,-0.0050089816,-0.021575565,0.0075577735,-0.048829455,-0.07011243,-0.0010077433,-0.0111914575,-0.034206707,0.098482125,-0.08930548,-0.042178567,0.079521246,0.031522825,-0.09616635,-0.14741093,0.017103326,-0.061092272,0.07538635,0.03423182,-0.07613819,0.049616534,-0.01211923,0.05556785,0.06316197,-0.046419203,-0.010545539,0.04712423,0.061176747,0.01931222,-0.010316375,-0.012460491,-0.03589039,0.048279054,-0.062981494,-0.016317604,0.012733253,-0.028961258,0.0743431,-0.06134443,0.00056373887,0.0035247987,-0.034951653,-0.027057419,0.08536655,0.022116039,0.08230811,0.04125455,0.06779589,-0.015633263,0.056312755,0.041123953,0.031420425,0.0025888046,0.030469574,-0.022182643,0.04594266,-0.034128882,0.105733655,-0.026122091,-0.031057386,0.103304185,0.030828552,-0.038978893,-0.029009193,-0.012420922,0.0028200666,0.048306707,0.085904025,0.009728755,0.08932157,-0.02926836,-0.017297862,0.09818815,0.10095983,0.04340685,0.054955088,0.061063275,-0.015516229,0.010942048,-0.014437715,-0.04096083,-0.09392501,0.092468604,0.0741993,0.082293466,-0.018499231,-0.053606503,-0.030393608,0.07400574,0.014775656,0.05647404,0.035616953,0.04597705,0.022238467,0.020576356,0.0119187245,0.028005399,0.036275107,0.028274775,-0.016036347,-0.04036212,-0.020537604,-0.0050615696,-0.041900065,-0.017379278,0.032395117,-0.014492657,-0.035674684,-0.0015575361,0.03198062,-0.081516154,-0.06579307,0.0047958638,0.041402012,-0.04435832,0.03259513,-0.01440584,0.02554892,-0.043018542,0.017355546,0.077388026,-0.034898613,0.033132136,0.008872005,0.055215873,-0.013738212,-0.007159973,-0.031189796,-0.08367106,0.029522683,-0.08423257,0.045088764,0.020883111,-0.015263985,0.07204984,0.049138587,-0.020015264,-0.060422618,-0.0018248934,0.037633494,-0.034159288,-0.0038474703,-0.03508247,-0.01537111,0.029663255,-0.008772798,0.065925755,0.05305542,0.019973047,-0.021814508,0.08412566,-0.0007495801,-0.032946713,-0.019930925,-0.047877375,-0.05394414,0.042050105,0.08673898,0.027212765,0.022834275,-0.01132343,-0.0012620839,-0.10549374,-0.060699873,-0.08174174,0.016814154,0.037474714,-0.018991474,0.07610022,0.0021638123,-0.047454335,-0.051677465,-0.040088452,0.039170694,-0.0034599225,0.029416455,0.023986546,-0.034349516,-0.0072224787,-0.0034883097,0.04534825,-0.051873405,-0.006525496,0.038174376,-0.014884358,0.021043725,-0.035167914,0.054015532,-0.104287855,-0.050306767,0.028937202,-0.066502474,0.05482165,-0.043998037,0.023014642,0.031142447,0.021103613,-0.05392658,0.013728253,0.042627595,0.015502921,-0.020035705,0.023904093,0.06374665,0.029271875,0.064684466,0.028308524,-0.09264642,-0.026841661,-0.04722015,0.00055966084,0.10758159,0.0057331296,-0.053707674,0.07268606,0.032552116,-0.041609894,-0.036269512,-0.101113565,-0.017106157,-0.08504228,0.07893377,-0.0004566496,0.032247037,0.0072663724,-0.12130176,0.06465142,0.044791285,-0.025998546,-0.033094585,-0.0780467,-0.012487026,0.054811496,0.008887706,0.04415969,0.018133724,-0.017302476,-0.028878843,-0.045485675,-0.01439436,0.05496107,0.043760315,-0.07387155,-0.026309045,0.03199625,-0.0638961,-0.038783792,0.109965496,0.01749438,-0.0063283145,-0.034152348,0.026836172,-0.011536567,0.043703828,-0.034341954,0.07626325,-0.035989605,0.009064232,0.023596173,0.043306638,-0.019088851,0.040890865,-0.05272243,-0.032411687,-0.0024181157,0.021753596,-0.042542655,-0.087584026,-0.07574442,0.056810413,0.034223445,-0.0441058,-0.036298662,-0.05155584,0.047627132,-0.0027550266,0.083154686,-0.047739618,-0.02701605,0.018197771,-0.07816582,0.061958957,0.043159496,0.048656356,-0.009473615,0.05945465,-0.06662302,-0.026101908,-0.03651098,-0.0073634265,-0.058774244,0.027824925,0.029683137,0.001348593,-0.008367457,-0.053243697,-0.065852694,-0.00937231,-0.048504867,-0.054036003,0.034788333,-0.06459625,0.09069826,-0.022415938,-0.015460271,-0.054758374,0.07222038,-0.020318061,0.08783915,-0.11958899,-0.06532414,-0.0009246785,0.062575996,0.018633096,0.01414368,-0.008620443,0.019682452,-0.04953597,-0.025106994,-0.015988652,0.027957056,-0.022326445,-0.049750164,0.073259026,-0.08565803,-0.06345319,0.0053619603,0.023847483
-0.05080083,-0.00390054,-0.037539553,0.025053725,0.020792343,-0.016442621,0.01182392,0.010571866,0.0684424,0.051094025,0.11811435,0.0085510705,-0.023002725,0.02345383,-0.005910292,-0.0134840375,-0.0018220174,-0.03682568,-0.016717035,-0.08364869,0.07461964,0.032122884,0.038194623,-0.050399926,-0.15365233,0.051010627,-0.049079712,0.029991861,0.0046827192,0.08361081,0.00871664,0.013449101,0.016605679,0.110755906,0.06292347,0.0795029,-0.035651073,-0.040526185,-0.03748178,-0.0895798,-0.031295314,0.021465393,0.03863819,0.012858121,-0.063707136,-0.06504992,0.032055933,-0.069050394,-0.05158003,0.008941857,-0.007019911,-0.03107963,-0.00014321253,0.04076666,-0.055733684,-0.036734845,-0.007055064,0.052206375,0.09713603,-0.080378965,-0.11027235,0.037492227,-0.007439974,0.023822244,0.042354155,-0.06513681,0.028818404,0.01260368,0.022574184,0.061801303,-0.0145714525,-0.006514398,-0.026344372,-0.0036610526,-0.100792006,0.035707563,0.015362601,-0.07355289,0.034990042,-0.025804322,0.059000876,0.013966334,0.025899043,0.0102334535,-0.026529137,-0.018935105,-0.085104994,-0.01248713,0.08604207,0.026797699,0.026652036,0.018744666,-0.03030514,-0.005942811,0.0708516,0.04217951,-0.0060962266,-0.07806815,-0.046278127,-0.041435808,-0.084698886,-0.004355791,-0.004522568,-0.027063198,0.04007939,-0.08489077,0.025224587,-0.011184561,-0.03975321,0.042840682,0.07588964,-0.026663505,0.07129582,0.12701268,0.053261623,0.020353375,0.023743017,-0.028229019,0.035044327,-0.050666753,-0.039603136,0.041153215,0.016015502,0.009649529,-0.011602666,0.03097881,-0.02100365,-0.030367017,0.026320918,-0.050075203,0.023342187,-0.0029279706,-0.02877079,0.049366534,-0.052346554,0.0138978,0.08587178,0.00029013513,-0.05042143,-0.03194465,-0.07739552,-0.034335647,-0.06761079,0.025494479,-0.061885912,-0.10464058,0.068794034,-0.062290188,0.04582423,0.012195131,-0.031019948,-0.024736414,0.002799901,0.08237622,-0.022559086,0.03371262,0.020130161,0.023662282,-0.03492116,-0.0010233445,-0.009106373,-0.010525255,-0.019068075,0.055319577,0.009203516,-0.014921536,-0.028868921,-0.04238356,0.04907265,0.012026544,0.051585313,0.01929473,-0.037284657,-0.061862323,-0.018251209,-0.08068573,0.013010398,-0.042526226,0.09996291,0.063909054,-0.023198621,-0.031462263,-0.0008822944,-0.014296887,-0.010079262,-0.055847034,0.00941775,0.020322785,0.018176405,0.06292138,0.019544248,0.101362616,-0.046302292,-0.0024448107,-0.028923778,-0.03596671,0.041199926,-0.02574469,0.023832923,0.13419536,-0.02958328,0.048846338,-0.015810512,0.028318487,-0.08841432,-0.0015478197,-0.050355386,-0.013496626,0.02835473,0.01746999,0.014993797,0.11312342,-0.048321918,-0.028287731,-0.069924325,-0.0053345184,-0.012735109,0.008048291,-0.0051879943,-0.0119531015,0.026742687,-0.10902456,-0.040653102,-0.062216975,-0.096245155,0.032589536,0.044494312,0.037483137,0.009637529,0.070985824,0.035265062,-0.08265964,0.009093255,-0.04642256,0.019559426,-0.034051377,0.04428426,-0.0066363555,0.008282889,-0.036959544,0.02868072,-0.03466444,-0.019137787,0.020362085,-0.034794364,0.0042315773,-0.12177072,0.01736044,-0.04412528,0.009974937,0.008867537,-0.047890116,-0.031732216,-0.07860251,0.021260852,0.021274785,-0.044637572,-0.01929821,0.01707258,0.029120361,0.019606385,-0.05149982,-0.055050854,0.023527851,-0.08759992,-0.022853777,0.080272116,-0.07657967,-0.0012388317,0.00033492607,0.04856411,-0.07509657,-0.0013668496,0.058465935,-0.09887838,-0.0146684125,0.006113267,0.013908467,0.050147735,-0.035894137,-0.02881134,0.022688486,0.051620513,0.033946257,0.015858294,-0.044459622,-0.017523117,0.05522109,-0.12101864,-0.08392797,0.002585599,0.026438301,0.0822411,0.03903411,0.05360736,0.014195976,0.09704387,0.061482884,-0.05435456,-0.021771794,-0.08450276,0.03775528,0.06657911,-0.0032211975,-0.029384466,0.076327406,0.0052170474,-0.023267591,-0.004896882,0.05623472,0.07852962,0.0028810175,0.030353747,-0.014655204,0.025213785,0.040198658,0.044751424,-0.07767645,-0.095869355,0.04688417,-0.063520804,0.10234681,-0.050405517,0.01677038,-0.02684289,-0.026816074,0.03761842,-0.036210082,-0.062213708,0.017420076,0.01823879,0.022278387,0.051819015,-0.013818068,-0.035398036,0.0388109,0.049541257,0.05577989,-0.036786698,0.066157825,0.009861152,0.032607693,0.0076943985,-0.035103258,-0.100378335,-0.025626965,-0.030351514,-0.09194017,0.049145978,0.071305156,0.047703404,-0.016023202,0.06591009,-0.043525375,0.02701584,-0.010529417,0.078416266,-0.014002215,-0.03089655,-0.084868856,0.017457925,0.09323197,0.031168347,0.11539994,0.083701685,0.023370672,-0.0011727603,0.017940715,0.038724817,-0.020425957,0.02471353,0.07341435,-0.034732077,-0.057625655,0.09772896,0.043845695,-0.001414534,0.012320023,-0.02433966,0.025029825,0.017902553,-0.06671434,0.07064192,-0.025078773,-0.07148915,-0.013522859,0.023769157,-0.047987565,0.018253919,-0.015079068,-0.09124909,-0.007992313,-0.09450063,-0.05158415,0.03164097,-0.05310005,-0.03220267,0.008390078,-0.014389542,-0.03380079,-0.069179416,-0.03373098,0.020865388,0.04526456,0.008793861,-0.013611207,0.017586768,0.010397499,0.016540624,-0.0001824464,0.016506292,-0.033644415,0.05474554,0.060973458,0.078183964,-0.021001427,-0.011541075,0.10234839,-0.14102517,0.056229044,-0.10392471,0.036405526,-0.005914793,-0.02413672,-0.029618198,-0.04164745,-0.07968689,-0.026941596,0.005856563,0.05276384,-0.027384521,-0.0023458088,-0.07306185,-0.032446716,0.06145988,-0.006389136,0.010912365,-0.012976833,0.017213074,0.13052577,0.08454827,-0.07499706,0.039307468,0.085652694,0.0036094028,0.01706013,0.010650991,0.0034474612,-0.07653457,0.09500532,-0.021957297,0.11435129,0.026078755,0.051436923,-0.070005536,-0.06905968,0.00060233317,-0.03218254,0.03722387,-0.02852631,-0.014579901,-0.067176335,-0.04284708,0.03657389,-0.008466195,0.012980702,-0.098685354,0.029343106,0.002188228,-0.07574897,-0.065452024,0.0011044282,-0.04434582,-0.07466358,-0.029764375,-0.08282321,0.017079428,-0.017050575,0.010039985,0.0056437463,-0.014965144,0.018752487,0.028210036,0.009187293,0.0067028753,0.03770114,-0.038780406,0.033239968,0.052287444,-0.036099274,0.034557637,0.056128193,-0.026999393,-0.026784312,0.03956435,-0.04560999,0.04738996,-0.04275544,0.009512638,-0.05908643
-0.07173981,0.10267983,0.031893704,0.10067704,-0.051676933,-0.0643328,0.019758567,0.13934751,0.078872986,-0.0995036,-0.061052367,0.10288679,-0.01145974,0.026830396,-0.01178734,0.032941937,0.003627292,-0.08341025,-0.009198331,-0.009807048,0.031875648,0.04282587,0.03568864,0.17369626,0.11714096,0.025995258,0.04744185,-0.034824114,0.056416776,-0.06500749,-0.07368395,0.07112325,0.06316446,-0.007992092,0.018162081,0.040440712,0.0035999923,0.0013568096,0.012715606,0.013743748,-0.049817093,0.052200858,0.031851914,0.040694986,0.0048300344,-0.042582795,0.018482573,0.035870917,-0.049506456,-0.10217329,0.023469498,0.06723404,0.016976723,-0.04423678,0.031666763,0.036689755,0.036728617,0.04698592,-0.112155944,-0.01140148,0.09133323,0.012830259,-0.013247311,0.07070895,0.042069197,0.022890437,0.034885548,0.07346562,-0.023394594,-0.045128867,0.06631679,-0.055052917,0.037912913,0.104762174,0.021361189,0.014762622,0.040141195,0.05362043,-0.031007688,0.015762178,-0.068106376,-0.03634355,0.042047292,-0.0085959835,-0.047406238,0.012726579,-0.05985242,-0.004577765,-0.022811275,-0.054541755,-0.00030026864,0.024826366,0.060264498,0.016453667,-0.07118863,-0.07731478,-0.015513078,0.010430882,0.0381155,0.06800709,0.046497013,-0.012402662,0.04442726,-0.07435475,0.010146327,0.05857086,0.021402549,-0.04766268,0.037382085,-0.035771262,0.027295878,-0.016810384,-0.053191427,-0.011204221,-0.06751122,-0.090676226,0.023481349,-0.010023973,-0.0069616055,-0.04762844,-0.0829416,0.024123022,-0.02647277,0.014555033,-0.0026812141,-0.0071790507,-0.018401776,-0.008816813,-0.0425075,-0.022347458,-0.020138562,-0.025884781,0.02650128,-0.0988434,-0.028995093,0.0318507,-0.017232256,0.037551723,-0.05635576,0.10025152,0.06113108,0.030191228,0.0067000547,0.0008494953,0.06906673,-0.04401517,0.06262387,0.053942036,0.035186812,-0.047423914,0.013836978,-0.024643963,0.039464127,-0.04023414,0.012567043,0.06779306,-0.016723262,0.09180261,-0.015637262,0.0011574306,-0.019241981,0.052256923,0.062075,0.024793029,0.017502122,0.032126024,0.026719706,-0.023983125,0.022951057,-0.0644975,-0.019092888,-0.039586242,0.0018706023,-0.062067077,0.02016245,0.109426446,0.0037154614,-0.042289257,-0.045029365,0.019152787,-0.06307149,0.040108185,0.041411877,0.00012593002,-0.019294867,-0.07304491,0.0069144717,0.042326067,-0.02955352,-0.0667804,-0.026563585,0.004072786,-0.039826076,0.031780273,-0.03450713,0.06666722,0.02623826,0.05698929,0.016854359,-0.035600144,-0.013325536,0.032178003,0.031058883,-0.016979236,-0.048786703,-0.008511797,0.00013885282,-0.034313004,-0.029714953,-0.043103673,-0.016814081,-0.11083171,-0.04181441,0.019090392,0.07316654,0.027755082,-0.022573775,-0.05267204,-0.012383186,-0.047130488,0.0036817095,0.059022572,0.039113507,-0.045678444,0.041877393,-0.0064000646,-0.015868219,-0.065515906,-0.031984683,-0.07898363,-0.043980435,-0.0022149715,-0.09249899,0.01580971,0.027799143,0.030578641,0.06474609,-0.04519226,0.019137314,-0.060571846,0.042676087,-0.001341256,0.052210614,0.004078777,-0.010354143,-0.06449144,0.104069024,-0.029908275,-0.017463394,0.108032376,0.040828038,0.000554341,-0.03246083,0.019927084,0.050473746,0.0029957572,0.00940505,-0.04595067,-0.035831872,-0.039553307,-0.045068145,0.01425774,-0.06576836,-0.030956183,0.008589617,-0.0172814,-0.044151157,0.057553448,-0.037989814,-0.05733813,-0.031563226,-0.02213896,-0.04659972,0.015016823,0.06880245,0.015395277,-0.006393012,-0.028813705,0.009706292,-0.088429086,0.033453315,0.0060888547,-0.03069318,0.06899882,-0.051545747,-0.08171148,-0.03897356,0.035552353,-0.01787636,-0.03512312,-0.035969116,-0.038919944,-0.1049137,-0.042185713,-0.09497368,0.051346753,-0.11673418,0.059641935,0.034041293,-0.007999174,0.054149527,-0.030723749,0.030967422,-0.012241683,0.06446169,0.006888917,0.07583612,0.0034846691,-0.017180804,0.07979386,-0.09037414,-0.03423665,-0.043664094,-0.004773603,-0.060074285,-0.002695363,0.02676393,-0.06712066,-0.011781003,0.021438261,0.01889165,-0.023227826,-0.019328533,0.034456603,0.07975092,-0.0202905,0.02183969,0.015685271,0.048888035,0.065853074,0.067738615,-0.056964,-0.08817063,0.011194166,0.066093236,0.030539747,-0.044925492,0.05721915,-0.022846948,-0.08618999,0.023085462,0.04326358,-0.03163463,0.03453163,0.005911278,-0.027033672,0.006360701,0.04937844,0.0076821456,-0.122746095,-0.00705386,-0.04252619,-0.073910244,0.05038079,-0.026648814,-0.009204169,0.018854218,0.0031560708,-0.04988902,0.00789854,0.014699161,-0.0038508468,-0.066868655,-0.063884564,0.019902535,0.027456589,0.038581006,0.0037879944,0.0004633978,-0.064207256,-0.09036104,-0.0080400305,0.03484087,-0.088337585,-0.022667121,0.031627454,-0.012122219,-0.0646519,0.034675516,0.060698032,0.034851417,-0.0058412678,-0.054723196,0.04841903,-0.059685968,0.04473725,-0.00830779,-0.01463269,0.014590797,0.081702106,0.07383624,0.011710652,0.05703635,0.019958174,-0.03868646,-0.03832789,0.04671103,0.08536695,0.02453945,0.0035014115,0.09215542,0.040628754,0.03790809,-0.082200535,0.014582539,0.0060824472,-0.12723444,-0.004885948,-0.030546863,-0.007754022,-0.0529226,-0.004213623,-0.009392503,-0.06477668,-0.016262662,-0.028212704,-0.04602144,-0.06021765,0.091507524,0.07893236,0.0041109268,-0.0018163966,0.00645367,0.018576374,-0.009460155,-0.024937376,0.06914003,0.034835637,0.05115205,0.055129815,-0.00284806,0.07518235,-0.014465689,-0.053787917,0.007853989,-0.020010104,0.038784653,0.041523695,-0.047251735,-0.098182805,-0.026276764,-0.041422803,0.020483356,0.042937823,0.023109335,-0.0011877075,-0.032240886,-0.056920346,0.052319977,-0.0019150329,0.025853502,-0.037788276,0.028957836,-0.0075973226,0.104491256,-0.025513157,-0.02115265,-0.12723453,-0.033479284,-0.034144983,0.015229582,0.014095727,0.03144086,-0.05845581,0.0062714415,0.01644442,-0.04116375,0.053260017,0.064533584,-0.052204575,0.106041335,0.08751476,0.023052797,-0.011039193,-0.065448105,0.024959719,0.0092399055,0.03322487,0.052555006,-0.011449973,-0.025260089,-0.06666479,0.014837471,0.058662206,-0.09831816,-0.034347065,0.0785272,0.0290748,0.09046242,0.12072406,-0.008405509,-0.03331399,-0.03734216,-0.09145234,-0.0015451828,-0.08147907,0.0774824,0.051266834,-0.0086547835,-0.048592072
0.056433238,-0.030009829,0.04905616,0.080411665,0.012700196,0.03192178,-0.008833013,-0.032807,-0.013601697,0.10443808,0.00065241667,-0.050283577,0.03601959,-0.06543918,0.024803301,0.021341901,0.035916798,0.043894313,-0.012357796,0.111809954,0.024114572,-0.07014778,0.027761633,-0.018482318,-0.09028165,-0.015583133,-0.05494118,-0.03369233,-0.102682464,0.041384384,0.042085297,-0.04568082,-0.027438866,0.12853362,-0.09272136,-0.03697052,0.087678745,0.017067982,-0.013189244,-0.0037727812,0.04264519,-0.031387676,0.00090681005,-0.00044723315,-0.00144267,-0.038197365,-0.038977966,-0.10663285,-0.07745243,-0.06908219,-0.036333293,0.08296384,-0.03172011,0.07192106,0.012576926,0.046116833,-0.014504042,-0.09505929,-0.0043756203,0.031261634,-0.06259843,0.019466003,0.042736527,-0.028621856,-0.057913534,0.11351888,-0.010740987,0.046593226,-0.014977789,-0.04147465,0.0199747,0.07066778,-0.05330206,-0.008954222,-0.02208516,0.033973962,0.039286144,-0.057533465,-0.05876305,-0.025828646,-0.032804467,0.017645324,0.0836639,0.07047841,-0.031259045,-0.030919287,-0.00083664403,-0.025801502,-0.013992829,0.04613534,0.031622574,0.030404294,0.025921352,-0.028788585,-0.00091753725,0.038750816,-0.00025514595,0.037810333,-0.025987841,-0.018538976,-0.06349236,-0.06531489,-0.0030637996,0.042462207,-0.033760667,0.06260604,0.032682493,0.015803285,0.012755417,0.05442632,0.037070237,-0.040953465,-0.062488586,0.043913376,-0.010202537,0.09101859,-0.07155953,-0.02492646,0.027498601,-0.02105914,0.07234209,-0.0055160457,0.014546051,0.02652928,-0.005787777,0.04144497,0.009024411,0.007717993,0.0025045378,0.0022316775,0.04041532,0.02048349,-0.04031618,0.058742184,0.04079882,-0.042346537,0.09545323,-0.031312197,0.0067937174,-0.067041755,-0.05873143,-0.05093435,0.025590789,0.023431323,-0.026415607,-0.0078029875,0.027976174,-0.07408692,-0.08563955,0.019582124,0.032960758,0.03200857,0.042466167,-0.06457392,-0.026484322,0.01337552,0.05294053,-0.037372287,0.027855167,0.055623848,-0.0019470039,-0.049315576,0.0048254076,-0.119360365,-0.0050277333,-0.021323282,0.058277313,0.09188114,-0.021833645,0.082861856,0.01307796,0.021827195,0.05311065,0.051151484,-0.01431257,0.0044762664,-0.0017260667,0.03046146,-0.047199167,-0.014430432,-0.10219808,0.059092935,-0.044740878,-0.0028421348,-0.035616573,0.08479194,-0.038612675,-0.018783161,0.002832592,-0.043091804,0.030564874,-0.019228432,0.06159603,-0.01635809,0.051949017,0.024424516,-0.028492576,0.044843547,0.008652493,-0.0087206615,0.0014048779,0.009587291,0.025558455,-0.004651684,0.029490013,-0.003450084,0.099009454,0.03175934,0.027279178,-0.028616622,0.05442366,0.038029455,-0.023521865,0.025867682,0.06281849,-0.11718484,-0.011460538,0.020253597,0.0037026464,-0.051156174,0.0558888,-0.10510473,-0.029560065,-0.027860459,0.0031825288,0.0227326,-0.036937986,0.008865488,-0.03671207,-0.062333085,-0.03554623,-0.0075323763,0.043475907,0.027669882,0.041355137,-0.016353173,-0.02352624,-0.038390487,-0.0478191,-0.020346884,0.017550036,-0.06308911,0.046700172,0.008341769,-0.0024035187,-0.0926107,-0.10511221,0.099159405,-0.029866053,-0.03290413,0.04010303,-0.025815297,0.038195506,0.12115776,-0.05064115,-0.067100994,0.06660338,0.005042077,-0.010766343,-0.019950703,-0.0009046364,-0.031060083,0.030020595,-0.01926094,-0.04131018,-0.005573249,0.08216746,0.04462537,0.03921311,-0.010255164,0.090257235,-0.008848026,0.041139994,-0.051616035,-0.09402977,0.027087057,-0.04108557,0.014311942,0.06995052,0.1294938,0.029871535,0.12822835,-0.06626246,-0.06853368,-0.011780394,0.12364875,-0.0328586,-0.0069234725,0.047591303,0.053009126,0.029694503,0.02013228,-0.0037105207,0.07571329,-0.095900826,0.028480511,-0.0017724602,0.0071689216,0.075954616,-0.015016373,0.029349033,0.011663437,-0.025380002,-0.08049302,0.018943949,0.04292042,-0.030293416,0.05906132,-0.030340664,0.05017989,-0.06433909,0.035296965,-0.011444729,-0.056717657,0.107732095,0.027419282,0.03275061,0.03365891,-0.055363085,0.07325876,-0.017790414,-0.0238609,-0.017176446,-0.040119708,-0.09856073,0.032034796,-0.025919188,0.044685297,0.031848982,-0.019106703,0.06647791,0.055149455,0.08082862,-0.032581694,0.07087365,0.04347409,0.072424,-0.11467975,0.03418107,0.012355913,0.025834564,0.03868749,-0.0104094865,0.044783026,0.09275632,-0.0424098,-0.04269832,-0.00791894,-0.016778005,-0.0033760925,0.06813549,0.041547447,0.08939034,-0.04995252,0.0067396224,-0.03553281,-0.045891277,0.036306668,0.01577185,-0.026003309,-0.011269956,0.040013302,0.0578973,-0.024458567,-0.10863606,-0.03612727,-0.014938491,0.020774271,-0.020858819,0.051923554,0.07388192,0.030328946,-0.03261781,0.073134765,0.0023516023,-0.045303542,-0.0055684666,0.09675899,-0.0051714894,0.13768196,0.01595155,-0.017177021,0.08022854,0.046508692,-0.040859114,-0.013986418,-0.07212415,0.04505096,-0.0329384,0.02783974,0.06602397,-0.06641087,0.031382866,-0.048315797,-0.0038731769,-0.024353582,-0.03041446,0.11009492,0.038130924,-0.040083025,-0.056944255,0.005932765,0.026650514,-0.016684797,0.014132008,0.008673142,-0.040782873,0.037388805,-0.008087032,0.029256886,0.14842452,-0.11195307,-0.06568781,-0.08217871,0.015053796,-0.039127443,0.0290046,-0.0006328904,0.038599323,-0.12019012,0.08101476,-0.044971853,0.056964617,-0.0075775892,0.014581699,0.018090144,0.070920475,-0.09861131,0.046388593,0.025639867,-0.016779145,0.01724246,-0.060478102,0.0009854283,0.124972,0.031533677,0.038816586,0.021903345,-0.022353442,-0.012115894,0.036454003,0.0026591104,-0.02217494,0.098994315,-0.0052000685,-0.024808552,-0.08344649,0.050146714,-0.06929787,-0.03914813,-0.028041197,-0.022341974,0.11475987,-0.03681589,-0.0118874125,-0.02066035,0.01948598,0.10223222,0.032515943,0.036579132,-0.033439174,0.025766224,-0.0049039056,0.05444806,-0.02196822,-0.037766766,0.013463637,-0.03528287,0.022088889,0.0034224724,-0.057507556,-0.10281601,-0.022680156,0.068190634,0.0052545625,0.034344774,-0.032305423,0.02131286,-0.11424429,-0.08147607,0.06777102,0.100000665,-0.018280387,0.020022878,0.05532238,-0.03494946,-0.0018718648,0.03295376,-0.13547923,-0.08906391,0.032840263,-0.013633233,-0.0044886605,-0.061394967,-0.012240669,0.024666257,0.05761247,0.004229012,0.0073055,0.04159082
0.016763106,-0.049274407,0.05989242,-0.0065607005,-0.041147914,0.017310107,-0.011653677,-0.019281048,-0.113007255,-0.022727476,-0.05091782,-0.044851117,0.0016297734,-0.12634368,0.01897379,-0.0798169,-0.039352253,-0.0024759248,0.042623576,0.046600565,0.017474078,0.03066574,-0.018993717,0.01730905,-0.025642844,0.044400375,0.110984124,-0.027470926,-0.0022245666,-0.0031654646,0.04538376,-0.121003896,0.032692965,0.020160276,-0.046431728,0.030994132,-0.059116457,-0.02260749,0.06469145,0.039315894,0.07295727,0.026096098,0.033145476,-0.038254008,-0.05918068,0.05988899,-0.005309109,0.03413593,-0.030784858,-0.047713578,-0.029658606,-0.025238058,0.04315097,-0.05432273,-0.009969375,-0.04517832,0.0010553586,-0.029170666,0.008613892,-0.051108766,-0.03101252,-0.025121192,0.024271633,0.0370061,-0.031333752,0.098049775,0.00020918738,-0.04740602,0.024063552,0.11782099,-0.02268582,-0.08975246,0.05684699,0.019868374,0.019595452,-0.016669782,-0.010240516,0.061119877,0.029281367,-0.00954594,0.00081455894,0.009241025,-0.05823295,0.02099609,0.051371112,-0.08449031,0.039517052,-0.08930889,-0.041189283,-0.077680655,0.08328132,0.003817042,-0.05633853,0.08232799,0.017173387,-0.033883996,-0.020897495,0.06527825,0.010684718,-0.06464774,0.024256509,0.068092845,0.020378089,-0.06051177,0.08023303,-0.048905835,-0.0023964432,-0.024537576,0.03451794,0.09750913,-0.007650496,-0.009385086,0.0048052105,-0.062856324,-0.053397518,0.012316377,0.017723577,-0.03349165,0.03840431,0.032052595,0.037410498,-0.04258863,-0.049982276,0.047009517,0.032335263,-0.018582158,0.020989442,0.033580396,-0.02488408,-0.073725924,-0.010695197,-0.02027778,-0.045173038,-0.034394074,-0.024038663,0.025438763,0.06203775,0.00016702208,0.023052616,-0.0761086,-0.023518637,-0.042211737,-0.034688186,-0.0038499786,-0.060033865,0.09081522,0.025853578,-0.043206535,-0.055352524,0.06085709,-0.005692571,0.015088722,0.02808788,-0.13502884,0.054134864,-0.063358285,0.10085358,-0.051909007,0.038943652,-0.010090415,-0.045128405,-0.0068608676,-0.06351303,-0.117290355,-0.032072257,-0.0032207156,-0.02837438,0.022308156,-0.028223453,-0.05502744,-0.116458096,0.025689602,-0.00070319127,0.10505147,-0.0102445595,0.050331824,-0.021505943,-0.019058308,0.018672857,-0.03407444,-0.06313714,0.053169128,-0.012149215,-0.0065254457,0.017990816,-0.026154209,0.0063722045,-0.012674951,-0.042415746,0.017594825,0.0050553177,-0.04934262,0.016086463,0.031542476,0.05148721,-0.016951757,0.04273909,0.011917555,-0.011511905,-0.06287674,0.033321105,-0.119624004,-0.08178049,0.008315511,0.1095725,0.009041991,0.007565767,-0.018247914,-0.00070762483,-0.06761051,-0.022518897,-0.07039338,0.024797045,-0.03800806,-0.050293755,-0.08460502,0.040612474,-0.013217583,-0.023067234,0.016194545,-0.00028669083,-0.08006465,0.03730236,-0.048603993,0.02083218,-0.038415704,-0.027693173,-0.0014257713,0.033065792,0.07299934,-0.0025879045,0.019013854,0.050319117,-0.04994679,-0.007626717,-0.028714167,-0.075525396,-0.052928973,-0.10788387,0.018576471,0.01116044,-0.032941777,0.008231466,0.01551646,-0.118383825,-0.07634839,0.042072006,-0.05793422,-0.009878348,0.06136562,0.025093392,0.11651791,0.020947227,0.05402433,-0.026963038,-0.0063613122,0.01854366,-0.009663967,0.0755205,0.0031920485,-0.06298187,-0.022346709,-0.01872315,0.03222891,-5.3549877e-05,-0.0363193,0.0048170504,0.06984391,0.076191135,0.10122815,-0.0050680796,0.01489236,-0.010681563,-0.057778355,0.03493788,-0.033849932,-0.041880883,-0.035988353,-0.021866266,0.0029946775,-0.021422183,0.08003327,-0.083977446,-0.073322006,-0.03260539,0.067824066,-0.00549062,0.032641415,0.043787006,-0.02102428,0.036521334,-0.04671509,-0.040922087,0.0042706816,0.03970962,-0.07956995,0.013883454,0.09517197,-0.063431084,0.0031359752,0.09951868,-0.09695483,-0.008600955,0.0691908,-0.030625235,0.050000053,0.05723105,-0.05669934,-0.0058659213,0.10518041,-0.09123734,0.039287124,-0.043610774,-0.060118556,-0.012500367,-0.032125928,-0.03398384,0.080935344,0.030761903,0.022741431,-0.010117192,-0.054930754,0.07985889,-0.030379687,-0.04087452,0.01113382,0.062593594,0.007493121,-0.014684118,-0.02875248,0.052495584,-0.1256036,-0.09802221,0.025134625,0.051465362,0.017298725,-0.007626377,-0.020957194,0.013562949,0.035991345,-0.08217464,-0.0005681874,-0.020051107,-0.008211824,0.040983148,0.049230598,0.011562279,-0.066938125,0.03645911,-0.056251142,0.048866156,0.052988637,-0.04343137,0.058260523,-0.0065155793,0.042971518,0.04047893,0.021559741,0.06417902,-0.017319899,-0.010724882,0.079094246,-0.07159235,-0.072400026,-0.05005238,0.014342453,-0.039728086,-0.013108406,-0.057500586,-0.028274596,-0.044423018,0.07254988,-0.0099135665,-0.043672577,0.11895627,-0.018896133,-0.013687314,-0.058185156,0.016913988,-0.08792656,0.026867313,0.0077400785,-0.058443066,0.026051255,-0.04623166,-0.0053424467,-0.05926716,0.007459306,-0.03743349,-0.011320065,0.039464578,0.060191467,0.056701858,0.023165766,-0.01645527,0.0055842916,-0.040286142,0.067365505,-0.00087133126,-0.023489809,-0.040903352,-0.037318498,-0.017370839,-0.035282165,-0.04753542,0.057718888,0.07809275,0.042268474,-0.042884164,0.030442113,-0.025467074,0.030242948,-0.080884725,-0.034693155,0.035050713,-0.027429074,-0.027130874,-0.059051026,0.061641887,-0.06209941,0.013189509,-0.017200027,-0.09564197,-0.06625827,0.016273608,0.03745098,0.06788582,0.039980784,-0.04740368,-0.036742434,0.028285058,0.01954124,0.026302952,0.0040304144,-0.1349335,0.018297192,0.03505516,-0.04216663,-0.06581983,-0.10234334,0.06353958,0.0980266,0.0006413009,-0.078227736,-0.017238308,-0.030170392,-0.06742826,0.005951287,0.0029070103,-0.13140158,-0.045393728,-0.039400257,0.11034096,-0.027288478,0.014033749,0.070376776,-0.025456464,0.052253753,0.06232921,0.04271335,-0.0049628005,-0.047987796,0.06335364,-0.09762266,0.05766436,0.032211408,0.041740146,-0.034074616,-0.06756629,-0.06444464,0.05478138,-0.06010043,-0.0348335,0.07649787,0.011538869,0.014134646,-0.017299132,0.032459978,-0.009852433,-0.035646424,0.053062424,0.06622484,-0.025096241,0.021268725,-0.058570504,-0.0016405772,-0.05870085,-0.0027208687,-0.1381011,-0.059411287,0.023020787,0.0834271,-0.045885153,0.003859899,0.010409506,-0.0048351404,-0.059755437,0.061639465,-0.0052714064,0.03798529
0.048079733,0.060206242,-0.049304433,-0.062930964,0.032343034,-0.017542021,-0.02663427,0.037349544,0.014084297,-0.13503908,-0.015093518,0.015023151,-0.039253708,0.004204144,0.020587599,-0.03950194,0.004817449,-0.052300148,-0.033892352,0.13735612,-0.015210305,-0.002221905,-0.024562888,-0.122307785,0.05986015,-0.046297953,-0.07861239,-0.011590944,-0.00396598,0.07806529,0.06459856,0.044915427,-0.043723162,-0.04907053,-0.035719592,0.008293561,-0.106307715,-0.04976631,0.07628876,-0.0046127643,-0.0030361882,-0.0540487,-0.010794923,0.04257161,-0.031953137,0.017828474,0.028259024,0.043300636,-0.047687083,0.00786418,0.0023432302,0.023338657,0.026295211,-0.010925336,0.06048964,-0.03772844,-0.035130866,0.033517957,0.032867447,0.039872892,-0.028447354,0.048474047,0.026760407,0.040022388,0.00798967,-0.049016472,-0.010915075,0.01025433,-0.032921754,-0.06431315,0.016409146,0.023425993,0.054443296,-0.10719562,-0.06084142,0.024576534,0.036774553,-0.013764277,-0.015307977,-0.026699843,0.036759626,0.00074377185,0.008520328,0.015787702,-0.037809484,0.09762699,-0.044485465,0.0059316964,-0.06468554,0.01742482,-0.017192123,-0.034972925,-0.015732748,-0.07776227,0.042380854,-0.067984074,0.01805246,-0.028163023,0.0009791226,0.074702755,0.051015593,0.030532029,-0.029757187,-0.0066149565,-0.044299994,0.04788018,0.011973437,0.04257581,0.029751277,0.042243183,-0.053547032,0.075222336,0.08225033,0.0742341,0.054903477,0.0023986313,0.08130254,-0.04033643,0.037504997,0.08828834,0.02994023,0.041680142,0.010666509,-0.05062419,0.021140207,0.030042324,0.07812371,0.028910285,-0.016383858,0.09713524,-0.02097756,0.039339397,-0.010841689,-0.03039692,-0.0010464616,-0.035616238,-0.06365814,0.026427558,0.041039478,0.025256831,0.08938175,0.012991815,0.017906597,0.013439777,-0.045867685,0.01845976,0.046447307,0.037236206,0.0013146362,-0.014104446,-0.09226077,0.07040912,0.013410329,0.093865566,0.04320076,0.0030591735,-0.07730632,0.091854855,-0.021571375,0.050256446,0.03658883,-0.004701834,0.048442934,0.12887056,0.080742635,0.008042746,-0.0046765935,-0.014985178,-0.05716222,-0.045922298,-0.08412126,0.002421796,-0.0011396789,-0.10058071,-0.028659735,0.06752889,-0.04782424,0.041435335,-0.033531703,-0.09090512,0.08538815,-0.08457749,0.041460857,0.013023951,0.012642806,-0.07778742,0.064016715,-0.03479775,0.032990396,0.021634752,-0.016136488,-0.023003435,-0.016596386,0.03259987,-0.009700554,0.07798726,-0.009781623,-0.064891465,-0.029341241,-0.020256722,0.051870752,0.12919301,-0.009279159,-0.02730092,-0.06651901,0.053107113,0.0013493784,-0.017179852,-0.011320639,0.084774286,-0.062441632,0.09244675,0.075897455,0.030676233,-0.027136115,-0.08825017,-0.025454666,0.02339455,-0.015832143,-0.0753456,0.04676878,0.1111246,-0.024898468,0.02621304,0.06612862,0.07423215,-0.016082143,-0.054665796,0.08931747,-0.020966223,-0.008314903,0.07086335,-0.016506057,-0.013715586,0.03641865,0.0041790786,0.11291053,-0.029956315,0.061497487,0.03687108,0.018222189,-0.049094364,0.007871596,0.014840999,0.06008569,0.032108225,0.061871078,-0.015925575,-0.018000532,0.031015327,-0.013058948,-0.094458126,0.01217388,-0.034872722,-0.0072677997,0.04800772,-0.07390756,-0.052956168,-0.06876198,0.0028990682,0.064353116,0.018199837,0.0600532,-0.017633019,-0.0046459674,-0.0018808867,-0.009227146,-0.009870151,0.045314875,-0.03919425,0.039092503,-0.061180916,0.032505505,-0.023895372,0.052300833,-0.018245656,-0.049537413,0.002095872,-0.06277677,0.010577518,0.030722717,-0.013228709,-0.0018578339,0.05639882,-0.01606169,-0.043425977,-0.006748155,-0.04457686,0.07281456,-0.041039962,0.04649933,-0.016480677,0.010646494,-0.11054951,0.05862398,-0.06969368,-0.10071537,-0.102410085,0.0035580285,-0.025550317,-0.05158983,0.0023960748,0.0220829,-0.041499462,-0.08171369,-0.07591558,-0.00784817,0.06078568,-0.063477345,-0.06784587,0.059688665,0.0072956886,0.026842967,0.053876247,-0.029038368,0.021347292,-0.058182463,0.00035231857,0.07951285,0.002169533,0.044591952,0.06673419,-0.12531881,0.008635533,0.060882177,-0.09015704,-0.024839956,-0.039823525,0.06510309,-0.016724309,-0.05666474,0.054042436,-0.03131809,0.014867157,-0.029587055,0.040847424,-0.095379286,-0.0074579525,0.05364516,-0.018698428,0.009998668,-0.0035204757,-0.04668718,0.034752965,0.020990584,0.027239192,0.08031772,0.11375617,-0.029728964,-0.0469618,0.082882255,0.026113462,0.06652427,0.010420304,0.03582417,-0.014035558,-0.032001287,0.0066894135,0.02410787,-0.058243018,0.008925492,-0.075147554,-0.00027072162,-0.0019331041,-0.061570134,0.02263486,0.019063503,-0.04449828,0.033982873,-0.015200903,0.03539619,0.0010350791,-0.014899739,0.06980855,-0.12406712,-0.0052169375,0.038566656,0.078899436,0.026701814,-0.0029810092,-0.04691532,0.026047004,0.058685355,0.016963586,0.043327812,0.07094887,0.06324843,-0.058306932,0.0261876,-0.07361859,0.050785337,0.06764306,0.004169028,0.012488754,0.031496447,0.00086289586,-0.00016022407,-0.0730123,-0.029991606,-0.024422886,-0.015796127,0.012714318,0.033410877,0.06269593,0.04474545,-0.02310973,-0.032882355,0.018279964,-0.029977169,-0.012578598,-0.00179315,-0.008624684,0.04332566,0.00034457812,-0.029364025,0.010621535,0.043601915,0.039885394,-0.007073214,-0.066262156,-0.013884751,0.0017535066,0.0508222,0.038718235,0.0356702,0.026325976,0.025011227,0.008779552,0.030831976,-0.062783614,0.03745825,0.025206724,0.061546635,0.07013741,0.007579594,0.03784259,-0.03443714,-0.004155618,-0.0010635178,0.01522073,-0.0160386,-0.08242044,0.010615415,0.057233963,0.024973232,0.040758282,-0.055116255,0.03457886,0.08236655,0.08811143,-0.02452152,-0.08491656,-0.04637784,0.063500114,-0.05426195,-0.011849558,-0.028612671,-0.04920543,-0.04466716,-0.044888224,0.0044567403,0.069764376,0.08490036,0.052887835,-0.07599275,-0.019515691,-0.022952007,0.013706803,0.07733937,0.115039505,-0.0009026924,0.015171499,0.065762244,-0.0116662085,-0.028593346,0.010734903,-0.011268864,-0.03956007,-0.016808935,-0.026170053,-0.1175139,0.05423604,0.05261792,0.006908714,-0.011521323,-0.02190028,0.12772174,-0.024889288,0.057213914,-0.043138057,-0.03642241,-0.017490365,0.047487404,-0.033149417,-0.022941062,-0.0708081,-0.008349383,-0.006973221,0.00936982,-0.0014171766
-0.02163368,0.0538803,0.05388985,-0.060263317,0.015703348,-0.028443234,0.021703465,-0.1637538,-0.02565359,-0.010387963,0.0075329575,-0.0012996607,0.07016724,0.08786611,-0.0008351666,-0.018786017,-0.020858983,0.08049967,-0.033335853,-0.02677137,-0.028481135,0.004832748,-0.016779508,-0.07578317,-0.02550533,-0.052036963,-0.010935491,0.0058056493,0.017570276,-0.068667874,-0.097200036,-0.042363454,-0.02558852,0.017544795,0.09185059,-0.025845945,0.095466524,0.041626915,-0.108624965,-0.034510143,0.07313578,0.108788416,-0.039551277,-0.057059545,-0.03398889,0.11869138,-0.029942244,0.023907775,0.014230916,0.06790721,0.00880734,-0.07913037,0.008334854,0.09336275,-0.034060467,-0.052908346,-0.04122145,-0.06301987,0.02686471,-0.06499334,0.0499133,-0.033299047,0.03568757,-0.077091835,-0.03974696,-0.06633793,0.016158113,-0.093910925,-0.020391135,0.037020486,-0.049411368,0.054776367,-0.005150987,-0.08131217,-0.03301813,-0.020369252,-0.025855098,0.09764516,-0.09834372,0.04018469,0.014797514,-0.075517215,0.051448155,-0.037312474,-0.03427455,-0.058544517,0.053253807,-0.04457453,0.0004776023,-0.08890288,-0.028110653,0.011746288,0.08373369,0.031543363,0.042114787,0.019267509,0.0032331843,0.039808515,0.032616135,0.080357455,0.030880656,-0.07521535,-0.0234539,0.10414747,0.03269674,0.027641999,-0.02566978,0.0441918,-0.042105824,0.013036138,-0.022277687,-0.055720247,-0.08064157,-0.04777617,0.023122717,-0.043240424,-0.0055319564,-0.020816125,0.027150745,-0.029495325,-0.037961625,-0.00573942,0.023994217,0.0062004398,-0.04253202,0.021636462,-0.005416769,-0.040625844,0.040459715,-0.013947518,-0.006996789,0.02942174,-0.06417712,0.005131405,-0.084838934,-0.012250153,-0.09025743,0.0034996814,-0.07910904,0.062475227,-0.081173055,0.025183985,-0.0429779,0.0963209,0.04150931,0.012733239,-0.052492097,0.030958327,0.04264377,0.061865877,0.09980334,-0.06682875,-0.012122045,-0.042753458,-0.024571553,-0.054725874,0.009079526,-0.055972334,-0.0017935546,-0.023241086,-0.017490724,0.015400066,-0.059418254,-0.002814383,-0.04035563,0.005291427,-0.088260606,0.0038079366,0.046054933,-0.015809203,0.014520977,-0.024025435,-0.021978388,0.094440155,-0.026357472,-0.14488219,0.03589882,-0.019303454,-0.035717513,0.065148495,0.040622648,0.0021756375,-0.042178847,-0.078028515,0.045146026,0.043359857,-0.01689574,-0.017857298,-0.04895906,0.061636705,0.004289999,0.098124616,-0.071300745,-0.0076762782,0.008773905,-0.028205937,0.04216346,0.035948075,0.028398756,0.019597493,-0.061805684,0.035381626,-0.070626885,0.019260693,0.067101,-0.021671046,-0.073979184,-0.08320182,-0.0010656259,-0.07779099,0.008709415,-0.10472328,0.011844763,0.12722509,-0.033388007,0.07086427,0.03426446,0.026922442,0.0095475195,-0.021970572,-0.037858352,-0.038383547,-0.023782464,0.07407238,-0.036674976,-0.0112900585,0.040927947,-0.026382653,-0.048957005,-0.020928502,0.039018843,0.03789861,0.036985435,0.050152328,0.011492844,0.011984864,0.018210936,-0.088281944,0.008695468,-0.031145912,-0.025762413,0.04983327,0.04140642,-0.04667474,0.006370208,-0.005547567,0.014471637,-0.04555882,-0.012679422,-0.05420183,-0.035661083,-0.030515345,0.0052190013,0.10892056,0.033972885,-0.10397628,0.010984335,-0.02550115,-0.017011942,-0.020360626,0.018003885,-0.038327966,0.009640816,0.04077973,0.06689074,-0.044520438,-0.0082152095,0.026505286,-0.011381782,0.051288016,0.030178344,0.11141916,-0.012216119,0.0039586728,-0.02715088,0.035183992,-0.041565944,-0.00048719422,0.057498913,0.0090606855,-0.032769606,-0.047709767,0.0099809915,0.00047515385,0.01743794,0.025707603,0.042387635,-0.016878454,0.05450338,-0.010601783,0.032334503,0.022502009,-0.014217881,0.08096546,0.08486831,-0.10207766,-0.0027826948,0.047697145,0.062497366,0.02376301,0.080328375,0.04972643,-0.0636309,0.04610321,0.092500575,-0.0020342735,-0.0014561946,-0.037732713,0.055901036,-0.10097025,0.00035907613,0.039269026,0.019881757,-0.04608243,-0.0026501087,0.036199585,-0.053182952,-0.06648223,0.02894775,-0.0040617525,-0.07201121,-0.0025591648,0.084246054,0.072645426,0.02385872,-0.01997887,0.03820724,0.06830232,-0.025785495,0.031926926,-0.06019667,0.002590587,0.07633568,-0.025362022,-0.029965539,-0.06869294,-0.009421291,0.031769842,-0.013661716,0.0250222,-0.04759506,-0.042000294,0.04000532,0.0118563995,-0.11226298,-0.030689886,0.017611539,-0.024586273,0.07766273,0.0460133,-0.033886936,-0.030925037,0.031111516,-0.06577896,-0.018045459,0.00808822,-0.032822024,-0.033711065,0.046248134,0.009935822,-0.013392251,-0.012974786,-0.004713843,0.11048132,0.053118583,-0.026328523,0.019787038,-0.016208008,0.051817566,0.0164232,0.04606579,0.018143287,-0.0220816,-0.038113322,-0.025589908,0.013450144,-0.007373662,-0.11355249,-0.020564962,-0.03477407,0.03973325,0.052412555,0.023022605,-0.062473807,-0.03162979,-0.049953833,-0.060735293,-0.017423766,-0.013954849,-0.054042034,0.069194615,-0.07394186,-0.031947896,0.031232776,-0.041885234,-0.014819317,0.021604484,0.014591287,-0.022350688,0.014004568,-0.00229423,-0.038777173,0.021654118,-0.07019521,-0.03968076,-0.023293264,0.06807821,-0.040698934,-0.012746269,0.030682204,-0.018362097,-0.049667638,-0.04303526,-0.0058573456,-0.04710561,-0.01646502,-0.013446827,-0.0258532,0.004034029,0.0038938778,-0.0028404624,0.0060119177,-0.016530244,0.044644535,0.0061463844,-0.002017267,0.018343743,0.018704364,0.01163137,0.04785706,-0.03711162,-0.06594516,0.0148166735,0.051374033,0.051643178,0.029194163,-0.0031681065,-0.032202244,0.000569536,0.10838708,0.011669917,0.03079065,-0.051562957,0.053997073,-0.023847422,-0.028528614,0.033449225,-0.008756929,0.030163592,-0.0073440582,-0.017153239,0.07278682,0.045684658,-0.05031401,0.004383728,0.051515553,0.0039495938,-0.03720111,-0.044847995,0.0051017343,0.0065016886,-0.09153518,0.02934273,0.007373926,0.008589719,0.005676811,0.021015074,0.06242184,-0.0060738134,-0.11266487,0.083016545,0.011961628,-0.036870673,0.020272648,0.08907441,-0.023691345,-0.022252847,-0.055665273,0.017166918,0.02029187,-0.06890396,0.01978595,-0.109869465,-0.09269,0.05703613,-0.0320753,-0.09037478,-0.0054499055,0.0028738934,0.05426742,-0.045263343,0.047009654,-0.04182094,0.10139972,-0.0042658336,-0.054851178,-0.045310747,0.033562347,0.035641886,-0.036800556
0.05691329,-0.05444876,-0.006009326,-0.086631045,0.028075388,-0.048111524,0.034340538,0.034495402,0.10600347,0.05873584,0.05192418,0.053116646,0.0326001,0.074273676,0.04731063,0.07710977,-0.03979065,0.03514564,0.025432605,-0.10702072,-0.035898883,-0.05731055,-0.027848525,0.009537216,-0.061052434,0.026320357,0.047224462,0.030430868,-0.04360621,0.049078222,-0.0069521964,0.01248054,0.06155565,0.07088034,0.056993026,-0.004050884,0.064788416,-0.031978864,-0.033772554,-0.004723493,-0.003571339,0.005940278,0.04093792,-0.020146178,0.01852983,0.019637233,0.036537386,-0.08584958,0.06747401,0.087893374,-0.038168333,0.10420042,-0.011514895,0.045092076,-0.04158909,-0.025846232,0.038566716,0.0285319,0.025349787,0.072816245,0.0372168,-0.062999025,0.012365092,0.074010804,-0.029450038,-0.04749538,-0.030264413,0.07431944,-0.022494402,0.018368065,0.0030581865,0.052451584,0.026565716,0.057931963,0.052568752,-0.02599705,-0.12304988,-0.06010248,-0.05212142,-0.006550087,-0.050891154,-0.063376755,0.027210508,0.0743031,0.036426954,0.08791842,-0.07760411,-0.008250836,0.04134487,0.013352404,-0.078077875,0.012903713,-0.054914307,0.024017517,-0.08752114,0.055245187,-0.03219866,-0.0067111556,-0.042285085,-0.09699255,0.04520044,0.009542918,0.050451033,-0.07259553,0.0253067,-0.07500775,-0.019440755,-0.10216442,-0.012764187,-0.114400096,0.030785732,0.04197945,0.095341675,-0.087900266,-0.040811896,0.0072600706,-0.06709388,0.011691667,-0.010222183,0.015091726,0.012407171,0.0052166805,-0.082925014,0.052317515,0.0051784185,-0.0048831482,-0.11195662,-0.04210827,0.002871426,0.054957658,-0.0449865,0.040894836,0.06021286,0.021147763,-0.02327394,0.0010801911,0.027329199,-0.028889783,0.002808071,-0.015574438,-0.07760105,-0.053586196,-0.010544437,0.05816425,0.0032678805,-0.09042757,-0.023797303,-0.1319658,0.029603928,-0.01262332,-0.10666987,-0.047090456,-0.021185502,-0.07563782,-0.022175895,-0.02361117,-0.003629994,0.06825268,-0.028007781,-0.028577812,0.017804665,0.04249601,0.104524866,0.07224032,-0.052230615,-0.06003938,-0.04188363,-0.01675997,0.018736145,0.06280425,0.045173533,0.004310175,-0.019771742,0.06811548,0.040828053,0.08983886,-0.012999359,-0.018444594,0.048146516,0.10820128,0.045428634,-0.049950726,0.026082836,-0.05320967,-0.04122897,0.04420935,0.03921921,-0.024640119,0.074979745,-0.049858086,-0.003756958,0.006247201,-0.017491406,0.01999742,-0.024921516,-0.1149632,-0.037249103,0.022010257,0.0920888,-0.05028551,-0.051072486,-0.044286206,0.041131813,-0.004796288,-0.09704487,-0.0386971,-0.052371524,0.0134542,0.036545496,0.071135804,0.048684582,-0.0052363053,0.04559227,-0.0591734,0.04385155,0.0712754,-0.041679338,0.031340327,0.037224893,-0.08620534,0.024457091,0.033227347,0.0066577154,-0.046869863,-0.023825657,0.016612127,0.019737532,0.07006746,-0.04543408,-0.097206496,0.036035784,0.021573303,-0.07605012,0.009962928,0.04276931,-0.029630948,0.05151606,0.03739836,0.009736758,-0.06385616,-0.00040997856,0.03900327,0.073504835,-0.017412445,0.061052147,0.036695927,-0.029324582,-0.06027468,0.027906114,0.039277077,0.037571035,-0.04400226,-0.017670846,-0.050587222,0.05456836,0.04497104,0.020397257,-0.02229892,-0.042109344,0.050371315,-0.076948084,0.059121735,-0.0076214666,0.004065173,-0.006140388,0.012770312,-0.026169224,-0.045259483,-0.028259706,-0.11881758,0.016820274,0.015770765,0.006509943,-0.00937108,0.07719965,-0.00480338,0.0718407,-0.03340208,0.024906615,0.0023171313,-0.062140696,-0.15310141,0.11548758,-0.015626756,-0.0054946598,-0.05991271,0.041816175,-0.039268903,-0.060988188,-0.05978462,0.02379202,0.03243095,-0.1259627,-0.015655363,-0.111501254,0.081858106,-0.03264925,0.0020331212,-0.037335847,0.016116738,-0.015309483,0.07428262,0.014170463,-0.11949567,0.04015308,0.06547634,-0.08455066,0.009579651,0.05425922,0.078603156,-0.024222428,0.043900333,0.008801124,0.0652295,0.020505188,0.008421919,0.008529893,0.029723955,0.05671326,0.0462053,-0.070342235,0.02385003,-0.01591835,-0.0018742007,-0.0023015295,0.084771544,0.020604888,0.03606879,-0.07822423,-0.10305821,0.0368522,0.076282434,0.041954763,0.06315848,0.104704954,0.016359642,0.09169981,-0.09233819,0.029081361,-0.0017735027,-0.0050868173,0.015571894,0.054927904,-0.051654126,0.07709032,-0.065937266,0.004738726,-0.033836775,-0.05860319,-0.013905693,-0.051631086,-0.0048553646,-0.06550074,0.041923624,0.014333195,-0.020092376,0.020952092,-0.016678778,0.07704036,-0.058022846,0.04624878,0.07303119,0.07448577,0.028818302,-0.014266203,-0.044714756,0.040160317,-0.0263149,0.048373993,0.03543627,0.048154194,-0.031065674,-0.044825234,-0.089922845,-0.10505415,0.0064354767,-0.006758922,-0.08331037,0.029996006,0.012423292,0.028316274,0.048930984,-0.056944728,-0.038684282,-0.10119677,-0.019462064,0.032629978,0.012674995,-0.026251135,0.0401442,0.07151983,-0.08221325,-0.0041833785,-0.07344588,0.021507852,-0.01638235,0.031470988,0.09690971,-0.0077966223,-0.033834357,0.14172024,-0.024627209,0.07515088,0.051021088,0.037064746,-0.0081250435,-0.05267381,0.025343724,-0.030804088,-0.030158078,-0.011152118,-0.015024598,0.010386488,-0.036356654,0.08869784,0.026623495,-0.010610532,-0.06684187,-0.061211865,0.044608302,0.086915225,0.017468102,0.06618266,0.037209325,-0.013354211,-0.028937556,0.036678184,-0.049984165,-0.059549738,-0.07495249,0.016164025,-0.0051824404,0.002459694,-0.0809471,0.048239414,0.0075866687,0.020066857,-0.010809649,0.03352413,0.06806973,-0.07046833,0.07042761,0.05150101,0.10503234,0.043253023,0.0059262956,0.050124235,-0.012904258,-0.033344537,-0.0001589756,0.009766069,0.015328901,-0.0130284205,-0.05684221,0.095005065,-0.08365841,-0.021362407,-0.045542024,-0.021989603,-0.015877632,0.034257617,0.05578264,-0.0034894478,-0.04036137,0.021293877,-0.017487995,0.004903315,0.03870404,0.08585526,0.02235504,-0.06754155,-0.004446502,0.016898332,0.06605027,-0.0024230774,-0.027777608,0.015202709,-0.03175074,-0.004171217,0.019186411,-0.03612286,0.11181462,0.0057890033,-0.0401649,0.047039147,0.0051135803,0.0067552538,0.03435754,-0.019104723,0.084164634,-0.033750203,-0.07974931,-0.028278071,-0.03605054,-0.060728166,0.07449609,0.08060719,0.012442679,0.023749214,0.030068992
