0.013661922,0.04816809,-0.023299037,0.025281344,-0.020373983,0.038149748,0.05554342,0.1071533,-0.13730338,-0.019410543,-0.0784197,0.015393433,-0.007824106,-0.014108389,0.017481482,0.0542494,0.10928834,-0.022758724,-0.03891517,-0.08471455,0.026657386,0.0037144865,-0.04039418,-0.030671095,-0.026452752,0.014693991,-0.03716947,-0.014558867,-0.0015151941,0.023619302,0.06034222,0.01145995,0.027472828,0.023675106,0.008509799,-0.04022824,-0.041307207,0.04168246,0.0082009835,0.0029047152,0.008076838,0.014664977,-0.05288505,0.010033335,0.023482675,-0.021136709,-0.005577858,-0.026148664,0.041695785,0.09217746,-0.010273071,0.06775722,-0.04019999,-0.011254595,-0.014999028,0.050123733,0.011405366,0.0075034327,-0.017045315,-0.038339637,-0.036873158,0.00015315048,0.012416547,-0.13058476,-0.07894468,0.07720484,-0.043206073,0.004401615,0.020437382,-0.019326994,-0.050097715,0.08719192,0.024635404,0.007272331,-0.05248511,-0.08442289,0.06906085,-0.057784755,0.0041937297,-0.02447583,-0.036088467,-0.03330238,-0.06540602,0.018543778,0.018682856,-0.024786301,-0.08105857,0.033151142,-0.026995696,0.05430757,0.08306957,0.019260095,0.06134004,0.0029328656,-0.03703637,-0.043290447,-0.052521452,-0.03911918,0.014948648,-0.06332002,-0.02775414,-0.091003425,-0.048224606,-0.022411594,0.035220336,0.0028097725,0.02220148,0.03981104,0.051950227,0.035843424,-0.1104475,-0.015559941,-0.05491894,0.038355585,0.037876025,-0.026689043,-0.032021318,0.0017064207,-0.021167539,0.066843815,-0.023550961,0.068583146,0.00010806053,-0.041614022,0.04724503,0.06432451,0.018045908,-0.08240251,0.015545474,0.066542014,0.036499493,0.033845965,-0.030825965,0.027516508,0.026997672,0.06891341,-0.016382903,0.06344118,-0.089537695,-0.0050575086,-0.0051896903,-0.023110533,0.004669048,-0.017201075,-0.004643774,0.020029616,0.002302073,-0.0565394,-0.018209143,-0.072969526,0.071583666,0.03133944,-0.053473447,0.123222806,-0.03841857,-0.02108234,-0.003367439,0.017296731,-0.010348351,0.04553947,-0.08437359,-0.035037998,-0.110541,0.08128179,-0.010898484,0.015170842,-0.012659145,-0.021424307,-0.036315117,-0.024826998,0.029007776,-0.024290644,0.009743538,-0.00015979122,-0.003344784,0.029109094,0.04128099,0.049517658,-0.009710215,0.044771723,-0.0353301,-0.0049702753,-0.013951668,0.004326989,-0.07415101,-0.060862843,0.043528754,-0.085536554,-0.023472717,0.023478175,0.018812582,-0.09121569,0.07483259,-0.006632378,0.011915363,-0.06527386,0.07007136,0.00933544,0.040977396,-0.04084024,0.08779093,0.037528034,0.03013336,0.009120769,0.03126875,0.106078684,0.032166,0.020879662,-0.0016163246,-0.06906673,-0.0702961,0.00880977,-0.037057202,0.004789782,0.028876195,-0.030014487,-0.03478996,-0.033080123,0.0290342,0.008553822,0.014101932,0.061618365,-0.117148295,-0.10388983,-0.038296536,0.08063948,-0.10511386,-0.023340253,-0.0038029132,-0.04569537,-0.005977018,0.032629568,0.051357675,0.034516916,0.009382815,0.062314384,-0.03602142,0.067243114,-0.0031756049,-0.025068605,0.033870228,0.070589475,0.043854985,-0.055511624,-0.009221053,-0.000692423,0.0066496506,0.0699345,0.041937117,0.035463404,0.031900633,0.0054526827,0.0025872565,-0.052148405,-0.0440381,-0.0054320334,-0.041210942,0.04510671,-0.01850367,0.017191522,0.024588687,-0.047653317,-0.051516946,-0.097443014,-0.037568662,-0.037490748,-0.031284593,0.010110157,-0.040837146,0.005352573,0.008776763,-0.007882548,0.031034136,0.0019800633,-0.008695087,0.030555563,-0.11130285,-0.016837362,0.059242982,-0.009638816,0.032226022,0.060285434,0.04306105,0.08372879,0.027428659,0.003618001,-0.009875879,0.07253359,0.013811457,-0.06039266,0.02930971,-0.031192983,-0.03650211,0.00025963096,-0.011184264,-0.033087123,-0.057778325,-0.05337773,0.06833304,0.05083061,0.0642915,0.0066707144,0.06254286,-0.08278547,-0.0032511274,-0.005555237,0.02245489,-0.052445665,-0.012758045,0.026754685,-0.01823276,0.028477525,-0.041160673,-0.0003168761,0.09321398,0.018627567,-0.03085978,0.0079586245,-0.08169843,-0.041589007,-0.017957611,-0.006676232,-0.052705456,0.024481798,0.052527495,-0.096589886,-0.040417504,0.06525005,-0.04049741,-0.027716499,0.018857684,-0.0240551,-0.039049275,0.036780402,0.040763624,-0.02386502,0.0038694518,-0.006110177,0.01513107,0.014024546,0.026205959,0.01563757,0.041082256,-0.02070302,0.016961414,0.0064989636,0.012797516,-0.013099143,-0.028571006,0.042231236,-0.0028606735,-0.05870657,0.038366947,-0.02418255,0.0043873885,-0.05339799,0.03362832,0.07191291,0.008127629,0.020264132,0.080114625,-0.06965324,-0.013916706,-0.054607965,0.03145353,-0.052118987,-0.036732428,0.06743543,-0.057619527,0.011540541,0.09547419,0.041239582,-0.031896364,0.07050555,0.047869842,-0.053589586,-0.0020875966,-0.107500434,0.047369257,-0.03718761,0.025916448,-0.041223027,-0.05141162,-0.057541013,-0.030880647,0.03418834,0.025454624,-0.019453924,-0.06490678,0.012158226,0.08008661,-0.018367346,-0.045111176,0.030241977,-0.033308838,0.0169192,-0.04420128,-0.0045685126,-0.032505427,-0.03704967,0.015546145,-0.026388267,-0.018364018,-0.08986479,-0.038890224,0.050365478,0.088754594,-0.004239296,0.04675454,-0.03835776,-0.034253817,-0.035431106,-0.003137525,-0.007584996,0.06287734,-0.01262171,-0.056048825,-0.008088662,0.079859346,0.01393693,-0.069662005,0.07495049,-0.00896678,-0.03546502,-0.10978308,-0.008347081,0.049628366,0.021167452,-0.016759085,-0.022968264,-0.012457596,0.010614929,-0.00473546,0.059872206,0.0007647721,0.06378461,0.04200694,0.0006076469,-0.11103725,-0.011424259,-0.04114746,0.006023492,0.047910657,-0.012733205,-0.048922997,-0.0009365118,0.025098158,-0.02401268,-0.030505547,0.0039631287,-0.096015304,-0.01544657,0.12988576,0.008835248,0.0062138676,-0.010745247,-0.036189005,-0.0146121355,-0.012260369,-0.028483093,0.06556835,-0.045733813,-0.021637524,-0.027099017,0.004715044,0.032716904,0.1170529,-0.028053334,0.025214963,-0.03817727,-0.006977338,-0.036372032,-0.03675195,-0.04322305,-0.011660679,-0.060467824,0.03071659,0.009578204,-0.026400218,0.029050997,-0.015473044,0.020675972,-0.005219631,0.02600087,-0.008239968,-0.0039593726,-0.040697448,0.023289569,0.04231956,-0.02246037,0.065151915,0.018233925,0.012834786,-0.0007307435,-0.023485228,-0.044678252,0.02734843,0.045711707,-0.04245665,0.023852099
-0.023137283,0.0071469527,0.101534285,-0.02319639,0.058201768,-0.018460348,-0.0037975216,-0.102044515,0.044896875,0.007699737,0.059458334,-0.031986076,0.015238829,-0.0044227787,0.0057849274,0.058552638,-0.060012195,0.08618526,-0.07843146,-0.052258264,-0.04789812,0.06785291,0.01615435,0.072011836,0.054843042,-0.039969888,0.07267178,0.017170299,-0.02762638,-0.01197146,0.066552974,-0.02682526,-0.06527199,0.03222228,-0.03265419,0.052697286,-0.016764013,-0.061669245,0.0528591,0.026119055,-0.039899442,0.053744137,-0.025513733,-0.018804358,-0.04682288,0.02245698,-0.008298924,0.018035984,-0.03326245,-0.09997624,0.07881146,0.021693084,0.0696685,0.09278268,-0.048738074,-0.015658287,-0.0011838129,-0.064170845,0.033594918,0.10136714,-0.02083608,0.067929104,-0.029076276,0.019515801,-0.07650848,-0.10762431,-0.08296638,0.03738075,0.0033258726,0.03300402,0.08706511,0.010449772,0.0548299,-0.03700705,0.0188089,-0.041306984,-0.020761665,0.04745739,0.028345892,-0.018215157,-0.042706702,-0.022415215,0.11332807,-0.07446243,-0.024801971,-0.029018207,0.14130788,-0.0052416436,-0.0020851786,0.036492534,-0.07586284,0.020525573,0.04713674,-0.032952487,-0.008024166,0.025502507,-0.037286755,-0.03799513,-0.04368231,-0.11640385,0.02359031,-0.087143295,0.092000246,-0.040422495,0.024600033,0.037885528,0.030365666,0.011435027,-0.045002718,-0.10568289,0.031549342,0.031984866,0.12757845,-0.03422085,0.03437536,0.04357921,-0.038823158,-0.034015223,0.038673297,0.04560704,0.1318424,-0.0062467526,0.021727914,0.027096542,0.024401896,0.1068069,-0.041631818,0.045454778,-0.06809797,-0.100583605,-0.06308696,-0.07614925,0.059315767,-0.051587462,-0.042612348,0.016887117,0.03332145,0.07357082,0.07801255,-0.023582565,-0.029289905,0.02314902,0.018399058,-0.015567975,-0.044714008,-0.03504094,-0.06975432,0.02581904,0.0444465,-0.01050233,0.026110549,-0.015163102,0.10432575,-0.042491578,0.03765976,0.031348594,0.09050409,0.03351067,0.01804383,-0.0011666623,0.020485379,-0.03668999,0.02896789,-0.021467865,-0.032831192,-0.0538096,0.019949695,0.006498489,-0.013182158,-0.003069869,-0.046979498,0.13440898,0.0049052276,0.04192299,3.16485e-05,-0.0055521308,-0.015353312,0.08473796,-0.06203951,-0.03913695,-0.010486313,-0.055382125,-0.031572025,0.007579416,-0.018276412,-0.0054313573,-0.0003046653,0.013950026,0.029940473,0.0068543544,-0.009381228,0.00018381776,0.05146715,0.039867498,0.0193666,-0.003681142,0.047024228,0.04371381,-0.035019048,-0.026440343,-0.070068814,-0.023665065,-0.11754248,-0.03372623,0.03749292,0.08526832,0.0235434,-0.036407497,-0.009292434,0.028046085,-0.11690539,0.023452096,0.028654994,-0.0012956415,0.0077105956,0.005788505,-0.012037565,-0.003969405,-0.023086123,0.038260568,0.025968295,0.09695279,0.11505584,0.040295996,-0.032324746,0.022936443,-0.01309404,0.028563766,0.027078433,-0.07896014,0.009784587,0.005142591,0.0004550488,-0.013226347,-0.007903998,0.03984018,-0.0019582026,0.074713096,0.0062601697,0.10333016,0.038186315,0.035653785,-0.023118615,0.092706315,-0.040462714,-0.025360366,-0.0051845787,0.05665188,0.059955977,0.025770444,-0.0045320536,0.029278109,-0.036358953,0.029008066,-0.061531853,-0.027396236,0.03451156,0.028316705,-0.14644289,-0.01323456,-0.025848819,-0.020401368,-0.06798477,0.08797611,0.033172652,-0.02396972,-0.0069157467,-0.02848662,0.003062998,-0.0685502,-0.011489334,-0.005360598,0.05018798,-0.052650873,-0.020728683,-0.029000185,-0.1341422,-0.029643016,0.029179748,0.068483785,-0.040104274,-0.008321781,-0.05142897,0.08221736,0.02240743,0.017311895,0.052433528,0.0174068,-0.010956651,0.056824505,-0.001775988,-0.039365966,-0.11733917,0.042079132,0.031639937,-0.02073118,-0.017567784,0.02023841,-0.049227063,-0.04298019,-0.074726254,0.12873891,-0.06425683,0.083546475,0.10165005,-0.013195392,0.014694421,0.005249471,0.021356782,0.02925457,0.03304536,-0.021186141,0.08818847,-0.017444583,-0.049584005,-0.07554446,-0.0047204117,-0.07120516,0.070143655,-0.03741616,0.0026593257,-0.023285948,0.04705357,-0.032026645,0.031565104,-0.015492914,-0.077885784,-0.0275602,0.017566206,0.057906475,-0.07663203,0.0068110162,0.0039155344,-0.042495757,0.056711365,-0.0068117967,0.016929258,-0.0022290137,0.08934377,-0.018047621,0.04259867,0.03330259,0.029082155,0.045191467,0.026332965,0.03989139,-0.06799981,0.0030721268,-0.028742544,-0.1208886,0.02862278,0.032367658,0.013843464,-0.04319155,0.0076691518,-0.061382808,0.007250835,-0.02045633,-0.027007248,-0.03356636,0.058254693,-0.0044834833,-0.017460497,0.043799188,-0.010811766,0.005027364,-0.020746155,-0.12876058,-0.009750073,-0.01271864,0.099354334,-0.03804064,-0.0053222575,0.073013976,-0.05849621,0.07458049,-0.013220264,0.0142042665,-0.0396347,0.036313217,0.004878083,-0.083079115,-0.015924027,-0.024072282,0.009440913,0.08792053,-0.007134633,-0.01605216,0.03496013,-0.031820793,-0.07058878,-0.01419272,-0.039188486,-0.0045685824,-0.0055265357,-0.0041078697,-0.023998147,0.04295203,0.058255248,-0.10883026,-0.042350903,-0.021836378,-0.010224362,0.064704545,-0.009153995,0.017373681,-0.062429287,-0.015543879,-0.080628425,0.03810537,-8.112925e-05,-0.12927336,-0.03106481,0.013199385,-0.007961693,-0.044756033,-0.08806191,-0.01820029,-0.04208965,0.031400654,0.048608705,0.10312016,-0.06359328,-0.040226784,0.04136274,-0.0074719447,-0.046375237,-0.07807306,0.030967208,-0.019088706,-0.044174522,-0.0037858775,0.081143364,0.0758504,0.053582516,-0.097267196,-0.0045271683,-0.07404829,0.0041821995,-0.06843799,0.031239858,-0.011148996,-0.05746298,-0.100515455,-0.07487567,-0.051405016,0.0045513646,-0.030037707,-0.0030013288,0.020889543,0.038021535,-0.0246119,-0.060407404,-0.037603516,0.01828783,-0.072233446,-0.0401255,-0.045617677,0.052076634,-0.058507588,-0.011552851,0.026570288,-0.034853376,0.10617378,0.005644478,-0.014208762,-0.047411457,-0.0064124903,-0.0074136877,0.024144728,0.044394936,-0.025561627,0.009959537,0.09198623,-0.012950484,0.030264838,0.045305755,-0.030555133,0.017773574,0.03472429,0.07202851,0.014575004,-0.052091125,-0.0561895,-0.10988499,0.012776292,0.078052625,-0.010744173,-0.035487432,0.021181993,0.094714515,0.02917957,0.044940356,-0.0025035932,0.017173972,0.013561682,-0.031176189,-0.030871507,0.02436007,-0.04377388
0.13177139,0.09518259,0.026438788,0.060651354,-0.04655381,-0.008820359,0.050124962,-0.09882486,0.003945735,-0.050577663,-0.10375234,0.10950054,0.06121054,-0.087361,0.032056473,0.10591836,0.041758746,0.00054843206,-0.12195802,0.07424225,0.033327706,-0.0040383334,0.04486584,0.0830842,0.078867085,-0.041368213,0.04906987,0.036088042,0.0027614762,0.023982942,0.037522003,0.02254634,-0.124212034,0.12938994,-0.02203284,-0.0020702675,-0.038089823,0.05400557,0.049963135,-0.062491294,0.04081168,0.023013731,0.04359572,-0.0049761413,-0.0076270346,0.040778775,0.011732326,-0.10468304,-0.017501986,-0.06275594,-0.04567911,0.04416367,0.035005197,-0.022161558,0.07269168,0.008835975,-0.039543096,0.011201861,0.022836534,0.0017851805,0.023454884,0.04889653,-0.0093845455,0.019609729,0.086478785,-0.017035708,-0.012975028,-0.028403975,-0.03923879,-0.042407904,-0.030091072,0.077532634,-0.052953433,0.054241944,-0.053836714,0.01084066,0.049608104,0.073382474,0.01723648,0.07471995,0.026443614,0.026707621,-0.027205233,-0.085699975,-0.0354573,0.0009111502,0.08999764,-0.0069681383,0.027524553,0.034269717,0.0024375655,-0.024469811,0.00035357205,0.026863089,0.02683361,-0.047063567,-0.031244997,0.03600275,-0.02506389,-0.08972723,-0.13421416,-0.03027654,-0.044234145,-0.015448274,0.009734106,-0.019869175,-0.0214019,0.044973392,-0.039579194,0.09293526,-0.07949466,0.038824573,-0.12589897,0.01473144,-0.022879578,-0.112821415,0.0435786,0.0016717,0.023852171,-0.02089928,0.049472596,-0.041327268,-0.01651371,-0.027974617,0.026271831,-0.06066687,-0.04514165,-0.073509425,0.00030626357,-0.0066684154,0.039597146,0.078302845,-0.02958265,-0.029089712,-0.012806204,0.08195791,0.049547102,0.012540699,0.027039122,-0.02271324,0.02450275,0.037735283,-0.019936582,0.0062888954,0.047963623,-0.057341788,0.10766743,-0.10162098,0.04292562,-0.043229505,-0.0814101,-0.008661516,-0.034979217,0.07946422,0.019683076,0.06419329,0.087058805,-0.07450676,0.001489082,0.010377579,0.06729635,-0.00084738835,0.07845773,-0.021689104,-0.066054344,0.07651793,0.005156196,0.055781312,0.020114582,0.018359391,-0.019236295,0.046673052,0.005748959,0.010621168,-0.01756923,-0.02576904,-0.04062728,0.058433928,-0.039829597,-0.025555631,-0.003077679,0.1265433,0.040598527,0.03642718,-0.05117193,-0.05254109,0.07491662,0.03182625,0.048441973,-0.07381172,0.043094844,-0.021734444,0.024625318,-0.040304314,-0.02663719,-0.06253691,-0.065291785,0.04317869,0.044479758,-0.033816993,0.07734824,0.049455833,-0.07772527,0.033395514,0.09861334,-0.031881664,0.033718042,-0.038187332,0.020024907,0.05454477,-0.048574213,-0.019853767,0.0019479245,0.080128446,0.032994222,0.019618642,-0.03678456,0.068486184,0.067954935,-0.01538743,-0.0036778771,-0.06580159,0.029531376,-0.13263088,0.029933834,-0.04963832,-0.06415203,0.012874075,0.0014123541,0.11219259,0.052928362,-0.02982582,-0.031246528,0.038650278,-0.044126343,0.042931385,0.015440752,0.029006911,0.043319926,-0.113636695,-0.0064043812,-0.004774787,-0.01946462,0.050843246,0.01922074,-0.011842461,-0.0031871249,-0.10661315,0.06745497,-0.009174605,0.0186355,0.05879541,0.026111312,0.024748037,-0.03908528,0.011790392,0.10157538,0.06765898,-0.09239998,-0.029902544,-0.01074047,0.02278095,0.03759896,0.061600868,0.009124879,0.020857228,-0.091328405,-0.014024895,-0.032947555,0.07204818,0.058056552,0.049142994,0.056215983,0.023591382,-0.067172416,-0.041397206,-0.0402595,-0.024234908,0.094413936,0.056760967,0.053164754,-0.029957276,0.06181273,-0.058017965,-0.013843505,-0.018861964,0.086096115,-0.0011094707,-0.019606257,0.0419399,0.05535368,0.038409177,-0.034911864,-0.10746692,-0.061618097,-0.035212524,-0.055158034,-0.0201554,0.08507821,0.0056087095,-0.012759417,0.033893846,-0.048601087,0.015660401,0.090067856,-0.016911956,0.023577848,0.07125561,-0.00847374,-0.013489103,-0.04213244,-0.04254408,0.00066456496,0.0835142,0.01320827,0.16113223,-0.002358353,0.12048417,0.008676928,-0.009741999,-0.017309126,-0.0055589136,-0.045377914,0.009635388,-0.022650639,-0.06450975,-0.03629001,0.096561834,-0.011203774,0.011586425,-0.027915452,-0.005824358,0.07658656,0.05216978,-0.034790594,0.038150165,0.07810897,0.02332056,-0.015398229,-0.0030156197,0.014218285,-0.04445641,0.022961687,0.020638736,-0.05890043,0.04566836,-0.07875106,0.017452454,0.04611103,-0.048469834,-0.0021807328,0.0067768125,-0.039258357,-0.059763156,-0.018072695,-0.04252711,-0.041547958,-0.01512016,0.011185836,0.016688868,-0.07711802,0.019140922,-0.05026372,-0.013389606,-0.004751033,0.037155014,-0.02696561,-0.0482036,0.015647575,-0.041047785,-0.07711237,-0.028964786,0.083774574,-0.04377093,-0.0066372068,0.033315387,-0.06711274,0.040029,-0.008033122,0.0073554306,0.019326793,-0.10363184,-0.04795121,0.044211898,0.0018772406,-0.07364203,0.041434508,0.006541495,0.01019162,0.03289967,-0.013393602,-0.032196727,-0.011517394,0.00013625313,-0.022016605,-0.009049851,-0.03543151,-0.031722993,0.08157876,0.11085792,0.027014673,-0.029212166,-0.028892223,0.03302109,0.025951507,-0.0013774275,-0.0014260053,-0.013546546,0.02525988,0.037429452,0.030045636,-0.08761703,0.08554805,0.081587434,-0.014784406,0.023166504,-0.06323342,-0.0377994,0.019301482,0.080482736,0.06686398,-0.124340326,0.03059345,0.004546097,0.0150035545,-0.018915834,-0.030748721,0.089790285,-0.033229414,-0.008145553,0.010216696,0.08736923,-0.025128137,-0.018570714,0.078152455,0.069396414,-0.034067445,-0.10506209,-0.07122134,0.03044649,0.08739299,-0.034312908,-0.015238243,0.025498142,0.0032315932,-0.038943056,-0.002127465,0.034742944,-0.03526417,-0.025803294,-0.06607563,0.020340765,0.0549497,-0.07948128,0.0015703262,0.0077813314,0.027941605,0.07351512,0.039747503,-0.05326063,-0.05810672,-0.12342171,-0.010867925,-0.089847475,0.07252819,0.023866776,-0.06669629,-0.027780168,-0.10341994,0.036651183,-0.01697726,0.05452863,0.019452762,0.13149965,0.100170165,0.040694308,0.067847006,-0.0410669,0.020329354,0.04544845,-0.05491802,-0.0248668,-0.00883918,0.07478187,0.006414652,-0.016046735,-0.01199171,0.084231175,-0.02094353,-0.060649995,-0.012221355,0.006741495,-0.033473864,-0.012008358,0.043435387,0.026767,0.0029045783,0.0051179132,0.0013949033,0.028976995
-0.042862255,-0.02147182,0.09215268,-0.0034855874,-0.09162256,0.03936791,0.07438302,-0.051006857,0.029549543,0.10418768,0.03588698,0.045928936,-0.07384897,0.06462176,0.09056344,-0.110335074,0.033103198,-0.08747601,0.03180517,0.08969413,-0.017188694,-0.042312883,0.012656209,0.099486046,-0.030652251,0.04049947,-0.005092897,-0.03943867,0.017095592,0.0033560356,-0.09052526,0.022987727,-0.012523057,0.009160221,0.08839247,-0.0040475964,0.019363143,-0.10775903,-0.05301062,-0.10425798,0.00826467,-0.08354902,-0.074768156,0.031599835,0.033544645,-0.00840258,-0.0033391358,0.07558796,-0.054522492,-0.08527678,0.033890236,-0.0725341,0.066207476,0.033437703,-0.012053452,-0.022083605,-0.025067229,-0.05563819,0.06955122,0.04497598,0.026106734,0.036711264,0.07691956,0.03957786,-0.038180627,-0.036150668,0.07776433,-0.011391835,-0.038722772,-0.014352208,0.11298175,0.06250212,-0.002505119,-0.07800667,0.04108723,0.04766137,0.06492713,-0.070277505,0.0299478,-0.023138471,-0.030615933,-0.030908568,0.017959084,0.021763708,-0.015108244,0.06444133,-0.10536054,0.0397859,-0.009700173,-0.07860708,-0.009412717,-0.028938547,-0.056984097,-0.0002704195,-0.010472424,-0.009431882,-0.004568385,0.011082185,-0.087262206,0.09604018,0.07725357,0.016924435,-0.0062459423,-0.006974229,-0.035921212,0.043726686,0.024202202,0.011765991,0.048705284,-0.09195018,0.14045216,-0.024341093,0.015323658,-0.0032957534,-0.013393273,-0.098594256,-0.00063755945,-0.028354898,0.041219696,0.04609737,-0.057133004,0.035379514,0.0030646394,0.020327443,-0.022775862,-0.042981975,0.002166409,-0.0013835465,-0.021265958,-0.038224544,0.0023631495,0.005316997,0.011816874,0.018089803,0.082985945,0.04743381,0.019483564,-0.079941966,-0.018961504,0.026948638,0.0248203,0.032979723,-0.01218598,0.026783569,0.056169506,-0.048118245,-0.009539341,0.045874346,0.024978548,-0.10767956,-0.053305812,0.022660885,-0.01842352,-0.015861532,0.016146803,-0.010238016,0.04566122,0.07694247,0.02447553,0.06298947,-0.048197515,0.042953342,0.012203749,-0.07139105,0.011992421,0.010816619,-0.03051432,0.006943283,0.044020724,0.05798602,0.08610211,-0.08485763,-0.012699671,-0.011895639,0.0004333841,0.03384616,-0.012468111,-0.060013127,-0.07087955,0.0037712166,0.03683234,-0.026383223,0.0015479398,-0.018752681,0.025801279,0.036675457,-0.023420881,-0.058179382,-0.037351448,0.07060241,-0.036070455,0.07511609,0.020187384,0.009282758,-0.006270204,0.011134387,-0.06043981,0.040267553,-0.02359187,0.03925513,-0.043559067,0.034980737,0.008366734,-0.02680663,-0.0010827997,0.019062418,0.004958367,-0.076109245,0.020549811,-0.012565462,0.105867304,-0.028054647,0.04312459,-0.043949038,-0.037293684,0.010551241,0.020271657,-0.0074871713,0.043633565,-0.007946428,-0.042244203,0.10382091,-0.007878224,0.022256227,-0.021961527,-0.036328778,0.018940086,0.026766136,-0.081098795,0.011895333,-0.08618477,-0.030864695,-0.08737386,0.027107924,-0.011688543,0.11747753,0.00578095,0.027914995,-0.022365734,-0.090383075,0.029087674,-0.067675024,0.025598753,0.06426762,0.05238951,0.042298883,-0.042386632,-0.073054984,-0.10228265,0.02002957,-0.021702416,-0.023091773,0.009773928,-0.071764044,0.024348998,-0.03071663,0.006900088,0.024109667,0.019815408,-0.015345761,-0.045024555,-0.05659889,0.07160225,0.1598225,-0.018726652,-0.022413522,-0.056208253,0.022404857,-0.003416927,-0.04753684,-0.061169043,0.023061411,-0.085662514,0.026791107,0.027306529,0.026239332,0.058181856,-0.028752368,0.025478179,-0.03389149,0.10499637,-0.08653436,-0.034006722,0.06578554,0.034336366,-0.038379915,-0.035540372,-0.104216106,-0.09117238,0.028134756,0.044033736,0.025957678,-0.02323269,0.032077055,0.05436323,-0.031038444,0.12964968,0.087907575,-0.052938543,0.013025845,-0.079024404,-0.05587317,0.01086632,0.03660728,-0.008922509,-0.046690598,0.014362476,-0.07508867,-0.023973078,-0.06322363,-0.0705191,0.04728718,0.012236752,-0.03125138,-0.120624304,0.054958533,-0.02100599,-0.05924227,0.056327652,-0.009816367,-0.057855535,0.0095193265,-0.009850312,-0.006643114,-0.04595716,0.10239391,0.03315212,-0.014821234,-0.03151361,0.052020423,0.016755972,0.027781127,0.08261039,0.054712288,0.016762044,-0.031121384,0.09294586,-0.06023881,-0.116316475,0.013164575,0.023159578,-0.029259734,0.029712936,0.0065127593,-0.04139723,0.09560967,-0.036283847,0.032542076,0.003951296,0.006499841,0.072177134,-0.09759827,-0.043166768,0.046139657,-0.045406837,-0.02947745,-0.031110812,-0.017660875,0.040104147,0.036821693,-0.11006103,-0.022544086,-0.029369533,-0.08065213,0.077278316,0.027629385,-0.0335978,0.028348433,-0.0544124,0.021003934,-0.05569391,-0.102974616,0.07261578,-0.011421711,-0.105211236,-0.017566878,-0.03487476,0.07999113,-0.018391628,0.036595464,0.035998743,0.0063685426,0.08703798,-0.107015744,0.008586884,-0.06933044,-0.0212059,0.036656223,-0.069977865,0.02804348,0.14430934,0.02954699,-0.050373904,-0.015719257,0.030703474,-0.040265527,-0.010922578,0.044476345,0.037634946,-0.013778123,-0.008679084,-0.022307945,0.024916776,0.097686574,0.0019104407,-0.03736229,-0.05336026,-0.017731778,0.07786306,-0.035739113,-0.057446837,-0.056679834,-0.055314984,0.071731605,0.03851294,-0.0005960937,-0.033212267,-0.014379954,-0.0015693905,0.009204097,0.06680534,-0.14988379,-0.031225601,-0.03169158,-0.04802233,0.07116739,-0.011410939,0.021638645,-0.0065425755,-0.02229655,-0.009805019,-0.04378519,-0.07251437,-0.07422694,0.03200807,-0.06184923,0.027735969,-0.09624589,0.043486457,-0.07982593,0.018593539,0.03955711,0.002712854,-0.058512066,0.017441308,0.11734757,-0.037642565,-0.007011079,-0.03462657,-0.062030494,0.0081513105,0.04230092,0.009140775,-0.03642423,-0.006050437,-0.014343474,-0.030209068,-0.0857063,0.09680219,0.039656356,0.077954665,0.047879465,-0.016333077,-0.07288934,0.08385022,-0.01143271,0.052251,0.0064133336,0.03330069,-0.010650288,-0.027745977,0.027626699,0.014857257,0.00070778816,0.076932184,-0.071003124,0.08422097,0.039913516,-0.00952485,-0.042589925,-0.029429428,0.030258263,0.07521639,-0.021385005,0.0526345,-0.0701915,-0.14459288,-0.062810495,-0.01116281,0.032618172,0.015486621,-0.019939663,0.02667931,-0.048580226,0.031426817,0.0011856738,0.034051824,-0.0026102974,0.025485788,-0.0066652275
-0.015247216,-0.049311012,-0.13205956,0.06721214,0.10851421,-0.0737469,-0.093169264,0.06636189,-0.034650896,-0.0066784658,-0.026037363,-0.06289439,0.03600743,0.10386319,-0.035890464,-0.061808553,-0.01783559,0.109323695,0.07494916,-0.04166579,0.02018553,0.023451528,0.020678971,-0.058184475,0.019503152,-0.045608114,0.09009408,0.034657054,0.02496528,-0.03306002,0.011980609,0.0006246571,0.015446998,0.03364982,0.042494513,0.044041235,-0.041612476,0.11364484,0.054004338,0.20205739,-0.02735118,-0.03297774,0.0025065516,0.039513253,-0.080862775,0.021543188,-0.01526339,-0.056816697,-0.046317946,-0.014654575,0.065813705,0.039235804,-0.057039827,0.002572301,-0.03741907,0.0077155097,-0.04248328,-0.04747982,-0.042850204,-0.03902913,-0.025205005,0.06386583,-0.053934224,0.049372654,0.020226602,0.028832277,-0.1276468,0.029310415,0.011595623,0.019801443,-0.099033676,-0.045130093,0.06625156,-0.029590532,0.037786413,0.072609715,-0.10207932,-0.10689197,0.033272654,0.032768242,0.016242685,-0.038200222,0.014601526,0.0044441107,0.037725154,-0.039618373,0.06539189,-0.0062839175,0.0051766164,0.06395671,0.084920056,0.024892466,0.022661949,-0.080157295,0.04951979,0.04191179,0.05345955,0.02287589,0.014703234,-0.022870092,-0.014922684,0.037967455,0.049330786,-0.086983,-0.02566633,0.023119396,0.021034887,0.035006057,-0.11147299,-0.05513806,-0.040822573,-0.04880392,-0.060309846,0.003255154,-0.036765195,-0.0072864224,-0.028245062,-0.037937786,-0.047033533,-0.0051783053,0.011394471,0.019671924,0.021819878,-0.016775317,0.032553248,0.05073636,0.09119437,-0.028320814,0.027611202,-0.016704837,-0.015077617,-0.05571972,-0.09325381,-0.019451905,0.033627473,-0.08798999,-0.014351966,0.051655415,0.05958028,-0.019075649,0.034764186,0.06423503,-0.0109386705,-0.17328544,0.011943829,-0.013299638,-0.09783761,0.027531963,0.001660515,-0.07223308,-0.010649272,-0.09816336,0.0074953744,-0.03001321,0.044942167,0.1932954,-0.10372062,0.032837935,-0.005387293,-0.029983487,0.018654319,-0.039985284,-0.015206031,-0.011079258,0.123254485,-0.106192574,0.00054314494,-0.013479719,0.07432806,0.01708123,-0.031033283,0.022869194,-0.0051176394,-0.02188576,-0.03807827,-0.063731186,-0.01162954,-0.02999437,-0.057437718,-0.004518413,-0.033104304,-0.043135475,-0.018351609,0.022882918,0.08765562,-0.0060903146,-0.116559416,0.03823318,0.118830234,0.0008967706,0.006657067,0.05526559,0.07537957,0.032255862,-0.03976504,0.091537856,0.081997916,0.032843668,-0.035084218,-0.047902543,-0.013742185,0.03436979,0.0051378203,-0.021792516,-0.013564102,-0.06387866,0.014052242,-0.010594593,-0.022180406,-0.06749065,0.101232566,0.03614963,-0.056429576,0.036341846,-0.0113008525,0.0098766545,0.03671249,0.026118554,0.0053070835,0.009944446,-0.03346229,-0.092874125,-0.0056754514,0.04345123,0.04225103,-0.010870667,-0.046395056,-0.03430993,0.025610395,0.11269546,-0.0610057,0.0326806,-0.010009427,-0.04276337,-0.029907819,-0.13300546,-0.03060598,-0.12833789,-0.03525532,-0.0038839933,0.042967908,0.015937101,-0.018241327,0.05129616,-0.03991763,-0.032023318,-0.036695927,0.015475426,0.013435963,-0.0363573,0.034752898,0.04112342,-0.031478893,-0.0033761654,0.024548238,-0.01856167,0.0122467335,0.06283337,0.07229352,-0.007812388,-0.048270136,0.04964414,-0.02828566,-0.13752978,-0.0386145,-0.020224484,0.028294664,0.033530954,0.021043802,-0.043711986,0.034784026,-0.09995761,-0.11233953,0.022989932,0.10688277,0.01497968,0.096019275,-0.009068124,-0.04464634,0.005765337,-0.07748703,-0.00064373435,-0.04840626,0.00792517,-0.024867617,0.03617803,-0.053835563,0.01234643,0.0961558,0.027003836,0.0031709867,-0.00799188,0.011808557,0.025821865,0.105572514,0.043336026,-0.06500032,0.02234583,0.011432051,0.044266198,0.009129655,0.057316802,0.0037895322,0.037927117,0.10392805,0.020657463,0.007682796,-0.0017447105,-0.031270478,0.06713273,0.044005603,-0.032828916,-0.0781227,-0.0764236,0.0221774,0.013723111,-0.000996776,0.100994326,-0.0011473577,0.00017321965,-0.021202326,0.014942859,0.02542951,0.024890155,0.08352577,-0.014390726,-0.0300262,-0.026886754,0.00669003,-0.03788321,-0.031098498,0.04310215,-0.01914369,0.04981457,-0.014922663,0.026898118,-0.089352444,0.03498275,0.037044007,-0.0009821291,0.03120304,-0.0042722975,-0.035807885,-0.0057798824,-0.026579846,-0.011534533,0.03658788,0.031855956,0.045967508,-0.0025281287,-0.049503256,0.1012855,0.0133200865,0.014389733,-0.037754253,0.017324215,-0.006980076,0.008640834,0.00735353,-0.024170874,0.040489424,-0.023925688,-0.010190338,0.002636295,-0.044907987,-0.022886222,0.007306322,-0.026856795,0.05683397,0.042214025,-0.056193788,0.0066169943,-0.07456586,-0.071704544,0.029516058,0.021896847,0.031928364,-0.029624969,0.012060951,0.026552442,0.021454448,0.010817796,-0.0077839317,0.06612534,0.0067479257,0.045926403,0.000566909,-0.040305834,0.05469279,0.00044893517,-0.0424057,-0.030042438,0.01281025,-0.042592365,-0.0621078,-0.018880079,-0.01655864,-0.041403096,0.015794767,0.005605039,-0.016078675,0.028659904,0.032421526,-0.06327853,0.030189356,-0.03764317,0.09055743,0.015640337,-0.10661492,-0.021551603,-0.03521151,0.031032655,-0.029287297,0.025488304,-0.027816057,-0.0030512966,0.06915553,0.033853278,0.04662718,0.066618524,0.022025565,0.109170325,-0.015147728,0.034704026,0.08577753,-0.015360905,-0.033846047,-0.09169982,-0.083057396,0.00010315421,0.03671145,0.002819021,0.07248122,-0.048440997,0.05078221,-0.11275266,-0.04540392,-0.06275047,-0.06648978,-0.03498863,0.02916921,-0.027066085,-0.09297026,-0.031627014,0.016391937,0.018616809,0.026370885,0.014737457,-0.037632704,0.1156085,0.08179885,-0.04804403,-0.10454334,0.07922324,0.015230348,0.013515717,0.0013908113,-0.021261798,0.06646641,0.065938406,-0.040133804,0.016924132,0.0050414866,-0.0018932115,0.06887805,0.022058195,-0.0014066879,0.03271388,-0.017087331,0.04080887,0.013434094,0.02228558,-0.03705936,-0.0028918316,-0.061126024,-0.011146206,0.010476776,0.037911154,-0.046756394,-0.044126853,0.016328754,-0.024101645,-0.059861287,-0.05803631,0.013725335,-0.05426285,0.12507465,-0.023432884,-0.028569825,0.0012353897,0.06034833,-0.025896262,-0.05044436,0.07151235,0.01839417,0.03366834,-0.021609772,-0.03310096,0.019029973,-0.015375274
-0.068294175,-0.04893135,0.06880973,-0.023067106,-0.01216964,0.010264093,0.06612699,0.04634657,0.081878014,0.047185052,-0.05390782,-0.014734282,-0.00869878,-0.04870677,-0.025629064,0.026573375,-0.06520645,-0.09065447,0.03893134,-0.028185505,-0.019372566,0.015194421,0.028666042,-0.024792502,-0.084091775,0.040753502,-0.013013677,-0.03960278,0.06390622,0.015980149,0.015198286,0.034765743,-0.025551356,0.01917886,-0.08342641,-0.034903623,0.014501017,-0.00044052486,-0.067948654,-0.007275858,0.014682109,0.05238595,-0.07070776,0.015407138,-0.007700509,0.043553814,0.11602547,0.0938141,0.098597966,0.07614121,-0.07449921,-0.13228352,-0.0055277767,-0.039512884,0.021024846,-0.0012337829,0.03339374,0.03682754,0.005048495,0.016359704,-0.015404521,0.034744695,0.0008773076,0.04735885,-0.020509515,-0.004036413,-0.011369138,-0.03623845,-0.008878784,-0.039156817,0.050783966,0.03058431,0.10713146,0.021379722,-0.055715762,-0.014732719,0.041686743,0.01623812,-0.009071772,0.026519777,-0.012848162,0.017847765,0.008122081,0.0064270506,-0.02235605,0.09467765,-0.053155232,0.002610567,0.053030614,0.01660892,0.0400816,0.00012706968,0.017475298,-0.0070438897,0.002491632,0.06811833,0.00018482696,0.033026963,0.005753333,0.09984709,-0.0051113977,0.02155664,-0.054884564,0.08224334,0.1269339,-0.004241744,0.021093816,-0.056388367,0.06048288,-0.07474902,0.13822362,-0.004453295,0.019438598,-0.019682432,0.025103377,0.06697753,-0.04003767,-0.016561767,0.09277778,-0.05589285,-0.004579228,-0.031490885,-0.040614154,0.030439045,-0.05285711,0.010124075,-0.018911153,0.060713783,-0.03831548,0.04791397,-0.026209012,0.06620227,0.07630114,0.013315766,-0.028785212,-0.06466066,0.033109125,-0.05320238,-0.006613561,0.019409807,-0.013185992,-0.029038044,-0.035101887,0.067450665,-0.092225164,0.0018023533,0.0726416,0.018715221,0.010576634,0.15976812,-0.005699914,-0.013861347,-0.009638408,-0.030114649,-0.047945485,-0.04096315,-0.041534424,-0.026783282,0.040928654,-0.040843025,0.07786717,0.056845892,0.04367221,0.03761015,-0.08968404,-0.08508305,0.038861044,0.06474001,-0.06137919,-0.030406106,0.0306486,-0.006165953,-0.0029393835,0.067700274,-0.023084125,0.006956517,0.018605629,-0.015152886,0.13397765,-0.021386586,-0.044294342,-0.050468896,-0.033505056,-0.0037191482,-0.032063067,-0.035871662,0.023222137,0.033971604,-0.094167985,-0.11175055,0.0016761004,-0.05048327,0.03358441,-0.037103165,-0.031794563,0.0824604,0.032897394,0.0009179777,0.013217446,-0.0037567043,-0.015359904,-0.016814465,0.14739677,-0.0004475843,-0.011474321,-0.06607227,0.02231204,-0.06670064,0.010464394,-0.011996019,0.017136471,0.00039623116,-0.019847512,0.021234078,-0.0010056285,0.019516973,0.015400765,-0.021577168,-0.035187606,0.041299812,0.013981303,-0.055249415,0.031239789,0.1200094,0.017900728,-0.0745735,0.105129816,-0.0048509953,-0.06264365,-0.05953355,0.074669026,0.04291445,0.08331465,0.021558218,0.050425805,-0.024950707,0.037936285,-0.025899278,0.02638291,0.19257618,-0.043044195,-0.013973657,-0.0043962006,-0.103251725,-0.0027332655,-0.019850872,-0.040700354,0.011619273,-0.0005246281,0.005363582,0.014865667,0.015896088,0.016990451,-0.067073844,0.02923702,-0.016726527,-0.1204306,-0.06413102,0.15081365,-0.038444765,0.010287382,0.061111934,0.016865449,0.05183081,0.048166934,-0.006360485,0.014740888,-0.009417274,-0.046239223,0.07006804,-0.0047954535,0.014432643,0.039472617,-0.048137166,-0.03149805,0.003985105,-0.015246821,0.025419954,-0.072793484,-0.03263546,-0.049211465,-0.058286898,0.006355441,-0.018155599,0.021450581,-0.008416748,-0.038668785,-0.015299176,0.0022515785,0.081099235,-0.03191483,-0.04091589,0.025684856,0.004386543,-0.022555728,-0.02611909,0.07747296,-0.05545687,0.019774027,-0.08633158,-0.065516725,-0.044571135,0.07728543,-0.14590374,0.051898398,-0.021308934,0.0035957536,-0.008879319,-0.0051497626,0.049005736,-0.0062989024,0.011562562,-0.0906232,-0.0912641,-0.008450928,0.05225972,0.012059968,-0.085387565,-0.017432265,0.0058135665,0.012859653,-0.009752326,0.005382482,0.04488823,-0.022792945,0.03869504,0.03116922,-0.03502698,0.0230303,-0.041185737,-0.038552534,0.04081467,-0.13528076,-0.08975377,-0.10294977,0.04375868,0.048117407,-0.0034886305,-0.08035886,-0.026789073,0.047971044,-0.0364649,-0.042817213,-0.03317086,-0.011705981,-0.012440438,0.081783816,0.0020643652,0.04258034,0.07630832,-0.030219525,-0.029629445,-0.03414749,-0.044494245,0.03793129,0.04943668,0.0065412316,-0.0118638165,0.06717948,-0.029269427,0.0068988325,0.08814509,0.06684795,-0.007530487,0.04593893,-0.0011899238,0.040139865,0.03686392,0.02153369,0.010924019,-0.038186092,-0.001024863,0.077720225,-0.07725115,0.046681635,0.052274764,-0.0069971336,-0.10746163,-0.043036766,-0.051018976,0.0049250782,0.01792132,-0.09142807,-0.08517862,0.0060021207,-0.0186,-0.056986652,-0.03916633,-0.054108806,-0.034162454,-0.03468388,0.07689429,0.037716724,0.0018881394,0.11110808,0.028266521,-0.014613048,-0.0407672,-0.020021467,0.014115264,-0.029736752,0.021462841,-0.016798364,0.023617653,0.036522064,0.017827377,-0.12394346,-0.0109175425,-0.03436221,0.025982715,-0.043885794,-0.00850798,-0.023034073,-0.11384098,-0.05779256,0.0058681453,0.03123382,0.011026698,-0.05730447,-0.037893176,0.01674438,-0.03953775,0.06552142,-0.015152082,0.015393627,-0.11329441,0.096579745,0.0014962628,-0.0030816456,-0.01667569,0.0003556299,-0.06029809,-0.030023845,0.07630197,-0.11979518,0.063068666,0.0074096536,0.089188635,0.097714245,0.05108481,0.01214274,0.074684635,0.09816585,0.0974654,-0.01263427,0.055102248,0.026352918,-0.029309448,0.0155651625,0.06695085,-0.008384223,-0.08685321,-0.11794147,0.0006506876,0.019067459,0.03326725,0.016366145,-0.055483498,0.001552724,-0.048994016,-0.021915417,0.16831969,-0.031926997,0.059510175,-0.06835421,-0.018221883,-0.04716585,0.0139658535,0.08609865,-0.05229056,-0.022666262,-0.039375115,0.04347027,-0.09448668,-0.073493786,0.031550825,-0.030867685,-0.00735929,-0.036296856,-0.00573663,0.10499215,-0.037595857,0.06749994,-0.043010555,0.044524215,-0.017834133,-0.040244143,0.02759171,0.030774502,0.13308965,-0.032537382,-0.03474397,0.03698054,-0.08870802,0.042564932,0.031325106,-0.039436724,-0.014876456,0.009108366,0.0022837713
0.037556753,-0.055280864,-0.064119376,-0.01733055,0.10576101,-0.061922453,-0.106711835,0.027548261,0.016120987,0.007659277,-0.05263606,-0.04364409,0.0014137104,0.06492247,0.0021284148,0.025568075,0.023530956,0.0554064,0.0028748866,0.031438287,0.021531813,-0.0047539687,-6.695636e-05,-0.08078125,-0.007842116,0.04263449,-0.008303458,-0.020449817,-0.03275081,0.02898816,0.0038958364,-0.03155146,0.004989163,-0.05409578,0.059576374,0.09459697,-0.021603243,-0.06386321,-0.056932416,0.02809423,0.012505452,0.10644701,0.02402014,0.0053252066,-0.034666456,-0.029329522,-0.0502376,-0.07413823,-0.02323326,0.08555623,0.0022937297,0.036319967,-0.0074137133,0.054860093,-0.021348443,0.0111179985,-0.031166475,-0.007965526,-0.0064612157,-0.050465092,-0.0016849436,-0.020379554,0.014694972,-0.019991359,-0.07491085,0.111637086,0.041171238,0.032812756,-0.0019719875,-0.024414983,0.04958103,-0.012195031,-0.039444823,-0.05805572,0.040544845,-3.1227584e-05,0.00067866605,0.02960903,0.005161543,-0.025246061,0.0011533824,-0.004920114,-0.13565323,0.09849231,0.037785243,0.044290446,-0.053647105,0.050430465,0.022861825,-0.035766155,0.011025515,0.0029072298,0.028366802,-0.068690985,-0.044658527,0.005833957,0.050688993,-0.040021736,0.0701926,-0.0449383,-0.10867085,-0.04393514,0.07202276,0.07192291,-0.0048196395,0.026245197,-0.03167752,0.026058368,0.07859993,-0.009534478,-0.037127975,0.057233498,0.054550897,-0.02082748,-0.010546272,0.02583516,-0.02210976,0.03144084,-0.10424634,-0.05647782,-0.017056897,0.11504113,-0.031775817,-0.03215408,0.054486897,-0.025397172,-0.017644307,0.16081512,0.057995543,0.024630742,-0.11545658,0.099503905,0.015113025,-0.01232757,-0.0058254576,-0.10272324,-0.0032767334,0.009434122,-0.0257432,-0.02192866,-0.023387946,-0.032706678,-0.05462274,0.027480567,-0.062532656,0.050489277,0.030330423,-0.019387376,0.022527011,0.06446252,-0.0083231125,0.038037933,-0.091979936,-0.0014835969,-0.04076686,-0.0036993946,-0.10312217,0.032747597,-0.06366655,0.010357488,0.016919782,0.023936423,-0.08952985,0.0879683,-0.022809245,-0.019293342,0.031858686,-0.0392251,-0.1063145,-0.047464453,0.011262288,-0.029372869,0.022808773,0.02397417,0.027303176,-0.110130444,-0.009002679,-0.05444732,0.049041767,-0.039125986,-0.001927537,-0.093881756,-0.02196665,-0.041708875,0.035661843,-0.016056418,0.08104457,-0.032954063,-0.07969266,-0.042635106,0.015362643,-0.009386308,-0.019625943,-0.028976304,-0.027310813,0.026996387,0.039925117,-0.08974005,-0.018385138,0.036026113,0.081782445,-0.012863706,0.102933146,-0.041584108,0.06380144,-0.038489364,-0.0013002616,-0.111878365,0.020025332,0.008111211,-0.04875436,0.07801663,-0.031167002,0.06455672,-0.019457573,0.002223845,0.010609358,-0.049009096,0.040778127,0.043975946,0.011382682,-0.028743796,-0.016760824,-0.03246216,0.04368729,0.03703023,-0.024023198,0.027783962,-0.02062173,-0.036762927,0.034862477,0.02345813,0.071636476,-0.00815914,0.022563985,-0.09005676,0.03813207,-0.054003127,0.040734787,-0.07617295,-0.004306384,0.08030362,-0.03944408,-0.041109014,-0.010769269,0.013779207,-0.0021254248,0.08095723,0.068472445,-0.014955807,-0.003345456,0.010667374,0.00635388,0.038519584,-0.02356139,0.041279715,-0.07185156,-0.07216439,0.007884434,-0.025649263,-0.062008623,0.023802366,-0.09808084,-0.0031756596,-0.045566056,-0.023185896,0.05558353,-0.021809915,-0.04759767,0.11703211,0.028407706,-0.096314125,0.08683106,-0.020127963,-0.0105071645,-0.035953317,-0.1034705,0.040784474,0.0027758826,-0.047596645,0.027256522,0.07529975,-0.058968984,0.014850747,-0.029660838,-0.024502559,0.027650172,0.09728325,0.005227692,-0.042122953,-0.044885643,-0.0052484823,0.09769159,0.08242638,-0.08558532,0.032884926,0.0027092434,0.009126568,-0.02692679,-0.0927068,-0.023482658,-0.100112386,-0.042446237,-0.045367308,-0.04596972,0.043542605,-0.042110708,0.018229429,-0.0026287397,0.07296882,0.12808946,0.00551098,-0.03766703,0.09347423,0.036877364,0.0111180395,-0.040698398,-0.06490897,0.034798943,0.016271122,-0.012572345,-0.01657487,-0.0427484,-0.042240057,0.012421981,-0.09650172,-0.069307566,-0.057718277,-0.014917301,-0.03438115,-0.059335385,0.034030054,-0.029286427,-0.023199547,0.013192493,0.045380987,0.07267034,0.0077953944,0.025468798,0.005165219,0.016158018,0.032127038,-0.021254191,-0.0004821952,-0.01517408,-0.05582131,0.021448055,-0.006212478,-0.009350111,0.034314834,0.033349246,0.058406148,0.034722943,-0.046526212,-0.0034232084,0.04192195,-0.046678778,0.0346493,0.014393834,0.032066587,0.0723669,0.04663852,0.11187569,0.0429076,-0.043450017,-0.02524075,0.014637127,0.017496262,0.0026185296,-0.041613564,-0.085346505,0.14301518,-0.032134715,0.0013380466,-0.012052492,0.01176799,0.13903053,-0.07231571,0.098462544,-0.019233504,0.031008491,-0.006896059,-0.10057429,0.031625193,-0.036685493,0.07507922,0.031635616,0.018970802,0.05849627,0.005410455,0.0043078093,-0.03791846,0.020105101,-0.04317406,-0.06835754,-0.004548089,0.044252314,0.034444444,-0.082459085,0.12189821,-0.010841694,0.015515324,-0.026994478,-0.065722704,-0.028734097,0.03988323,0.07706356,-0.0143573955,0.0067342636,0.0069358,0.0077722683,-0.030795991,0.0015705237,-0.096365824,0.10322121,-0.026879188,0.016164776,-0.0010718652,-0.11138667,0.00024913432,-0.07253019,0.07026795,0.058478642,0.009810468,-0.112853214,-0.027604656,-0.046305932,-0.06268287,0.09360269,-0.010419816,0.04325084,-0.07630327,-0.017556885,-0.024382127,-0.011312132,-0.048000187,-0.049321022,0.15711534,-0.017549176,-0.078897625,-0.028392836,-0.071326405,-0.038884163,0.054266967,0.015882285,-0.10553647,0.021113953,0.042353008,0.004099131,-0.07562772,-0.024496606,-0.0075210663,-0.044739246,0.01822017,-0.009289956,0.050271846,-0.0055176346,-0.051470403,0.015049593,0.02391326,-0.09464247,-0.009902447,-0.03939163,0.05794928,-0.04126103,0.0046579335,-0.023008225,0.029279927,0.023516996,0.0027244184,-0.04466607,0.021037078,-0.0035990006,-0.1851161,0.053268798,-0.041633833,-0.06940805,-0.009057234,-0.052852504,0.032847825,0.047591187,0.04232752,0.0040628104,0.056517832,-0.019708548,0.07313099,0.108086534,0.12542959,0.035420507,-0.005037417,0.015258375,0.029003663,-0.028185504,0.072540894,-0.034630857,0.038543485,0.04020634,0.021590957,-0.12470362,0.020176029
0.009790494,0.07207446,-0.10316213,0.016810844,-0.04477549,-0.054892257,-0.06582484,-0.0032688405,-0.0066620824,-0.0528278,0.097028635,0.03986513,-0.039148673,0.014572039,-0.05785649,0.054815188,-0.035097193,-0.10355723,0.085872926,0.08193296,0.046160594,-0.022012906,-0.020557359,0.069174685,-0.02155407,0.032318246,0.0056280224,-0.005744501,0.011795278,-0.021873232,0.0009457471,-0.042522054,-0.011131628,-0.016747706,-0.0011308338,-0.026705228,-0.012755083,0.024111224,0.05398286,0.00929043,-0.042298228,-0.13757691,0.0069259293,-0.0007380254,0.09756125,0.006788177,0.012889312,0.04281576,0.10039687,0.010143494,-0.011976929,-0.087349996,0.00081984536,-0.018268604,-0.12593223,0.026754074,0.039944157,0.04828024,0.0030518165,-0.0011253763,0.012981386,0.046167683,0.06216036,-0.06496083,-0.07791154,-0.11157101,0.015618922,-0.022546675,-0.008399019,0.0052637965,-0.036522467,0.017663911,-0.011148253,0.12920463,0.0011549839,0.0074265967,-0.11250343,-0.0048452257,-0.012427951,0.06083979,0.017490767,0.006692188,-0.024733456,-0.0723686,0.044595283,-0.042144097,-0.029039886,0.010134073,-0.02386914,-0.010001998,-0.06800114,0.0094722435,-0.042321295,0.0011905733,-0.08863266,0.020695264,-0.013827496,-0.034281533,0.048058026,-0.013016675,0.07666479,-0.04843343,0.02740698,-0.039199904,-0.044497095,0.03776501,-0.012660072,0.049388874,-0.03833804,0.048868295,-0.16861531,-0.05343163,-0.019706035,0.002228872,0.0038519416,-0.015985955,0.0132949855,0.040184684,0.065015875,-0.05686908,-0.12062123,0.03241577,0.010544258,-0.024387117,0.0043599894,-0.025368636,0.014362642,-0.11383789,0.0435732,-0.1427321,0.08542504,-0.104953125,-0.012629762,-0.014515344,-0.038305014,0.0054456163,-0.04450973,0.076731525,-0.021766046,0.041283812,-0.02930025,0.051899232,0.03689178,0.067937344,0.0110096475,0.022079788,0.027739298,-0.061304566,-0.004846134,0.046593018,-0.01362702,0.02208972,0.056954846,-0.11095318,-0.0061861053,-0.04557861,0.083068006,0.047788814,0.08428786,-0.033471476,0.10946057,-0.008606295,0.038978525,-0.042147733,-0.054464396,-0.037278716,0.009216378,0.008106956,0.08546099,0.009976317,-0.05596407,0.107605964,0.029505817,0.081317626,-0.04223705,-0.009705287,0.038746987,0.07610498,0.090739734,0.011716057,-0.020860454,0.14198208,-0.0093394695,0.010399076,-0.015577887,-0.07694757,-0.07195874,-0.10979448,0.019655248,-0.0037036843,-0.023983222,0.027709316,-0.034232408,-0.026879441,0.022440996,-0.004508272,-0.040535077,0.15849967,0.026892716,0.03790524,0.08315845,0.012666173,-0.09280802,0.04235679,0.02545652,-0.029140325,-0.038340278,0.067525186,-0.025183888,-0.031559777,-0.032557707,-0.046981234,-0.032803092,-0.08244952,0.016526746,0.09142495,0.030412609,0.038343918,-0.072282284,-0.027646951,-0.021178555,0.04139895,-0.07142709,0.02881979,0.047046684,0.019931601,-0.098713554,-0.029739985,-0.05431216,0.12357009,0.010792207,-0.04279876,-0.057460755,-0.009476887,-0.006600458,0.04720569,-0.007686246,0.04631988,-0.0019957456,0.09968023,-0.026275288,0.0006978752,-0.017308615,0.031164981,0.016609127,-0.039367333,0.03129804,0.052492347,-0.0508549,0.0064793765,0.032576896,-0.0022886593,-0.038867455,0.016912634,0.025706522,-0.023584696,-0.009658606,0.060067866,-0.15280522,0.025273353,-0.002878856,-0.082639314,0.04560781,-0.0035318602,-0.022304652,-0.04204368,-0.03764369,0.025953667,0.09604914,-0.114053,-0.010656753,0.03961622,-0.078765176,-0.04583155,0.037328847,0.031860817,0.04901089,0.045174908,-0.07133763,0.009646508,-0.0042831097,-0.032372538,0.06536987,-0.04397758,-0.0017428203,-0.009967794,0.047608618,-0.07058286,0.022570314,0.034883764,0.039214242,0.006181122,-0.029879335,-0.050960474,0.07713227,0.041942522,-0.043232266,0.056406718,-0.04868224,-0.03061855,0.091907136,0.064011864,0.03211848,0.018245498,-0.034206748,-0.00073896215,-0.029299237,0.042012766,-0.013573361,-0.053168412,0.0042012795,-0.02395465,0.03533971,0.13119297,0.060979754,-0.046413947,0.036887992,-0.0807878,0.00046222337,0.027967094,-0.0068786545,0.0057136496,0.026748711,-0.04423543,-0.050982274,0.033536296,0.015870692,0.09812988,-0.024439627,-0.023409413,0.08440194,0.01561163,0.026783794,-0.082647234,0.014412095,-0.010921567,-0.055767268,-0.059099462,-0.024290826,-0.021915117,-0.03313908,0.027589818,-0.03649193,-0.04563937,-0.009189405,-0.048780058,-0.035205577,-0.012836522,0.04076582,0.030049134,0.058330424,-0.08884819,0.041796688,0.10028656,0.0051337006,0.09264929,-0.011610041,0.0714221,-0.07645066,0.037969563,-0.06495226,0.029790264,0.013472811,0.02951403,0.045013458,-0.014397786,0.0021648814,-0.04294545,-0.038994666,0.04171237,0.09859021,-0.08555159,-0.090368986,-0.025727965,-0.014035139,0.062038403,-0.030456,0.08362829,0.025569139,0.03835206,0.031770024,-0.009421132,-0.01108209,0.07157812,-0.010764638,0.018547274,-0.016823547,0.005912529,0.05136601,0.011088105,-0.06410175,-0.05972165,-0.03857406,0.023971997,0.1108215,0.061408486,0.03005289,-0.002098762,0.05215817,0.02871083,-0.011699245,-0.033806536,0.016277796,-0.010743432,-0.010578655,0.02888764,-0.031659007,-0.009494489,-0.005876654,-0.047686793,0.02075602,0.019016877,0.0020372802,-0.024566952,0.0063732923,-0.031486742,0.055817775,0.03453901,0.05836583,0.007884601,0.040942013,0.051478088,-0.045696903,-0.025762102,-0.0028324744,-0.06675667,-0.048287783,0.001329581,0.023673214,0.019268546,-1.0621217e-05,0.09812633,0.018962568,0.014733928,0.037848566,0.041656155,0.006235811,-0.05284997,0.04514765,0.10808788,-0.030351723,0.06578658,-0.123348266,-0.014308821,0.09287042,0.038733535,0.04216309,-0.025802135,0.039473824,0.07859302,-0.010039418,0.033797484,0.024466395,0.052219793,0.03395303,0.04705907,-0.05018957,0.061299484,-0.05962117,-0.07053227,-0.046314213,-0.08705925,-0.03501296,0.0074805277,-0.063282736,0.006122843,-0.05351092,0.021822203,0.070165865,0.007328333,0.03639935,0.034430176,-0.029272113,0.10344988,0.015093644,0.06630833,-0.061139926,-0.02948369,0.07666246,0.0010077393,0.060804028,-0.024301125,-0.028732844,-0.009392167,0.011618912,0.028785376,0.0056309174,0.054404095,0.034693796,-0.015346458,-0.027073918,0.014017321,0.035570595,0.02306198,-0.03556171,-0.0038142472,-0.015205703,-0.03987102,0.07861366,0.026299575
0.092091165,0.007848084,0.06511119,-0.003460522,0.057356838,0.060013194,0.00203601,0.039641462,0.017049868,-0.034700338,0.013857247,0.021850778,-0.08766143,-0.01698541,0.042402137,-0.040158004,0.06827316,0.052248575,-0.059053775,0.057385687,-0.03347158,-0.06175078,0.04507386,0.044590224,0.08317481,0.015270461,-0.044420697,0.0020707548,-0.034235112,0.024998253,-0.07759695,0.03330735,0.018828465,-0.09120756,-0.07708457,-0.05291744,-0.023407234,-0.0015503231,-0.04646372,-0.08026878,-0.044688806,0.101861976,0.09164244,0.015955573,0.020670038,-0.01532874,0.020855682,0.058461506,-0.11831644,-0.010572055,-0.05784462,-0.010261452,-0.0688999,-0.08414067,0.02926987,-0.0376147,-0.01767132,0.0401955,0.035079934,-0.021949446,0.01435309,-0.12425845,0.07506374,0.061833262,0.10435712,0.01389293,0.028731203,0.028463721,0.026090112,-0.019091155,0.04072139,-0.060994115,-0.11849995,-0.027026698,0.049423862,0.034833826,0.094186746,0.055616993,0.027548444,-0.09098479,-0.015979307,-0.037693273,0.020422516,-0.07024945,0.013274039,-0.07648909,-0.0015403014,-0.031136554,0.011232293,0.004148366,-0.06540852,-0.016152738,-0.054718237,0.063311614,0.042194817,0.0071724746,0.025445288,-0.03084388,-0.022583902,-0.013883472,0.05221909,0.070976466,-0.05252719,0.012154669,-0.07491873,-0.0028206962,-0.0017379085,-0.07686216,0.023172315,0.08869567,0.0068898243,0.10770306,0.048563045,0.0102625545,-0.01529699,0.010714546,0.0081630405,0.025371345,-0.10851031,-0.038054157,-0.027466558,-0.02970802,0.014151132,0.029223805,-0.10400006,-0.020150738,-0.07181854,0.0037406178,-0.013436258,-0.0022195189,0.010532466,0.022973103,-0.003914236,-0.04564683,-0.0126996655,-0.06408698,-0.04146651,-0.0611049,-0.08102291,0.04295482,0.014333929,0.018512247,0.044823617,-0.0031348453,0.04205091,0.030462205,0.021663876,0.017951258,0.031736977,0.04351396,-0.10926753,0.0601873,0.049021956,0.072481334,-0.04137522,-0.11727364,-0.07065837,-0.07809453,-0.03226925,-0.08834639,-0.05040124,0.01323365,0.0073028193,-0.0716234,-0.035884168,0.059437145,-0.018114403,-0.017629376,0.027882216,-0.015989136,-0.011842342,0.052548125,0.019326596,-0.0017049778,-0.0076281144,-0.026038662,-0.009860136,-0.038578074,-0.004028685,0.0061691166,0.0347586,-0.08155284,-0.036624465,0.03693711,0.08440445,0.017409831,0.02965068,0.028501786,0.01662575,0.040921986,-0.03880873,0.091218546,0.012040185,0.017971903,-0.050221525,0.010095538,-0.10246005,-0.050945535,-0.005973459,0.050328095,-0.08125903,-0.006195717,-0.009734147,-0.02108628,-0.004184816,0.023263814,-0.031462483,0.027560854,0.013825526,0.0075993934,0.051002372,0.10762703,0.020471556,-0.084273964,0.0071335873,0.00096374506,0.02475554,0.083829254,-0.08038505,0.04074929,-0.013882381,-0.05745656,0.032356482,-0.0396534,0.02622713,-0.07977484,-0.028089441,-0.032384817,0.047230165,-0.091315135,-0.036071014,0.012696772,0.055304352,-0.026433472,-0.055939417,-0.003072959,0.018556228,-0.02737455,-0.008656953,-0.16923283,-0.032633558,-0.016527638,0.018882696,0.042886764,-0.0057723345,0.008667779,-0.02219154,-0.054086655,-0.07706664,-0.043560732,0.013303398,0.03291916,-0.019798806,0.02694871,0.00039220284,-0.011525769,0.032647938,-0.03382511,0.09643715,-0.016101062,0.047781415,-0.04705524,-0.043335903,-0.065663464,-0.022401076,-0.00805856,0.049280018,0.0019491183,0.0071695386,0.037158903,0.010094288,0.054080095,0.12051848,0.07609943,0.0007019088,-0.040991638,0.049970787,0.011296148,-0.039133377,0.010985618,-0.0009819076,0.09204268,-0.015626656,-0.051951446,0.024786312,0.037741825,-0.09709969,0.07122322,0.042815812,-0.11208705,-0.013379537,0.024890719,0.006463863,0.09650356,-0.12639557,0.023744395,-0.038885556,-0.043229505,0.04003452,-0.0026648168,-0.058384914,0.004459575,0.030381454,0.0031954118,-0.09590637,0.0015245902,0.0071617425,-0.047232345,-0.04041108,-0.0395469,-0.035717633,-0.0041443757,0.018758884,-0.05700157,0.05818865,-0.059867077,0.02861097,0.023529533,-0.016235199,0.023251794,0.014823329,0.003129996,0.033736836,0.009622154,0.045179345,0.06082013,-0.05233112,-0.042349853,-0.02261761,-0.073851764,-0.045099888,0.039377194,0.081336774,-0.02814906,-0.06860695,0.027777772,0.11928174,0.015889535,0.020846544,0.02316777,-0.016846875,0.02989785,0.03920935,0.041477285,0.052230306,-0.09080816,0.06930208,-0.02313691,0.04007203,0.0011094948,0.033577804,0.116650954,-0.00049621065,0.060454194,-0.026397021,-0.05880429,0.0009368246,-0.022538625,0.015988402,0.03726432,-0.004366946,0.027296368,-0.06175,-0.01878256,-0.038150955,0.024961855,0.010257048,0.08339591,-0.01310882,-0.029667469,0.0067362105,0.0005140394,-0.05489098,0.117210075,0.01769065,-0.020887276,0.025834104,-0.0068894313,-0.011469543,-0.03154108,0.01301071,0.008201349,0.06516049,-0.03593136,-0.037747607,0.030075114,-0.045296498,0.03106744,-0.043580923,0.013591797,-0.10030948,0.030463422,-0.03348881,-0.016700316,-0.15202141,-0.07576364,0.021657726,0.035100568,0.05972112,-0.06452386,0.017592572,-0.04502098,-0.019214775,0.03258234,0.020767191,-0.0193362,-0.059963908,0.030136367,-0.008791719,-0.031068722,0.062304527,0.0019176464,0.014016918,0.018698966,0.05253485,-0.0122911725,0.07225278,0.015958965,-0.0077764336,-0.0531325,0.051384483,-0.05722908,0.010220449,-0.00068890426,0.09343575,0.113097295,0.055014286,0.019039543,0.00646897,-0.032308802,0.0400048,-0.057027884,0.057670057,-0.10483969,0.017590808,0.024589347,0.0012736158,0.065877795,0.0661586,0.060277727,-0.08350718,0.062042695,0.120210335,-0.037065424,0.049776748,-0.020926397,0.021460997,-0.008717231,-0.021952214,-0.09265086,-0.0289118,-0.037117,0.0044391123,-0.0033884814,-0.016301742,-0.03612136,0.041469343,0.050689805,-0.016867783,0.045227487,0.082789786,-0.033875275,-0.035520043,-0.06878711,-0.046141613,-0.004541787,0.017196532,0.024139013,-0.13227618,-0.07252204,-0.055658877,-0.042537708,-0.038087767,0.06349474,0.044704355,0.052272066,0.028268779,-0.018621443,0.03371602,-0.012043092,-0.074751064,-0.061706908,-0.047857877,0.09092067,0.051795848,-0.05525752,0.0020576194,-0.049221694,0.019812303,-0.10215467,-0.054639753,0.009003567,-0.043227807,0.0034758723,0.008515817,0.039687593,-0.02032307,0.0040913345,-0.01322251,-0.036475062
-0.10746855,-0.06083864,-0.0034235101,-0.066473,-0.05345515,0.0004933012,0.03692477,-0.016368268,-0.01575628,0.0043143574,0.0566129,-0.05776236,0.044039156,-0.095597446,-0.07729788,-0.10460571,0.042035766,0.014941739,0.106130876,-0.115090944,0.02034147,0.01598541,0.030451786,-0.08907879,0.05488623,0.044469014,0.0481752,0.019946927,-0.09352554,0.044584896,-0.10766292,-0.01282092,0.07163922,0.047291968,0.022768453,-0.06991878,-0.028469965,0.039578464,-0.01365921,0.11377796,0.044292297,-0.090483606,0.010561331,0.029789485,-0.0071349437,-0.041922063,0.0016350064,0.029304849,-0.08297818,-0.042977568,0.022790514,0.07159817,-0.037006736,0.05623463,0.098821856,0.03283711,-0.03619158,0.088605195,-0.05358033,-0.10325368,-0.03745518,-0.06450662,-0.08651489,-0.031075668,0.08927416,0.012643298,-0.021157552,-0.03817837,0.01849641,-0.041656476,-0.034444105,-0.019570045,0.017207498,-0.009567176,-0.0020888925,0.058061223,-0.03432264,-0.0073761493,-0.03757136,0.060184732,-0.003724025,-0.0034597944,0.0014908228,0.03994934,-0.019390374,0.026032556,-0.03423765,-0.012241872,0.023778677,0.046192672,-0.02619287,-0.018509671,0.008414143,-0.03924352,-0.0012729261,-0.03279424,0.059602622,0.010733674,0.02442388,0.03995233,0.07803305,0.1208775,0.014421286,0.042177152,0.0020021861,-0.02883994,-0.015264414,0.030876517,-0.002275888,0.029392852,0.059035823,0.019839996,-0.027265875,0.037231322,-0.036897935,0.09105479,0.011971661,0.014081459,0.0169,0.056805354,0.011490951,-0.061411694,0.04705926,-0.03492198,0.07940043,0.0030673211,-0.0061677173,-0.0035450312,-0.0073518623,0.08600435,0.061833594,-0.06851183,-0.0069073164,0.0022560812,-0.052192982,0.024542956,-0.00761408,-0.07940169,0.1384028,0.022647498,0.024106724,-0.096940346,0.040453482,-0.067262396,0.09836121,-0.065490484,-0.040446,0.16473526,-0.0018525028,-0.03731793,0.11200806,-0.0061478284,-0.005299701,-0.05694242,0.022415763,0.025960563,-0.01070973,-0.09027615,-0.11713867,0.08565377,-0.054170955,-0.019396836,-0.022518737,-0.022082878,0.13569455,-0.07410246,-0.030420352,-0.07719081,-0.035095554,0.044063706,0.05556314,-0.13864768,-0.018010201,-0.023797097,-0.0071093114,0.06047118,0.020184135,-0.05093153,0.052181065,0.020408157,0.026539005,-0.070659846,0.015676044,-0.024222968,-0.041233882,0.0903556,-0.118065275,0.011659158,0.01742415,0.035617154,0.038233243,0.017915707,-0.0925156,0.021063061,0.02083964,-0.0018758163,-0.07387199,-0.08020621,0.03145068,-0.001174557,-0.091702685,-0.05594948,0.00020474866,0.040586088,-0.16838396,-0.0394852,-0.031726003,0.15700014,0.030037342,0.07946209,0.016014908,-0.08645043,0.045449406,0.057459798,0.041537594,-0.04613987,-0.03363648,-0.013417615,-0.03349838,0.018755246,-0.0009351607,0.0024294106,0.052692983,0.019457871,-0.027984366,-0.019372804,0.15091842,0.022938188,-0.038368415,-0.014160086,0.023254555,0.030030208,-0.04151929,-0.025618806,0.028296007,-0.06988498,0.03324056,0.018345838,0.010896757,0.09264149,-0.033195157,0.044048812,-0.013302222,-0.11358845,0.055957634,-0.04174634,-0.023100255,-0.043401558,0.00844293,-0.019119684,-0.018502286,0.0054700854,-0.030781819,-0.014521871,0.026020242,-0.03742758,0.019639438,0.00574864,0.047376744,0.02735046,0.10650692,0.013844494,0.0421071,-0.104718305,0.007186692,0.04294392,0.03311695,-0.023696046,-0.039229535,-0.03706023,-0.01891165,-0.016372895,-0.030691585,-0.018779408,0.082149655,0.03583815,0.07600852,0.016025374,-0.018700987,-0.03889276,-0.03983964,-0.026981428,0.020615662,0.03647658,-0.0050613126,0.029015709,-0.08495089,-0.01436086,-0.013824018,0.0066885226,-0.013579405,0.038280744,0.090438746,-0.07895284,0.08882726,-0.012298552,0.088538595,0.015167585,-0.034082826,-0.015606144,0.117965035,-0.07281434,-0.068558045,0.033731923,-0.044944447,0.026119556,0.034916613,0.0018178377,-0.00535404,0.086661905,-0.009752625,0.044780076,-0.057801254,0.008393633,-0.030168494,-0.0484296,-0.008552008,-0.01730701,0.017216593,-0.039499495,0.015580788,0.039070375,0.087651715,0.03643765,-0.019949665,0.052081935,0.10799768,-0.06983562,0.013167669,0.07457146,0.116813734,-0.01791321,-0.024492117,0.039651513,0.10149994,0.020171307,-0.1232682,-0.0774673,0.076912194,-0.01092453,0.038554605,0.04128188,0.03616842,0.020778058,0.04964785,-0.055287298,-0.050682675,0.027794722,0.006359509,-0.020734554,-0.025074158,-0.004169176,-0.033275872,0.029076781,0.046191532,-0.04684114,0.0305563,-0.05374542,0.0136013385,0.0173593,0.047777954,-0.011444588,-0.12378206,-0.07725719,0.006393615,0.0036464136,0.0015326914,0.004026519,-0.02339257,0.030295903,0.037719883,-0.03879388,0.015775964,-0.056283925,-0.029706523,-0.06533522,-0.15143788,-0.018065397,-0.04273057,0.024575299,-0.016255764,0.09166514,0.047750797,-0.08185606,-0.0057961913,-0.03735372,0.033430345,-0.04079471,0.06385207,0.02914231,-0.051476605,-0.021117294,0.1031384,-0.030941373,-0.028413694,-0.008988204,0.0346894,-0.014380888,-0.058699712,-0.058027674,0.020255564,0.040622808,0.002648931,-0.06637233,0.03377751,-0.0014965455,0.051620107,0.028006855,0.022688301,0.04183245,0.007652466,0.14910112,-0.09409599,-0.024370184,-0.044681784,0.013502763,-0.0027526468,0.010446078,0.093515426,0.014478824,0.034589585,0.03570209,0.034488373,-0.01363367,0.061793942,0.017258108,0.09836722,-0.019847333,-0.007412991,-0.047564622,-0.032386046,-0.013362908,-0.113216646,0.037888896,0.012717818,0.031752452,0.047460787,-0.018830258,0.030839892,-0.008651117,-0.108209506,-0.05279509,0.06136502,0.022298843,-0.027434489,0.001424479,0.013535855,0.03805396,-0.03733988,0.006506822,0.057392135,0.048103195,0.04942537,0.06353589,0.00636063,-0.01946123,0.06918585,-0.017377788,-0.089895,0.03340299,0.08174665,0.0766587,0.012583965,0.053602625,0.05543448,-0.012400754,0.04142074,0.011185214,0.018141523,0.0092097735,0.017756268,-0.03622304,-0.016717544,-0.06401142,-0.013064193,-0.040313073,-0.08023405,-0.0099341525,-0.013154431,-0.061153896,-0.015311998,0.0029864614,0.005434548,-0.061857432,0.053362235,0.122949794,0.009400897,-0.09562599,0.011924052,0.08193666,-0.07135509,-0.030502336,-0.010052722,0.090562046,0.013107394,-0.002283082,-0.016660983,-0.03161729,0.10114831,0.0435538
