0.028079947,0.010548686,-0.026454357,0.022701738,-0.008165015,-0.0116274115,-0.025898045,-0.03117412,0.009717782,-0.0063928925,0.0130185215,-0.025627473,0.024311649,-0.02285291,-0.004922927,0.0072635943,0.017067816,0.026373843,0.029606726,-0.02533367,0.00833144,-0.017587004,-0.0068247626,-0.028073179,0.029359689,-0.022683028,0.017826337,0.01165831,0.0109804,-0.016608696,0.02941891,0.007399487,0.0024191737,-0.03738628,-0.010171437,-0.051874097,-0.06839249,-0.019982519,-0.010394847,-0.016943177,-0.027230658,-0.0058898227,0.01844734,-0.007252552,-0.009262128,0.022846933,0.0370936,0.04676307,0.016327243,-0.11302319,-0.0953665,-0.019388195,-0.0034149,-0.021547787,0.02900703,0.0132590495,0.012585156,-0.0035246843,-0.0028751977,0.027106648,-0.025198236,-0.046411607,0.012401677,-0.0116057,0.0004931372,-0.05871245,0.02422976,-0.012413779,0.011451886,-0.0010845866,-0.028294366,-0.008762093,0.031866815,0.026007107,-0.016298117,-0.024068076,-0.019307671,-0.090663426,0.0023472651,0.069412395,0.052194126,0.024420453,-0.060000475,-0.032138087,-0.004409278,0.032660037,0.0010313307,-0.026495881,-0.030843096,-0.038207386,-0.073773205,0.018002428,-0.06119067,0.011404917,0.05214265,0.032150436,0.0053973715,0.0019707547,-0.021672243,-0.0309323,-0.037283193,-0.018573843,-0.028391128,-0.01734605,0.031095792,-0.07575144,-0.0010531729,0.009794032,0.031095104,-0.029741466,0.008695907,-0.020316977,-0.0058485125,-0.018424282,-0.01603337,-0.06743653,-0.07279066,-0.025920888,-0.011705864,0.0016661842,-0.0051080463,0.012590626,-0.00912834,-0.01353758,-0.032463904,-0.044462033,0.018477384,-0.023327228,0.011248327,-0.016975649,0.0065808953,-0.02808721,0.03310428,-0.039126772,-0.01647465,0.07094797,0.035301093,-0.030015316,-0.02958612,-0.024956478,0.0159148,-0.0294351,0.012900718,0.008551853,0.022179997,0.0066315187,0.0017013814,-0.07234815,-0.047596224,-0.11046854,-0.06934362,-0.079286896,-0.010637495,-0.012456228,-0.012252538,-0.010621731,-0.02110642,0.069995776,0.03411173,0.07035008,-0.03515075,-0.09908721,-0.10882028,-0.08161578,0.03308133,-0.0006967546,-0.019423898,-0.0034450458,-0.010045863,-0.012441314,0.010095366,0.06610243,0.086094745,0.11215209,0.091397695,0.07635306,-0.070259675,-0.06833299,-0.023103122,-0.012033067,0.023670875,0.014150302,-0.027086927,0.012335617,0.039401006,0.016803188,0.015907643,0.020203762,-0.024075955,-0.009529777,-0.06615251,-0.05052588,0.0078369975,0.010542953,-0.021092014,-0.025006091,-0.02163156,-0.031326942,-0.024457583,-0.007699964,0.021761568,0.005260095,-0.0239178,-0.02865669,0.014610451,-0.02383586,-0.0035226322,0.016014097,-0.01459712,-0.0032854467,-0.0025828187,-0.00735164,-0.01618865,-0.02833347,-0.025139626,-0.023186488,0.013489679,-0.061671443,-0.05507814,-0.025743913,0.014547865,0.02623051,0.025562918,0.01792575,-0.03147461,0.003250887,0.027398042,0.025522117,0.009809819,0.05017703,-0.013774538,-0.07670937,-0.038986165,0.030245205,0.0709796,0.04347101,-0.0005386795,-0.030898286,-0.029632146,0.0020201078,0.0319934,0.053944174,-0.01573451,-0.008942502,0.042230505,0.009858856,-0.018162295,0.008369076,0.10721019,0.039462432,0.022337344,-0.020422976,0.012212891,0.028792737,0.007910665,0.043510165,-0.021557666,-0.016716601,0.06654657,0.011644948,0.08406317,0.051353116,0.06968491,-0.005769374,-0.024302255,-0.030258205,-0.025733517,0.004591437,0.0076240716,-0.027514355,-0.040207006,0.022340694,0.03237535,-0.013174481,-0.021411072,-0.016476661,-0.0016036581,-0.0018414053,-0.054267857,-0.000855317,-0.009111812,-0.011950401,0.024122382,-0.012986247,0.0024476405,-0.028985398,-0.0018628078,-0.020768898,-0.023445029,-0.016553294,-0.015222313,0.00096696365,-0.032187186,0.012332505,0.025887378,0.004321201,-0.013722286,-0.07081488,-0.02965953,-0.008876336,0.032973003,-0.05461127,-0.023471028,0.0020753352,-0.026843632,-0.0021057902,-0.023907844,-0.0034798523,-0.006110712,0.0024935785,-0.019036833,-0.02727058,-0.051093664,-0.017468313,0.054472696,-0.06384984,-0.048313044,0.024209993,0.034844603,-0.06079069,-0.013798379,-0.03265235,-0.02593318,0.006011277,-0.00439082,-0.030609079,-0.059025146,0.02144477,0.036077056,-0.072876394,-0.04717095,-0.058857407,0.017218491,-0.07877938,-0.0007862637,-0.014345692,-0.02633112,-0.01812025,0.028282737,-0.005535268,-0.040924046,0.012361015,-0.019444395,-0.07993122,-0.10376966,-0.0669691,0.0055940896,-0.034663435,-0.017446136,0.0067535667,0.016644415,-0.013090975,-0.02172291,0.034499057,-0.0026603579,0.019643344,0.09649326,0.028157076,-0.010690475,-0.04002331,0.021847352,0.014131156,0.003127912,0.0005251819,-0.0021255084,0.00057779567,0.013546198,0.02826543,-0.03340131,-0.02286615,-0.011394473,-0.01663285,-0.021527736,-0.016803361,0.00877445,0.0074913935,-0.025438746,-0.017402114,-0.0068207025,-0.005678417,0.0028641722,-0.02789281,0.009259732,-0.024228398,-0.019838186,-0.026429186,0.027943902,-0.034266166,0.024196882,-0.0021794406,-0.0035405941,0.020177959,-0.0029524916,0.020033702,0.023095865,-0.027733954,0.012291473,0.0060299165,0.0068557733,0.0045901793,0.008606045,-0.0154541535,-0.0040806727,0.03040282,0.021483568,-0.0012000802,-0.030044157,0.0014000268,-0.021752901,0.025976943,-0.019360619,-0.0022160162,-0.007991961,0.003575653,0.028073786,-0.0013427556,0.016400442,0.02219079,0.028147563,-0.010915403,-0.0071444497,0.015394937,-0.008706261,0.015071579,-0.009548269,-0.019689517,0.013512831,-0.0012850614,0.011213667,0.03762927,0.041230455,0.047965143,0.00012994607,-0.029640919,-0.022409465,-0.019842668,-0.027606264,-0.014151507,-0.020004228,-0.044066545,-0.03590202,-0.045647603,0.010154693,0.054528333,0.0508003,0.029989414,-0.00062001246,0.018535148,-0.015760155,-0.015083765,0.02002733,-0.039390076,-0.03416157,-0.012597785,-0.020065594,0.034781642,-0.013857872,0.067005925,0.068781525,0.049804594,0.010638812,0.025681255,-0.024382707,0.0009667664,-0.017960384,-0.03788869,-0.030471932,-0.07634259,0.05440331,0.012512892,0.055223204,0.02767921,0.07263845,-0.008946614,-0.0054968162,-0.027938977,-0.020312708,-0.004873167,0.021111466,0.016440144,-0.025072271,-0.003900567,0.015426178,0.0690996,0.042672303,0.0034143713,0.09204747,-0.022086155,-0.014112209,0.030290637,-0.007878377,-0.0014078887,-0.031153724,-0.029416809,-0.0071973493,0.04926534,0.11384315,-0.017057773,0.016054977,0.006638147,-0.011930272,-0.0034258708,0.011095778,0.023468805,-0.008730524,-0.01310426,-0.030588103,-0.011136337,0.02696695,0.06876345,0.09654389,-0.01571976,0.01269373,0.035919603,-0.008168281,-0.03912767,-0.0014564893,-0.0053258785,-0.003481126,-0.014616104,0.029328253,-0.0018160297,0.102663115,0.076507695,0.114780925,-0.043795045,0.016268916,-0.022117624,-0.013189946,-0.002139975,-0.021015637,0.0077724936,-0.03139412,0.016706146,0.011640026,0.024918593,0.09191225,0.05882686,0.045940727,-0.10312053,-0.03423442,-0.0322508,0.019477358,0.002823219,-0.01755367,0.024711827,-0.007123418,-0.007247084,-0.029333783,0.026571324,0.059510093,0.052141875,-0.046157252,0.025494501,-0.043059465,-0.016831936,-0.0046767644,-0.016520647,-0.032388266,-0.012578073,0.010070217,0.03069151,0.006426199,0.054898582,0.022706345,0.04387205,0.014593355,0.014221641,-0.038232546,0.00929675,0.010887073,-0.018299552,-0.01537615,-0.026792765,0.008022285,-0.025898404,0.015713371,0.010867315,-0.038808238,-0.0048449924,-0.008368283,0.016887018,0.0076542194,-0.036605097,0.026185852,0.025593698,0.012709927,-0.029195415,-0.012908583,-0.010755188,-0.009707081,0.01651627,0.010207992,0.023875205,-0.013307542,0.009326102,0.0097392555,-0.0280773,-0.032512728,-0.018023713,0.020374073,-0.031571366,-0.02930258,0.016397357,0.015736956,0.024823325,-0.025285205,-0.027773162,0.011927563,0.021332754,0.005144494,0.00437256,0.0077893776,0.02960191,-0.022076456,-0.015957102,0.02084606,-0.023345118,-0.015297849,0.026378281,0.018038513,-0.009285421,-0.034673963,0.0035075566,0.015157166,-0.0020627144,0.009298312,0.017161576,-0.023009725,0.029628946,-0.0174572,-0.0064655817,0.0031274941,0.015384984,-0.05349986,0.003572075,-0.0010286926,0.027218727,0.011789091,0.09150555,0.047440335,0.023520727,-0.020339245,-0.015282604,-0.0061010644,-0.002097013,-0.021937685,0.011528647,-0.08046814,-0.011646055,0.008047295,0.03307575,0.06584334,0.07099268,0.010551803,-0.023882909,0.016233038,0.0066062347,-0.017846618,0.03298768,-0.021435238,-0.004856942,-0.037577357,-0.014854161,0.033967778,-0.043265175,-0.032611888,0.011927144,-0.0050003952,0.034091245,-0.007973143,0.011820169,-0.030033,0.016203228,-0.034453604,-0.084912084,-0.024083612,0.03934015,0.10699656,-0.050214916,0.026710922,0.098558165,0.032472383,0.009771366,0.016013693,-0.008722036,0.016494464,0.019774757,-0.035153985,-0.044222493,-0.005740104,0.028229102,-0.048797574,0.009841704,0.04716347,0.05125176,0.031197956,-0.021932999,0.013678695,-0.0129555445,0.017716577,-0.0075396085,-0.042973023,-0.049109016,0.042797223,0.04091377,-0.038290877,-0.059796616,0.0076752347,0.012857044,-0.0067284983,-0.032186203,-0.021516625,-0.030419348,-0.01159213,-0.017074613,0.0009897305,0.0067198854,0.12684235,0.12739101,0.0128458245,-0.010977517,-0.04387179,0.015423709,-0.04277859,0.016729126,0.026348718,0.011108302,0.028439462,0.028643627,0.006773721,0.052079584,0.12882356,0.11201367,-0.0426602,0.021911195,-0.0149824815,0.03802045,-0.006379875,-0.026364237,-0.0017835592,0.029337624,0.006145842,-0.004126628,0.026262373,0.03983095,0.105081454,0.1542466,-0.009357449,-0.031882837,-0.040214173,0.03223584,0.0013452291,0.014722506,0.018579701,0.028164541,0.022994455,-0.015095426,0.012853734,0.035553858,0.043112613,0.030353092,-0.01528563,-0.0022941737,-0.024020286,0.013989484,-0.021158492,-0.01744229,-0.009262126,-0.0138000995,0.027224952,0.015924614,0.033410363,-0.0075226054,0.01092427,0.006834051,-0.040313102,-0.0064769764,-0.022759289,-0.02336275,-0.027499879,0.02672269,0.024459375,0.01330738,0.030444816,-0.013000511,-0.0055548754,0.012056928,-0.005315427,-0.00630591,-0.026445473,0.008557114,-0.019330414,0.0011433458,0.031098763,-0.009869107,-0.010105226,0.019234551,-0.0117817065,-0.0027806628,0.029788539,-0.013139699,-0.022882162,-0.017912323,-0.0090834545,-0.014885065,-0.01750212,0.012696214,0.004411341,-0.010259005,-0.024261186,-0.010127262,-0.013519,-0.010437499,-0.028811261,0.0068583996,-0.023465512,-0.024756512,-0.025880212,0.01356236,-0.021733617,-0.013878929,0.025022497,0.02312885,0.018546524,-0.03361565,-0.022944413,-0.012101425,0.026410226,0.0034105156,-0.022507995,2.018798e-05,-0.024426527,-0.0048105936,-0.0074749705,0.027713757,0.006029825,-0.0018342524,0.0064113275,-0.01096728,0.012513398,0.012609883,0.008581337,-0.0123630995,0.027268223,-0.0048317444,-0.011784687,0.019988371,0.025836576,0.03291514,0.0096671125,-0.0116453245,0.015258229,0.024575861,-0.031369034,-0.0040014097,-0.02181535,0.0059482423,0.0131965885,-0.0066763107,-0.002485114,0.013886956,-0.005589948,-0.027943045,0.02276703,-0.0152979465,0.00049472007,0.0007946312,-0.0019573243,-0.03008831,0.014637327,-0.014485788,-0.016604941,0.007635166,-0.017223671,-0.014669266,-0.010627031,-0.012029421,-0.01565098,-0.009493126,0.008457833,-0.025728354,-0.019373082,0.00042255918,0.0043847417,0.017544655,-0.022542901,0.010309103,0.017537382,0.01712892,-0.029661978,-0.017825464,-0.026886418,-0.019059528,0.018437516,-0.0048485785,0.013529418,-0.018792175,0.004801711,-0.019363083,0.015857428,-0.0150354365,-0.010030706,-0.028385,-0.00032094706,0.029971452,0.014963503,-0.016691571,-0.00043345065,-0.004631466,-0.025754157,0.025007982,0.00044867396,0.006664891,-0.012670442,-0.016141942,0.0031766242,0.009527446,0.006105013,-0.015147538,0.03348334,-0.0047992384,-0.022120556,-0.016024863,0.031408627,-3.4072957e-05,-0.004366663,-0.013290862,-0.008273268,-0.026894197,-0.02511196,0.018443624,0.026851924,0.030443184,-0.025791235,0.016701568,-0.019971576,0.018713532,0.023011982,0.02468765,0.022932518,0.01997025,0.0006762717,0.014958102,-0.010867579,0.014978784,-0.010408015,-0.0013306269,-0.029467834,-0.008708422,-0.016624728,-0.0108544715,-0.020436121,-0.028780708,0.002012305,0.02067195,0.029187102,0.018833289,-0.016385868,-0.031532302,0.012864626,0.016732797,-0.028733937,0.010226659,0.026894331,0.0016127115,-0.019282425,0.026153391,0.013598765,0.021094607,-0.021364536,0.018566485,-0.021771908,0.031639382,-0.013477107,0.019189086,0.0063370992,0.008374084,-0.004930572,0.013084037
-0.012266891,-0.029063249,-0.011226518,0.026075562,-0.0073701255,0.011075035,-0.010777497,0.02496979,0.020119628,0.0122935735,-0.01528471,-0.0250559,0.0022490798,-0.017693756,0.027300313,-0.029652264,0.015298851,0.03290826,0.017012278,0.011967366,-0.028529577,0.032445878,-0.0024843295,-0.030919762,0.03135639,-0.012244491,-0.0012603077,0.030279981,-0.021078875,-0.020243926,0.007041703,-0.006385931,0.013416252,-0.024411524,-0.0075292606,-0.050799012,-0.040502053,-0.0812364,-0.00448158,0.004848325,-0.038258445,0.017887369,0.010769195,0.008039263,-0.014219447,0.0029616687,0.062179543,-0.029253965,0.03776725,0.04679507,-0.09988311,-0.10599877,-0.05718559,-0.0715702,-0.075892724,0.019896593,-0.020646475,0.009421176,0.0114248255,0.09716951,0.09907549,0.13160424,0.21146122,0.2338774,0.07868199,-0.039504223,-0.0473549,-0.089725375,-0.05117133,-0.018324383,0.0036481086,0.012709635,-0.028129749,-0.02017039,0.10372331,0.027126694,-0.15809679,0.1162388,0.03984783,-0.078522824,-0.19233422,-0.028373897,-0.0035218769,-0.031181755,-0.023474844,-0.025125245,-0.034816753,-0.010903142,-0.03233091,-0.15106334,-0.42741606,-0.13567257,0.04371157,-0.15685345,-0.18018088,-0.064433,-0.0008109615,-0.0025425425,0.025623566,0.020598177,0.019697217,-0.056719914,-0.019601543,-0.08523592,-0.16110052,-0.11924272,-0.0071609486,-0.09827161,0.10635861,0.11542033,0.037191004,0.024192775,0.010637952,-0.021275254,0.018571341,-0.0736158,-0.020119688,-0.048573636,-0.051791437,-0.007997811,-0.031473093,-0.06121073,0.07038273,0.047505148,0.0631654,-0.005323068,-0.006177286,0.009310742,-0.006110096,-0.047163237,-0.1384588,-0.09516162,-0.0513434,-0.02002335,-0.07772942,-0.062279217,-0.041497443,0.04104443,0.037663944,0.026132243,-0.002666888,-0.03246563,-0.033824075,-0.09755532,-0.07036538,0.0042677517,0.14245678,0.08813236,-0.09099312,-0.13897172,-0.065823704,0.051867705,0.010048295,-0.013575535,0.032302074,0.025479829,-0.038785413,-0.06604941,-0.11238329,-0.02902923,0.10324751,0.13183975,-0.0187957,-0.0011341872,-0.085329555,-0.030699855,0.042453915,0.02440936,0.006461137,0.011248113,-0.031753685,-0.031053608,-0.11453423,-0.12052806,0.08439751,0.074947946,0.03532822,-0.10934949,-0.05393315,-0.005666687,0.04034105,0.023776824,0.030413473,-0.0092565855,0.02083734,-0.0061837547,-0.083036944,-0.09690682,-0.059706952,0.062451266,-0.019123947,-0.023520304,-0.020218153,0.00093887345,-0.0155196255,0.019985093,0.021665778,-0.021741655,0.0007322599,0.0005114434,0.010663488,0.030020185,0.011128186,-0.005632207,0.02943151,-0.012622621,-0.009204574,0.0026026277,-0.023902673,0.003898852,-0.02125027,0.0044170967,0.0026919635,0.007438583,-0.025595365,-0.041078825,0.021797832,0.011842731,-0.040150262,-0.0075870706,-0.032226767,-0.004188861,0.025060691,0.024489267,-0.022941224,0.021008316,0.015696028,-0.006705394,0.029285392,-0.0964072,0.0025220804,0.028841028,0.030142257,-0.018546883,-0.057157815,-0.071711324,-0.045258075,0.006720955,-0.027607316,-0.0018990942,0.03112205,0.0037321832,0.10435762,0.07044588,-0.005774421,0.00377537,-0.030819057,0.039569546,-0.020965869,-0.09272586,-0.07695297,-0.0028406119,-0.030021813,0.007967231,0.019875329,-0.03524463,-0.0046643848,0.103988774,0.047670804,0.35244152,0.14238179,0.030115796,-0.14290342,-0.082656495,-0.02748772,0.0014733375,0.031883817,-0.0010589174,0.014308032,0.027226701,-0.029447362,-0.17613056,-0.30666137,-0.018540703,0.22910151,-0.088061854,-0.16992585,-0.047987513,-0.025601553,-0.032370407,-0.011099681,0.0027079415,0.016005512,-0.046933223,-0.02114663,-0.13564067,-0.2699176,-0.11474618,0.09640457,0.012961143,-0.007547786,-0.011588144,-0.007930055,0.007356982,-0.020667689,-0.015376769,-0.011683838,-0.0536779,-0.081876904,-0.08980334,-0.024046285,0.004076103,-0.02162549,0.025945187,0.023581464,0.02009638,-0.00859559,0.009379719,-0.0018687999,0.011682786,-0.0046203397,-0.030758204,-0.14211787,-0.12721448,-0.053421482,-0.0605422,-0.1830154,-0.18144186,-0.112576984,-0.077847265,0.042269427,0.023114413,0.009267485,0.027752565,-0.059669375,-0.07217271,-0.05117709,-0.040317547,0.03880469,0.029541444,-0.16267085,-0.08253971,-0.13506189,-0.081691064,0.01267354,-0.0125448955,0.014907002,0.012976154,-0.047523607,-0.092567876,-0.12670329,-0.14274059,0.0370327,0.099024914,0.007936199,0.040557306,0.014348429,-0.016293619,0.03560133,-0.012017499,-0.028195005,0.012872609,-0.0070550665,-0.035134144,-0.104738355,-0.089613624,0.11154211,0.20945024,0.0736416,-0.018259257,-0.0053434814,0.009308828,0.008833383,0.024725271,-0.028361363,0.013466584,-0.0038570655,-2.986619e-05,-0.05994577,-0.1236063,-0.026236871,0.04328056,0.013492248,-0.0032402999,-0.005353733,-0.018976057,0.015302024,0.023165632,-0.0029983288,0.030607421,-0.012819029,-0.020234047,-0.010371102,-0.020310463,-0.026493933,-0.022989735,-0.019706415,0.0016675271,0.027588472,0.028941007,0.027245533,-0.0014152349,0.0061985916,-0.019112624,0.012346963,-0.030629054,0.015067038,0.005841046,0.009791991,0.011793145,-0.014573072,0.027263632,0.015195778,0.020983731,0.004219094,0.020060293,0.02149823,0.014478058,0.024333809,-0.005809182,0.020791052,0.0067622806,0.021872858,0.033105813,0.0021459789,-0.009527001,-0.002769636,0.0075609693,0.0041091163,-0.008788196,0.025028577,0.019192085,-0.019831512,-0.0017403846,-0.0043751365,-0.02919782,0.019161416,-0.004975041,-0.009009885,-0.024070902,0.00059128663,0.017038666,-0.0055470983,0.030815458,0.008758855,0.007233081,0.01830939,-0.00028665148,-0.050402205,-0.063395076,-0.020818856,-0.030132057,0.044263817,0.079577774,-0.0023815967,-0.01588631,-0.021271247,-0.025385391,-0.023396,-0.01922443,0.012854061,0.043906752,-0.008274519,-0.07747987,-0.16268425,-0.12898429,0.013323979,0.050190024,-0.038316704,-0.0076407045,0.0011323876,0.011524521,-0.009691661,-0.01871603,0.008631917,0.0050632227,0.027514499,0.056433614,-0.089696944,-0.054978445,-0.1391481,-0.047595717,-0.0581205,0.00491064,-0.0028959,0.019251551,0.0020626266,0.002066515,0.015124159,0.05415316,0.024237389,0.05807564,0.021307593,0.049696855,0.032158587,-0.11383968,-0.054926094,-0.0031722048,-0.014053288,0.025429029,-0.028552061,0.017175648,-0.03031401,0.028043477,0.056793608,0.09715759,-0.110891625,0.026866322,-0.0040462893,-0.0367646,0.01895616,0.0029391234,-0.024585553,-0.021005707,0.028464431,-0.02363829,-0.0019097129,-0.0021000085,0.046222437,0.03804863,-0.061062172,-0.07866015,0.11262574,0.07758694,0.037253395,-0.034744807,0.015508644,-0.028832216,0.012360337,0.014696674,0.020364199,-0.021840956,-0.016007055,0.030424215,0.04590804,0.041968264,-0.0015893957,0.029040707,-0.0032758354,-0.024826203,0.002482296,0.01149449,-0.020073634,0.0033520514,-0.009168953,-0.016244309,0.035821036,-0.06150493,0.10169905,-0.07223642,-0.09804468,-0.04378248,-0.06792712,-0.10311864,0.017236952,-0.025473192,0.0191862,-0.024037793,0.015693462,-0.013150164,-0.019572092,0.036240328,-0.010439396,-0.13534473,-0.10240496,-0.019355753,-0.1136607,-0.01742049,0.0064930604,-0.007919126,-0.016296763,0.011065298,-0.019757317,0.0011681331,0.014287364,0.034053624,-0.024527898,-0.07595435,-0.025562255,-0.03809456,-0.042429343,-0.009716045,0.023633035,0.02456246,0.004932511,0.015210156,-0.028784016,-0.005697221,-0.026758133,-0.027785966,-0.054722507,-0.022362549,-0.003745792,0.01501211,-0.024891015,-0.017730381,0.0039561093,0.012557287,-0.0016662782,-0.0064392565,-0.0174456,0.017173452,0.034865037,-0.011963877,0.01877057,0.019329282,0.029187739,3.8068527e-05,0.004460032,0.027023928,0.02372864,0.035087604,-0.005616947,0.01626222,0.025693186,-0.018801088,0.010876548,-0.0052816984,0.022508496,-0.019985734,0.007915935,0.019289708,-0.026038526,-0.023717787,-0.012951582,0.024228413,0.024999868,-0.018173208,0.009563051,-0.026137777,-0.03570415,-0.0029367378,0.027072452,0.012567922,-0.024543239,-0.0064095147,0.0032888053,-0.008356188,-0.015506229,0.024745844,0.00791791,0.020833943,-0.011085329,-0.017491102,-0.017842524,-0.11406593,0.023542749,0.09990585,0.0055242837,-0.015368679,0.03945607,0.03421366,-0.010547627,0.033030838,0.014979083,0.020586634,-0.0028506704,0.014253182,-0.02679412,-0.14866546,-0.025133634,0.12247329,0.0017059416,0.012882617,-0.037484843,-0.009975837,0.01617971,0.029056327,0.021544127,0.02579242,-0.056676354,0.052076332,-0.032964762,-0.27070796,0.07205038,0.09799592,0.08116792,-0.0081112515,-0.00779552,-0.020097204,0.0332058,0.0011465166,-0.02420229,0.0028697068,-0.016594317,-0.0027847644,-0.0037661134,-0.13976353,0.036639288,0.20418377,0.036545448,-0.023300704,-0.031030994,0.0322071,0.0035095506,-0.011830598,-0.0073286872,-0.021477804,0.04193702,-0.047448963,-0.035016026,-0.013988911,0.038771234,0.046090014,0.03510726,0.06801898,-0.008038317,0.013054993,0.027916463,-0.015822241,0.005121272,-0.019066524,-0.012262344,-0.008707211,0.028113503,0.123115934,-0.023585163,-0.0006031823,-0.009146337,0.10769672,-0.025179323,0.017102508,0.00971883,0.012235714,0.021509672,-0.0072842217,0.0058298954,-0.067196794,0.070936345,0.14071468,0.02836738,0.0578088,-0.056397837,-0.05223286,-0.005610047,-0.016387941,-1.7391063e-05,0.010305457,0.02709657,-0.021798816,-0.041146476,-0.011081166,0.031757478,0.09073331,0.17336306,0.059551984,-0.02479143,-0.08081965,-0.033824947,-0.028780388,0.018812133,-0.017212303,0.021534935,0.019488154,-0.024320994,-0.019773934,0.03935026,0.17661563,0.23736244,0.09602939,-0.058646247,-0.07985376,-0.048083283,0.031001301,-0.028862938,0.026255144,0.008425272,0.0004572019,0.01748467,0.006510495,0.051854383,0.06504562,0.07517021,0.023740055,-0.10776314,-0.023847718,-0.048789743,0.015559035,0.0092572095,0.003988056,-0.018310973,-0.014166821,0.017713374,0.011452097,0.004211189,-0.0070050666,-0.00018295571,-0.016231606,0.0041994364,-0.027026515,0.021807346,0.028158747,-0.024513662,0.0035658018,-0.0063025407,-0.017878069,0.013571937,-0.004099755,0.027748257,-0.020212768,0.014623137,-0.027496569,-0.016233915,0.001962777,0.025019696,0.016606564,-0.02644742,0.0033195545,-0.019049369,0.001165651,-0.026777202,-0.009545333,0.021728642,-0.029510513,-0.03070638,0.006484271,0.004621728,-0.005772314,0.027523471,-0.019513896,-0.019608784,-0.024097757,-0.006164108,-0.008370292,0.020372057,-0.0018524042,0.010083706,-0.01346648,0.025630813,0.032677386,-0.025877826,-0.008414016,-0.025648251,0.01622966,-0.029852238,-0.01839136,0.031698395,-0.030709265,0.02351552,0.0024977534,0.025181614,-0.020618489,0.018563608,0.005126149,-3.1046206e-05,0.026648885,-0.031503476,-0.023612045,0.029870052,-0.020654794,-0.023244206,-0.0017744252,-0.01031991,-0.0046284497,-0.021393629,0.011095773,-0.027599275,0.002753076,0.021851368,-0.019448202,-1.0229035e-05,-0.0013756595,-0.0077029318,-0.008023252,-0.013687901,-0.02179469,-0.017121334,0.031306632,-0.0053874273,0.009195718,0.021007951,-0.0025090375,-0.015317986,-0.019616133,-0.020624697,0.008537845,-0.027519315,-0.0038005067,0.011933822,0.025847618,0.009347112,0.0061882455,0.021546412,0.016356286,0.012765043,-0.010856247,-0.025562325,-0.0095738135,-0.007804515,0.00089310034,-0.0019173733,0.013444533,0.021009417,-0.013163584,-0.030569885,-0.01633427,-0.01579186,0.018198235,-0.019096596,-0.0033442304,-0.0064916844,-0.027844377,0.021254431,-0.0057920474,0.00010316342,-0.021726577,-0.003440617,0.00431046,-0.0014995335,-0.0121540055,0.009099329,-0.009118283,-0.017462732,-0.023116946,-0.011515918,-0.036492765,0.026526986,-0.016061233,-0.015622538,0.003258737,0.008062087,-0.0032349234,0.021667887,-0.018838512,0.011011939,-0.00056667585,-0.026136972,-0.01336338,0.0027600378,-0.0025701434,0.02997337,0.019311255,-0.01466265,-0.010933666,-0.006992243,-0.023108367,-0.008846612,-0.02627965,0.01199681,0.022058647,0.0025725246,-0.022652343,-0.02637296,-0.014039099,0.008269762,0.004440741,0.006878716,0.030552315,0.014617423,0.0066457344,-0.006663576,0.015004003,0.011564283,-0.02885911,-0.018233947,0.0021792806,0.015659163,0.013505425,-0.01776785,-0.026372967,0.00090490206,-0.0036128308,0.009050686,-0.009001429,0.024250418,0.0019835539,0.02318591,-0.022378486,0.013059902,0.0040191915,-0.016464617,0.016395928,-0.027827865,0.030130235,0.0031155886,0.0032456152,0.01455351,0.002433005,0.013479508,0.020147037,-0.025493652,0.020739866,-0.0047160005,-0.007622592,0.006628462,0.024704227,-0.016982824,-0.020869631,0.019603522,-0.015219693
0.010548243,-0.004442233,0.009056557,0.024644341,-0.016003553,-0.015373855,0.015848294,0.0021301364,-0.003214751,-0.027755205,0.027399562,-0.00094650406,-0.005620094,-0.012848694,-0.006053767,0.01578524,-0.00047462428,0.027645461,-0.0012951057,-0.0016036266,0.021256126,0.013669514,0.0068612928,0.011056433,0.01971206,0.0056623896,0.02202482,0.021096872,0.00932244,0.01276624,0.01219844,-0.0025140552,0.03635763,0.0504059,0.050862357,0.033193592,0.07449555,-0.06918999,0.017842019,0.042493366,0.0036089618,-0.026646882,-0.023601701,0.023682555,-0.014456936,-0.034438618,-0.031571794,-0.111769356,-0.120486654,-0.05215566,0.18274549,0.068863474,0.06351054,-0.07762973,-0.1177763,-0.011535024,0.005101527,-0.026591461,-0.0131884115,-0.1554374,-0.18882053,-0.05063113,0.10931205,0.15096323,0.018987458,-0.010319814,-0.17846216,-0.062229313,-0.10168212,-0.03639607,-0.012296063,-0.015992302,-0.02670855,-0.09486533,0.0007360277,0.14989363,0.009484762,0.07263301,-0.14741232,-0.20282431,-0.090449095,0.0031273253,-0.05018316,-0.056155596,0.016921213,-0.019036312,-0.016571991,-0.02013248,-0.044744622,0.0074279127,0.030682603,0.031722255,0.015831767,-0.08585503,0.005731986,0.0095834015,-0.0070165573,0.032137677,-0.028722791,-0.033020005,-0.06770041,-0.1486975,-0.15973029,-0.14347938,-0.07912044,0.13983801,-0.13468337,-0.1430776,-0.07101998,-0.032139182,0.053414125,0.0144255925,-0.02833065,-0.014373453,-0.059819132,-0.10154546,-0.13309644,0.05592554,0.25191122,0.3040417,-0.06773045,-0.20325328,-0.16448656,-0.01913581,-0.04515077,0.0133229345,-0.020150082,-0.034699332,0.002498779,0.07049085,0.09679162,0.10504325,0.034501087,0.03956695,-0.18292537,-0.15370871,-0.03981366,0.05173829,0.06424194,0.02868437,0.00020676962,-0.017420376,0.050291743,-0.07192499,-0.051573243,0.093872584,-0.06754959,0.14808005,0.20225668,0.2407805,0.12429271,0.12335705,0.11096137,0.020804737,0.013102227,-0.026843926,0.059556503,0.16281256,0.16064611,0.110178255,-0.0017272941,0.010891011,-0.028976927,0.095819,0.26824293,0.1389655,0.07226726,-0.006499267,0.00010677095,-0.026652995,-0.006426256,0.03801911,0.07423872,-0.015364679,-0.13857776,-0.19705959,-0.15666994,-0.07179769,0.0076071676,0.019512475,-0.0068592024,0.022474598,0.026392067,0.014951845,-0.007374443,-0.07014533,-0.09225353,-0.098884486,-0.05935925,-0.13114062,-0.1538171,-0.076948665,-0.05990075,-0.01979585,0.0020443266,-0.017530682,0.020958992,-0.012083984,-0.008949743,0.024398256,0.028231876,0.0014635936,-0.024406623,-0.0024643878,0.021081135,0.016185753,0.0132455705,-0.014735671,-0.029675303,-0.027780065,-0.010119817,0.0012969698,-0.016091023,-0.026482746,0.013813524,0.0032571896,0.023343178,-0.0015292289,0.08270739,0.062042505,0.0016045654,0.0017459188,-0.005395556,0.012622752,0.00024442884,-0.02305681,-0.022334471,-0.07841,-0.02799779,-0.001287865,0.08532514,0.042886555,0.15730152,0.18087357,0.13879508,0.0038888864,-0.05914776,-0.010497854,-0.022026647,-0.015406906,-0.024431942,-0.1707646,-0.255813,0.021768527,0.06863979,0.038136344,-0.05639374,0.052666955,-0.16578126,-0.013554599,-0.05801045,-0.013110047,-0.020273175,-0.01303924,-0.004353449,-0.07302394,-0.060299482,0.020952404,0.07353017,0.09087711,-0.25298634,0.090294816,-0.12146668,-0.024623415,-0.026832594,-0.014970841,0.020694965,0.010275799,-0.00011800463,-0.055664197,-0.05108814,-0.1268713,0.057848725,0.23043796,0.0011879571,-0.002166062,0.016483402,-0.026238862,-0.06925812,0.018535336,0.027546657,-0.0014847928,-0.047120202,-0.10672705,-0.095846325,-0.13172416,0.021130772,0.17481649,0.06557236,-0.07681702,-0.12399806,-0.04190407,-0.07339153,-0.006125262,0.0012098617,0.012239952,-0.0030036222,-0.060257707,-0.004350213,-0.036617137,0.052693486,0.063502185,-0.34147137,-0.32769075,-0.35987198,-0.13866068,-0.041433036,0.022857009,-0.012614479,-0.033463746,-0.025019653,-0.037029404,-0.019552147,0.060269624,0.036338095,0.014997557,-0.2619006,-0.25729537,-0.17513102,0.0127236275,0.00250131,0.029495938,0.02697898,-0.019628827,-0.012044023,-0.049227726,0.047576744,0.06092115,-0.202008,0.12828599,0.05845834,0.036027912,0.021741966,0.046435237,0.051485468,0.060486633,-0.0014462484,-0.0072135595,0.019299436,0.025296558,-0.061188675,-0.026029637,0.04405148,0.062618144,0.02615408,0.23996627,0.2058484,0.14914942,0.08082804,-0.0066537024,-0.004954608,0.005113262,-0.002865698,-0.027197596,0.041084602,-0.06439491,-0.042908456,0.013773408,-0.022354484,0.11556412,0.13827507,0.08815661,0.037295077,0.0019495025,-0.019177446,-0.017847145,0.012472154,-0.027319616,-0.0071640406,-0.07536702,-0.02201319,-0.06035685,-0.06778028,-0.0049404292,-0.049569964,-0.0346789,0.0294406,-0.015330238,0.02091585,-0.030604776,-0.0103471065,-0.03111198,-0.016775303,0.007503256,-0.028482005,-0.034470163,0.018069495,0.013357017,-0.0028270716,-0.024911093,-0.008959822,-0.0103007965,0.019728202,-0.010448397,-0.009200321,-0.022643676,-0.015045149,0.017406786,0.021074679,0.00484446,-0.009830339,0.03161286,0.0062813596,-0.012145859,-0.011075922,-0.0043646195,0.0151444925,0.011684017,0.023158016,-0.0014618937,0.02663048,-0.008732031,-0.012948297,-0.002743903,-0.05937398,-0.002607037,-0.03615637,-0.0056682015,0.00074115186,-0.009418367,-0.021829888,0.028982269,-0.010564309,0.013961424,0.024535272,-0.027235761,-0.020313129,-0.0041602366,-0.024946934,0.016921708,0.03310329,0.020178216,-0.053435948,0.022466727,-0.0030244286,0.03155803,0.0023980085,-0.026038764,0.0047650207,-0.011269472,0.019400986,-0.08438489,-0.02090435,0.0524397,-0.048872933,0.036931936,-0.022202587,0.019827178,0.010581121,-0.020004073,0.027119307,-0.030319624,-0.045905612,0.003904787,0.054010756,0.06421237,-0.14633925,-0.08802301,-0.08598432,-0.009591827,0.03394326,-0.011792875,0.029613513,-0.012360995,-0.007756621,-0.06060779,-0.049115047,-0.11740673,-0.014171017,-0.14087042,-0.07487639,0.071858205,0.024076901,0.032565307,-0.009813853,0.008840415,8.541727e-05,0.028304588,0.009907818,-0.04418108,-0.114909105,-0.09746252,-0.12446471,0.019149879,-0.023851894,0.11357948,-0.07278282,0.002579651,-0.016157176,0.011955763,0.007178375,-0.004728831,0.024617419,-0.05159887,-0.045698516,-0.052973,-0.01786566,0.10432642,0.012288081,0.024591831,-0.052948844,-0.006818995,0.0045274086,0.012502703,0.01720918,0.006180673,0.030558525,0.04733299,0.13186961,0.25737795,0.19593899,-0.0072962753,-0.018941697,-0.022586761,-0.08032192,-0.015433858,-0.02824965,0.002718796,0.0012453116,-0.005844755,0.077742204,0.16283175,0.17653067,0.25245458,-0.09703045,-0.058957368,-0.06403421,-0.11409994,-0.034585863,-0.06359777,-0.0085424315,-0.01735344,-0.027275939,0.005185654,0.024035567,0.07069545,0.11958353,0.0031916555,-0.059786532,-0.12380459,-0.10918337,-0.15859947,-0.015480381,-0.036621023,0.0005379802,-0.013861714,0.025380662,0.00266386,0.020288825,0.035347838,0.0066434764,-0.06033945,-0.069369584,-0.078990504,-0.14315729,-0.072355784,-0.0738493,-0.029494151,0.0067688576,-0.008340518,-0.016270814,0.0025731085,0.007983351,-0.034937497,-0.048981093,-0.09227561,0.0017449752,-0.08132945,-0.08131091,-0.043901164,-0.039754063,-0.01665094,-0.028210307,-0.016908918,-0.0009957275,-0.02731397,-0.03567556,0.02124338,-0.009295552,-0.01847569,-0.005059737,0.007472122,-0.050356258,-0.033453707,-0.02888607,-0.0024172848,-0.0010992785,-0.02489401,0.02182772,-0.024874274,0.029479902,-0.022367518,-0.004717215,0.006633883,-0.015316149,0.03193896,-0.020040073,-0.0018056732,-0.024024284,0.008586305,0.02684297,0.029286657,0.003448167,-0.01620334,0.03094037,-0.0016530124,0.03144693,-0.008678297,0.006731162,-0.032760266,0.05780773,-0.0077954703,-0.022101533,0.0015654037,-0.014743011,0.0017011706,0.010283255,-0.015897732,0.0010791138,-0.024704324,0.025056632,-0.063577935,0.006465652,-0.049745824,0.07163884,0.011607096,0.04277898,0.02902035,0.010457086,0.010814542,0.0039797407,0.029874122,0.002477306,-0.083361566,0.046762787,0.050267704,-0.061912097,0.06868978,0.0025367888,0.048201203,0.057918265,0.0028627731,-0.010048393,0.018244589,0.013139188,-0.027699945,-0.08272399,-0.026766298,0.08653059,0.12235562,0.029394528,0.18430679,-0.0038844615,0.048041236,-0.019798197,0.026325447,-0.026778232,0.02869434,-0.014104803,0.0137788635,-0.06706217,0.04630202,0.043754354,0.034207005,0.016930338,0.117694296,0.005408197,-0.0077746627,3.1006413e-05,0.03959421,0.025631055,0.029631415,-0.025001856,0.014468187,-0.09104813,-0.049494345,-0.2125599,-0.08149667,-0.06498441,0.07271591,0.059925165,-0.0028231794,-0.03640697,-0.03401684,0.0029211575,0.0036620742,-0.016912488,0.008321436,-0.08423102,-0.122569054,-0.27213597,-0.124920584,-0.037148558,-0.095588885,0.011109494,-0.04588292,-0.08762977,-0.023079114,-0.010873869,-0.008637096,-0.025164785,-0.0013995668,0.005553314,-0.035964828,-0.13518618,-0.09907778,-0.03892108,-0.028926931,-0.0016732288,-0.106951065,-0.039477583,-0.055613764,0.031613745,-0.024467526,-0.011515621,-0.018138533,0.1168169,0.101385005,0.14567332,-0.08554697,-0.014306869,0.097175844,-0.14316082,-0.10204231,-0.07440005,-0.052527897,0.024079653,-0.019089611,-0.015847165,0.040022455,0.08874764,0.18878958,0.14919433,0.029641153,0.050678406,0.14982826,-0.05245992,-0.05976298,-0.018427452,-0.01056117,0.016511172,-0.020321324,-0.028520238,0.03102825,0.07157243,0.21163416,0.015348829,-0.027793756,-0.16102411,0.065156825,-0.0338467,-0.052823715,-0.05291148,0.004621787,-0.0021840488,-0.022088597,0.029786395,0.015254786,0.005954825,0.09112372,-0.086514756,-0.075325266,-0.123637736,-0.06297165,-0.09037428,-0.02363851,-0.032010686,-0.03149095,-0.021717642,-0.0005521258,-0.005876378,-0.031687006,0.003176594,-0.00619759,-0.055851977,-0.009775175,-0.008297182,-0.057417955,0.0034059675,-0.046259332,0.0009573162,0.03070109,0.021596136,0.015320702,-0.006436848,0.00605913,0.011209427,0.00786436,-0.006419328,0.0045103803,-0.012862453,-0.017985705,-0.029406184,-0.025984647,-0.019981703,0.030598234,0.006452906,-0.028834952,-0.016266603,0.0075235832,-0.009420297,-0.008905097,-0.011931913,-0.0077656773,0.004408099,0.00039344278,0.02119991,0.021653406,0.025357336,-0.0018475301,-0.014866831,0.00037453315,-0.02109157,0.0130833415,-0.0027943489,-0.009932711,-0.02703629,0.01540462,0.020056099,0.032483187,-0.010922595,0.009077279,0.004686335,-0.008447872,-0.026166504,0.011628262,-0.018284285,0.02327483,0.011423467,0.011014887,0.020783577,0.014743566,0.011373857,0.015826056,-0.011391734,-0.03089614,-0.0033807566,0.00065193506,0.01663968,0.016033007,-0.010014283,-0.0040415106,-0.021609344,0.019800916,-0.021109095,-0.012729366,0.024733717,0.0083641065,-0.012210486,-0.02432689,-0.019288467,0.021516943,-0.03591047,0.026728198,0.025615891,0.0020381713,-0.0025115823,0.02465623,0.014134632,0.030117031,0.02448868,-0.020290801,0.02398023,0.019154113,-0.026892584,0.017319039,-0.015871577,-0.024735946,0.0006582596,-0.003983653,-0.008726689,-0.021011475,0.017500708,0.029969849,-0.007184754,-0.021997847,-0.0002786201,-0.02164773,-0.024148723,-0.0075076786,0.020096166,-0.026760643,-0.0050353264,-0.01661819,-0.029760653,-0.0074866065,-0.0015148557,-0.005914693,0.023148315,0.012492433,0.02080719,-0.0005454474,0.0059333784,0.01054779,-0.02193943,0.0159618,0.015277487,-0.013634195,-0.0012228516,-0.024361432,-0.03181635,-0.0054102987,0.0019720292,-0.0077652982,0.009071025,-0.034164123,-0.024782028,0.02329134,-0.022053212,0.008279726,0.024653694,0.023875322,0.010829352,-0.029357128,0.003328998,-0.01495248,-0.01139382,0.02315406,-0.006719572,-0.025755769,-0.021449845,0.027650146,0.008843117,0.029358467,0.006593681,-0.029847896,0.007677678,0.02909051,0.019465612,0.008672328,-0.024675919,-0.018528616,0.023314273,-0.016851477,0.0078119673,0.009123505,0.015436316,0.006549782,-0.024269914,-0.012623185,0.027832408,0.0037141473,0.016083859,-0.017571235,0.025659006,-0.011177899,-0.0077445614,0.0068830894,-0.010377544,-0.007302475,-0.0022157237,-0.00071149296,-0.018104335,0.011026887,-0.03081353,0.019725647,0.029298397,0.005184099,-0.008229988,-0.029046327,0.014991577,0.025267962,0.02892507,0.0041094534,0.010767074,0.030817159,0.0048300787,-0.015355081,-0.030230438,0.013957238,0.0123806065,0.02848442,-0.016184283,0.014101685,-0.0100667775,-0.007486266,0.018781498,-0.029171344,0.023607615,0.014930596
-0.020640956,0.014644722,-0.009684373,0.0012360465,-0.010096284,-0.03289332,-0.0050410326,0.014034387,-0.005362735,-0.01739191,-0.00043535855,0.004237225,-0.010577106,-0.026428202,-0.018775014,-0.0068160654,0.009897189,0.02946471,0.0038145392,0.015700359,0.02798542,-0.0030244484,0.014356855,0.040422898,0.032965813,0.014395016,-0.022065993,0.017120838,-0.028070822,0.013068374,0.0033049313,0.029809102,0.030477244,0.11267141,0.118826695,0.10350108,0.03196922,0.025675924,-0.037132327,0.04481496,0.023984142,0.008189003,-0.00732391,0.01377365,0.01784871,0.054794695,0.11393724,0.0049504098,-0.20189345,-0.2586006,-0.04613364,-0.01490165,-0.031413198,-0.06720429,0.017769312,-0.018580068,-0.011247722,-0.009896511,0.023748225,0.04421541,-0.058971748,-0.23391154,-0.2894054,-0.0026268375,0.1302045,-0.21207923,-0.21142764,-0.1595342,-0.03809017,-0.0012833981,-0.02232675,-0.027390258,-0.05280144,-0.05306534,-0.050711375,-0.2693412,-0.39030176,-0.22391987,-0.013938999,-0.28890547,-0.16731568,-0.0733312,-0.12864707,0.012242534,-0.0113446545,0.02128362,-0.06603665,-0.12148105,-0.08730916,-0.040054154,-0.21190389,-0.2012647,-0.18324208,-0.117152184,0.004202485,0.11505208,-0.0032190895,-0.035161804,0.022118289,-0.015536451,-0.07899252,-0.10913715,-0.081977725,0.12882395,0.32011393,0.20538124,0.19459255,0.028904654,0.24754065,0.2938992,0.14204004,0.0014112452,0.015069731,-0.0065939752,0.0040435363,0.16042046,0.21243288,0.04645123,0.068761654,0.2153306,0.24057801,0.086059526,0.2154996,0.18839116,0.14425297,0.08232636,0.025721595,-0.005657632,0.079997,0.15418568,0.11416526,0.09474918,-0.12422947,0.13066003,0.18196301,0.21976067,0.21846253,0.11445879,0.12183282,0.026649619,0.022048526,0.023706114,-0.008795464,-0.023651496,-0.013173276,-0.12102328,-0.108884476,0.055991303,0.23505227,0.15869148,0.019258171,0.041234314,0.0134292925,-0.021823747,-0.0063444134,-0.03148448,-0.052577615,-0.1107501,-0.14008756,-0.02147798,0.06076579,0.07081967,-0.049318604,0.082639776,-0.052725907,-0.07021867,-0.06839073,0.0010320966,-0.03061478,-0.017733661,-0.03931159,-0.09304382,-0.15195167,-0.11314479,-0.13595183,-0.15597795,-0.08112157,-0.13385138,-0.01229454,-0.065672,-0.05245741,-0.015475694,-0.0055516134,0.0068842736,-0.03154295,-0.04982587,-0.0873516,-0.15636404,-0.14535527,-0.104127936,-0.13293532,-0.13075389,-0.11626952,-0.09053793,-0.018073002,-0.020024296,0.00930357,0.005199677,-0.008420341,0.03127022,-0.019493252,0.021791104,-0.010127722,-0.0006631184,-0.017303966,-0.01576824,-0.018547999,0.02088278,-0.010935993,0.01731994,-0.01664543,-0.007732917,0.011430262,0.056400586,0.06372847,0.119453594,0.12937617,0.13131852,0.09427014,0.09401093,0.009404658,0.053199664,0.031253505,0.018261043,-0.0009888756,0.01663888,0.01569393,0.09982477,0.121076226,0.034296326,-0.013736378,0.009912784,0.03836926,-0.09400344,-0.14689855,-0.08552882,-0.009895657,0.005060984,-0.0033689954,0.010319776,0.043164387,0.0012710895,-0.020726053,-0.2419771,-0.4602582,-0.085625,0.021672497,-0.21849836,-0.3205532,-0.30939156,-0.05579706,0.006487397,-0.030287348,-0.004360603,-0.0009633072,-0.035628404,-0.0887933,-0.24649478,-0.38196224,-0.16441226,0.0248576,-0.29898867,-0.25095746,-0.1235904,-0.14866537,-0.005965115,0.019114474,-0.012600204,-0.062440716,-0.025675973,0.1107745,0.0076760044,-0.28220317,-0.15510522,-0.06680134,-0.2069501,-0.093865976,0.10588683,-0.040855654,-0.04200152,0.032519337,0.005671497,-0.01965558,-0.019755261,-0.007982146,0.28078625,0.42087385,0.1654508,0.11959745,-0.0021981038,0.15625998,0.18961594,0.15413511,0.030237263,-0.025570802,0.019791884,-0.017962493,0.2081394,0.064450495,0.0029751286,0.44126788,0.36038858,0.2424942,0.15365858,0.16292307,0.07622277,0.1109585,0.06688266,0.019258613,-0.009504977,0.02065394,0.060908735,0.047780618,-0.037468232,-0.07557052,0.100911945,0.11985158,0.13379914,0.116393395,-0.050698727,0.055785604,0.035453476,0.007267803,0.004820155,-0.0042589186,0.03398463,0.040783145,-0.016724559,-0.13819833,0.05948121,0.011788633,0.13184667,0.16722026,-0.059373725,0.014129141,0.030013701,0.0053612273,-0.017424576,-0.020516008,-0.028502863,0.03160145,0.08059353,-0.056269467,-0.11822364,-0.046672165,0.026084393,0.09310721,-0.055528726,-0.071203515,-0.007591236,0.027390717,0.028026653,0.0060694404,-0.05297913,-0.054564,-0.0069694812,0.037208363,-0.081935704,-0.057514373,-0.11096512,-0.08138891,-0.04958899,-0.04249468,-0.009523946,0.028077062,-0.023555364,0.015834894,-0.06052763,-0.09631478,-0.0831853,-0.068651125,-0.09423765,-0.12183983,-0.18675826,-0.10439251,-0.015290845,0.030511191,0.0025924018,-0.018927563,-0.027884718,0.028472342,-0.027912121,-0.00904654,-0.037576035,-0.03424297,-0.014123127,-0.02971954,-0.022074072,-0.019834062,-0.015530825,-0.0059442027,-0.00056858786,0.013884958,0.023335563,0.026999867,-0.02606194,-0.02639274,-0.004472523,-0.0016720468,0.018543346,0.030379185,0.009528226,-0.021995395,-0.002524603,0.02073645,0.011740842,-0.02259111,0.0018644963,-0.030843852,-0.0125405425,0.029584749,0.014295442,0.028266279,0.004005013,0.025821589,0.026863214,0.023899287,0.030672353,0.011513825,-0.01522648,-0.017626377,-0.021936446,0.027804375,0.001538607,0.030763358,0.0321729,0.04110403,0.049240116,0.047339387,0.02797197,0.020240888,0.011814254,-0.036763158,0.021141453,-0.025368644,0.0052172393,0.030224469,0.0099536525,0.122284286,0.008089718,0.04473664,0.18457654,0.25260645,0.11273112,0.009571263,-0.017746674,-0.047294263,-0.028117033,-0.014206726,-0.0064881914,-0.009041844,0.018887078,-0.11893808,-0.08121459,-0.11802413,0.06895941,0.19778436,0.029283993,-0.11660091,-0.04444149,-0.04223698,-0.012290525,0.016828787,0.021102406,0.01222267,-0.0072782896,-0.12717101,-0.14620486,-0.025338788,-0.061005265,-0.0058267424,-0.06693421,-0.02230758,-0.074115075,0.00090266904,-0.03420302,0.004196143,-0.023474006,-0.005140429,0.04803803,0.005299513,-0.073099665,-0.053934302,-0.096645914,0.02743049,-0.22611612,-0.04664596,0.07423981,-0.006068998,-0.01873658,0.021539489,0.018028295,0.041570242,0.15220755,0.11214287,0.07098618,-0.050310772,0.021823283,0.065153345,-0.01878002,-0.004729225,-0.03497668,0.03616973,-0.012972162,-0.021274792,0.0117400205,-0.0015695024,0.22462691,0.16515864,0.22384398,0.041024882,0.010569798,-0.13723053,0.06223057,-0.04624373,0.02547379,0.023226934,-0.01362289,0.010749941,0.016714308,0.040915675,0.06502747,0.03274312,0.13171412,0.0056589735,-0.016811494,-0.046531085,-0.0060969163,-0.10099266,-0.012208586,0.011381871,-0.019593794,0.019303046,-0.017540393,0.004323893,-0.037662312,0.015368977,-0.0642354,0.032755036,-0.060798038,-0.061388347,-0.06158431,-0.062162086,-0.045729894,-0.037244808,0.021278415,0.0045992504,-0.00040058364,-0.01871155,-0.017886255,-0.07362943,0.013101308,0.018067608,-0.15897316,0.10520008,-0.019674812,-0.027647873,-0.019120649,-0.052041367,0.016288167,0.017388228,-0.024266386,0.0045387973,-0.024424229,-0.037169505,-0.048377402,-0.030899957,0.10088833,0.012482441,0.120110795,-0.009596146,0.0032838176,-0.026096595,-0.0072927065,-0.0036210853,0.015499367,-0.01279968,-0.004191907,0.0057910844,-0.029932695,0.0050038937,-0.05849085,0.012981495,-0.016150462,-0.0017204881,-0.00035232032,-0.0018633463,-0.028123751,0.03427205,0.00025837077,0.02851979,-0.015044149,-0.020991072,0.00011640095,-0.021529574,0.006594442,0.006127045,-0.0073834267,0.02512453,0.025533857,-0.023609241,-0.020863159,0.02341487,-0.0148682855,0.01083928,0.0071059256,0.05248857,0.008766979,0.014270196,-0.0027034834,0.012202377,0.00022884541,0.03173625,0.028373133,0.004429704,0.003680523,0.031011222,0.030004764,0.028874215,0.022395447,0.13799806,0.12742555,0.085423134,-0.012893281,0.053591065,0.111757904,0.01683465,-0.016478678,-0.006642971,-0.024419095,-0.014834223,0.028969692,0.0868048,0.06408086,0.12476016,0.1254884,0.14243771,0.18410558,0.04736125,0.048695993,-0.031652555,0.0259058,-0.009862068,0.010119095,0.030398259,-0.00032197245,0.006846974,-0.024367588,0.011192087,-0.019802695,0.028075924,0.16443422,0.06188187,0.026073936,-0.00894591,0.013038957,0.0050049345,0.025884299,-0.021536008,0.026894879,-0.036470667,-0.18299396,-0.11895833,-0.3123402,-0.10396915,0.011013826,0.19917232,0.05363116,0.014446105,-0.05154486,-0.00812533,-0.02018352,0.015331869,-0.044511136,-0.13339412,-0.098828815,-0.24558929,-0.32791173,-0.063249335,-0.02533889,0.17867833,-0.010530739,-0.102216534,-0.07472628,-0.011821963,0.015657326,-0.016286986,-0.029991183,-0.06693257,0.22431469,0.030437186,-0.21356599,-0.029109625,0.1441547,-0.0041527944,-0.15782622,-0.016138053,0.038302124,0.04605414,-0.016758602,-0.016889872,0.06744918,0.11980067,0.17752886,0.18146934,0.045549367,0.15247436,0.20067942,0.07749449,-0.11097465,0.057688646,0.06467397,0.022018574,-0.014466882,0.025387935,0.02404372,0.061087772,0.065516114,0.19752875,0.05187753,0.22204353,0.054454178,-0.017161276,0.0493362,-0.03597983,-0.078326754,0.025018552,-0.024826847,0.014327348,0.029553393,0.0070931735,-0.06065619,0.0007244578,0.05353899,0.014180748,-0.009991995,-0.0644589,-0.08550299,-0.041662592,-0.047715947,0.017947705,0.02738875,-0.010629296,-0.025012907,-0.052890956,-0.05995653,-0.033279985,-0.053002857,-0.10744131,0.04125706,-0.048998754,-0.051195495,-0.094201595,-0.03990682,-0.027077409,0.03080289,-0.009097344,0.011207322,0.003532933,-0.08059143,-0.0091966465,-0.15213312,-0.078728035,-0.06298779,0.0028639978,-0.07363175,-0.033277333,0.0067425207,0.012653779,0.0028157067,-0.022217201,0.014576328,0.0045708083,-0.040797308,-0.03955375,-0.043166097,-0.0699681,-0.047749717,-0.053320188,-0.0735883,0.018980538,0.043242957,0.011170551,0.024374198,-0.023598643,0.0057276157,-0.004032545,-0.019602628,0.0066404357,0.01026131,-0.0014510776,0.01363912,0.015421661,0.029059071,0.0019464147,0.0012307371,-0.00035533935,0.00451679,-0.020613058,-0.0038284305,-0.026900863,-0.022281019,-0.026750185,0.024966773,-0.014855982,-0.0002960711,0.0071834465,0.031195609,0.016470155,-0.02041679,0.033551008,-0.029846914,0.004253272,0.029284306,0.02734668,-0.0067421547,-0.02054668,0.015228616,0.02851061,-0.014761782,-0.007922408,-0.013377935,0.0063990923,-0.0017542442,0.014950119,-0.011191069,-0.030735718,-0.013355606,-0.024872556,-0.007063428,0.0162719,-0.013934508,0.005337214,-0.03274048,-0.032402247,-0.024534743,-0.012268671,-0.019456906,0.0021063127,0.016926168,0.024187192,0.010160744,-0.0005449907,-0.005449021,0.02514802,-0.008460138,0.024859348,-0.02928777,-0.022921398,-0.0048542893,-0.020787366,0.0025877764,0.03167985,0.010813926,0.03136596,-0.013434474,-0.015093871,-0.0038285349,-0.006999734,-0.008966622,-0.0036814245,0.0294575,-0.018523637,0.018617565,0.0052949707,0.010478173,0.018538771,-0.0091258725,0.013284242,-0.015079689,-0.019587455,0.029607087,0.026878059,-0.026004793,0.02761344,0.007382423,0.008974547,0.03732774,-0.0044617793,-0.009407445,0.032152127,-0.0034235066,-0.007573702,-0.012891406,0.031484984,0.015340258,-0.0036554039,-0.0038217586,0.002378978,-0.017722316,0.009756428,-0.021151783,0.00475043,-0.0002890443,-0.013586322,0.031200243,0.009040635,0.015326494,-0.0210617,0.0051850188,0.0067740656,0.017974216,-0.009281602,-0.0055404752,-0.024922717,0.026660763,0.03252461,0.027120644,0.01036333,0.021353772,0.030204238,0.010397974,0.011584091,0.009959049,-0.01822213,0.0076345284,0.0096864505,-0.025524512,-0.007067273,-0.019953238,-0.01567818,0.022673715,0.02883416,-0.0045215953,0.009892805,-0.007539163,0.006314497,-0.0055579646,-0.016675793,-0.0137717,0.03174891,0.0036222155,-0.018247867,0.0009831805,-0.025765516,0.007059723,0.023926899,0.0035263496,0.0077113374,-0.030002635,-0.005994815,0.018790603,-0.023462301,-0.016253216,0.02232086,0.013917131,0.014699133,-0.023499243,0.022002587,-0.0027214729,0.008689548,0.024617188,-0.029338159,0.009228481,-0.0287438,0.023736594,0.008069402,0.0030446448,-0.012312246,0.012402957,-0.014276566,0.0055582426,0.025249595,-0.020180892,-0.00973215,0.008060138,0.0056447117,0.0005388067,0.027577996,-0.008196395,0.007891034,0.017033374,-0.006519166,0.020993743,0.021380465,0.01398282,-0.007950633,0.02698393,-0.018351672,0.010019236
0.007289202,0.023422,-0.025323752,0.006405668,-0.017726198,0.017802106,0.011720668,-0.024467822,-0.0013268823,0.009663897,0.0141338855,0.029183848,0.015221751,0.006967202,0.01791509,-0.029351631,0.021842739,-0.007518746,0.01247844,0.006884305,-0.010056571,0.012956793,-0.036173843,-0.00887865,-0.00096201175,-0.018118335,0.011555048,-0.030672016,-0.015258119,0.016320543,0.014372147,-0.052264355,-0.026486348,-0.04533677,-0.027871886,-0.07595255,0.004350182,-0.059731744,-0.023422085,-0.0148674445,-0.017006852,0.02981715,-0.010424091,0.0124419285,-0.016916445,-0.022319904,-0.09738189,0.031694032,0.0748486,0.08931702,0.054025374,0.20921504,0.010605481,0.06569045,0.02204114,-0.029416885,-0.024861429,-0.034360755,-0.0030886605,-0.023585662,-0.09661236,0.021488117,0.11939498,0.14759561,0.13527869,0.035873387,-0.14899473,-0.028091274,0.004805483,-0.007259575,0.027703157,-0.0046035163,-0.040442597,0.04894837,-0.06733083,0.013348344,-0.08596223,-0.14926234,-0.07037549,-0.0084670875,-0.05042083,-0.18290097,-0.054534048,0.025622735,-0.019567952,-0.026759148,-0.014015296,0.16565846,0.16507697,-0.03761437,-0.17315474,-0.28005043,-0.1704137,-0.01763246,-0.07623859,-0.12393409,-0.018392993,0.012619459,-0.020281382,-0.0135564,0.14496672,0.19210957,0.1560961,0.051177293,0.109590925,-0.13366488,-0.17497122,0.17923638,0.11222306,0.08705239,0.02722456,-0.010698944,0.013127765,-0.0155442795,0.13197556,0.06748934,0.06301012,0.10435131,0.12923585,-0.1738498,-0.12591422,-0.0073879035,-0.055428315,-0.093807235,-0.109325334,-0.0111684725,-0.0018342315,0.005837335,-0.023111226,0.07321999,0.02679483,0.0021335727,0.024264859,-0.18503927,-0.065675996,0.16309276,-0.035203375,-0.08431022,-0.10909507,-0.031941418,0.031078003,0.024037145,-0.011855784,0.055806622,0.053153235,0.123768,-0.09402079,-0.23975706,-0.11801513,0.022529565,-0.001295147,-0.08498864,-0.04101587,-0.013869246,-0.0032207787,0.0014186631,-0.028994683,-0.028070014,-0.100568086,-0.17084888,-0.2030584,-0.115605764,-0.057708222,0.07199315,0.020296948,0.04077428,0.116858415,0.0015933535,0.018887889,0.018800892,-0.050092902,-0.057804592,-0.056796826,-0.07081049,0.03977357,0.03199351,0.060353555,0.016432099,0.10005031,0.12156871,0.08435003,-0.021525176,0.01511519,-0.0024543076,0.00016567128,-0.010699384,-0.053562827,-0.082495354,-0.07406654,-0.028920785,-0.079113126,-0.04210011,0.03419744,0.07372201,0.0022114336,-0.0293034,0.028927142,-0.015469253,0.027997425,-0.015414461,0.021035869,0.0048226896,-0.008592865,0.007192955,-0.014022007,-0.024999794,0.0107432585,0.016962567,-0.0037508863,0.030428393,0.0024100188,-0.016555311,-0.020243656,-0.007261661,-0.07466166,-0.05428768,-0.10137691,-0.053433094,-0.07845275,-0.040885262,0.00036840202,-0.0036421549,-0.012872763,-0.029767485,-0.014753528,-0.018300401,0.029542288,-0.019917307,-0.030755958,0.052304868,0.035021964,-0.05854505,0.004623551,0.06554577,0.000989605,0.05904144,0.03064579,0.027998464,0.007750637,0.011594551,-0.022338511,0.044687927,0.065487675,0.017341662,0.0985453,-0.0026365195,-0.08576333,0.016110346,-0.059408348,-0.06010935,0.015705662,-0.0024208792,-0.002382138,-0.0023607484,-0.03941671,0.05512179,0.030713623,-0.016833816,0.030715099,-0.03242855,0.011628643,0.16924769,0.13074324,-0.036374312,-0.04564446,-0.0029789982,-0.014278512,0.0068196896,0.012217039,0.19116943,0.18630885,-0.040663898,-0.06800332,-0.30953762,-0.11371436,0.19068012,0.17342229,0.067854874,-0.02230678,0.02888172,0.009675907,-0.04069085,0.052458826,0.18667123,0.13122885,0.03759177,-0.09131438,-0.2892998,-0.41483256,-0.03273003,0.16336979,0.1556909,-0.009453074,-0.013193508,0.017579645,0.017177423,0.06008582,0.061334673,0.14385293,0.18221748,0.048653055,-0.21728389,-0.2453255,0.05848425,0.091447085,-0.034788657,-0.04671965,0.013205459,-0.016427044,-0.033213273,-0.05047241,0.055263884,0.029777566,0.11356438,0.0051503265,-0.2213517,-0.15760665,0.09911017,-0.03538888,-0.057808634,-0.10994465,-0.022883898,-0.029623037,0.00030477857,-0.07532848,0.009067129,0.04786923,0.09986505,-0.07062315,-0.24513668,-0.07830068,0.08159666,-0.09785876,-0.039749548,-0.03201293,-0.04025361,-0.001370851,-0.02168346,-0.020749837,-0.014727269,-0.016531004,-0.14081997,0.027532699,-0.15605606,-0.1351756,0.053648047,-0.01027363,0.048996553,0.06888477,0.01098226,-0.027686564,-0.008088958,-0.026542192,-0.026467334,-0.078735396,0.0105262045,-0.04258731,0.09593013,0.0014163549,0.023830015,0.04436155,0.100633144,0.06995022,0.021815328,0.015424936,-0.02098397,0.015741369,-0.05760434,-0.100878306,-0.11563158,-0.08541701,0.021346744,-0.03797367,0.044195276,0.10202962,0.065306656,0.0031546883,-0.028233904,-0.029787969,-0.021879077,-0.03029534,0.022389242,-0.015416239,-0.013795257,-0.028687663,0.007411448,-0.0061539765,-0.012900176,0.019554114,0.032385405,-0.022880184,0.018501567,-0.005186939,-0.00030158224,0.013596845,-0.0058239265,0.02612603,0.01947296,-0.020608585,-0.019960238,-0.03237191,0.008905128,-0.024538727,-0.028049106,-0.02052486,-0.031582125,-0.02601004,0.028492773,0.017843356,0.027987247,-0.023970608,-0.0498626,-0.019972844,-0.011771827,-0.026874974,0.004717377,-0.02702574,0.0028079317,0.028015412,0.005486194,0.023301238,-0.022750685,-0.004545826,-0.03700773,-0.014149688,-0.08351358,-0.05338087,-0.03642674,-0.1030658,0.026936106,-0.028361604,-0.022493279,0.04213891,0.023604428,-0.019258972,0.0032472599,0.019240825,-0.04941661,-0.039151456,0.110768355,0.16089478,-0.040513575,-0.10245851,-0.10934842,-0.01049554,0.010066717,-0.01229625,-0.030722152,-0.0049291984,0.020204512,-0.017488038,0.10818963,0.07903153,0.017329501,-0.026196644,-0.035534553,-0.18758729,-0.12981984,-0.021673456,-0.02284035,-0.033506695,-0.0049125385,-0.002155221,0.01723818,-0.006912324,0.049862903,0.14661068,0.029475763,0.0626234,-0.12541462,-0.27882662,-0.25033697,-0.10364038,-0.08070798,-0.009540179,-0.020638926,0.00024499156,0.011329688,-0.02561219,0.09223831,-0.0109964255,-0.023053512,-0.04540383,-0.11940211,-0.21332496,-0.18846977,-0.12354336,0.023294434,-0.048536368,0.008645336,0.011559081,0.025974149,0.0038594864,0.013781108,-0.012357439,0.0055249357,-0.083567664,-0.15071686,-0.15346673,0.0073042917,0.14112432,0.042187076,-0.036867477,0.023018995,0.00665139,0.020940743,-0.010173351,-0.094378434,-0.075514406,-0.10121778,-0.18576644,-0.07151976,-0.21431696,0.18979576,0.113981,-0.028261751,-0.022601234,-0.010570588,0.022115922,-0.02284246,0.018489322,0.026847612,-0.01923268,-0.17250508,-0.09239972,-0.14710349,-0.06931334,0.14719115,0.06927613,-0.078817934,-0.027468773,0.0025919331,0.02267392,-0.0062390356,0.036739096,0.020209307,0.010043896,-0.086847305,-0.08966265,-0.003582535,0.110160135,0.23367457,-0.088960394,-0.11411836,-0.01267041,-0.028773976,0.009875675,0.028842704,0.018848605,-0.010670774,-0.0065363585,-0.11526841,-0.023427993,0.004411694,0.047371984,0.014157269,-0.15717019,-0.03252894,0.014566597,-0.024228545,0.008679105,-0.027429204,-0.014135932,0.023932068,0.016597427,0.018694809,-0.1117596,0.04785385,-0.037170444,-0.06466771,-0.020095125,-0.028905297,0.019863479,0.0060734493,-0.00971578,0.025986211,0.017901571,-0.0024624602,-0.018034441,-0.017445669,-0.008681956,0.023929374,-0.038415622,-0.04166997,-0.0042213416,0.014812802,0.031178067,0.021992646,-0.015844481,0.024838857,-0.007729405,0.016422,0.018695194,-0.023747766,0.010399136,0.015829649,-0.016754365,0.031810444,0.0267899,0.028564671,0.0019391772,-0.015136193,-0.015502109,0.013456771,-0.0045514153,0.009057006,-0.0121393455,-0.00913768,-0.0429883,0.0075172777,0.020586606,-0.010858556,-0.01886162,-0.005158005,0.0071728793,-0.021623781,0.019057307,0.015876759,-0.028389987,-0.05251724,-0.13292764,-0.039823383,-0.03840888,-0.016754208,-0.0021838613,0.008369875,0.027377725,0.0333605,-0.01244,0.014347268,-0.010504287,0.00045165978,-0.023514895,-0.007977039,-0.07555755,-0.032157328,-0.09718593,0.04976464,0.025454905,0.0021344884,0.013921086,0.021062499,0.016803473,0.0018166832,0.01105234,-0.0019241095,0.07442492,-0.021139184,-0.061732348,0.03307673,-0.02052715,-0.00343603,0.035420883,-0.017863736,0.060421936,0.008356,0.013191327,0.033871915,-0.010792743,-0.0017905456,0.12807958,0.178273,-0.024395796,0.0089913085,-0.17137006,0.0042871614,-0.0419624,0.17358837,0.043817803,0.055596795,0.039871957,0.026842007,-0.030732058,-0.011372747,0.2160581,0.083539136,-0.037874453,0.007927263,-0.2182061,-0.060843248,0.09709762,0.058189932,0.21281487,0.07455502,-0.027928807,-0.010261983,0.021216553,0.0412712,0.17361955,-0.04525071,-0.068316184,-0.09001872,-0.1804614,-0.21942051,0.07101418,0.13497756,0.1885584,-0.017760878,-0.010353454,0.026159944,0.00039342706,0.06992324,0.0026551194,-0.030805457,-0.078925915,-0.19506796,-0.24479468,-0.16502766,-0.041215096,0.1453092,0.1533381,0.0012505951,0.004160242,-0.00994266,0.010009274,-0.027184647,0.00014138958,-0.010284995,-0.09133033,-0.17206362,-0.23819382,-0.18879554,0.06862356,0.14583598,0.13826635,-0.046202622,0.012319066,0.009602514,-0.014591208,-0.0152375465,0.049659107,0.0060757757,-0.09910316,-0.16045049,-0.14053924,-0.1629137,0.16430499,0.15936409,-0.010022231,-0.019121518,0.0068105464,-0.0073322095,0.004257675,0.023073168,-0.01015203,-0.12132745,-0.11838522,-0.11267288,-0.08175306,-0.020139365,0.14081402,0.16016023,-0.014491049,0.019992463,0.030210625,0.0068092234,0.012751103,0.024778277,-0.020665526,-0.02683259,0.0018338986,-0.091538236,0.08015168,-0.041185763,-0.005149747,0.021372259,0.07600148,-0.007891712,-0.016716756,0.030257031,-0.017332658,0.022193776,0.029436633,-0.00090796937,0.010747052,-0.05146009,0.017758414,-0.045543432,-0.007983882,-0.010601769,0.04933537,0.013732449,-0.008516091,-0.0030984245,0.030794425,-0.0020295775,0.027071103,0.029529547,-0.01127275,-0.03058114,0.02971794,-0.01727447,0.030462384,-0.020450085,0.005732473,0.009383977,-0.007607842,0.024848193,-0.02902469,-0.013338714,-0.005027416,0.02440905,0.014301082,0.019209627,0.008197368,0.02660719,-0.008679253,-0.012311179,-0.0049034003,0.011908444,-0.009811547,0.01168677,0.008696397,0.007460312,0.026070515,0.005079972,0.019484857,-0.008814444,-0.031491555,0.024982864,0.019412106,0.024911841,0.018913813,3.8740272e-06,-0.017631715,-0.028039085,0.006348893,0.026012318,-0.002427933,-0.010682433,0.017149253,-0.013273672,0.012737984,-0.027309028,-0.027924981,-0.028044913,-0.009356834,0.011304739,0.010137676,-0.021666884,-0.006621791,0.010485774,-0.006883083,0.0010514751,0.020520044,-0.009433464,0.01602095,0.024848264,0.009467234,-0.0050787805,-0.023552187,-0.018692937,-0.009439975,0.010880264,0.01740841,-0.0015809769,0.025792222,-0.0127073135,0.006768517,-0.018312043,0.009225249,0.027006507,0.0117157325,0.008364728,-0.008259444,-0.028905414,-0.020143582,-0.029305328,0.0226447,-0.013493448,-0.0048222756,-0.02865829,-0.008750811,0.027292078,0.0054543423,-0.005513931,0.016905881,0.022725992,0.02873938,-0.024491694,-0.0038526582,-0.02748151,-0.022087105,0.02439159,-0.025473744,-0.017008,0.012480347,0.028630162,-0.030367708,-0.019788237,-0.011739497,0.023938138,0.0165487,0.026943214,0.015207084,-0.0067238235,0.023490975,-0.0009500104,0.0028759644,-0.008489254,0.0117689995,0.01144384,-0.004943161,0.028299388,-0.008329916,0.0058616293,0.01850851,0.015918022,-0.01331135,-0.02001169,0.006102469,-0.00028109085,0.0021914544,0.01945237,0.014065602,-0.019448731,-0.025273869,0.028260434,-0.00482522,-0.01370262,-0.032491773,0.021106256,0.008904712,-0.022850934,-0.02765172,0.027755601,0.01387141,-0.0047090263,-0.0265225,0.019263554,-0.021847568,0.015514833,-0.030921377,-0.031365197,-0.032513253,0.019572884,0.026812987,-0.02224917,0.02463088,-0.019443087,-0.029712,0.015606271,0.018243821,0.016979413,0.005014105,0.030681895,-0.027212927,0.008451472,-0.01255644,0.0022081155,0.022956448,-0.021194084,0.013938465,-0.0064365366,0.02067677,-0.00077978044,0.015838647,0.030408468,-0.012067839,-0.031108603,0.029823052,-0.018076755,0.0075447946,0.02033586,-0.0030201357,0.02472978,0.020640697,-0.006492686,0.008329348,0.0023508235,0.031161746,0.022043325,-0.021248918,0.0026344892,0.016797274,0.024017902,0.010921098,0.013362344,-0.0059716282,0.00060351717
-0.0237649,0.024641037,0.023483172,-0.019273901,-0.029024255,0.023199549,-0.03008921,0.01830842,-0.03300826,-0.018043635,-0.015441986,0.028260758,-0.007060753,0.025897894,0.007614745,0.029273028,0.019473992,0.020375203,0.021530865,-0.014664373,-0.014940483,-0.0026978545,0.013063678,-0.025780398,-0.03306132,-0.02941246,-0.017765516,0.0034168619,-0.0053378167,-0.009536413,-0.01544543,-0.0062066717,-0.04914492,-0.019141627,-0.08093569,-0.0460322,0.053642057,0.023843503,0.05138396,0.025111876,0.027754763,-0.0145457825,0.0022684394,0.008385098,-0.023010612,-0.06309363,-0.090389416,-0.045482073,0.044129804,-0.08607397,-0.034700416,0.024712827,-0.052579284,-0.07741131,-0.019679874,-0.022487488,-0.028310547,0.0072442126,-0.044464964,-0.069413066,0.029025018,0.11326142,0.015238741,-0.07683918,0.07107332,-0.08771429,-0.1833886,-0.075033456,-0.009207765,-0.005272464,-0.01604407,-0.004220909,-0.031346276,0.042281758,-0.0017615517,-0.076057464,0.07724648,0.06019159,-0.03598888,-0.06231378,-0.027357403,0.14186114,0.13996686,-0.010576899,0.008875483,-0.0037530477,0.055113137,0.21412979,0.006738096,-0.20271958,-0.20106918,-0.12926808,0.038452182,0.13814205,0.17398155,0.19893804,0.1090087,0.050162956,-0.024902666,0.0031307088,0.044918783,0.010672633,-0.016846174,0.06605898,0.20989205,0.16560023,0.1790681,0.3521883,0.20950326,0.10385081,-0.056228332,-0.04168274,0.029931284,0.01591133,-0.033459473,-0.015681256,0.2577663,0.44308743,0.40340152,0.3941499,0.22223863,0.16944952,-0.073744826,-0.11522883,-0.15053867,0.005478795,0.004894068,0.0023180502,-0.05719425,-0.17946406,-0.159565,-0.17866665,0.16156116,0.02005891,-0.19219954,-0.124013215,-0.20168227,-0.13427663,-0.04631313,-0.032400437,0.02665305,0.021185722,-0.055109333,-0.11546257,-0.25966054,-0.11085221,-0.1527952,-0.17779857,-0.118151836,-0.06768086,0.06994219,-0.034405354,-0.03749231,-0.038335465,-0.0054382365,-0.022674471,-0.03930759,0.082682095,0.060338818,0.036010504,0.005661486,0.00658263,-0.06336383,-0.07709899,-0.111293025,-0.015938196,-0.020065365,0.007029827,-0.01696456,0.027089152,-0.0015997271,0.046674624,0.056766555,0.097334094,0.052367516,-0.004573943,-0.23241019,-0.18647438,0.04389905,0.10035131,0.0327618,-0.008654405,0.029909752,-0.028690698,0.029024402,0.10766058,0.12434301,0.1344597,0.065689035,-0.0071838615,-0.0003084869,0.059859257,0.10586088,0.025277486,-0.022693124,0.013461322,0.01004226,-0.021663915,0.028803788,-0.015224849,-0.034000084,0.0047419574,-0.025248567,-0.02324168,-0.026079094,0.0033464504,0.009560777,0.01744734,-0.019031756,-0.008376226,0.028906476,-0.017174335,-0.0119395675,-0.022075811,-0.0624348,-0.09452541,-0.07977357,-0.05953929,-0.02061006,-0.022914259,0.004278826,0.0041241134,0.017072296,0.012222949,0.023174781,0.019519487,-0.02631518,-0.038446825,-0.134566,-0.11969713,0.00935418,-0.19649431,-0.023301084,0.0049203425,-0.08099325,-0.034616485,0.047574524,-0.013691552,0.001604747,-0.02593961,-0.04447809,-0.0048184856,-0.007028138,-0.017453786,0.19204156,0.09886346,0.05383489,0.009695605,-0.045462064,-0.02306036,-0.01607994,0.02019441,0.027670471,0.0041010454,-0.05029664,-0.009710762,-0.00430121,-0.033627182,0.015431583,0.039745927,0.09879097,0.018096017,0.07838902,0.14126782,0.041104246,0.02637723,0.015721852,0.006691683,0.05609505,0.11168879,-0.06039511,-0.107111655,-0.07481861,-0.05411058,-0.01050616,0.08991763,0.007041081,0.18683654,0.0709703,0.020366125,0.0067837588,-0.015832858,0.012726218,-0.03182769,-0.07049125,3.170647e-05,-0.019238176,0.017958848,-0.004092175,0.0850945,0.18489206,-0.072038054,-0.057450127,0.0250656,-0.016667219,0.031024378,0.021291098,-0.10955374,0.060021266,0.26192814,0.19437568,0.19792399,-0.011025325,-0.008247032,0.026595173,5.446315e-05,-0.13113797,-0.007874834,0.018375492,0.017424611,-0.047234107,-0.120342106,-0.119603164,-0.012241382,0.11921424,0.19088684,-0.065743946,-0.06824686,0.061157588,0.012901825,0.0070119384,-0.049158767,-0.023072546,0.021562757,0.04265608,-0.036007885,-0.31612226,-0.28712857,-0.24204846,0.03250018,0.020392798,-0.07327311,-0.018668782,-0.018755637,-0.056815963,0.018585682,-0.02975221,-0.009400835,0.011971764,0.13983566,0.06504417,-0.020702982,-0.08954179,0.0690773,0.035912722,-0.1142048,-0.15316503,0.0339831,-0.039796352,-0.00839562,0.025890214,0.031448282,0.0065654153,0.014746002,0.03590256,0.0047327504,-0.012469254,-0.104824126,-0.17095605,-0.045697875,-0.006486805,0.07577806,-0.0045497757,-0.025337748,0.020622361,-0.0039597075,-0.013203106,0.06583425,0.13206002,0.10213211,0.06613037,-0.0021550169,-0.051192053,0.028172523,0.05425116,0.027903609,-0.01286757,0.00072417787,-0.022600317,0.02717777,0.007829132,-0.01803183,0.016203033,-0.0033292265,0.031242106,-0.0011309858,8.236315e-05,-0.012120131,-0.01901238,0.007905134,0.026483439,-0.020630887,0.006254356,-0.022014001,-0.02475827,-0.011745733,-0.021449966,-0.026703846,-0.0103948815,-0.004848154,0.014988164,0.013950407,-0.0011443606,-0.007994702,-0.006862204,-0.02623815,0.022205513,0.028653905,-0.029368492,-0.030557638,-0.03348298,-0.009062887,-0.014179171,-0.05070658,0.026517501,0.021289052,-0.025788771,-0.03367199,0.024560057,0.03160981,0.0029659872,-0.015298876,0.020297788,0.016026963,-0.006419101,-0.016824381,-0.03857674,-0.02060384,-0.019678297,0.054739904,-0.0065223654,-0.054643765,-0.01402395,0.034746256,0.019688861,-0.029040718,-0.027196718,-0.0045801713,-0.048440132,-0.1265853,-0.104046546,-0.057750754,0.06053961,-0.018583145,-0.07435261,-0.053743668,0.021421174,0.013532421,-0.009270704,0.025040748,0.005095262,0.012230966,0.09388553,0.040620107,-0.033375498,-0.0011070663,-0.084374346,-0.02271014,-0.026139623,0.04275207,-0.007585047,0.019003535,-0.029108156,0.017571088,0.00918873,0.022269085,0.016130863,0.07652604,0.03522663,-0.031557683,-0.0003431672,0.14795887,0.09002542,0.10117943,0.021663534,-0.006014164,-0.008460029,0.0034591765,0.02201924,-0.072002545,-0.002322028,0.113314286,-0.04268237,0.09961909,0.18461004,0.18061693,0.17259032,0.05260733,0.015164318,0.014319155,0.0133563755,-0.017194882,-0.07163654,-0.16848762,-0.20182748,-0.00068485853,-0.04570827,0.1078145,0.009692849,0.13797313,-0.023523297,-0.007719437,0.0036541664,0.01819591,0.02713203,0.011509608,-0.053055674,-0.09197878,0.007417372,-0.25435022,-0.118066676,0.08995781,-0.048376948,-0.13252516,-0.027821122,-0.02105621,0.03856701,0.029987462,0.027072301,-0.022354243,-0.013617799,-0.066224866,-0.083241664,-0.16672873,-0.05140272,-0.2140569,-0.09699657,-0.023907818,-0.04241404,0.06361062,0.015410114,0.0072113546,0.030302793,-0.027373997,-0.05893975,-0.0065810885,-0.12417009,0.06279895,-0.015241731,0.0016260514,0.0032585145,0.051276147,-0.0037536703,0.11447906,-0.010696358,0.028873846,0.004218724,0.003504227,-0.0010470063,-0.014090404,-0.0068813832,0.01524386,0.13650998,0.25317004,0.088726565,-0.07488808,-0.03282564,0.042866457,0.015152343,-0.008948667,0.028851679,-0.026781263,0.03238909,0.032701917,-0.01277716,0.021562833,0.07150753,0.13653979,-0.018722512,-0.004795467,0.050624598,0.005614623,-0.0066364016,0.024948789,0.0055969735,0.017147081,0.018152265,-0.009695363,0.010792306,0.07464348,-0.01386732,0.048706856,0.0389422,0.019508716,0.011843332,0.00944839,-0.026422253,0.026244732,0.01843596,-0.015603247,-0.018213904,-0.013577299,0.024825634,-0.018921414,0.0046705264,-0.035713863,0.003751321,0.013345025,0.0032760168,-0.008343164,-0.004121377,0.021004675,0.0072242348,-0.014060104,-0.032018855,0.008032926,-0.033790827,-0.0033965793,-0.030674895,0.0009218201,-0.030964553,-0.010848295,-0.00584384,-0.03792153,-0.0137727745,0.012228822,0.01579359,0.017231397,-0.024517283,-0.014893038,-0.1340636,-0.016071737,-0.12224296,0.008197483,0.011638033,0.03563454,-0.009672485,0.019194778,-0.0080959285,-0.030613173,-0.031464294,-0.03926295,-0.054899942,-0.024250822,-0.15716617,0.08185006,-0.1659031,-0.07241549,-0.028465122,-0.085767746,-0.0526523,-0.009494462,-0.0149327675,0.003560003,-0.006742309,-0.033112895,-0.011017687,-0.0020420619,-0.041891146,-0.08033688,-0.116729036,-0.14635268,-0.15163651,-0.1626019,-0.078746416,0.03182381,-0.004683409,0.011562728,0.0065372027,-0.006803608,0.05436779,-0.051079556,-0.028545251,0.009608643,0.018199326,-0.17968227,-0.01339966,-0.015760329,0.0510048,0.026411982,-0.03094644,0.019671362,-0.0069973017,0.04241182,0.025204938,0.047381654,0.024636138,0.05737645,0.03291703,-0.084153414,0.0060057915,-0.0056140576,0.00416243,-0.05427975,0.018766126,-0.0020718102,-0.025567176,0.022186372,-0.013532792,0.08340592,0.15759556,0.010429143,0.10035108,-0.07225148,-0.05868598,-0.124818645,-0.08301334,-0.10729029,0.009270281,-0.023067499,-0.0032466792,-0.02984248,-0.15027641,0.036259253,-0.098545365,-0.21021919,0.12815687,-0.20642193,-0.14952418,-0.14362295,-0.086325854,-0.10049306,-0.018066328,-0.0015251889,-0.004430103,-0.04156537,-0.16263212,-0.08880328,-0.21020049,-0.16664721,0.03323964,-0.21213129,-0.09275464,-0.011217947,-0.035159383,0.020054989,-0.016464977,-0.014181345,0.003931167,-0.034879625,-0.025470598,-0.14634229,-0.041991726,-0.058581118,-0.1403793,0.017039556,0.00647866,0.0077827196,0.119066335,-0.007347793,0.016669707,-0.027823815,0.011203859,0.014547642,0.044870973,0.030561704,-0.100939274,-0.0894939,-0.07546259,0.0067368625,0.002351327,0.03720796,0.1864737,-0.038231563,-0.013887745,-0.020595202,-0.000567761,-0.011247024,0.025637046,-0.024617342,-0.0039964886,0.12420749,-0.02668967,-0.032012396,0.031922493,0.042865727,0.125666,-0.024554934,0.0004659723,-0.018587492,0.008301019,0.022369182,0.0574497,-3.8589023e-05,-0.014900084,-0.0112548005,0.07817728,0.010436467,0.057240967,0.052996293,0.039325863,-0.036786444,-0.03366874,-0.016559424,0.024847806,-0.024474762,0.02400376,0.005369646,0.01981399,0.031701144,0.031145886,0.030686574,-0.0077985986,-0.0135766,0.013620651,0.02729454,0.00084878405,-0.0075076106,-0.005112553,-0.011348089,0.015378136,-0.03172453,0.02719707,-0.0016401577,-0.019700762,-0.0147199165,-0.02390115,-0.028928036,0.0060057626,-0.006767555,-0.014733171,-0.0053828936,-0.004350735,0.014160103,-0.02569903,-0.0008938461,-0.0010618905,-0.025953472,0.025806287,-0.01377918,0.020955672,0.02204488,0.010825459,0.020231586,-0.026831891,0.004179358,-0.02629697,-0.019360257,0.009888375,0.023304382,-0.020541478,-0.014000415,-0.01685105,-0.004011906,-0.018637547,-0.02715071,-0.0015462626,0.02877844,0.0046547917,-0.013773522,0.021400606,0.023645315,0.021638252,0.0007413961,-0.0043127663,0.018857218,0.021283034,0.023465693,0.022350874,0.012737197,0.030072754,0.0060155927,0.036507044,0.03554361,0.02683575,0.021271128,0.02537482,-0.014952195,-0.0119492235,-0.007051634,-0.0139319645,0.022582427,0.0030151466,-0.0068587447,-0.0057994532,-0.020255137,-0.0011215868,0.0257933,0.021058807,0.025379555,0.021999367,0.013604756,-0.0008463973,-0.023710508,0.021827806,-0.022872182,-0.020358332,0.013426148,0.018268738,-0.008693759,0.01712966,-0.03278203,0.0076748272,0.0141442865,0.0061911237,-0.017810358,-0.021475958,0.023977192,0.0050288863,-0.015400285,0.028493164,-0.009535749,-0.02167486,0.0007495936,0.025961058,-0.019496104,0.00021666997,-0.014341573,-0.014339905,-0.0042315,0.00276356,0.018127054,-0.022744065,0.015745893,0.026728377,-0.007436594,-0.01238432,0.012776425,-0.026871776,0.029176539,-0.005532077,0.001295856,0.015181899,0.01344335,-0.01433486,-0.022789694,-0.030604795,-0.026364733,-0.004005664,-0.00935484,-0.002795651,-0.015333182,0.01372288,0.018026462,0.027078075,-0.02092424,-0.02245209,0.011156828,-0.007814758,0.02384138,-0.029302308,0.031057449,-0.019601969,-0.022335969,-0.004923315,-0.022983668,-0.021015285,0.016891275,0.024724724,0.017805899,0.003952929,-0.004628709,-0.017583732,0.032026894,-0.020402832,-0.027112668,0.028481914,-0.0006506726,0.018267427,-0.015337097,0.023384998,-0.022184996,0.019276788,0.02492844,-0.0003286595,0.021264812,0.0013985485,-0.029295681,0.014257127,-0.02446768,-0.0013926435,-0.031390697,-0.017746722,-0.013867367,-0.013420294,-0.031843267,-0.015812062,-0.029542252,-0.026610212,-0.031789087,-0.017675446,-0.006835751,0.028755058,-0.023237092,-0.025034115,-0.026023021,0.029825544,-0.0037263432,-0.008523768,0.017565392
-0.01952474,-0.00909298,0.028628241,0.016370004,-0.025498865,-0.009412896,0.0025999774,0.011356527,-0.015154737,0.021939555,7.936143e-05,-0.028169462,0.00791189,-0.03166049,0.0015731744,-0.032290686,-0.0094351,-0.008213858,-0.028871367,-0.007007027,0.006391348,0.0021738654,0.043514602,0.018556016,-0.006159178,-0.045285884,-0.011897839,-0.01595745,0.008453487,-0.025965946,-0.02641836,0.0033655264,0.044598315,0.09802914,0.21397652,0.23365644,0.21112572,0.027903166,-0.08028981,-0.14468747,-0.065770924,-0.00497318,0.017165853,-0.005937588,-0.03676256,-0.0038339002,-0.033936463,-0.004704318,0.16905515,0.3731873,0.17365003,-0.057690263,-0.16013362,-0.1646538,-0.16492656,-0.016325064,0.028609166,0.0038332501,-0.05050805,-0.089068204,0.022770213,0.28408256,0.094259344,-0.07769787,0.16482972,0.07172644,-0.1685076,-0.16888717,-0.17422974,-0.104845665,0.02636557,-0.009122861,-0.033701826,-0.023939198,-0.13420188,-0.3509912,-0.4871909,-0.258532,0.1394652,0.16108601,-0.14699617,-0.104213,-0.09759162,-0.06316865,0.013261788,-0.0284866,-0.056413833,-0.09588365,-0.16299006,-0.037614856,0.18010594,-0.11967362,-0.095488764,-0.039670207,0.085713975,0.01971944,-0.0037339707,-0.0063828644,-0.02440392,0.009538565,-0.024499938,-0.020409364,0.13219891,0.1248682,-0.018496031,-0.040337488,-0.08094787,0.05429262,0.16748513,-0.033999756,-0.0117452545,-0.016171727,0.0036861903,-0.015932934,0.014671346,0.11216173,0.14999475,-0.04993935,-0.08472381,-0.15128765,-0.10273942,-0.0725713,0.046758935,0.04813876,-0.050619673,0.00083748373,-0.017924469,-0.0007839982,0.039239634,-0.02618492,-0.037086513,-0.06549707,-0.14461,-0.09321101,0.0554625,0.14955989,0.04354399,0.05903059,-0.048029512,0.03858949,0.014150483,0.015356857,0.077199385,-0.033429954,-0.103265636,-0.028181301,-0.15762027,-0.052797712,0.012602857,-0.05991338,0.05847326,-0.018770114,-0.076369025,0.016816579,0.023752557,0.042520363,0.078510255,-0.025388816,0.039348196,0.06314406,0.09835581,0.0067977943,-0.0019727298,0.03231619,-0.026076496,-0.002807603,0.003648507,0.026513524,0.018107882,0.017702976,-0.024999091,0.10671382,0.097525366,0.015363355,-0.09021606,-0.1043577,0.0094764335,0.023360414,-0.086826615,0.0029042717,-0.0025616265,0.030164517,-0.025328264,-0.017949043,-0.014253221,0.02786753,0.0042775725,-0.013656615,0.0018841103,-0.029929403,-0.017739456,0.004470828,0.001202002,0.009398325,-0.024360403,0.008313807,-0.025635438,-0.0008178991,-0.017911628,-0.019022781,-0.01982054,-0.015301788,-0.015610997,-0.010571544,0.009404726,-0.042043135,0.0160022,0.0018402985,-0.032617483,-0.03260705,-0.016766403,0.011652962,0.020841697,-0.00583342,0.0069510667,0.009703235,0.07877297,0.13574511,0.120229274,-0.076690644,-0.09390808,-0.049484376,-0.048299555,-0.010975542,0.0005324536,0.0035344244,-0.02634903,-0.06024515,-0.046965923,0.0297651,0.027918883,0.18248476,0.28730953,0.1680879,0.056622278,0.076628886,-0.09886402,-0.007354317,0.004744916,-0.023619864,-0.042254426,-0.074220315,-0.08681797,-0.0025758753,0.077774085,0.08781797,0.26157162,0.40531325,0.051912725,0.19133441,-0.089529105,-0.0680776,0.011635672,-0.013087502,-0.041211177,-0.099498875,-0.21232936,-0.32706034,-0.3414494,-0.22177888,0.3838832,0.45326856,0.0782625,0.023375968,-0.03084131,-0.017156793,-0.0011839302,0.014651421,-0.063736014,-0.20209715,-0.29672962,-0.14335144,-0.09667859,-0.32360974,-0.096994884,0.11437251,0.19521905,0.024320181,-0.041144416,-0.023221076,-0.0119635025,-0.0062029804,-0.031562615,-0.058913395,0.14584827,0.1538188,0.054844685,-0.1844584,-0.34506705,-0.10623638,0.0806665,-0.025744703,-0.041472554,-0.028563194,0.0054094815,-0.0072302395,0.031555608,0.077689655,0.18341307,0.11430609,-0.09095504,-0.11209904,-0.049531832,-0.07616546,-0.018798143,0.055622175,-0.0708386,-0.035630956,0.021837244,0.042645175,0.037856292,-0.11907248,-0.09025419,0.067986235,-0.157352,-0.34283394,-0.064094506,-0.051354844,-0.14587346,0.008247287,-0.027572839,-0.010391776,-0.010741125,0.025809199,0.115206964,-0.036796264,0.12199632,0.08499876,0.06363225,-0.12592997,-0.02892594,-0.016932132,-0.08518246,0.015869379,0.018440263,0.020862602,-0.027297651,-0.005786461,0.035094094,-0.102406695,-0.1540885,-0.0246408,0.15588197,-0.060306776,-0.07684806,-0.043321032,-0.026136467,-0.02152769,0.01752513,-0.014737486,-0.015261675,-0.010755519,-0.045006704,-0.007229404,0.0030169345,-0.065367475,-0.012034362,-0.06925385,-0.0369926,0.049930092,-0.058872588,-0.002347436,0.014754041,-0.02402773,0.0037931458,0.00718627,-0.020945316,0.018233636,0.023972135,0.037109274,-0.0007871799,-0.034357358,0.015599388,-0.016314784,0.033035275,0.0014984289,0.011267104,0.021812828,0.0141932685,0.00707939,-0.0042104293,-0.005052275,0.029092934,-0.005890563,-0.00939952,0.005068624,-0.012673124,-0.0090017915,0.0061283023,0.021680154,0.009886856,-0.020417342,0.019288477,-0.011764324,0.008238035,0.001881122,0.022752076,-0.0069608316,-0.012269066,-0.0058213715,0.001563705,-0.01465487,0.022061115,-0.017690964,0.00503656,-0.02452596,-0.003966444,-0.0068829237,-0.01277945,0.01638318,-0.030137556,-0.014522826,-0.00642827,-0.034011018,0.014810206,0.009388401,-0.022847833,-0.019747056,0.010512503,-0.014637994,-0.025993757,0.030653296,-0.014145955,0.0010461403,-0.02132124,0.015223532,-0.030896863,-0.103956215,-0.06816274,-0.15883072,-0.105928,0.04656919,-0.029378755,0.0026126727,-0.007033408,-0.0077387197,0.011913721,-0.049481194,-0.08880907,-0.031146392,-0.10848765,-0.1349988,-0.15138228,-0.07260813,-0.09138688,0.012686536,0.0063372147,-0.035727616,0.027119925,-0.011463775,0.0039518923,-0.07337721,0.029276136,-0.06294394,-0.056330923,-0.28564698,0.029835599,-0.0157212,0.08432127,0.018214388,0.019138714,0.022093782,-0.018795596,0.021480849,-0.025998527,-0.0586946,-0.062237285,-0.1621716,-0.068441875,-0.034161005,0.13698646,0.08231748,0.14741836,0.11628078,-0.0111739915,0.019366557,-0.01367002,-0.0073960293,-0.01572461,-0.01585336,-0.027647229,0.023667302,-0.12756382,-0.082219824,0.013112872,0.06813959,0.07244376,0.09117642,0.0003356046,0.009086497,-0.0114333285,0.029799812,0.026531477,0.01743528,0.115259804,0.0016317867,-0.18094769,-0.14047536,0.011372902,0.1824656,0.03909856,0.05478488,-0.024073537,-0.02181247,0.019200878,-0.014675849,0.00048763285,0.0539138,0.0525768,2.4626464e-05,-0.08383158,-0.109205775,0.11265035,0.09301013,0.08643414,-0.08379341,-0.038021915,0.0065757423,0.028498774,0.00035501225,0.026857624,-0.060588874,0.002982829,-0.0555488,-0.063657634,0.04966332,0.032708086,-0.0064590015,0.15897319,-0.04520321,-0.0203986,0.0125772925,0.0034861488,-0.017086668,0.001210481,-0.008084832,-0.042760253,-0.058078278,-0.022438033,0.021009399,-0.036202554,-0.0025162352,-0.015789451,-0.067711584,-0.032355573,0.0070511308,-0.005821554,-0.020416643,0.010732155,-0.038484357,0.074856825,-0.031289827,0.06516437,-0.1934623,-0.07456802,-0.00084325945,-0.0846655,0.030241838,-0.005723598,-0.004971805,-0.0077220625,0.025576286,-0.030532712,0.069337614,0.021159247,0.015743567,-0.043126624,-0.074903674,-0.054616608,-0.034785733,-0.055160247,0.022566292,0.0064998586,0.012175874,0.011989457,0.001375248,0.019521253,-0.01757389,0.03153047,-0.032860626,-0.037597552,0.015200598,0.024212653,-0.011483665,0.026553495,-0.011900963,-0.024274446,-0.0049665626,0.017668238,-0.016625183,0.02995806,-0.014386848,-0.014747548,-0.013494428,-0.025132159,0.03084551,-0.014892309,-0.01605468,-0.009533787,0.026857158,0.01483664,0.01176325,-0.008399824,0.016229888,0.004990566,0.023654215,-0.005344718,0.015600343,0.012167603,0.0030741717,-0.022600988,-0.032327227,-0.038378894,0.0037063991,-0.0036795654,0.025553634,-0.022932956,-0.02657319,-0.009449671,-0.00957735,-0.055549994,-0.023329068,-0.040893514,0.052104138,-0.0769008,-0.1115962,-0.03192815,-0.02181775,0.020067986,0.003234925,-0.006598206,0.00034092192,-0.10449677,-0.13411161,-0.061684206,-0.15112032,-0.1566393,-0.066140786,-0.062496196,-0.097320154,-0.028633378,-0.014280917,-0.00017738537,-0.0023196635,0.007621999,-0.02786719,-0.10010801,-0.084009826,-0.042888984,-0.24162813,-0.23038855,-0.008814557,-0.059435703,0.20925613,0.00032140024,-0.014546863,0.028639207,0.026429709,0.029625257,-0.042107727,-0.099928245,-0.1507339,-0.28169474,-0.2098758,-0.18114851,0.003412591,0.23836884,0.26823655,0.15692176,0.06750935,0.008159967,-0.0105586955,-0.020322882,-0.012646474,-0.18207979,-0.22246026,-0.09945667,-0.04033383,-0.2185123,-0.070544094,0.19892907,0.2730617,0.29516813,0.08014614,0.016894478,0.0108876545,-0.010500875,0.003058839,-0.071927786,0.17549065,-0.08179775,-0.011235079,-0.14660992,-0.19568047,-0.05302071,0.026042938,0.23503801,-0.028678704,-0.034117624,0.02013518,0.012743031,0.049133833,0.0011196472,0.15897116,-0.063750945,-0.11135309,-0.12670134,-0.042133037,-0.10606347,-0.043118253,0.10854178,-0.11346274,0.0016341411,0.0070952876,-0.014522232,0.0710744,0.018232482,0.038509037,0.047866147,-0.019849839,0.03997902,-0.10381998,-0.045416728,-0.051098447,0.055162635,-0.069148414,0.011752841,0.0015436773,0.021180123,0.06383519,0.10287582,0.11257548,0.20032424,0.17577015,0.013480748,-0.16271268,0.009600049,0.0010912186,-0.059335973,-0.036347657,-0.027447317,-0.02405148,0.018876206,0.06277652,-0.020859918,0.10681787,0.10435769,0.09416612,-0.033767235,-0.090655364,-0.024584899,-0.10605155,-0.0455732,0.008661952,0.030511511,0.016694717,-0.0026901492,-0.00052274135,0.034508973,0.11175553,0.030286372,-0.024611155,-0.08556886,-0.09014814,-0.031324383,-0.09125146,0.03236694,0.0139810555,0.013017138,0.008528082,0.012465553,0.022627085,0.03472855,0.020878596,0.015918829,-0.0035888362,-0.014599311,-0.02184635,0.0009310337,0.008151415,-0.028086932,0.013379824,-0.012245303,-0.022532316,-0.013685408,-0.0007705784,0.015650058,-0.02853156,0.008592429,0.028695509,-0.0181313,0.00747885,-0.01295527,0.007818149,0.013780233,-0.019752542,0.007570947,0.031479876,0.002159894,-0.022759048,0.00035063003,0.006878831,0.00962586,-0.0026133098,-0.009532682,-0.01632753,0.018409532,-0.020415977,-0.013656018,0.017603137,-0.017451921,-0.0044957446,-0.012816941,-0.02836492,0.015324139,-0.0152115915,-0.015348385,-0.00835237,0.0077937003,0.02392541,0.023347193,-0.013059298,-0.029943792,0.0047142333,0.00020096776,0.022246597,-0.0066838744,-0.030064965,0.011424985,-0.0075923996,0.008393593,0.006858291,0.013653805,0.016827313,-0.024175886,-0.025430474,0.042449642,0.015234359,-0.016244262,0.028279677,0.0063269106,-0.007922684,-0.017486513,-0.01867972,0.024387572,-0.021277504,-0.013753338,0.033345215,-0.017080007,0.039120518,0.025324661,0.008966374,-0.0013023203,-0.011180451,0.014160778,0.009435418,-0.018137394,-0.02669194,-0.02527844,-0.005357903,0.0089193955,-0.020007713,0.0058623673,0.020830214,0.012034144,-0.015795399,0.008589757,-0.03403026,0.022904929,-0.025664762,0.001596018,-0.010392623,-0.02628402,-0.026659798,-0.019061033,-0.023436073,0.02298278,-0.008101171,-0.020149697,-0.009098829,-0.02486763,-0.0048886877,0.027373323,-0.028324407,-0.027772643,0.008239711,0.021506822,-0.028444244,0.011300365,0.03340936,-0.006811973,-0.01652544,0.0013992492,0.0072114086,0.002026767,-0.026392285,0.0011600908,-0.020719681,-0.027272183,0.01994262,0.020318083,0.00924902,-0.028382277,0.02457565,0.021917133,0.024096278,-0.0056580147,-0.00934133,-0.0254349,0.022943927,-0.0017535023,-0.031887494,0.031251177,-0.003423457,0.017770126,-0.0023538927,-0.001365822,0.027221411,0.025222128,-0.017874587,-0.000666647,0.017015899,0.003008833,-0.0034037083,0.028458238,0.028450977,-0.008532365,0.024187494,-0.004143663,0.0008154637,0.025339846,-0.0034546608,-0.004149938,-0.010246593,-0.029982742,0.03172476,-0.024946366,-0.023617111,0.004241023,-0.003462685,0.0011156058,0.0025691905,0.031582817,-0.03129477,-0.020574853,0.004131476,-0.03153227,-0.025074784,0.029936977,0.0160605,-0.008068978,0.009354671,0.005506808,-0.003263584,0.026327435,-0.00022910934,0.022330863,-0.024763927,-0.0126015395,0.0051667285,0.01634127,-0.012352828,0.024886021,-0.023509655,-0.011369316,0.02412846,-0.02395022,-0.030045835,-0.008195774,-0.026760792,0.00866756,-0.005899762,-0.009725089,0.016325299,0.0016480649,-0.028924176,-0.030687658,0.02006904,0.013673665,0.017472632
-0.027272258,-0.0063151782,0.027149765,0.025663378,0.021576142,0.029511744,-0.010144496,-0.024780653,0.017811602,0.02022136,-0.009789114,-0.0031243768,-0.0016805915,-0.028478868,-0.0133732455,-0.0102629475,0.0117983855,-0.009409262,0.014813739,0.028804567,-0.0073108072,-0.0076935436,-0.016583819,-0.0020100232,-0.029822815,0.020244075,0.025956878,0.008388883,0.030069135,0.01590415,0.021076938,0.029502938,-0.018630771,-0.0023927074,0.007610773,-0.015403995,-0.0120176785,-0.0024073762,-0.01822193,-0.0148984,-0.026004259,-0.0100799985,0.01815297,-0.014424342,0.011344527,-0.024869742,-0.010204343,0.023054054,0.016491396,-0.04740487,0.010086592,0.0069397204,-0.046663564,-0.03707581,0.0063207936,-0.01811306,0.022163384,-0.02352195,0.021545464,-0.021374138,-0.009712903,0.009958129,-0.041097883,0.0028812126,-0.016398601,-0.03847205,-0.003788079,-0.023913443,-0.019379672,-0.021843746,-0.015340362,0.020490726,-0.0030063735,-0.026877986,-0.005998565,0.00930767,0.04972982,0.056915477,0.007688349,-0.0069785905,-0.035765108,-0.034998883,-0.019840613,0.0013274398,0.029286563,0.003493574,0.009301295,0.008341022,0.0033901029,0.06306349,0.02766148,-0.07456484,-0.07476192,-0.008847718,-0.0057576825,0.014532667,0.012022874,0.007549959,-0.00954378,0.0073522977,0.017073032,0.00049413025,-0.026907712,-0.0702307,-0.09063618,-0.02269612,0.029508997,0.11594125,-0.008718274,-0.030348528,0.025311034,0.039123256,-0.025047824,0.0001331404,0.0062364093,0.019533448,-0.030563993,-0.026466068,0.024842758,0.0994801,0.06348201,-0.017116083,-0.051192585,0.013272506,0.040541023,-0.021704689,-0.02814351,-0.027554521,0.013422257,0.041415334,0.024091104,0.058589097,0.12210709,0.036386717,-0.0066102343,-0.018787945,-0.028633302,-0.040960133,-0.017209282,0.021559058,0.006345813,0.021962186,-0.01836491,-0.015587871,-0.0048024226,0.0026631164,0.032467846,-0.057224188,0.026945515,-0.020300131,-0.019003732,-0.011718864,0.009050202,-0.008324106,-0.027763005,-0.03045988,-0.0129413,0.00072696904,-0.0228466,-0.07686411,-0.11898639,-0.050953943,0.0098397415,0.043810364,-0.010436895,-0.013151403,0.014765333,0.027405428,-0.025845354,-0.015772486,0.0073381695,0.017118376,-0.029984938,-0.04766324,-0.0142354565,0.019865084,-0.039445784,0.003757226,-0.008857557,0.010757965,-0.026481448,0.020590648,-0.01794029,0.0024275824,-0.01726145,0.004141622,-0.010866363,-0.014145789,-0.012443327,0.023718571,0.008163782,0.00041695763,0.05504065,0.013886273,-0.01010501,-0.0015823363,-0.012589946,-0.012772475,-0.010068553,0.007514837,-0.0278951,-0.024821872,0.021309901,-0.008560334,0.004452337,0.0109502515,-0.014551541,0.021425424,-0.0073142396,0.0018463499,-0.02225465,0.01289024,-0.02283485,0.019406358,5.2655214e-05,-0.012727655,-0.013151141,0.012284042,0.051215187,0.017203389,0.017380966,-0.02963559,-0.008369766,-0.01826807,-0.023026252,0.0054211104,-0.011824984,0.0030633998,-0.013326763,-0.034759335,-0.059720084,-0.06183877,-0.0040995837,-0.020085763,0.016145851,0.011323605,-0.02007744,-0.009679719,-0.028759034,0.022369437,-0.0169883,-0.016625285,-0.027814256,0.040535055,-0.012047033,0.02560801,-0.014924744,-0.03435815,0.0014530458,-0.061371133,-0.035286322,-0.0059885755,-0.0035213148,0.010534041,0.024227861,-0.0201733,-0.01378216,0.0010548704,0.044530045,0.048461415,-0.042853303,-0.03977536,-0.016597934,-0.0032302057,0.002160598,0.006502489,0.025696315,0.012737753,0.01242723,-0.001389461,-0.02669811,-0.009493346,0.007007422,0.030646592,0.014297656,0.024272032,0.031061744,-0.046796843,-0.039106376,-0.017782873,-0.0033023169,0.013028274,0.015126598,0.019182868,-0.03943429,-0.012007255,-0.025587732,-0.04555131,0.013071965,0.014935538,0.036766242,-0.022494834,0.011820464,-0.020743761,0.020706674,0.009228278,-0.0075096027,0.022208108,0.009330417,-0.010895766,-0.016235612,0.020430757,0.041156437,0.0075830715,-0.048046373,-0.017162884,0.02158179,-0.010849476,0.024609724,-0.006333757,0.032929935,-0.001950776,0.024611562,-0.007876515,0.061966293,0.0132961115,-0.027905693,-0.03341282,-0.026004063,-0.022175329,-0.02290854,0.011870337,-0.022757353,0.0018165766,0.027059756,-0.031111903,-0.018735902,-0.02738079,-0.019728346,0.00991946,0.013354143,-0.029157726,-0.041291695,-0.014709055,0.0127373,-0.010695157,0.027841637,-0.013374292,-0.01983549,0.00071136357,-0.03115607,-0.029540129,-0.025548037,-0.029599253,-0.03394198,0.048030194,0.01282064,0.022537213,0.020858342,-0.02135063,0.018715432,-0.030862294,0.012085069,-0.019482927,-0.0017549634,0.002875558,-0.033246778,0.0070229084,-0.0075676376,0.00702223,0.047754183,-0.015684225,-0.004451476,-0.027773185,-0.018219406,-0.009148215,-0.018587979,-0.016003598,-0.0042878017,-0.014620835,-0.037289206,-0.0029983446,-0.020108152,0.012852622,0.04078675,0.043085556,0.0106794955,-0.0031185779,-0.0056812987,-0.015263802,0.021866178,0.017179193,0.023364356,-0.0062670982,-0.022744535,0.012260366,0.029370327,0.00027196264,0.030067015,0.023555333,0.01119046,-0.008735884,-0.010712406,-0.0055929217,-0.0023972432,-0.0065746815,-0.031115798,-0.021906227,-0.010137059,0.024551505,0.013212147,-0.028833501,-0.022860248,-0.01873685,0.030296797,0.007908361,0.025587155,-0.025795072,0.029840695,0.025995413,0.0022876316,-0.0145698,0.012570569,-0.017456459,-0.0153527185,0.013838646,-0.025221698,0.0066846297,-0.001817394,0.0002974518,0.0014636813,0.0077022268,-0.019091815,0.012738798,-0.023977403,0.011940709,-0.029028894,0.021629749,0.012884672,0.009827491,0.0054737674,0.006127814,-0.01208896,-0.031265937,0.019103523,0.019345753,-0.005893535,-0.0010089239,-0.017131211,-0.019906392,-0.010127902,-0.010576284,-0.031230189,-0.0371087,-0.024965756,-0.02214255,-0.01942941,-0.0026002836,0.020982146,0.017969754,0.028658032,0.025943095,-0.0069467966,-0.017793728,0.012014587,0.015783008,-0.051597852,-0.043814696,-0.010113836,0.009974818,0.0072335685,0.017873038,0.020632282,-0.017646642,0.012069354,-0.00097111514,0.0009246342,0.035084542,0.037604578,0.0022883473,-0.01624163,-0.021753741,0.016381267,0.018116107,-0.011604692,0.01774204,-0.0071173646,-0.0010563382,-0.013050375,-0.020278882,-0.0019120208,0.014050992,-0.03201395,-0.006658425,-0.0007267859,0.0383842,0.041338332,0.03534223,0.030224625,-0.006132691,0.001032725,-0.010709896,-0.0049532643,2.395063e-05,0.023865506,-0.054993525,-0.016894557,0.05478031,0.089293584,0.012958956,-0.023264874,-0.0068490417,0.027886782,0.024026016,-0.014914108,0.0053350423,-0.033847943,-0.017535755,-0.010605173,-0.016756501,0.06173002,0.0759782,0.012660669,-0.006467207,-0.01927478,0.01635927,0.019354763,-0.0055001564,0.0024337086,0.009952352,0.019440362,0.01518916,-0.019634455,0.015786331,0.019291697,-0.0043479283,-0.015559736,0.02349008,-0.0012206965,-3.6679747e-05,0.008107495,-0.0076765385,-0.022934536,-0.008343573,-0.028493814,0.0056444057,-0.01882356,-0.023344526,-0.09714467,-0.051605754,-0.0011692966,-0.033418685,-0.016064519,0.023158694,-0.028637057,0.022562021,-0.0263335,-0.0062013585,0.017390024,0.017226063,0.0016792201,-0.012343746,-0.04923142,0.026914828,-0.050860398,0.014382164,-0.00085088646,0.014635544,0.005741372,0.02190056,-0.001401767,-0.02565416,-0.023270648,-0.008109647,-0.038632125,0.026624018,-0.019278819,0.008795291,0.018951291,-0.028654473,-0.0064874734,-0.00012326932,0.009831034,-0.011451836,0.017098777,-0.020445755,0.0078109163,-0.03324239,-0.027430462,0.010634855,0.024409844,-0.01735091,0.018484937,-0.0105603235,0.02195094,0.003757849,-0.007057692,0.0060691386,-0.031227851,0.016982755,0.02861461,0.026335947,-0.019195264,-0.013769492,-0.014907987,0.0036287054,-0.02251315,-0.024873046,-0.01333708,0.027057838,0.007499446,-0.029837605,-0.015814593,-0.026217623,-0.0050097555,0.00013829092,-0.020342944,-0.0256881,-0.007982389,-0.0004970518,0.035820846,0.008811705,-0.02001758,-0.03052144,0.0052880333,-0.0054938802,0.0178212,-0.022986647,-0.0036739223,-0.017070746,-0.017027512,-0.02294875,-0.01726153,-0.002976803,0.03666692,0.01983362,0.020421239,0.0062691355,-0.00052704,0.029565178,-0.022959795,-0.032253563,-0.021636445,0.015584631,0.023192208,-0.0496803,-0.037326805,-0.037920687,-0.010968534,-0.033364058,0.011549379,-0.017197657,0.0269953,0.019872189,0.020081356,0.013394733,-0.020053398,-0.033320364,-0.060753845,-0.032606147,0.024699846,-0.0664827,-0.021836944,-0.032838546,-0.041496348,-0.023278872,-0.03176474,0.010345605,0.00023822335,0.02858145,0.026660103,-0.027401928,-0.030177385,0.02139227,-0.019167256,-0.022370221,-0.011924893,0.007166453,-0.026090944,0.01428001,0.0022011667,0.014716998,0.02800237,0.008459714,0.02218754,-0.028386995,-0.0211087,-0.058289614,-0.057535958,-0.022079732,0.0537765,-0.05081369,-0.0062483493,-0.015937587,-0.0044863885,0.02314509,-0.030168237,0.008440646,-0.028531257,0.008249307,-0.07827498,-0.047047067,-0.027385976,0.05045164,0.004950807,-0.009329525,-0.0028415574,0.02901376,-0.015284362,-0.0032341375,-0.030189177,-0.004668424,0.015064169,-0.033072192,0.015307605,0.048372768,0.10846412,0.008311883,-0.035893798,-0.02569954,0.035041198,-0.02294773,0.01762736,-0.02337215,0.023318963,-0.030223688,0.0063038557,-0.022260256,-0.033570766,0.026060183,0.051119365,-0.019378714,-0.005219316,-0.03298458,0.026320748,-0.007922111,-0.017823292,0.010953248,-0.0064781136,0.03218604,0.0104729505,-0.0016606107,-0.0725688,-0.05203169,-0.016653897,-0.059748042,-0.025667831,-0.032847658,-0.02257282,0.0055491715,0.022612026,-0.032435983,0.016486265,-0.024416396,-0.050881132,-0.02350452,-0.06144701,-0.07536494,0.025643986,-0.028093282,-0.018247016,0.018383853,0.012720079,-0.011468946,-0.023983764,-0.0032265394,0.017575374,-0.015373165,0.013669864,-0.045617506,-0.04650977,-0.026552806,0.0051769847,-0.0074063633,-0.003254763,0.02929436,0.024759663,-0.0016267113,-0.018003687,-0.011780065,0.006844028,0.031182205,-0.014517684,-0.02324313,-0.01258907,-0.029055197,0.012611841,-0.021828502,0.026224723,0.03676355,-0.016634876,0.027218943,0.0056613656,-0.021232314,0.010579491,-0.029022193,-0.017019145,-0.02308798,-0.017796466,-0.0069452636,0.007244574,0.006056815,-0.031253025,-0.030615415,-0.0048718248,0.027233386,0.011802875,0.028483292,-0.01516594,0.008873963,-0.027840009,0.016605454,-0.0008073414,-0.002420062,-0.017274506,-0.027904995,-0.01148997,-0.0025044202,-0.016957723,0.013332376,-0.005744717,0.0031226657,-0.02977915,0.008966732,-0.015659576,-0.024181647,-0.01273854,-0.029165104,-0.025008323,0.022056665,0.0247939,-0.019561289,0.008578683,-0.01596842,0.02975498,0.019500462,0.012670535,-0.026075382,-0.015727144,-0.006754158,-0.028757192,-0.021593012,0.009407908,-0.025935952,0.008755414,-0.0012608867,-0.006283624,-0.010906896,-0.019354764,-0.030888002,-0.02180238,0.023916395,-0.0024126503,0.031100724,0.0014668886,-0.0044055306,0.018310126,-0.03109326,-0.019514846,0.018495861,-0.008629668,0.02581699,-0.0026334752,0.022240574,0.0015197531,0.0032843377,-0.027020548,-0.011040981,0.0017192557,0.014359652,0.0058828006,-0.0067470116,6.601115e-05,0.030713959,0.024495283,0.012530283,-0.024628105,-0.011262425,0.02036465,0.028736338,-0.015100733,0.013476135,-0.0076343855,0.019860731,-0.00455583,-0.025097637,-0.031751953,-0.0005077562,0.008870009,-0.019145573,0.025340728,0.015279438,0.019232377,0.014701965,-0.030846125,-0.00587755,0.016658483,0.015579165,-0.02912571,-0.018123386,0.023281928,-0.026565293,0.024790995,-0.007627015,0.00058168714,0.015322575,0.008568692,-0.020501131,0.0104066385,-0.027489698,-0.016103307,-0.005651439,-0.0064101354,0.023297971,-0.017408177,0.026602302,0.012374062,0.007758966,0.023796545,-0.022198772,-0.027554492,0.0011687613,0.015718974,0.016107263,0.0013546238,0.030571276,0.011326179,0.01372303,-0.015894758,0.009671483,-0.012565861,-0.027065372,-0.021389617,-0.01952745,-0.004847233,-0.0133992275,0.029336734,0.013234295,-0.026540175,0.0014378508,0.027535578,-0.0016275309,0.0057507292,0.007855938,-0.009279288,-0.018966682,-0.011520979,-0.008427951,0.025105806,-0.025999276,0.0042743264,-0.012219205,-0.0034217008,-0.0028751148,-0.012593951,0.0069273943,0.0073975343,-0.017167022,0.021560177,0.030079897,-0.01279328,0.0066730403,-0.01185901,0.021866359,-0.0024981603,-0.02849636,0.0073131737,0.026347715,-2.1395188e-05,-0.008440522,-0.00093995937,0.018686904,0.027693493,-0.00747398,0.017360957,0.017790778,0.028508885,0.022852045,-0.026415559,-0.026414726,-0.026589764,0.020082504,-0.016244866,0.017577887,-0.004873876,-0.013096531,0.024046581,-0.006048223,-0.017258909,-0.0049300175
