-0.011901421
-0.07690284
-0.06522358
0.112568565
-0.1203218
-0.064070635
-0.14534384
-0.022127425
0.070200555
0.12543505
-0.0020217109
0.20332833
0.016304603
-0.12724033
0.041198503
0.021099804
-0.09223134
-0.034803107
-0.029153872
0.0043217046
0.056279585
-0.0729087
-0.051276606
-0.025259733
-0.066780426
-0.030036787
0.04442873
0.037786268
0.06496592
-0.033193815
-0.008710438
-0.0039392915
-0.03549242
0.004840239
-0.037377678
-0.064247176
-0.061321523
0.06833984
-0.10645051
-0.018746035
-0.009946594
-0.06871644
-0.085364625
0.020962078
-0.0059705754
-0.0048921574
0.021184491
0.15013017
0.0043662232
-0.0008500408
-0.059782047
-0.0073050163
-0.03953934
-0.06691265
-0.07738999
0.12170823
0.09064042
0.04502169
-0.03824623
-0.021375475
0.027346658
-0.06763506
-0.001898463
0.032447502
0.06424227
0.017750414
0.08302132
-0.02524388
0.15812342
0.00051878724
-0.0038860363
0.08334644
-0.10190522
0.0075485413
0.05566585
0.006791851
0.1453305
-0.02898591
0.047015667
0.110678904
-0.10394309
0.009766149
-0.03075796
0.02759936
-0.013812409
-0.043958083
0.05166984
-0.05209206
-0.041062444
0.00678227
0.01123481
-0.037290704
0.071557984
0.048223972
0.06046927
-0.11690777
-0.031146478
-0.0035672449
-0.020094601
0.007977122
