-0.16670936,-0.22824699,0.19848289,0.14682685,-0.16852008
0.17305845,-0.17290266,-0.17043287,0.18941182,-0.18209489
0.1712746,-0.18621315,-0.16187546,-0.15090726,-0.20024768
-0.17732152,-0.17694926,-0.16972955,-0.17221132,-0.17279938
-0.2199644,-0.19530863,-0.20995115,-0.1506013,-0.20473568
-0.16813703,-0.17579988,0.20346327,0.19836462,-0.19171518
0.17313531,-0.14384533,-0.17696182,-0.15413147,-0.17299727
0.23099352,-0.17540696,-0.20257044,-0.18020575,-0.22058152
-0.16110191,-0.2194277,-0.16318619,-0.1719914,-0.23210402
-0.20306757,-0.19708394,-0.20367125,-0.17569385,-0.21092539
0.22590092,-0.19507496,-0.16557825,-0.2080461,-0.21380432
-0.15202789,0.14680828,-0.18948662,-0.21074614,-0.20580195
-0.1910205,0.2007802,-0.19241048,-0.18126486,-0.14731002
-0.1797233,-0.1589655,-0.19948487,-0.1980567,-0.22396252
0.16432261,-0.20400634,-0.17780016,-0.1975902,-0.22705796
0.17238808,0.22711074,-0.20695709,-0.21990918,-0.16717382
-0.20138203,0.17731568,0.15077747,-0.22149755,-0.17811306
-0.16012497,0.16545166,0.17316423,-0.17227305,-0.14695956
-0.19792522,-0.23105054,-0.1565412,0.14816321,-0.21030691
-0.2183467,-0.16717267,-0.16186824,0.2293004,-0.18412282
-0.2176658,-0.15642859,-0.15537299,-0.17423134,-0.17463002
-0.2215246,-0.19756107,0.22954607,-0.18078223,-0.23128653
-0.14472742,0.21724561,0.21846943,-0.16312328,-0.16726081
-0.14588518,0.20514393,0.14626727,0.1648717,-0.17332491
-0.22627051,0.15412991,0.15371515,0.15874411,-0.16924794
0.2177528,-0.21293838,-0.20976746,-0.19784482,-0.20341296
-0.1998939,0.1822807,-0.14590694,-0.23128876,-0.17831427
-0.20578434,-0.21684542,-0.17562257,-0.16168632,-0.14754926
0.1641501,-0.19107004,0.15276244,-0.21246141,-0.18345287
0.21155635,-0.19662881,0.21515296,-0.18772458,-0.19982876
-0.17721476,-0.151168,-0.16923688,0.17073745,0.1669804
0.2299623,-0.15260191,-0.15649949,0.16085228,-0.23130567
-0.21926461,0.20363565,-0.14517653,-0.20726618,-0.23202232
0.14558129,0.20452294,0.21871005,-0.19640885,-0.18641606
-0.22009745,0.16719086,-0.21733166,0.2167132,0.17876418
-0.20625418,-0.19251204,0.207838,-0.21245182,-0.19400345
0.20662642,-0.1929561,-0.17317833,-0.21770275,-0.1901849
0.16595721,-0.1464953,-0.23233761,-0.21015656,-0.20532411
-0.16792485,-0.20762378,-0.21586426,-0.19027394,-0.2019827
-0.14423317,-0.16015974,-0.15269065,0.15018116,0.17608547
0.15336978,0.22802071,-0.16114525,-0.22263953,0.15460198
-0.16544591,0.16466238,-0.17337155,-0.22694203,0.15191327
-0.20287094,0.15243235,0.21516043,-0.22182328,-0.2023004
-0.23137519,-0.14660354,-0.18035002,-0.21483132,-0.19745463
0.200653,-0.20292032,-0.15196948,-0.19794314,-0.1457991
-0.16326393,0.21922289,0.1888436,-0.19916502,-0.16855991
-0.15957108,-0.18152723,-0.17870553,-0.14917174,0.16338223
-0.19729263,0.19065395,-0.19284207,0.16195214,-0.17332391
-0.17905515,0.1605846,-0.19019169,-0.18253961,-0.1922087
0.20143087,0.1465175,-0.19383428,-0.15466869,-0.18642443
0.18237917,-0.19989394,-0.19457401,-0.19292925,0.16586976
-0.21957052,-0.1914931,-0.14332357,-0.15394472,-0.18549554
-0.16830026,-0.17783228,-0.21060865,-0.17152433,-0.16723567
-0.19063078,-0.16100182,-0.16986996,-0.20886463,0.2004998
-0.16725722,-0.15233964,-0.21814217,-0.22890484,-0.20518112
0.0037748853,-0.03527996,-0.011053383,-0.032713827,-0.03384975
0.0135743,0.021836486,0.0060255853,0.03102284,-0.010717614
0.0057846312,0.032982368,0.03704431,0.012803275,-0.038181886
0.010816891,0.032226827,0.015234159,-0.04404825,-0.01461574
-0.022912491,-0.040250465,-0.03720757,0.028907038,-0.028650748
-0.21462655,-0.2071327,-0.1924258,-0.1610494,-0.23172766
0.1676441,-0.19496176,-0.17526218,-0.21248335,0.17550662
0.16361718,-0.19770889,-0.16455182,-0.2065803,-0.19367974
-0.21696366,-0.17517716,-0.2163922,-0.17730474,-0.23219019
-0.17020103,-0.17155854,-0.22159202,-0.19336185,-0.21449384
-0.021356555,0.02071954,-0.025536727,0.025248384,0.022602994
0.040097,-0.016735036,-0.039663203,0.028948922,-0.010522902
-0.017604833,-0.021193067,0.04158946,-0.034796845,0.009713285
0.008887678,-0.017435376,0.02544348,0.025874492,0.03008533
0.012050515,0.011881873,0.012666658,-0.0142559055,-0.035733074
0.18893902,0.19180259,-0.16003384,-0.18011315,0.1889145
0.17181446,0.22509773,-0.14812085,-0.14368232,0.18480627
0.16570869,0.15145747,0.14364126,-0.22342832,-0.20196052
-0.15278223,-0.2288787,-0.20097926,-0.16970943,-0.1666626
0.18963188,-0.19770762,-0.1855434,-0.21569367,-0.1656385
0.21379073,0.19515628,0.2190561,0.21399833,-0.22955114
0.17007811,-0.22574541,0.20395505,-0.22777455,-0.17694567
0.15132014,-0.1648527,0.15701506,0.1473649,-0.20572299
-0.17287424,-0.20678106,-0.17096896,-0.18623486,-0.21197808
-0.19013283,-0.1592973,0.16025676,0.22670816,0.20008063
-0.16441913,-0.19627655,0.22095042,-0.22103013,-0.20571825
-0.1596041,-0.21171091,-0.15026581,-0.20387882,-0.2300225
-0.14547302,-0.15116543,0.20609906,-0.22549349,-0.17799614
-0.19829142,-0.14460553,-0.17724942,0.1841381,-0.23216958
-0.20407534,-0.15416484,0.153282,0.19217612,-0.222387
-0.19169912,-0.19804221,0.18171662,-0.18927012,-0.20045017
0.1710454,-0.16602178,-0.18133281,-0.20982689,0.21064588
0.23161323,-0.16309763,-0.16793345,-0.19568883,-0.15451801
-0.20481619,-0.16545047,0.22869359,0.1825472,0.16370606
-0.17408225,-0.19374008,0.21340965,0.16813755,0.21883303
-0.15603553,-0.16469455,-0.18090615,-0.20339432,-0.15569742
-0.19503173,-0.20298712,-0.15283906,-0.19853382,-0.16723284
-0.16863987,-0.20468691,-0.15805298,-0.19114794,-0.16412187
-0.21701641,-0.17221563,-0.15123965,-0.20789212,-0.1455603
-0.21548682,-0.17382254,-0.17343187,-0.1874841,-0.17199163
-0.17537776,-0.20745867,-0.22418295,0.15527183,-0.18865404
-0.18744706,0.18216082,-0.18871354,-0.22556657,-0.2291318
-0.204013,-0.22685164,-0.16510649,-0.20166147,-0.20849179
-0.18228802,-0.17861056,-0.16438116,-0.18583693,-0.1722496
-0.17681344,-0.14897436,-0.17485417,-0.1708925,-0.18627791
