-0.0304794,-0.049458995,0.045292284,0.0039374297,-0.105788745
0.038743816,-0.07864717,-0.036167055,-0.017720524,0.033623178
-0.00038036928,-0.020393835,-0.0460283,-0.012118344,-0.07013355
-0.013060731,0.016685221,0.04393493,-0.03030062,0.038399436
-0.07416872,-0.0025704512,0.0980134,0.13666959,-0.032356095
0.025240615,-0.05042068,-0.043388642,0.03264507,0.060676668
-0.0455031,-0.0375065,-0.09251704,-0.03812247,-0.007507673
-0.06530867,-0.09805738,-0.10306634,-0.056615807,-0.0030875613
-0.06306831,-0.12033106,-0.0640479,-0.08036611,-0.052283358
-0.0065962565,-0.061857086,-0.047036525,-0.12223313,-0.09501964
0.0378423,-0.0007053206,-0.06866576,-0.041534517,0.017260574
-0.031536028,0.05166024,-0.036079995,-0.08594097,0.019606737
-0.046198122,0.032317866,0.10552718,0.052365676,-0.0144351525
-0.06757653,-0.047615793,-0.07555568,0.027577305,-0.06163913
0.07605372,0.08514993,-0.053084075,-0.06526144,-0.11135111
0.062023975,-0.074107185,0.025940616,0.035207193,0.069328316
0.009637186,-0.015372179,-0.069392994,-0.037200663,0.0133192055
-0.04556408,-0.05791464,-0.010523051,-0.016965622,-0.055814162
-0.024560105,-0.049668748,-0.018680912,-0.08210851,-0.0166992
-0.10492912,-0.031966023,-0.011705404,-0.104521684,0.0024390207
-0.064616464,-0.04027436,-0.028385941,-0.061319843,-0.0145735545
-0.058316164,0.0033190493,0.03774947,-0.041150812,-0.048810758
-0.0542225,-0.07358875,0.003084305,-0.015842048,-0.087542154
-0.007151738,0.018528722,-0.0126511585,0.014803165,0.016930647
-0.012641695,-0.073479645,0.00823204,-0.05172994,0.01753299
-0.0028682228,-0.0004256904,-0.0391618,-0.060136862,-0.03737497
-0.012474746,-0.09646819,-0.04324092,-0.024163758,-0.040581763
-0.06857341,-0.07044953,0.019795239,-0.0065404153,-0.035332866
-0.00082608865,-0.121553995,-0.0515711,-0.025140064,-0.13238278
-0.05876834,-0.026966138,-0.11426063,-0.1015071,-0.039839715
0.0050655957,-0.010774589,0.003560829,-0.07408284,-0.04282725
0.0052582123,0.011082721,0.058005974,0.009576617,0.0403914
-0.0009563831,0.019435938,0.070399165,0.043571662,0.032303672
0.030658577,-0.022858594,0.05790025,0.064892665,-0.03191847
-0.020306757,-0.037018616,0.015014032,-0.040086538,-0.014406132
-0.0278903,-0.05921108,0.03259542,-0.025741946,0.06729329
-0.0625896,-0.0027826997,0.021531057,-0.044017542,0.046568252
-0.04765805,-0.049041137,0.011003192,0.022414152,-0.044324163
-0.0019237306,-0.06999973,0.019894412,-0.055382345,-0.02310254
0.022234075,-0.076716214,-0.06788131,-0.017953435,-0.02771163
0.023424657,0.055424776,0.0011795579,0.03107771,-0.026385209
-0.06463041,-0.0053963508,-0.0092483815,0.040595423,-0.020169707
-0.08155182,0.03382333,0.026000211,0.09820861,0.043532204
0.031329576,0.018390467,-0.03757824,0.15423866,0.014733558
-0.049623985,0.013043213,-0.106544994,0.054168824,-0.030963002
-0.029309092,-0.063436374,-0.019348443,-0.077016465,-0.018640218
-0.039680813,-0.016937213,-0.002390858,-0.06554414,-0.02474932
-0.068026416,0.0122045865,-0.0033902503,0.0064977594,-0.041099604
-0.016274953,-0.0091527505,0.08718473,0.02609402,0.024322527
-0.026199635,-0.068088986,0.060327243,0.036348965,-0.0070163775
0.028714025,1.7314253e-05,0.03344325,0.035096455,-0.04678335
0.11705467,-0.07621181,-0.033610467,-0.028148524,-0.007093
0.08504891,0.18776251,0.013429161,-0.01270304,0.08272713
0.03462332,0.0025811805,0.20160572,0.021106984,0.09439862
-0.051870424,0.023468137,0.21002296,0.021171726,-0.09800874
0.009858187,-0.008095679,-0.001896064,0.041481107,0.03584041
0.032622125,0.005186679,-0.07092081,-0.04096171,-0.012057104
-0.049299065,-0.012903614,-0.025595678,-0.028426759,-0.04585029
-0.061862946,-0.014628739,-0.019745652,-0.06027545,-0.09244428
-0.08126737,-0.031477522,-0.027220124,-0.13170744,-0.09816029
0.028823176,-0.006009176,0.009977053,0.029929545,0.002124991
0.07388915,0.063406646,-0.08545367,0.071693674,0.023976168
0.015927983,0.049547907,0.043330397,-0.022284493,0.071647
-0.0011647323,-0.008218109,0.07546804,-0.01631561,0.08134514
-0.0509424,-0.0244289,0.03780368,-0.07754998,0.0075607724
-0.03698923,-0.018816734,-0.0242007,-0.026807887,-0.037217084
-0.038104504,-0.012276991,0.004906934,0.04371698,-0.029116064
0.008688081,-0.015997732,0.002923979,0.0060007405,-0.008021192
-0.002021434,-0.059291266,0.07697917,-0.030632574,0.035897136
0.029426515,-0.021999672,0.07057947,-0.05829761,-0.0491436
0.009983213,-0.007841972,0.011163122,0.027856132,0.0012604328
-0.020777384,-0.0009117089,-0.053715397,-0.07186559,-0.060311776
-0.006389417,-0.011206812,-0.0005565575,-0.050521486,0.0080669345
-0.044988897,-0.0039777094,-0.025841348,0.054813296,0.045473628
0.019745467,-0.049455326,-0.05864564,-0.021862041,-0.048222385
-0.027599255,-0.0128301615,0.01717676,-0.048604377,0.023722328
-0.012749779,0.022576008,0.031121487,0.07830268,0.02217567
0.022294383,-0.050920274,0.01615365,-0.022725264,-0.054542698
0.010962014,0.0019008758,-0.040106304,-0.047558744,0.018473553
-0.013320912,-0.04199367,0.0061624325,0.005870157,-0.051192783
-0.00466247,-0.005153785,0.016546516,0.034804057,-0.025972394
-0.020291293,-0.024909548,0.023806324,-0.017842295,-0.01665649
0.058836766,-0.00045011353,0.006685864,-0.041063014,-0.0046509877
-0.019843897,0.03398732,0.005193815,-0.035661556,-0.053496715
-0.019003287,-0.009451923,0.008999078,-0.050459605,-0.039218385
-0.14720808,-0.048214134,-0.06989788,-0.010710538,-0.03419194
-0.09953238,-0.12779133,-0.08821564,-0.0171295,-0.073445104
-0.0333683,-0.079869606,-0.03622991,-0.026246084,-0.15713492
-0.04255515,-0.07166325,-0.08745811,-0.122522645,-0.08265817
-0.007295362,0.005722269,-0.0036349988,-0.012001311,0.095932946
0.008575563,0.018677885,-0.029560046,-0.016643722,-0.07282023
-0.0038953114,0.00054668216,0.032024205,-0.0305496,-0.004461108
-0.02537853,-0.029619643,-0.059312373,-0.036432534,0.028146148
-0.055317488,-0.05452738,-0.021054385,0.018917149,0.03962691
0.034342863,-0.03168387,-0.023812288,0.09012381,-0.012425523
-0.04620302,0.024222001,0.052405737,-0.014724749,-0.07943947
-0.07414081,0.03315813,-0.0078208,-0.065768436,-0.020151626
-0.05965335,-0.010371556,0.0049257153,-0.001140728,-0.03156801
-0.04018907,-0.10049336,-0.050583377,0.050397854,-0.044640515
-0.038838785,-0.1323024,0.022603769,-0.032005914,-0.007664298
