-0.33267784,-0.27783465,-0.21390611,0.19283439,0.21789388
-0.19905551,-0.21374147,-0.18228315,-0.007791441,0.358188
-0.005013413,0.074367866,-0.1729255,-0.36683097,-0.080893934
0.143128,0.13245745,0.053745158,-0.078235716,-0.2000271
0.10148143,-0.14529271,-0.06889039,-0.026893534,-0.064822875
-0.06371816,-0.12777536,-0.15907611,-0.088184685,0.059932668
-0.024554294,-0.058600184,-0.08802743,-0.13328135,-0.11311218
-0.030854572,-0.09661781,-0.090131864,-0.008213934,0.027976798
-0.0113637755,-0.037620477,-0.19484784,-0.12951969,-0.072271205
-0.0019036027,-0.11514488,-0.09061123,-0.069370806,0.0047673183
-0.003497766,0.12842397,-0.01452314,-0.047245182,-0.05075385
0.008568099,0.15760577,0.23232667,0.13336758,-0.1510297
-0.05831144,0.004793893,0.17355439,0.20747079,0.07083055
-0.08332114,-0.19661056,-0.13617982,0.014319967,0.079292186
0.03151047,-0.035567217,-0.16327354,-0.10795155,0.014579283
-0.0090975715,-0.037745744,-0.09019628,0.03819925,0.08413657
0.06608185,0.05870164,-0.0175071,-0.06642343,-0.07948619
0.07007639,0.06378432,0.014769741,-0.069244854,-0.052451856
0.0078471545,-0.030575668,-0.04979701,-0.06859247,-0.03659288
-0.06663082,-0.041813433,-0.11720797,-0.03045585,0.04518754
-0.15918772,-0.059063658,-0.07945831,0.056458253,0.040789146
-0.18926476,-0.1726729,-0.052554782,-0.18736073,0.010325412
-0.017105268,0.036945373,-0.10301458,-0.13752449,-0.04759981
0.058702145,0.08941316,-0.005030703,-0.12741864,0.014269979
0.000639826,-0.019402355,0.08144982,-0.04045046,-0.022590077
-0.108311914,-0.064081214,-0.008565402,0.04849496,0.07334813
-0.16018711,0.023848813,-0.0041841026,-0.15396138,-0.09567894
-0.06291824,-0.055554304,0.035471305,-0.01593255,-0.05868547
0.008850145,-0.17039216,-0.12789138,-0.14603966,-0.025050728
-0.105966724,-0.07838944,-0.081050515,-0.064750716,-0.036217503
-0.00059638545,0.026792213,-0.12609816,-0.11493091,0.030084984
-0.030084403,0.0077566938,0.09879485,-0.07058201,-0.04123986
-0.11829993,0.0678675,0.24343674,-0.04661831,-0.12808485
-0.0563197,-0.09845863,0.1100938,-0.06576308,-0.064891316
-0.06937381,-0.06815452,0.05027943,-0.03630463,-0.013189795
0.022941519,-0.00848981,-0.035212964,-0.04959148,0.009533447
-0.08774334,-0.04340809,-0.014296963,-0.06984003,-0.09502147
-0.048119947,-0.07413932,-0.064270586,-0.110090196,-0.062772706
0.018765237,-0.014689657,-0.07401636,-0.060100976,-0.013258822
-0.024634812,-0.055195104,-0.041459665,0.0035184796,0.037163656
-0.024522802,0.005577702,0.04410624,-0.11075224,-0.11631254
0.018383792,0.058979236,0.10820651,-0.012028024,-0.11952563
-0.0030785068,-0.13053927,0.07198877,0.16389653,0.024297392
-0.036473777,-0.14639175,-0.1717155,0.106156856,-0.0012852554
-0.0033259608,-0.081990734,-0.058183916,-0.022186702,-0.03969677
-0.015428498,-0.041349452,-0.08542256,-0.15115683,-0.021651473
-0.10670621,-0.14548926,-0.074656665,-0.14448754,-0.10291647
-0.068733476,0.011264733,-0.016612181,-0.1252239,-0.065273434
-0.028173558,0.06774657,-0.0028223249,-0.1020402,-0.12098955
-0.011625572,0.005975532,0.043694284,0.012608073,-0.02376648
-0.03251129,-0.19573912,0.0046896194,0.26780397,0.13892514
0.031084146,-0.054246668,-0.039606206,0.103930265,0.30118152
0.111222126,0.18799515,0.025592541,-0.0010498313,0.073197395
-0.07133622,0.08154568,0.051246446,-0.155939,0.004382033
0.0110244015,0.013790995,-0.012116448,-0.042253226,-0.046210635
0.032708347,0.00804104,-0.068408,-0.040554848,-0.018620454
0.072190866,0.08334506,-0.03295524,-0.035585817,-0.07209883
0.03657323,0.0074235224,0.03336218,-0.01310135,-0.020320063
-0.056570783,-0.06732659,-0.063558966,-0.09588095,-0.008439024
-0.027696686,-0.109026864,-0.09168366,-0.051343087,0.017679214
-0.03814076,-0.116467185,-0.1793128,0.047226544,0.12106244
0.0072668907,-0.04306225,-0.095721446,0.013771361,0.08290522
-0.012477279,0.025618501,-0.08718354,-0.041125473,0.033470627
-0.0634718,-0.017646275,-0.013785839,-0.0644056,0.027176091
-0.031138353,-0.025486164,-0.003632751,0.060709983,0.06395054
-0.027026638,-0.0693654,0.02003254,0.044028647,0.052177805
0.0030739135,-0.060831573,-0.067606516,-0.011104475,0.072976194
-0.052481744,0.066000834,-0.031749517,-0.022500707,-0.05075888
-0.010831617,0.048830997,0.09614732,-0.061869834,0.060607135
0.0021858641,0.05167907,0.013018442,0.024301086,0.029535685
-0.028677288,-0.0037199082,-0.0030364876,-0.024118414,0.045527935
-0.01631593,0.024357673,-0.01383171,-0.062257614,-0.11234148
0.0045524584,0.06730246,0.10600911,0.055043094,-0.12129557
-0.03801518,-0.0651568,0.025992148,0.0932883,0.041928165
0.022109995,-0.12797728,-0.015867984,-0.036935065,0.013245048
-0.005774532,0.07030476,-0.0147154275,-0.01719145,-0.050623093
-0.10374587,-0.14174476,0.070295446,0.015200968,-0.029920654
-0.001654997,-0.051991303,-0.09587418,0.002296393,-0.033357635
0.12752366,0.017474346,0.017788172,-0.05495856,-0.054676488
0.027061302,-0.051096965,0.050903454,0.0008137028,-0.0547796
-0.038582634,-0.017047897,0.054380335,0.027569657,-0.034681827
-0.028526952,-0.016236046,0.01269257,0.04387705,0.0035460258
0.006068549,-0.020109737,-0.0128862085,-0.01692107,-0.03055291
0.061523005,-0.004105115,-0.002579006,0.006333712,-0.01382583
-0.016763598,-0.037675064,0.024601404,0.003907852,0.016712477
-0.17202361,-0.15855232,-0.024541086,0.03769438,-0.016653549
-0.24339059,-0.19641143,-0.15652595,-0.21487328,-0.05883187
-0.1291809,-0.1337734,-0.19578697,-0.10827653,-0.0399019
-0.04603754,-0.13421254,-0.0076999534,-0.005555988,-0.021565542
0.024102688,0.13699442,0.071571365,0.018354785,0.11272568
-0.0011843806,0.043981727,-0.10802065,-0.23671198,-0.12933323
-0.02194264,-0.080159605,0.005510353,-0.14986292,-0.1485277
-0.08824377,-0.10519434,0.06033934,-0.07499681,-0.17696378
-0.057573043,-0.09119801,0.05006118,0.11692488,-0.045217674
0.0707486,-0.12290559,0.037132468,0.061624,-0.047060113
-0.013237877,0.03222373,-0.31042737,-0.26428434,-0.06957753
-0.07406218,-0.100784004,-0.002924826,-0.23328373,-0.1638179
-0.15078776,-0.054681927,0.14108984,-0.16788103,-0.13316798
-0.076464064,-0.075912364,0.08504415,-0.06407625,-0.14612462
-0.0010557481,-0.094241805,0.088470586,0.025786214,-0.0070015364
