-0.093909435,-0.06545311,-0.018095002,-0.06833256,0.012614687
-0.18398522,-0.22018553,-0.123980984,-0.027670924,0.0069435993
-0.1482849,-0.17820822,-0.0402761,-0.067894995,-0.039896242
-0.11082737,-0.11407998,-0.036172327,-0.083319984,-0.024856545
-0.041529838,-0.021972593,-0.008800345,-0.030647736,0.10618956
-0.1430244,-0.17042795,-0.12885109,-0.043517224,-0.0034520242
-0.10642424,-0.118228346,-0.0829076,-0.032807577,-0.03136773
-0.09029739,-0.11060159,-0.07511052,-0.0030835269,0.0129177235
-0.044606112,-0.046672963,-0.0241625,-0.0072079767,0.1095324
0.015372231,-0.016227059,-0.036677793,0.013353419,0.07224796
-0.17326981,-0.21827535,-0.17518345,-0.069946446,0.09487722
0.24733554,0.04638788,-0.15378062,0.007141754,0.057044107
0.18945642,-0.11387388,-0.017625563,0.08053917,-0.016252287
-0.09740945,-0.12682012,0.058873765,0.06878493,-0.026509292
-0.07117073,-0.10506961,-0.050897546,-0.1796497,-0.0080551
-0.18098988,-0.14870434,-0.16776793,-0.20561734,-0.13666025
-0.13062273,-0.12061985,-0.11689659,-0.1730511,-0.13591671
-0.19837512,-0.22731724,-0.14596231,-0.13123935,-0.14148335
-0.18267326,-0.13341886,-0.11563051,-0.13483773,-0.14669329
-0.14731988,-0.1580321,-0.10167609,-0.13097192,-0.060996857
-0.12846635,-0.09552738,-0.1416582,-0.16214901,-0.14197847
-0.190219,-0.13801411,-0.14735639,-0.20221706,-0.13941436
-0.1302022,-0.105762206,-0.11981521,-0.16323781,-0.17418225
-0.11338731,-0.099676356,-0.07365389,-0.092538804,-0.070022985
-0.07792638,-0.008278326,-0.033279277,-0.0781901,-0.102132365
-0.14887075,-0.012844292,-0.18308172,-0.13096221,-0.15650994
-0.08749464,-0.16807391,-0.19138844,-0.112306856,-0.11568794
-0.14263661,-0.18378025,-0.06466165,0.042427953,-0.1509995
-0.24089792,-0.115754895,-0.08264555,-0.16753201,-0.0882259
-0.10903571,-0.099965684,-0.119910054,-0.08264821,-0.14666118
0.13628675,0.2055331,0.21532436,0.18183725,-0.1415217
-0.20937231,-0.17022906,-0.1296106,0.14344627,-0.04234982
0.17676017,0.011936726,-0.12913087,-0.18648438,-0.13634218
-0.14132394,-0.21788174,0.1312053,0.037931334,0.15549524
-0.16512989,0.18949589,-0.16341877,0.18889923,-0.15580209
-0.21724562,-0.16402358,-0.117126815,-0.05782397,-0.053134583
-0.14848009,-0.159938,-0.10604067,-0.04530198,-0.07372765
-0.102635816,-0.06162319,-0.049334407,-0.090667866,0.02889083
0.015073314,-0.059392598,-0.010251817,0.06940464,0.10827292
0.03460736,-0.013512459,-0.052203264,0.027990725,0.10976608
-0.03209489,0.1471049,0.2544695,-0.13303176,0.15830278
0.0071614888,0.014530335,-0.14604867,0.21147625,0.23290901
-0.015921857,-0.0012642145,-0.042871486,0.14689264,0.14944258
0.02665458,0.007718722,-0.17378435,0.029501757,-0.0041054785
-0.13905922,0.04205477,-0.036313377,0.03551745,0.21593334
0.19517618,-0.15000923,-0.13900736,0.24104446,-0.19895342
-0.19513752,-0.13154484,-0.17739475,-0.17911732,-0.08742669
-0.063190475,0.22173862,-0.1718937,-0.19313604,-0.10561913
0.20747067,-0.16776082,-0.13176067,-0.1300918,-0.08772634
0.12619403,-0.19664647,-0.1872983,-0.13548453,-0.2813141
-0.13691355,-0.13223784,-0.082211584,-0.13048294,-0.10635325
-0.096171744,-0.110565364,-0.019376997,-0.08291828,-0.099327505
0.0056023733,-0.019885737,-0.03788071,-0.08140441,-0.007086836
-0.077040665,-0.062479775,-0.059028782,-0.019335708,0.029783562
-0.09964441,-0.034726877,-0.11386217,-0.09785451,0.037732072
-0.04173246,-0.04349259,0.025847148,0.024850987,-0.017116047
0.031610746,-0.029415257,-0.021030897,-0.006437693,-0.01496953
0.028915403,-0.041565545,0.036210023,0.025615064,-0.02465668
-0.023570111,0.0069568185,-0.0034003844,-0.039656036,0.03658665
0.035188846,0.035786375,0.021235188,-0.031132314,-0.023531951
-0.03911635,-0.060389634,-0.06875939,0.015302907,-0.07314031
0.021743989,-0.094740845,-0.054093305,-0.034411762,0.044635355
-0.08145188,-0.11262754,-0.05373372,-0.12803176,0.030294139
-0.040358324,-0.01934096,-0.059382748,-0.024320548,0.047645755
-0.015778383,-0.039432585,-0.10519225,0.042307965,0.063152276
-0.039079163,0.028907822,0.040562917,0.04153542,0.023867534
0.04110717,0.012623236,-0.03901897,0.01330235,-0.034198023
-0.042128354,0.017304447,-0.023685789,-0.03230776,0.042234056
0.014252227,0.019109389,-0.013347762,0.01672365,-0.00070393184
-0.010445104,-0.00853294,0.03318919,-0.030578323,-0.013787857
0.16855843,-0.05491693,0.028797077,0.01974275,0.04427436
0.116269656,-0.17360668,-0.28152895,-0.16530688,0.0169829
0.0063592982,-0.15889537,-0.11797776,-0.050729282,-0.07966929
0.080490045,-0.17640525,-0.13361406,-0.07357436,-0.06994525
-0.11773281,-0.12274845,-0.054667745,-0.15906122,-0.1469246
-0.11787334,-0.1195186,-0.02792226,-0.041542597,0.06369776
-0.1843812,-0.21261778,-0.117720336,-0.038614016,-0.061092246
-0.22613886,-0.19179627,-0.07833458,-0.14835756,-0.07650533
-0.14630951,-0.16083929,-0.13496616,-0.11091777,0.05712584
-0.11871514,-0.042862635,-0.05201356,-0.0022595,0.16387838
-0.22806051,-0.18657732,-0.20409429,-0.14271976,-0.1886486
-0.20233183,-0.1549885,-0.18608426,-0.16639265,-0.20137098
-0.20481266,-0.21119846,-0.18050584,-0.07455139,-0.108909085
-0.18969744,-0.18671958,-0.1085476,-0.15740642,-0.10419093
-0.12653367,-0.119567476,-0.17004332,-0.10974138,-0.09928165
0.14576907,0.21740223,-0.14297336,-0.041935746,0.18488355
0.1903622,-0.19599006,-0.06363684,-0.14098118,0.15976845
-0.135533,-0.10754441,-0.11578917,0.14013882,-0.18939175
-0.11348094,0.23820756,0.21350375,-0.21751387,-0.16247572
-0.08943367,-0.04410889,-0.15016387,-0.16361326,-0.14389579
-0.059014887,-0.13033392,-0.14724836,-0.0842,-0.08421942
-0.019601278,-0.070478834,-0.06819875,-0.15307292,-0.10404207
-0.14036953,-0.08250426,-0.042970713,0.05389339,-0.106333874
-0.14813247,-0.058273856,0.019181423,-0.05473162,-0.10088794
-0.041282073,-0.06012737,0.11834381,0.01620088,-0.08936442
0.22408696,0.23186855,-0.1225267,-0.004686404,-0.07797422
0.17168067,-0.18591215,-0.10148823,-0.13599494,-0.09421231
-0.13023627,-0.11230542,-0.11205599,-0.09844162,-0.13611189
-0.123477206,-0.06691818,-0.11780434,-0.14121546,-0.07131644
-0.16485846,-0.108211845,-0.14894064,-0.16841859,-0.09730264
