-0.27998784,-0.21693192,-0.21912368,-0.26828647,-0.26525408
-0.16189723,-0.05402197,-0.033733197,-0.17748795,-0.23316076
-0.134792,0.018203987,0.18932092,0.31685427,0.15180393
0.15315953,0.10954746,0.2620651,0.08882893,0.091139555
-0.42997134,-0.42817962,-0.14554302,-0.053318575,-0.074286945
-0.06723446,-0.017760172,-0.008029464,2.9844557e-06,0.045824654
0.027750077,0.027676266,0.028981848,0.090643905,0.031521577
-0.06705104,-0.07504018,-0.12688226,-0.06205736,-0.20514579
-0.018641219,0.001472075,0.10185657,0.13086294,0.15595692
-0.08876498,-0.04692667,0.02891187,0.079894505,0.13633786
-0.029273018,-0.04054148,0.083360605,0.11558847,0.10472806
-0.13716194,-0.08093909,0.10555982,0.17594934,-0.010455254
-0.1137925,-0.116210885,-0.17908493,-0.16966173,-0.13448858
-0.13107438,0.059844878,0.062914245,0.23991457,0.029380182
-0.058156,0.16283254,-0.110621355,-0.02074114,-0.01719453
-0.06100221,0.025933886,-0.037019312,-0.06690799,-0.1775811
-0.04648879,0.029167337,0.08919972,0.109027006,0.043632872
0.017533245,-0.046818037,0.015934998,0.052313782,0.044571977
-0.017795892,-0.057021882,-0.027341187,0.0057159113,0.033093795
-0.019364806,-0.08985625,-0.06418875,0.015164564,0.026832957
-0.122274704,-0.10449676,-0.18279612,-0.13118784,-0.15993857
-0.034142304,-0.03740978,-0.048260435,-0.10644392,-0.074705936
0.057634037,0.11693883,0.14762919,0.04463675,0.088204496
0.1483585,0.07297977,0.05152999,0.026950669,-0.014979463
-0.2131942,-0.08262887,0.0038407783,-0.033722453,0.024934188
-0.070196554,-0.11598275,-0.11807883,-0.08796906,0.11855916
-0.098107025,-0.023092732,0.008452911,0.116079696,0.10290833
-0.097304694,-0.13053697,-0.0772402,-0.16364396,-0.16674395
-0.068428434,0.033881094,0.14746873,0.19137779,0.14763357
-0.16009118,-0.045478918,-0.09569998,-0.11009364,-0.030448157
-0.10951856,0.018006288,-0.0008432031,0.019380102,0.073466174
-0.07845344,-0.13811427,-0.12362082,-0.108988665,-0.010218656
-0.07269839,-0.12273177,-0.15662931,-0.107787654,-0.12685148
-0.014691244,0.03256238,-0.19233061,-0.082983404,-0.19517593
0.092142366,0.1181685,-0.11381036,-0.05172936,-0.09183585
-0.004354201,0.090080015,0.051298037,-0.040215433,-0.002580818
0.014218213,-0.038163785,-0.08796816,-0.049061578,-0.06159819
0.0704638,0.05745359,-0.013387808,-0.038161166,-0.074498065
0.060427465,-0.032414965,-0.022641774,-0.08726379,-0.013860413
0.006569102,-0.038782585,-0.060248062,0.025195977,0.033078298
-0.059981678,-0.13817945,0.009979105,-0.0048641567,0.006631316
-0.15523762,-0.11700347,-0.07052874,-0.04892935,-0.067095056
-0.1840584,-0.060669128,-0.20547117,-0.23602791,-0.14659241
-0.13501404,0.018108997,-0.0030667563,-0.02493607,-0.084901616
0.037829798,0.17975011,0.025906075,-0.09795316,0.03648112
-0.13345528,-0.007244303,-0.03896206,-0.0094394,0.01030566
-0.039121263,-0.06454794,-0.16662192,-0.13505308,-0.025763016
-0.04366205,-0.013484936,0.018503383,-0.030491902,-0.034609642
0.011076506,0.061407942,0.117837735,0.025797071,0.043243315
0.04351087,0.014579014,-0.09612068,-0.15623446,-0.12375995
-0.08751365,-0.04409028,-0.04289685,-0.014168692,-0.15575852
-0.1150232,0.009443579,0.1094157,0.13742194,-0.03177427
-0.12690154,-0.14389622,0.101866454,0.06159547,0.13993587
0.011160231,-0.09124548,9.572279e-05,0.032170985,0.22694448
-0.06370753,-0.0074969605,0.025415586,0.06318662,-0.02209698
-0.068699956,-0.019201163,0.09353003,0.007947267,-0.039949514
-0.021592014,0.057349697,0.019659296,0.07777293,0.07957064
-0.048647903,-0.04806497,-0.08027117,-0.12296311,-0.1004673
-0.08794386,-0.056222446,-0.003349145,0.0094588585,0.00698859
-0.029205345,0.024287747,0.01054028,-0.023217948,-0.010703103
-0.046840247,-0.011916164,-0.048102383,-0.14047731,-0.15907507
-0.05120941,-0.085558124,-0.016756508,-0.02063796,-0.044807177
0.02109162,-0.01272486,0.057441864,0.019636689,0.09869972
0.08757066,-0.0039291717,-0.060467675,0.046870135,0.15700506
-0.067665204,-0.000102137405,-0.107916296,-0.04536224,-0.07306633
-0.014469476,-0.08182517,-0.085785046,-0.050866764,0.051100492
-0.0027006886,-0.07305236,-0.047264174,-0.057826795,-0.038406536
-0.08478557,-0.105553895,-0.02685774,0.009216471,0.0027277148
-0.05511067,0.034192193,-0.047705445,-0.08507937,-0.07596462
-0.038962785,-0.043145403,0.07823304,-0.019263502,-0.050224815
0.011928288,-0.0662821,-0.043896787,-0.07343342,-0.020956455
-0.05050978,-0.06339451,0.034240786,0.08369856,0.105278395
-0.11463349,-0.07920349,-0.029262448,0.010431513,0.014629432
-0.10669306,-0.05773121,0.019038007,-0.04234806,-0.18284506
-0.124791116,0.03331474,0.03365116,0.079696104,0.00719675
-0.10917832,-0.113903016,-0.1275354,-0.047149714,-0.031422306
-0.061472457,-0.042261187,-0.10555016,-0.11729606,-0.12621254
0.057238244,0.0008248597,0.07013104,-0.004378531,-0.035316087
0.09661393,0.00865866,0.01707121,0.10073435,0.0078080697
0.052839816,0.0066177384,0.0060618934,0.01246945,0.06677005
-0.06272195,-0.028414292,-0.07509737,-0.0676836,-0.11061189
0.0255563,0.077188484,0.055173513,-0.021804178,-0.059321746
0.018690266,-0.0109013645,0.060411036,0.056413293,-0.004435233
0.0060294867,0.04100731,-0.059349615,-0.010046929,-0.0019316591
-0.096309684,-0.06258284,-0.03250578,-0.008733353,-0.016320415
0.029703181,-0.059588064,-0.19353244,-0.22455719,-0.040391956
-0.018899374,-0.20193794,-0.24251465,-0.24066944,-0.043791786
0.063025124,-0.15540648,-0.17702039,-0.26501137,-0.12904096
-0.056965426,-0.0065567796,-0.05914728,0.035823986,0.013560754
-0.138853,-0.10044904,-0.04056222,0.13149199,0.046300456
-0.13891825,-0.113181695,-0.091118194,0.030246144,0.015920257
-0.11425162,-0.13276221,-0.16922149,-0.17864688,-0.076019876
-0.08038001,-0.018389089,-0.08351298,-0.09893808,0.07887586
-0.084053345,0.104839504,-7.003483e-05,-0.07087588,-0.024478918
-0.0019146453,0.06548468,-0.02430305,-0.06698368,-0.10664364
-0.19806792,-0.05955886,-0.0018412884,0.114410944,0.1100511
-0.1983711,-0.2049068,-0.3095576,-0.16940846,-0.10880788
-0.115749575,-0.11633317,-0.14506596,-0.17250778,-0.10875016
0.024709757,0.12260395,0.031910345,0.036225528,-0.03421462
0.09107605,0.13692802,-0.034735825,-0.08749733,-0.21241193
