-0.23815146,-0.09127959,0.35734096,0.031274766,-0.32608533
-0.057156485,-0.049195036,-0.10648672,-0.22302529,0.14520936
-0.1380339,-0.05495564,-0.26921672,-0.0640748,0.080930635
0.022945575,-0.11630101,-0.02642567,0.13856252,-0.010552481
-0.027358852,-0.16614395,0.08564044,0.104162626,-0.21498403
-0.008161228,0.06343903,-0.042441357,-0.12853146,-0.075046316
-0.10820963,-0.13450529,-0.08483253,0.058790106,0.16825953
-0.03631852,-0.25215754,-0.11888588,0.03650669,0.07797107
0.09612154,-0.14618501,-0.20213783,-0.14327149,0.023598738
-0.037708182,-0.077001445,-0.13660266,-0.050745074,0.039682202
-0.14918466,-0.103065535,-0.08671125,-0.09597537,0.043990288
-0.13896827,-0.0805696,-0.011469357,-0.0043316525,0.06571306
-0.1472975,-0.021750242,-0.073129475,-0.11484334,0.016383149
-0.045516133,-0.025499502,-0.06947232,-0.1480346,-0.05423711
-0.18798389,-0.08837346,0.015351314,-0.021817768,-0.072297506
0.008041924,-0.013899214,-0.0867813,-0.10124625,-0.09456648
0.0019205407,-0.121663645,-0.1302527,-0.06640078,0.12640701
0.024439609,-0.11818725,-0.09043242,0.07048772,0.11836431
0.054094788,-0.118850924,-0.110258415,0.043022305,-0.017147524
-0.028579324,-0.031189622,0.006624879,-0.053435806,0.030879075
-0.08799377,0.23632674,0.17580856,-0.050958846,-0.07798444
-0.051765084,0.022966174,-0.115040585,0.023972604,0.04202159
-0.016512018,-0.006886686,-0.049961086,0.05871277,0.009751828
-0.052319292,-0.088569224,-0.11013231,0.035052937,-0.00833995
0.036954094,-0.115964286,-0.024355343,-0.014548956,-0.119519435
-0.1014879,0.04799811,-0.09591231,-0.15992539,0.0011752279
-0.09008828,-0.11421763,-0.11540061,-0.005759149,0.06681749
-0.04875377,-0.10807059,-0.17042352,-0.079716,0.073839724
0.06646421,-0.09768124,-0.24918549,-0.08893466,0.031639658
-0.08039672,-0.15550776,-0.13663235,-0.1566862,-0.09079445
-0.012535017,0.004488577,-0.10701814,-0.03153263,0.0023073738
-0.08209186,0.13036881,-0.11877073,-0.06627235,0.02083725
-0.009054599,0.14620587,-0.028532743,-0.059123587,-0.06475713
0.050858423,0.19243222,-0.0066192527,0.020456245,-0.07423928
0.026166603,0.05794501,0.004536594,-0.0026898799,-0.17910606
-0.029662084,0.04805001,0.0711389,0.0150282,-0.07052792
0.005321442,0.028777782,-0.03765066,-0.03169087,0.083279975
-0.0024850704,-0.11994525,-0.107934564,0.083807535,0.050093144
0.011367129,-0.013853097,-0.03598591,0.04252129,0.00053485885
-0.0079475185,-0.054717112,-0.03855277,-0.0124394465,0.04228918
-0.06300315,-0.035922248,-0.06183107,0.02413213,0.044276055
-0.087321736,-0.024404233,-0.0017889279,-0.029163478,-0.025862249
-0.17495985,0.10175692,0.022955501,-0.08574052,-0.09287385
-0.14486003,-0.030398317,0.08113187,-0.10373965,-0.08038711
-0.18784931,0.037801392,0.1393446,0.0049354713,-0.04721247
-0.074878335,-0.034833465,-0.032433737,-0.018575476,-0.09672872
0.03328962,0.07457349,-0.016713146,-0.09881004,0.04965393
-0.053259123,0.06246388,-0.08743182,0.02654178,0.06397599
0.051350452,0.14205278,-0.06714415,0.09091239,0.0011629141
-0.021405242,-0.10088394,-0.09031784,0.082839824,-0.101833686
-0.110043176,-0.2548801,-0.15914777,-0.017790677,0.020995777
0.0471682,-0.10731233,-0.11767647,-0.13119829,0.07107342
-0.033048872,-0.1257007,-0.088500164,-0.03103372,-0.045760643
-0.023407504,-0.1255881,0.05149682,0.13189197,-0.037985507
-0.03478055,-0.05135326,-0.05110161,0.06135867,-0.065465845
0.09535318,0.0051146336,-0.063486554,-0.063678645,-0.028109599
-0.031427957,-0.06507385,-0.054395225,-0.038167104,0.026575757
-0.068804696,-0.08245697,-0.08970725,-0.027581638,0.048869994
-0.044118047,-0.05990086,-0.075975545,0.014262298,0.030331086
-0.078748725,-0.068303116,-0.07666313,-0.023939593,0.010910681
0.1026392,-0.11641816,-0.117243916,-0.08844908,-0.050230876
0.1187819,-0.032639634,-0.10834317,-0.09390757,-0.018760793
-0.040124908,-0.06740321,0.015840774,0.11840801,-0.08888487
0.010879361,-0.08821936,0.059908666,0.09890629,0.01610442
-0.069635496,-0.001219082,-0.0022666308,-0.033518765,-0.043774482
-0.028309438,-0.03633972,0.025501512,0.050305557,-0.06099772
-0.007902591,0.024912566,0.008248036,-0.060046326,-0.015302154
-0.072943926,-0.04882366,-0.09882201,-0.017889597,-0.053862326
-0.019296885,0.029971544,-0.008342789,-0.027370693,0.015192338
0.023306558,-0.037437458,-0.036462884,-0.047273427,-0.021044774
-0.10798051,0.012339827,0.03983543,0.025041882,-0.0030721256
-0.07311689,-0.0769747,-0.1017614,-0.11348137,-0.01269108
-0.094874516,0.022013186,-0.0010360257,-0.09499028,-0.044083886
-0.08162793,-0.04052843,-0.1149733,-0.15544984,-0.04902196
0.0031346453,0.021408524,-0.05478077,-0.06687504,-0.11435438
-0.051465143,0.07100262,0.13368279,0.02123992,0.014786537
-0.10556571,0.108685635,-0.0028588802,-0.066837795,-0.062762894
-0.03882519,0.13150273,-0.04142083,-0.054823384,0.018842667
-0.039894957,-0.027798085,-0.03703532,-0.0017786016,-0.09265184
0.018647952,-0.112701066,-0.01949695,-0.034211922,-0.10458881
-0.05489683,0.0049590287,0.039994407,5.8941347e-05,-0.05214143
0.001962767,-0.04594977,-0.02116893,-0.035569068,0.07177274
0.02769697,0.031137122,-0.058041334,-0.007064427,0.015568398
-0.005294227,-0.044038903,-0.039178453,0.043768305,-0.00019108095
-0.0040391074,-0.03725616,-0.004339438,-0.004731457,0.0138294315
-0.031166086,-0.10481914,-0.017316937,0.11166039,0.22882712
-0.046125606,-0.06228048,0.029089864,0.16371314,0.010334743
-0.07645144,-0.14267817,0.045851603,0.09851764,-0.14949745
-0.02947276,-0.079007536,0.031780623,-0.08735448,0.020357441
-0.046147514,-0.01456275,-0.012254942,-0.018616417,0.029304717
-0.082743526,-0.062279716,-0.025541408,-0.016981313,-0.074108645
-0.15167992,0.03257127,0.011448641,-0.05863913,0.01451129
-0.18603455,0.07577342,-0.04344011,-0.055061515,-0.0516493
-0.08786949,-0.019628093,-0.03709789,-0.053514805,-0.050685335
0.049712066,0.1673205,-0.022304522,-0.07783753,-0.063856974
-0.11036186,-0.0050028455,-0.05451906,-0.05884821,-0.115556836
-0.17801437,0.12725691,0.01708501,-0.11685681,-0.017476283
-0.14785185,0.15352567,-0.08278255,-0.10186249,-0.046814565
0.05610023,0.17011096,-0.048158325,-0.0114825005,-0.054004055
0.024029234,0.047600716,-0.14217672,0.03728542,-0.120755486
