-0.12779193,-0.07506293,0.10360537,0.028269721,-0.015445212
-0.08054354,-0.1324361,-0.13873155,-0.11347125,-0.17468831
0.12614702,-0.07805967,-0.05142802,-0.12210997,-0.2602188
-0.07273292,-0.13808025,-0.037242886,-0.21165045,-0.016662676
-0.12356233,-0.025779195,0.0064400113,-0.05141426,0.08684949
-0.011832697,-0.08821524,-0.094324775,-0.09145764,-0.18589814
-0.15905896,-0.07592409,0.03203203,0.039510738,-0.06654787
0.043159615,-0.06767267,-0.10958867,-0.1207961,-0.0055600097
-0.037352636,-0.06694637,-0.14913261,-0.13224846,-0.08009717
0.07510611,0.015733248,-0.031798948,-0.1699823,-0.248459
-0.17622867,0.02996259,0.07000319,-0.017633947,0.003168697
-0.03982223,-0.030441007,0.11280591,0.09367479,0.037378695
0.0030392269,-0.11679549,-0.07849892,0.05562442,0.017471097
0.033445135,-0.11727742,-0.051621772,-0.039198205,-0.11341816
-0.074142806,0.016873533,-0.15203097,-0.13017116,-0.13140598
0.06901239,-0.007925638,-0.078446664,-0.009589613,-0.041753788
-0.024750499,-0.024264673,-0.07258047,-0.03575328,-0.0066674375
0.077924535,-0.008031483,-0.039503798,-0.15512429,-0.03143948
0.021483228,-0.030511644,-0.02274211,-0.12935491,0.09080449
0.018169316,-0.021260574,0.005415306,-0.15553631,0.045033097
-0.122945726,0.05184363,-0.026883908,0.06871997,-0.05907642
-0.13366053,0.004793976,0.12035184,-0.016654013,-0.13220918
0.04799436,-0.16181083,0.0101197865,-0.100058414,-0.12524918
-0.0150851915,0.00666381,-0.00068277644,-0.10589182,0.08301099
-0.050810114,0.0053532673,-0.14446177,-0.011175311,-0.0021314707
-0.22748248,-0.14783098,0.08374879,0.03087354,-0.19213426
-0.18935707,0.07194352,0.20942177,-0.04979837,-0.08042037
0.0028981667,-0.048016477,0.031228656,-0.25336447,-0.068758965
-0.014301359,-0.117086396,-0.069855474,-0.23591828,-0.14675389
0.09367743,-0.10011735,-0.1363072,-0.27186927,-0.32245556
-0.027365498,0.052077014,-0.023300204,0.05310403,-0.025745656
-0.059799694,-0.025061712,0.15554774,0.038330045,-0.07539808
-0.08887613,-0.011990532,0.17335409,-0.017637497,-0.07830953
-0.07071649,-0.055958737,0.08764935,0.084010966,-0.11464665
-0.1338806,0.048792623,0.03011971,0.04403518,-0.13406998
0.0184481,0.0037501112,-0.025056351,-0.02067538,-0.034766793
0.0056088786,-0.07564913,0.0026512027,-0.020549277,-0.07198239
0.0043401266,-0.032871343,0.005394648,-0.05832408,-0.023999333
-0.03225217,-0.07457793,-0.017529963,-0.062590174,0.021580897
-0.07899442,-0.0059133195,-0.01955776,-0.04229451,0.03516998
-0.080189146,-0.09990655,-0.10022823,0.014654284,0.032535266
0.016702455,-0.09385942,0.05228724,0.17636345,0.005236311
0.036039524,-0.045816828,-0.031504348,0.19407308,-0.09382908
-0.07374726,-0.1053016,-0.06878334,0.13901663,-0.14712708
-0.11465045,-0.08068908,0.0023057354,0.033094432,-0.090108946
-0.114187516,-0.05476266,-0.023377217,0.030141473,-0.14657496
-0.035472468,-0.033383135,0.05798349,-0.0031036518,-0.032793988
-0.03596535,0.00070559216,-0.0032623159,-0.07078253,-0.13820788
-0.031136714,0.02921662,0.0704481,0.007233466,-0.061842676
-0.07058559,0.056759994,0.057945788,-0.0095741255,-0.017221618
0.011162614,-0.08725652,-0.14055336,-0.09726456,-0.051984448
-0.08023018,0.042586397,-0.094205596,-0.10777754,-0.048775133
0.08632649,0.061153702,-0.06268621,-0.22228867,0.15379548
0.070537694,0.044238284,-0.08518442,-0.21721895,0.096046396
-0.088306986,0.037791174,0.032248728,0.0075681834,-0.00042663814
0.0029356037,0.046846777,0.07156554,-0.048489418,-0.026519923
0.014833436,-0.016348587,0.053902626,-0.06852231,0.028085737
0.026274567,0.018993303,0.013018434,-0.058966953,-0.013175458
0.051891495,0.004771965,-0.05253994,-0.02491716,-0.052801624
0.010760395,0.011036086,-0.0140458895,0.018957281,-0.014912581
0.097525395,-0.022821965,-0.13259657,-0.045708828,0.062045537
0.068544984,0.030770643,0.008658563,-0.0012542198,0.045337267
0.0705366,0.061989684,-0.04378315,-0.083335824,0.17581634
0.04456664,0.046231918,-0.056265373,-0.0074725845,0.12281998
-0.028142033,-0.04205565,-0.045897923,0.068049766,0.039228767
-0.040441066,0.010520511,-0.010742038,-0.07610535,-0.0122455815
-0.019747963,0.008724613,-0.048843417,-0.11784305,0.101801895
-0.017880464,-6.1664796e-05,0.05370648,-0.054741256,0.096648715
0.02391829,-0.050869044,-0.019421417,-0.03413634,-0.003306748
-0.017233018,0.0008423816,0.051072594,-0.039710887,0.032474026
0.07470094,-0.003646294,-0.100720234,-0.03991146,0.0020434458
-0.06935173,-0.054286763,0.1277711,0.1682705,-0.050236378
-0.0012833207,-0.038975216,0.03753003,0.100876704,-0.08255608
-0.059123214,-0.07699432,0.008668919,0.005185838,-0.09514249
-0.02366129,0.036800276,0.033437707,0.037109733,-0.089896485
-0.11205008,-0.09084439,0.040150944,0.10578071,0.0034443298
-0.10584638,-0.033401243,0.05805131,-0.0077147014,-0.049916413
-0.04894817,-0.093688086,-0.016817452,-0.023595452,-0.037230212
0.0095967725,-0.03227303,0.058423106,-0.123961315,-0.0037901145
0.0032320532,0.11350411,-0.06809108,-0.10096795,0.017737092
0.004771521,-0.0056122495,-0.004566309,0.037893333,-0.027693309
0.0072370996,0.02106151,-0.013510585,0.015217881,-0.0557834
0.04655858,0.003637706,-0.02712523,-0.034950618,-0.012440227
-0.046202343,0.05624124,-0.006854307,-0.061129533,0.05725652
0.028810564,0.061891403,-0.05528129,-0.089235246,-0.0043376624
-0.20008315,-0.21474282,-0.10441003,-0.031006545,-0.04903667
-0.13670915,-0.047600064,-0.03471925,-0.13806598,-0.016689975
-0.014251112,-0.0716682,0.021194654,-0.046341334,0.183281
-0.09738315,-0.021300912,-0.08515152,-0.089385964,0.120901346
-0.018802054,-0.021066844,-0.15743631,0.063145325,-0.26923013
-0.040545855,-0.031881448,-0.10710438,-0.02559023,0.057132285
-0.06360228,-0.06192507,-0.039978787,0.1771381,0.008898487
-0.0023943896,-0.033099376,0.02222498,0.1569187,-0.042396348
-0.043237817,-0.05777024,0.07802043,-0.007946224,-0.10766725
-0.11675533,0.042804148,0.12043099,0.021323541,-0.10656847
-0.14397833,-0.021433642,0.013592757,-0.10128571,-0.08405746
-0.09896525,-0.022228831,0.014442915,0.06505256,-0.089739196
-0.07383943,-0.060706094,0.16438322,0.08612429,-0.14562695
-0.08145876,-0.021294925,0.1511908,0.03195961,-0.13077424
-0.15826677,0.07425364,0.13203385,0.0031897924,-0.09778337
