-0.088841766,-0.16693616,-0.19043595,0.034655727,-0.12879175
0.03833729,-0.105324805,-0.18815012,0.13634074,-0.059358787
0.08509577,-0.11559331,-0.10333271,-0.00999815,-0.07395615
0.0537071,-0.070614405,-0.14888693,-0.14460252,-0.02156604
0.0052733426,-0.15931973,-0.16861393,0.033112645,0.15892114
0.050319344,-0.20762007,0.026236227,-0.010665845,0.10305486
0.14239623,-0.16586655,0.04376289,0.043044876,-0.056060016
0.056585066,-0.07929771,-0.025889905,0.13543923,-0.019524675
0.022741692,-0.0067133657,-0.005936542,0.13362089,0.1516223
0.06490136,-0.09094149,-0.024906222,-0.034368582,0.06451364
-0.043590464,-0.0028490725,-0.068772905,0.09467853,0.074039176
-0.017533144,-0.09540119,-0.101510726,0.040900007,-0.0031367359
0.03856269,-0.06318907,0.031463437,-0.031383667,-0.07554386
0.032453306,-0.085275054,-0.12851886,-0.09292126,-0.044091366
-0.07367433,-0.077346995,-0.06705331,-0.11932524,0.082073525
-0.060967173,0.0042122253,-0.0056669484,0.033127695,-0.11145623
-0.1431783,-0.112821184,0.05658608,0.11562357,-0.06129643
-0.039842196,-0.10005259,0.038188517,0.005613473,-0.12523161
-0.04474678,-0.10845566,0.06680904,-0.10520462,-0.1112747
-0.033097714,0.022309078,0.079139955,-0.092274345,-0.17176503
0.045124616,0.021229165,-0.03442937,-0.014236444,-0.03070545
0.08926185,0.017143577,-0.013207549,-0.01581714,-0.07319933
0.035678066,0.008792842,0.004983448,-0.00037692487,-0.028360233
-0.041850403,0.0009034225,-0.0037581597,-0.046979807,0.009793335
-0.021089235,-0.026826816,0.026153121,-0.031378243,-0.079532035
-0.0067352126,-0.10975538,-0.074905194,0.11805579,-0.04904148
-0.0050578723,-0.052724957,-0.00973626,-0.030501952,-0.13212928
-0.055021793,0.02166729,0.053186633,-0.10999847,-0.059503954
-0.023359291,0.019827837,0.044645745,-0.10408816,0.078599915
0.06356553,0.0045596766,0.022540774,-0.091848135,-0.111427374
0.014793815,0.027313195,-0.037305783,0.00123589,-0.054626442
0.023720639,-0.011608664,-0.04823922,0.09810779,-0.053913925
0.03928643,-0.039602015,-0.031943835,0.014917362,0.0029998785
0.030924585,-0.054348126,-0.055413052,-0.087939076,0.03623428
0.03638052,0.010055158,-0.0489825,-0.04160545,0.022738501
0.0017721863,-0.08019647,-0.00048171091,-0.033782512,-0.047406364
0.038617715,-0.07799668,-0.031562205,0.060202878,-0.07388722
-0.01798827,-0.07427198,-0.0032124866,0.08109452,-0.0014239214
-0.016909622,-0.10019007,0.08055448,0.18450345,0.07407137
0.008759499,-0.05047613,0.13521366,0.07200659,-0.0024548394
0.011171395,0.04608384,0.007114963,-0.01719695,0.058738425
0.072557315,0.049180523,-0.111904696,0.040774062,-0.063971266
0.09104906,0.005950958,-0.072883666,-0.063159265,-0.01259311
-0.016500121,0.013452611,0.0033389616,-0.09319705,-0.012551693
0.06999635,-0.04311665,-0.071446836,-0.019631185,-0.107186794
-0.14166243,-0.07698864,-0.0032047622,-0.10740484,0.027621642
0.010313458,0.014618579,-0.06292083,-0.10827983,-0.04297254
7.650419e-05,0.024348434,-0.13339372,-0.14177929,-0.14139134
0.041003708,-0.04923045,-0.26320842,-0.1601045,-0.15031661
0.024808282,-0.07697792,-0.1484204,-0.13807632,0.02016347
-0.052593645,-0.048505966,-0.059038136,-0.033695783,0.052594192
0.04118162,-0.07284465,-0.004993647,-0.0063766213,-0.09503346
0.028904464,0.0035888215,-6.8975896e-05,-0.062659,-0.08601062
0.043167446,-0.00031014963,0.026608763,-0.05957199,-0.07659479
0.004735514,0.040021155,-0.061315455,-0.11810634,-0.079794444
-0.00027036926,0.043711714,0.030160349,0.038897973,0.013152269
0.023482047,0.0418937,0.036718473,-0.034359187,-0.010016391
-0.043073557,0.0017004702,-0.015831968,0.038843736,0.007070682
0.00056332676,-0.032383874,-0.0352132,0.007395983,-0.022219935
-0.02075707,0.03126913,-0.023172159,-0.019032938,0.03439151
-0.007237575,-0.122615814,-0.06208139,0.11835363,0.038915306
0.011957094,-0.06754985,-0.07696831,0.017315127,-0.07884773
0.082991675,-0.057821997,-0.2310575,-0.073097676,0.0072344076
0.06534945,0.017113954,-0.13630767,-0.080890685,0.27000105
0.20524658,-0.03108894,-0.030900383,0.13127087,0.015636854
-0.028426366,0.04257645,0.020484425,0.006925737,0.03150749
-0.038418002,0.009636475,-0.021095576,-0.0045452584,0.014614612
0.01987913,0.010239526,-0.034616288,-0.028005676,0.00078299426
-0.007655496,-0.037434567,0.044095106,0.005624757,-0.03177679
0.019612873,0.019492771,-0.021859998,0.022423044,-0.027742058
-0.005923087,0.06639422,-0.0516657,-0.0033994461,-0.015534208
-0.013297992,0.070931375,-0.036168084,-0.0040220316,0.13793637
0.05847987,0.005268512,-0.09550435,0.018110458,0.09237587
0.15989877,0.02955923,-0.08291513,-0.07392305,-0.04913653
0.035025503,0.0060232473,-0.099802926,-0.11932094,-0.022595147
-0.04213961,0.0064005754,0.10953556,0.005955717,-0.020399377
-0.016191266,-0.083102174,0.14724171,0.062059928,-0.10938986
-0.009269455,-0.17765604,0.16385667,0.08872241,-0.07884645
-0.07526698,0.0057398486,-0.003491346,-0.038860265,-0.08443427
-0.04127071,0.041118532,0.12269955,0.013583034,-0.0940588
-0.08219102,0.01499236,0.09010529,-0.039713223,-0.10255203
-0.14250356,-0.0058814413,0.26080647,-0.010884817,-0.015023117
-0.0778538,0.065550946,0.13318013,0.012649666,-0.0432525
-0.057453975,0.081182845,0.112104334,-0.04584964,-0.07631404
-0.14758231,-0.0028918583,-0.075169675,-0.0397646,-0.095247485
-0.0019393386,-0.088281065,0.053176,0.08171236,0.00605491
0.012338789,-0.107347906,-0.0007778384,0.014814485,-0.1020955
0.011669247,-0.04665674,-0.05084828,-0.072322085,-0.04354023
-0.006359577,-0.006160597,0.005300092,0.001612056,0.103243835
0.00556722,0.004285675,-0.08422039,-0.067302726,-0.030559946
-0.04918546,-0.16147882,-0.019340636,0.03398073,-0.12165034
-0.06250062,-0.12541533,0.04740277,0.036405988,-0.09869358
-0.015340327,0.013227527,0.09943596,0.011555414,-0.097918615
0.029914243,0.07535386,0.08388743,-0.092339635,-0.01442656
-0.030952835,-0.0033792749,0.01729002,-0.09889498,-0.10848823
-0.13803253,-0.1205058,-0.029799929,0.06587707,-0.065200716
-0.032034397,-0.06467497,0.098388776,-0.08957495,-0.14155902
-0.0039893626,-0.112389006,-0.09046007,-0.20980845,-0.13482839
-0.04113882,-0.029334893,-0.012712391,-0.07660549,0.16933183
0.035995726,0.030472403,-0.05844767,-0.07275069,0.0654169
