-0.08700133,0.014656001,0.17460671,0.13683672,-0.0009998691
0.042985186,0.22607699,0.25358388,0.12684764,-0.106322326
0.046011716,0.03784645,-0.07261087,-0.15131065,-0.17546196
-0.078464635,0.03760934,-0.12764043,-0.19565803,-0.12789841
-0.15835473,-0.12505971,-0.08935597,-0.022500668,-0.036119524
0.009588147,-0.041173913,-0.056359123,-0.012573337,-0.15909146
-0.14599936,-0.068447396,-0.049152065,-0.099349506,-0.18531714
0.056022692,0.025056653,-0.10288185,-0.15268576,-0.15300351
-0.05731556,-0.008686684,0.0045304764,0.020324241,-0.07004284
-0.17295396,-0.05412862,0.083823234,0.12573911,-0.0076029385
-0.0680925,0.13899136,0.08843198,0.12125397,-0.019749822
-0.1110807,0.021928353,-0.027548017,-0.09098396,-0.05384315
-0.1127209,-0.028690012,-0.0670778,-0.08992387,-0.108721055
-0.021974314,-0.045692425,-0.1284303,-0.07938449,-0.11543865
-0.022606809,-0.028509835,-0.044199836,-0.09008277,-0.104770154
-0.024863742,0.11544192,0.065632984,0.089299485,0.017869625
0.010510744,0.03170241,-0.011134724,-0.010531815,-0.039909534
-0.16131121,-0.069324926,-0.14537089,-0.055961605,-0.080858685
-0.02424815,-0.024769597,-0.030086817,-0.073691405,-0.14913835
-0.037329033,0.01733978,0.03736723,-0.045636635,-0.12242552
-0.010664945,0.008356145,-0.0370742,-0.041787036,-0.019182552
0.017826704,-0.049661495,0.004079545,0.058328167,0.053831957
0.008336926,-0.01596758,0.054362018,0.04670324,0.07425914
0.04851928,0.03213674,0.02316339,0.033608027,0.041931953
0.056639284,0.029216945,-0.040185697,-0.008359149,0.029307865
0.050942853,-0.040521935,-0.01586639,-0.075436175,-0.07765693
-0.0072955578,-0.07749068,-0.13882853,-0.097127505,-0.06874216
-0.08314322,-0.0524524,-0.0638712,0.03196534,-0.01400106
-0.06726415,0.019364618,0.030483188,0.029721316,0.017899502
0.04049053,0.027488858,-0.014926561,0.09040774,0.056865945
-0.0011672275,-0.023330187,0.059411317,-0.0165263,-0.047005903
-0.029730774,0.010149292,-0.010699855,-0.05932659,-0.0723091
0.012702913,-0.0025309066,0.021317601,-0.022520546,0.029644562
-0.03784815,-0.019416993,0.043358255,0.016627124,0.03085294
-0.014950124,-0.039169345,-0.02158654,0.005707305,-0.010894454
-0.011682926,0.05911147,-0.039205655,0.012214308,-0.06489417
-0.019328201,0.020720048,0.0039233617,-0.048352264,-0.12208071
0.05369035,-0.09450801,-0.14222896,-0.10292186,-0.03503909
-0.12318639,-0.061446093,0.021955002,0.026517238,-0.0824003
-0.115495436,-0.044438176,0.047836173,-0.009229724,-0.035174858
-0.021548038,-0.10766108,-0.048398115,-0.042244382,-0.0034164207
-0.06656075,-0.04494037,-0.12497076,-0.02724804,-0.049266804
-0.056533236,0.02235634,0.049331035,0.04605677,0.00213321
0.04538246,-0.056848682,-0.01518424,0.09346005,0.07175914
-0.027131334,-0.11012444,-0.014251894,0.053531256,0.08169493
-0.002633412,-0.05818488,-0.008803948,0.04252595,0.03332175
-0.061418682,-0.09506427,0.069909945,0.0023050765,-0.033910383
0.20561843,0.15218069,0.109437644,0.047795407,-0.00989694
0.12622634,0.07006517,-0.024853626,-0.02410544,0.0013917153
0.036466766,0.019138401,0.031545356,0.03106127,-0.07049273
-0.027096685,-0.052761126,-0.018455483,-0.052663527,-0.053133138
-0.03314157,-0.10779787,-0.09190945,-0.07028011,-0.078295946
-0.087307654,-0.10856217,-0.0330204,-0.034365475,-0.07387666
-0.052455198,-0.025670918,0.109826274,0.06635058,0.027257891
0.03539754,-0.028551554,-0.017507762,0.06385078,0.1040653
0.0070330594,0.024980593,0.011492643,-0.0033580228,-0.014974143
0.015622749,-0.036443792,0.04405681,-0.039408002,-0.033848878
0.03255946,-0.02579835,-0.021704566,-0.010609431,-0.039042104
-0.0022238195,-0.006533876,-0.0091298595,-0.00030168882,-0.03054096
-0.008010535,-0.0050143385,-0.044316303,-0.03322758,0.03443798
0.01386859,0.028560888,-0.075737,-0.022780871,0.015914135
0.10292529,-0.15887052,-0.12877649,-0.09283495,-0.060261685
-0.05427509,-0.016140638,-0.058463003,-0.04465227,-0.04123808
-0.020639764,-0.01858688,0.08398992,0.09601253,-0.09226055
-0.088445134,-0.13040759,0.030172015,0.1312641,0.10387274
-0.015523242,0.03539386,0.036575798,0.030085918,-0.03615504
0.017501866,0.025412224,0.032763507,-0.04044461,-0.009349948
-0.02269929,-0.016827572,0.013059805,-0.0024951822,0.019408917
-0.03323073,-0.013922652,0.019150693,-0.016500942,0.0055104
-0.030084383,0.038497802,-0.00021358841,0.016328545,0.0024141492
-0.03110545,-0.03635026,0.046808384,0.14361253,0.018774869
-0.07139956,0.021230593,0.06695333,-0.036048133,-0.006834894
-0.13435142,0.06462231,0.02199815,-0.06624066,-0.12188953
-0.04630995,-0.10981945,-0.050664064,-0.10369638,-0.026899956
-0.026259566,-0.008287525,0.017652497,-0.0013821418,0.009457343
0.0014256531,-0.059393723,-0.05849306,-0.011666103,-0.06625111
0.11225047,0.058966104,-0.0047874325,-0.09915656,-0.14803669
0.15323856,0.052811455,-0.07857066,-0.094623275,-0.1551026
-0.0101459585,-0.022465533,-0.038205296,-0.09100921,-0.111373894
-0.07995813,-0.016304092,0.0559777,0.044860944,-0.05292041
-0.023041504,-0.01764226,0.024994705,-0.013104249,-0.055006653
-0.10268015,-0.028756162,-0.046372768,-0.032118127,-0.00759023
-0.058552604,-0.078639194,-0.048220407,-0.08662322,-0.073651746
-0.02387087,0.054330744,0.006247885,-0.08146208,-0.1276819
0.10714258,0.123963684,0.061996657,-0.027333925,-0.12987798
0.074621044,-0.0064870548,0.02907406,-0.085229665,-0.009640448
-0.002079736,-0.067543,-0.040743437,-0.0716272,-0.04983915
-0.06199485,-0.024604013,-0.07060712,-0.042437997,-0.09536963
-0.06661292,-0.0103595955,0.02182372,0.026666092,-0.014575786
-0.0454887,-0.03217274,-0.0014831582,0.044218373,0.062845014
0.025158662,0.019333716,0.011050522,-0.01973104,-0.024310969
-0.04235205,-0.056315895,-0.09500733,-0.05523557,-0.03846143
-0.10997368,-0.105464205,-0.017828327,-0.0812708,-0.08181222
-0.0075243963,0.068365596,0.04582716,-0.038508695,-0.07642503
0.018916659,0.054250333,0.10620025,0.06837736,-0.031314164
0.056562223,0.0814281,0.12442752,-0.020782575,-0.020331042
0.22012058,-0.038358647,-0.10166565,-0.042675704,-0.07606617
-0.11981877,-0.055025306,-0.027165385,-0.087695666,-0.087001696
0.027052604,0.07676904,0.021454405,-0.047649957,-0.07970355
0.02065964,0.06634405,0.0409028,0.007901191,-0.1248869
