0.04333953,-0.03388783,0.049670517,0.21102361,0.08900443
-0.08060974,0.11687482,0.36769283,0.13602805,-0.035643194
-0.33776727,-0.2768161,-0.24767952,-0.13186288,-0.08701605
-0.17934524,-0.18713863,-0.13746366,-0.086966805,0.034226052
-0.06344059,-0.1888677,-0.28330302,-0.19532102,0.022514524
-0.26099825,-0.18832229,-0.050901797,-0.05677715,0.021238768
-0.16683325,-0.11685647,-0.19660565,-0.18187574,-0.1050175
-0.08462034,0.022153493,-0.050750323,0.049224444,0.16431873
0.06412955,0.07926179,0.26841536,0.20294555,0.024536546
-0.023371868,-0.24247228,-0.1781334,-0.10956531,-0.056511562
-0.06445554,-0.115889736,-0.10744403,-0.058216657,-0.09137748
-0.11649759,-0.14184548,-0.11723411,-0.0036595655,-0.0045878347
0.11391255,0.1503034,0.08737917,-0.076373,0.03659805
0.038222186,0.02647285,0.023775581,-0.084634684,-0.10580591
-0.14902931,-0.13971032,-0.061714645,-0.09167015,-0.1505888
-0.088681884,-0.09916362,0.0892062,0.0607395,0.1427589
-0.039514255,-0.09842423,-0.011618951,-0.1357094,-0.040080633
-0.03727394,-0.06681141,-0.12064113,-0.033381835,0.103939235
0.0035428246,0.015755353,0.055075698,0.15072253,0.18231064
-0.054104332,-0.018161824,-0.013616554,-0.0105892345,0.056954376
0.027348988,-0.066082664,0.086107224,0.07184388,0.06883133
-0.14578736,0.010049116,0.09653478,0.020254105,0.02274794
-0.15626994,-0.015161517,-0.04006892,-0.012053934,0.0023039395
-0.089462005,-0.020904599,-0.053701714,0.049141567,0.043674573
-0.002477772,-0.06309481,-0.13262478,-0.0029170748,-0.0056077577
-0.14258882,-0.16994077,0.014868665,-0.051792208,-0.03207413
-0.20876963,-0.12059313,-0.1442676,-0.07809231,-0.040265065
-0.053866353,-0.009745112,0.068404324,0.026626507,0.051577736
0.050191786,0.1633083,0.10664434,0.011019515,-0.03776617
-0.095319584,-0.11427701,-0.12002608,-0.04631826,-0.15765831
0.091449544,-0.032138795,0.076611154,-0.014515805,-0.053413726
-0.00974584,-0.0030066012,0.0417079,0.021148436,-0.043441113
0.13419902,0.045288436,-0.024466064,-0.02092061,0.05394888
0.03610061,0.008290298,-0.068296894,-0.1382213,-0.031713516
0.058042713,-0.017185142,-0.04645985,-0.012348712,-0.11758176
-0.0076093036,-0.05234524,-0.029181309,-0.04730623,0.061392065
-0.049028542,-0.09100308,-0.003457566,-0.08443807,-0.031525403
-0.059337433,0.017496113,-0.11198641,-0.020509895,0.14825612
-0.02568938,0.02241584,0.00800399,0.094003454,0.15902036
-0.014710921,0.008425456,-0.11107622,0.055240076,0.026241938
0.07265175,-0.0022962466,0.03810489,0.011798779,-0.11333338
0.063899904,-0.03788538,-0.01865243,-0.05300633,-0.08824268
0.056279704,-0.019096611,-0.0005016204,0.012002217,-0.041715402
0.04169423,-0.033286903,0.07614148,-0.07224776,-0.1124672
-0.032783154,-0.051800534,0.016616993,-0.10301693,-0.15390217
0.059400283,-0.020850107,0.12676069,0.013258995,-0.083987236
-0.0010225524,-0.0833486,0.106239654,-0.05122476,0.026725404
-0.07274761,-0.11842295,-0.067889325,0.006085624,-0.028045552
-0.05215094,-0.059837554,-0.08517274,-0.055368867,-0.0036074382
-0.031615987,0.0037380147,-0.1108304,-0.073794775,0.0073168143
0.00059708796,0.090328425,0.0647987,0.096554376,0.048994254
0.068262935,0.2720216,0.12813522,0.064709865,-0.055529747
-0.036426704,-0.07354301,-0.014463985,-0.07322924,-0.14039014
0.10033882,0.2167095,0.03354396,-0.06065785,-0.033135895
0.024512867,-0.15201268,-0.10353344,-0.121842496,0.0001866137
-0.06332779,-0.087973736,-0.008549477,-0.05509715,0.021672478
-0.04209036,-0.049071483,-0.05105635,-0.11267314,-0.05160767
-0.06740876,0.01957353,-0.05673824,0.03283912,0.039697647
0.014940781,0.09621405,0.11141975,0.113436244,0.023520917
-0.01431506,-0.031145578,0.007983564,-0.019783786,0.0017025075
-0.07832096,-0.0021372864,0.01973472,0.068551764,0.19131725
-0.030307107,0.039374642,0.010900398,-0.016389363,0.07398606
-0.015404439,-0.18280916,-0.22802292,-0.1364152,-0.096200615
0.063489966,0.084596075,-0.009290945,-0.027405914,0.0330306
0.038463626,0.07054529,-0.081619054,-0.04157371,-0.062490422
-0.04491436,0.063592546,0.011876859,0.024450785,0.0130806845
-0.015096091,0.012318901,-0.002748653,0.03151475,0.00556793
-0.024279773,0.079406634,0.005279986,-0.032793816,0.0067589046
-0.022819467,0.018821599,-0.01909888,-0.012901028,-0.07971671
-0.030969573,-0.0640806,-0.06490797,-0.019283898,-0.0132221915
0.011540681,-0.018379852,-0.004854877,0.016813848,-0.039028414
0.00044938145,-0.076303236,0.088613145,0.0035368116,-0.027193246
0.0041377284,0.012297835,-0.0502496,-0.06508994,-0.00043768052
0.0036896132,0.064330235,0.043101225,-0.15708591,-0.11831031
0.046109788,0.0049688704,-0.008624178,-0.048011526,-0.08814686
-0.004296251,-0.0063769743,0.007813822,-0.02886736,0.00091849075
0.0017092698,-0.08086059,0.008430614,0.022026083,0.059529413
-0.027122552,-0.019465571,0.054076295,0.03828438,0.046657886
-0.04835248,-0.033976674,0.0205206,0.032426056,-0.020403497
-0.057979114,-0.11278572,-0.021303587,0.102263205,0.023215655
-0.022930022,-0.016946519,0.046663575,-0.024714056,0.0017334187
-0.077090524,-0.048945148,-0.06993154,-0.043134082,-0.010879287
-0.056215875,-0.046210345,-0.052701343,0.00013108042,-0.021247787
0.011102887,-0.051879797,-0.016292995,0.0736509,0.029995874
-0.011395888,0.008346925,0.009737515,-0.0018296478,0.01475071
-0.01603263,-0.02031496,-0.012691497,0.0846126,-0.002282189
-0.013296142,-0.081160754,-0.17271136,-0.039740637,-0.02214435
-0.0018793195,-0.030421615,0.038380187,0.16454807,-0.0055748397
-0.01756492,0.096868895,-0.04152144,-0.03000401,-0.056628354
-0.06680348,-0.15338637,-0.09481426,0.0053174538,-0.15267442
0.067731336,-0.063372366,-0.027226053,-0.00528789,-0.100552596
0.14029397,-0.12579833,-0.05713198,0.0008595867,-0.09164478
0.016933331,-0.10554685,-0.003641518,-0.04870115,-0.04578462
0.05355646,0.010641004,-0.040764794,-0.19333817,-0.08008831
0.03434948,0.033617597,-0.07582424,-0.13083707,-0.07445149
0.112223834,0.035754777,-0.015311866,-0.048561074,-0.18420866
-0.04884525,-0.101680286,-0.05213911,-0.11199452,-0.051899724
-0.09025514,-0.1870568,-0.05224393,-0.011417278,-0.027814776
-0.0070362277,-0.048618704,-0.11045768,-0.16748543,-0.021215107
0.014129753,-0.045138966,-0.13228202,-0.068593115,-0.045441944
