0.003789835,-0.038064234,-0.03154204,0.07085055,-0.062976524
0.04903841,-0.011060252,-0.047269337,-0.10664938,-0.045914028
0.06544663,-0.031753637,-0.101315856,-0.14059484,-0.059526633
-0.053997654,-0.06828286,-0.10985686,-0.1416453,-0.14399737
0.07583636,-0.05430039,-0.052294124,-0.16307431,-0.17024662
-0.070561804,-0.026484797,0.056809936,0.1759374,-0.003313067
0.030247996,0.015645528,0.06983996,0.06453322,-0.069254175
0.033761,0.034362976,0.06489295,-0.04232782,-0.18293652
0.044833962,0.0895557,-0.023490513,-0.06029249,-0.05411285
-0.013704142,-0.053829968,-0.06378586,-0.07119864,0.029944131
-0.01228107,0.080105655,0.024535839,0.109082624,0.11556451
-0.031039206,0.075454734,0.058772575,0.0016124521,-0.023675514
0.024711179,0.09152136,-0.05040026,-0.06937654,-0.05505537
-0.041292936,-0.047438655,-0.078882694,-0.14229287,-0.023656262
-0.06348341,-0.08409961,-0.13357708,-0.03140114,0.07327505
-0.028669106,-0.09210848,0.004763613,-0.021850776,-0.055501126
0.03342323,0.013968278,-0.046546258,0.011766598,-0.071454674
0.03588758,-0.005363848,-0.005450687,0.0038721904,-0.10499433
-0.038947526,0.0023652564,-0.010577236,-0.02692205,-0.007823442
0.022816647,0.027947161,-0.0037274782,0.007763003,0.041746788
-0.0002178067,-0.046040796,0.035238884,-0.07030167,-0.009001526
-0.047609758,-0.08681797,-0.08192188,-0.0016898047,0.09388288
-0.052153118,-0.05300236,-0.031496264,8.062894e-05,-0.029216912
-0.073192544,0.017626647,0.038992595,-0.07798108,-0.102828905
0.022046188,0.04554263,-0.08279483,-0.086379334,-0.07571131
-0.06867224,0.010778259,0.03025821,0.21212445,0.077264525
0.02039027,-0.015490998,0.11910444,0.1513248,-0.0014774463
0.07684838,0.08257091,0.010922948,-0.10822218,-0.10291546
0.09579194,0.058702454,-0.04212699,-0.14049405,-0.044494994
-0.03929189,-0.13683085,-0.15068775,-0.055346847,-0.046416312
0.011595079,0.023642782,-0.022092804,-0.034815338,0.05011378
-0.025502127,0.015333644,-0.018746434,0.08195417,0.14113644
0.0069966777,-0.035121232,-0.030210512,-0.02477149,0.08410866
-0.073175125,-0.00080352346,-0.019410672,0.03433962,-0.021966148
-0.06782189,-0.023959272,-0.05196553,-0.024190364,-0.024887946
-0.06274868,-0.014883936,-0.031779595,-0.08881195,-0.00048530102
-0.052150168,0.001795995,-0.081784,0.040179126,0.083558604
-0.04246251,-0.077527724,0.033812046,0.06678854,-0.028757393
-0.0033128143,0.018553719,0.057068437,-0.025277812,-0.077136695
-0.04647023,-0.013996022,-0.0117219845,-0.05630094,-0.0008907108
-0.09267674,0.060778998,-0.014965567,-0.03851868,0.015732426
-0.009176562,0.074230045,0.026594404,-0.0564681,0.07937164
-0.02406313,0.022877367,-0.02252688,-0.061303508,0.12104416
-0.02744634,-0.02636633,-0.055422008,-0.077949055,0.067880295
-0.09831073,-0.030826638,-0.030295044,-0.042281225,0.017336622
-0.047739822,-0.0046793516,-0.04048412,-0.045282595,-0.1376406
0.021892603,0.050350253,-0.03833389,-0.06301395,0.0023115443
0.023062078,-0.018647874,-0.035900038,0.041908734,-0.004988133
-0.05915075,-0.024143476,0.012868,-0.026054764,0.0018553614
-0.056965105,-0.019097436,0.029086726,-0.038841784,-0.013269209
-0.036406454,-0.03987441,-0.016913282,0.036526404,0.040167183
0.066584304,0.019102339,0.075348265,0.012033005,-0.054464642
0.048154656,0.029763095,-0.015945666,-0.03297128,-0.14332423
-0.046493016,-0.073495656,-0.117781416,-0.059898406,-0.115723975
-0.011314168,-0.12544826,-0.10350715,-0.050903063,-0.051962852
-0.05030251,-0.022567404,-0.020396233,0.024671022,-0.026538087
-0.036523413,0.026472615,0.059957623,0.0070357714,-0.020545365
0.027052635,0.07161243,-0.0186523,-0.056446113,-0.052467734
0.029665494,-0.05108568,-0.0050413557,0.015289461,-0.022907516
-0.0011372992,-0.05651743,-0.008292542,0.010578891,0.083901145
0.019195072,-0.02526596,-0.04257518,-0.011262527,-0.076133646
-0.01565806,0.017313786,0.03656836,-0.029685326,-0.04298199
0.071356036,-0.026888222,0.011325096,-0.043212365,-0.051727574
-0.039771862,-0.080958605,-0.043118495,0.0032152191,-0.03048051
0.025249613,-0.047652468,-0.009730557,-0.0042362483,-0.049330518
0.021542894,-0.01942378,-0.0098085385,-0.025756719,-0.08382911
-0.05990591,0.017548015,0.0102103995,0.010195302,-0.072094135
-0.029031482,0.028771782,-0.014414755,0.005459575,-0.009569874
0.020560358,-0.041237794,-0.0077362866,-0.01972184,-0.05060686
0.009907951,-0.009553232,0.0401289,-0.04239425,-0.031488642
-0.058022022,-0.05788353,-0.019610237,0.0026669018,-0.002625685
-0.033372425,8.049461e-05,-0.07570008,0.08450936,0.20057394
0.03521579,0.0322603,-0.03706318,-0.043456875,0.0767558
-0.046618424,0.009015972,-0.04750915,-0.024643388,-0.042313255
-0.026609015,0.0010392112,-0.060030364,-0.09016698,-0.103184514
0.058507554,0.006390184,0.019266495,-0.028251465,0.037413213
-0.0058845864,-0.062559016,0.014584415,-0.011068437,-0.094738364
-0.014545334,-0.050095744,-0.047021,0.04362031,-0.08349422
-0.03353393,-0.028119734,-0.0025223754,-0.025634857,-0.06411459
-0.09325109,-0.045476418,-0.043955013,-0.04685633,-0.008476066
-0.038168833,-0.01663196,0.008827996,-0.07584384,0.0059884684
0.04671,-0.011396032,-0.057524018,-0.044997416,-0.050643068
0.037961002,-0.032706037,-0.014465702,-0.02057363,-0.04303924
-0.039488163,-0.034344364,0.03509328,0.022062318,-0.0063170185
-0.038715772,-0.023515532,-0.009337255,-0.0021425716,-0.033337906
-0.14380391,-0.11121851,0.028376972,-0.01348177,-0.008669442
-0.1033828,-0.05803164,-0.01219247,0.11385226,-0.034965247
-0.011553595,-0.053177595,0.060746428,-0.092252165,-0.039281424
-0.006784784,-0.024661317,0.007492068,-0.018904725,0.10897781
0.006184625,0.029849024,-0.024802458,-0.04678552,-0.1155816
-0.020302365,0.016912976,-0.033087257,-0.04853918,-0.03237967
0.015530787,0.04908343,-0.04180686,-0.06955504,0.109165564
-0.05144752,-0.0076239123,-0.061605107,0.019464012,0.118448064
0.0047292593,-0.02410725,-0.018636445,0.06207866,-0.013156791
-0.0924867,-0.011534111,-0.012946257,-0.09389514,-0.14116904
-0.07693403,0.082327664,-0.015121862,-0.09454609,-0.109388836
0.049867276,0.08954539,-0.05500963,-0.039264556,0.038540002
0.03942506,0.0122635355,-0.00035470715,0.06725019,0.15083751
-0.052668378,-0.060367536,-0.00999665,0.031924803,0.06304594
-0.10103847,-0.057516318,0.04447593,-0.074778326,-0.0779563
