0.01598011,-0.017075274,-0.048650224,-0.034091208,0.00095166615
0.00041335405,0.04273105,-0.02359862,-0.013602317,0.022905476
0.038098466,0.066954106,0.00867071,-0.015662251,-0.00023893018
-0.025633387,-0.0070589934,-0.04164669,-0.056445953,-0.007408456
-0.014410502,-0.03261997,-0.015838979,-0.031219712,-0.033114832
-0.04243842,0.013920431,0.0013161751,0.025685003,0.01742169
-0.055221852,0.008147556,-0.03210577,-0.012545965,-0.017468033
-0.032877196,0.013333382,-0.03836573,0.011062475,0.016299948
-0.0031356525,-0.010207737,0.03658987,-0.0026272808,-0.0037676408
0.023981035,0.015896121,-0.0010812284,0.018122846,0.018363006
0.031888437,-0.021595348,-0.042216927,-0.04890438,-0.013231001
0.02745744,-0.036412537,-0.0060606855,-0.028741485,-0.0004002179
0.0006445186,0.014620713,-0.060760368,-0.017990757,-0.028177818
-0.031694315,0.00989434,0.014278355,-0.036318082,-0.04850434
-0.024525508,0.035789695,-0.052425537,0.017502472,-0.041306574
-0.0041412637,0.028614856,0.047083735,-0.002202331,0.008496605
0.04121458,-0.0015808506,0.03498955,0.023824833,0.0046769395
0.013530478,-0.008801706,-0.057489377,0.008617707,0.01060453
0.03458236,-0.002609115,0.001352529,0.06603168,0.028968276
0.047217328,-0.03921468,0.02450141,0.031502403,0.021143362
-0.020928683,0.005424257,-0.06019494,-0.004161887,0.023741571
-0.04283272,-0.0022246754,0.024096018,0.023768894,0.009113853
0.03506073,-0.008902836,0.019921878,-0.016964843,0.019639028
-0.016312214,-0.015867444,0.015821708,-0.011422635,-0.009881319
0.02690599,0.023433687,-0.038514186,-0.04788834,-0.011150778
0.04377724,0.037557065,-0.037363026,0.015529578,-0.02858646
0.0328601,0.056773327,0.065633714,0.013786531,0.059604786
0.028328994,0.022507513,-0.04943184,-0.023120377,0.00023900754
-0.009149595,-0.043183092,0.029327447,0.025416436,-0.025571808
-0.0012406841,0.0023641034,0.021952761,0.01090157,0.008884503
-0.017856894,-0.055732213,-0.03085333,-0.023412252,0.03861636
-0.00025343843,0.01863437,-0.06715805,-0.00631677,0.013307639
-0.025600186,-0.050628446,-0.03805236,-0.0122660175,0.037647147
-0.017990204,-0.003733371,-0.04625514,-0.011145247,-0.009080795
-0.03190281,-0.021791087,-0.021145169,0.005019866,0.04475289
-0.020094527,-0.05893699,0.029722877,-0.045854717,-0.061090812
-0.03559145,0.03720125,0.042767152,-0.009339235,-0.011346999
0.005196032,0.045260925,0.025312431,0.03628927,0.0665006
0.009869288,0.011765861,0.0361685,-0.002280791,0.030167574
0.031986196,-0.012209775,0.0049377345,0.011909822,-0.0025721397
-0.008578372,-0.036296584,-0.03481576,0.03911929,-0.05279282
0.019108882,-0.039818875,0.036700424,0.03138892,0.009362207
0.03298115,-0.009421048,-0.009587874,0.034401093,0.017739398
0.01991834,-0.015924532,0.04283372,-0.03804475,-0.012392882
-0.03073702,-0.039483584,-0.0029494409,0.032191306,0.013710779
-0.007269996,-0.040617585,-0.059639998,-0.041838877,-0.032311473
-0.035715774,-0.04559072,-0.019450067,-0.017998029,0.021164937
-0.0029888381,0.0111040035,-0.037661787,-0.026974628,-0.029971385
0.00022910925,-0.04405821,-0.04031462,-0.00055286,-0.052996438
-0.022842469,-0.019996516,-0.012668692,0.0071576783,-0.026935346
0.0070362845,-0.06144754,0.017424356,-0.02351635,0.02953255
-0.02385965,-0.01044063,-0.004244759,0.009121856,-0.047962952
0.011462506,0.022710618,-0.0075047053,-0.019692577,0.024054822
-0.021457724,0.04345378,0.01567037,0.07524736,-8.603834e-05
-0.07059563,-0.035915643,-0.009220777,-0.018594047,0.040482655
-0.005540593,-0.0021573654,-0.002444599,-0.013563009,0.0006950452
-0.0095155155,-0.0456093,0.03411361,0.02326642,0.01059405
0.03190828,0.04998722,0.020428404,-0.009767211,-0.0136782825
0.002429428,0.008977119,0.018619666,0.009085112,-0.026123518
-0.012635799,-0.023787716,0.011699742,0.029194314,-0.0055768196
-0.026271563,-0.013575921,0.0047305734,-0.017102133,-0.010232176
0.030711168,0.06133421,-0.017022416,-0.009310731,0.042261768
0.015727246,0.009308068,0.01610039,-0.049521845,-0.05461151
-0.016171692,0.02927424,-0.016143998,0.00742284,-0.05431677
0.02363387,0.030828392,-0.01248057,0.024939124,-0.038847163
-0.08428299,-0.02734627,0.021078901,-0.031097468,-0.006498715
0.044494748,-0.009348971,-0.012942249,0.039155595,0.035465915
0.044382147,0.061424404,0.05806162,0.04917928,0.040433582
-0.041294154,-0.052615345,0.0034511536,-0.05841598,0.007957267
-0.0061571607,-0.0032353443,0.011049025,0.028983718,0.027292686
-0.03414199,0.0062541612,-0.008427264,0.00790395,-0.004399297
-0.041606106,0.004487299,-0.031099174,-0.046509925,-0.05097886
-0.025946219,0.0006386707,-0.0073126177,-0.010265724,-0.03651123
-0.05698808,0.0036214879,0.01118788,-0.034657273,-0.047225196
-0.046584804,-0.029543497,0.033020984,-0.016377399,0.018794717
-0.009226876,-0.024007503,-0.009211209,0.060753714,0.05755121
0.012435481,-0.06671464,0.010106898,-0.02903805,0.024859391
-0.053034805,0.0036629566,-0.040019386,-0.009932023,0.03556924
-0.01801501,0.029922416,0.013484277,0.05431898,0.06658443
0.03166103,-0.048675876,-0.032677986,0.0027909523,-0.040594872
0.008919558,-0.053600892,-0.00202176,-0.0010321236,-0.02734553
-0.034492895,-0.01024713,-0.058642782,-0.043344993,0.002363919
0.034780093,-0.006125932,0.024058135,-0.0049000573,-0.04223309
-0.02742868,-0.006947916,-0.03713151,-0.07095207,-0.012543471
-0.002078346,0.047784884,-0.044684015,-0.04178339,0.0052109226
-0.021288294,-0.06755289,-0.075911455,-0.049264085,0.030707994
-0.0023158318,-0.051132433,-0.008556592,-0.05482163,0.02063281
0.018597597,0.0033433554,-0.03514465,-0.051188223,-0.026059587
0.028766165,-0.030975495,0.019031188,-0.012851425,0.006684881
-0.00539663,-0.020881105,-0.021228204,-0.07087919,-0.022687681
-0.023160977,-0.040663484,-0.019738032,-0.012651701,-0.013610536
0.012520828,-0.019276997,0.030774336,0.012040915,-0.029169979
-0.037172765,0.0006902629,0.054200493,0.09683158,0.11421106
0.046192,-0.0206786,-0.024151888,0.029641554,0.013416941
0.044544224,-0.022201184,0.011323997,-0.024411488,0.02482943
-0.051928215,-0.015771225,-0.0049010934,-0.012927206,-0.018313296
0.024008418,-0.05359535,-0.00052701216,-0.0426411,0.0063594733
-0.03847184,-0.01877424,-0.043364514,-0.03328183,0.018367663
0.039922148,-0.052495867,-0.037909023,0.014534737,-0.04360993
0.029616334,0.026170794,-0.02097276,-0.0038824668,-0.04740057
