0.0340039,-0.0039841766,-0.03305655,0.02878228,0.017607732
-0.046484932,0.0071205404,-0.053186055,-0.06900091,-0.0393524
-0.02699169,-0.026576707,-0.050113935,0.0020867116,-0.010799275
-0.03615754,0.024288483,0.0003964293,0.016219635,-0.059960775
0.0358559,0.031235665,0.039702613,-0.03551961,0.013650819
-0.054193385,-0.051168013,-0.05689353,-0.030472355,-0.0034236393
0.011989497,0.010400512,-0.041553024,-0.0004791349,-0.02978099
0.03012004,-0.039064158,0.032619204,-0.019916305,0.043006897
8.735797e-05,-0.019096063,-0.039399162,-0.0469632,0.012969693
-0.018514669,-0.062278666,0.018666616,-0.026429527,-0.044308897
-0.009059301,-0.038041756,-0.025715144,-0.0061689164,0.00589657
-0.0023113824,-0.04769179,-0.03045019,0.03758345,0.017535808
-0.03955973,0.018921208,-0.0056036334,-0.004419094,-0.024743503
0.006928589,0.054878097,0.019008454,-0.042797368,-0.031634785
0.009003413,-0.042184733,-0.044764835,-0.034380056,-0.009016074
-0.022183754,-0.06914843,-0.06840507,0.015608606,-0.013373628
-0.031865463,-0.012621102,0.055188734,-0.004952055,0.027054032
0.0009441213,0.007749281,-0.005870064,0.03522395,0.031086618
0.04429485,0.04610776,-0.019124571,-0.019938704,-0.002202642
0.04220145,-0.0066264556,-0.059633035,-0.00012418986,-0.024745312
-0.0072782794,0.0062066936,0.034764398,0.029125951,-0.033935547
0.020518756,-0.036656186,-0.014065961,-0.03840665,0.038357157
0.025598615,-0.032860544,-0.02973848,-0.002471048,0.004321147
0.012535399,0.028337682,-0.008026064,-0.027874267,0.015364594
0.02494287,0.0006490745,-0.00066471606,-0.008745084,0.00477732
-0.08529771,-0.01909703,-0.0050399243,-0.0010085065,-0.03734947
-0.079387546,-0.0047787647,0.0135024795,-0.034255903,-0.009873565
0.025268434,0.047352046,0.03521784,0.04352121,-0.025883527
0.00578478,0.0045460043,0.010482331,0.014273512,0.02311009
0.0077457447,-0.026697576,-0.036254704,-0.00395175,-0.03691701
0.06241445,-0.015462615,0.07296153,-0.0058594695,-0.014579991
0.019328587,0.09672391,0.088570826,-0.025864895,-0.044769507
0.012350385,-0.015275322,-0.02353098,-0.025523907,-0.03865488
-0.0473478,-0.06385501,0.008878021,0.024038693,0.0453287
-0.0012675289,-0.02294329,-0.018927928,0.0049976087,0.0112391915
0.05333827,0.061290063,0.0064096516,0.02293797,0.020473544
0.041877672,-0.036903698,-0.04899932,-0.0152011085,-0.03870015
-0.019984018,-0.068675175,-0.03448007,-0.04722089,-0.049908176
-0.01810049,-0.019443903,-0.023378683,0.013033981,-0.02209682
-0.044073462,0.024525845,-0.0010987915,-0.036176648,0.031187478
0.009565789,-0.015556169,-0.044880956,-0.030488856,-0.04060896
0.0065415446,0.0042642266,0.010281239,0.01173638,0.0036526339
0.032414332,-0.04079604,0.03437034,-0.022910433,-0.014413589
0.04281963,-0.0478968,-0.048001405,0.039455745,0.032969523
-0.04530232,0.0110893855,-0.027637577,0.018645596,-0.018313728
-0.018426497,0.04575179,-0.026317224,-0.0060773203,-0.052524976
0.038425487,-0.022312067,-0.047180917,-0.05494328,-0.0048073893
0.0006023234,-0.043939084,-0.0034776018,0.026261237,0.03373619
0.038210813,-0.023999978,-0.06364333,-0.020299884,-0.031561643
-0.026193067,0.025701076,-0.014127248,-0.01323568,-0.05373561
-0.012089307,-0.015132279,-0.0074993805,0.03077863,-0.022113366
-0.037360623,0.061085783,0.013918708,-0.014052905,-0.046858374
0.038128838,0.05162929,0.00037909977,-0.0017831587,0.009733053
-0.020711197,-0.0012118838,-0.04279687,-0.00794142,0.0016847814
-0.046494126,0.0043188334,-0.03021416,-0.03046782,-0.02739214
0.034441084,0.025553696,0.062898,0.020730954,0.0662027
-0.031672552,-0.0077737425,0.009717324,-4.4643006e-05,-0.021073604
0.00848048,0.0038071056,-0.025629226,-0.03220722,0.0036123851
-0.05093729,-0.015024921,-0.05162384,0.009377807,-0.005363044
-0.015490099,-0.025350563,-0.010686791,0.018311871,-0.029880516
0.010317882,-0.011219476,-0.016076501,-0.035430066,-0.01769527
-0.06880235,-0.0803728,-0.0061751427,-0.022775348,-0.020400852
-0.054751564,-0.02138047,0.02371019,-0.03756976,0.0056930003
0.019870391,0.019340886,0.022621254,-0.014614451,-0.018370828
0.06263631,0.0057443893,0.016214605,0.0069553806,0.00788505
-0.017944649,0.054059036,0.025716575,-0.0141370455,0.0014747359
-0.024393547,-0.009428218,-0.060520362,-0.06664499,-0.0029777288
-0.010690769,-0.093563624,-0.038633253,-0.004386577,-0.039528865
-0.030580984,0.017122436,0.030387456,0.030485872,-0.061592855
0.06940196,0.06284836,0.064132705,0.032464195,-0.053068504
-0.0039113015,-0.009193177,-0.0021127835,-0.049133334,-0.05101976
0.056584965,-0.02891193,-0.04355257,0.015197546,0.024478098
-0.007255392,-0.054786913,0.025851766,-0.0011556123,0.02404621
0.0522114,-0.011215767,0.012429236,0.043191053,-0.03341215
-0.00017593591,0.02902814,0.030629609,-0.001968052,-0.03239185
-0.032082137,-0.07030177,-0.04655357,0.024982419,0.026689028
-0.03717609,-0.025385164,0.06794561,0.05211494,-0.0035094507
0.033512734,0.04874001,-0.021649968,-0.021375401,0.031673346
0.020363895,-0.025908532,-0.03230561,-0.034488067,-0.04828404
-0.038247958,-0.018555667,-0.01676445,-0.026979793,0.009673203
-0.014506255,0.036836326,0.020105546,0.008113096,0.029714808
-0.05382005,-0.045610566,-0.0268275,-0.032966904,-0.050176684
0.0074214484,-0.0017664368,0.027212288,-0.01337112,0.026715
-0.05795943,0.044732213,-0.026073137,-0.040846135,0.018643722
0.011966536,-0.01889353,0.0069068926,-0.045694057,-0.035568893
-0.0332464,-0.033134203,-0.025200257,-0.022848329,0.02347001
0.01831886,0.08065087,0.056365572,-0.016456993,-0.050065476
-0.0015985898,0.09113056,0.039035197,-0.050188165,0.01240716
0.024481833,0.008439584,-0.029634412,-0.008705726,0.010974199
0.0023265707,0.008240459,0.009080125,0.0054813772,-0.038381916
0.01086867,0.06276755,0.08210078,0.110859,0.04282764
0.023167538,-0.030255353,0.00793122,-0.0021202052,-0.0044372566
0.00182931,-0.035872556,-0.09024723,-0.046152104,-0.023247886
-0.0049441215,-0.058727525,0.0051844968,-0.076747134,-0.07834249
-0.028487924,-0.05042885,-0.008022793,-0.049274575,-0.05942986
0.039871044,0.024916967,0.028368074,0.06368883,-0.029572764
-0.00070966966,-0.04494976,0.015516483,0.013052352,-0.019126663
-0.026530506,-0.047516335,-0.07399428,-0.040551998,0.005196168
-0.003297218,0.03222731,0.003953623,-0.0679368,0.012509101
-0.020611389,-0.034188874,-0.024044884,0.0024972947,-0.018276878
