-0.0011515529,0.0016881776,0.058954373,-0.012808489,0.025217198
-0.029945433,0.0061038253,0.01048208,0.026776198,-0.011723613
-0.06503476,-0.046899486,-0.019427644,0.035745863,0.036949564
-0.03961356,-0.021177465,-0.031880923,0.056489326,-0.010043731
0.0055788476,-0.0059343567,-0.0375558,-0.0013393927,-0.044435598
-0.027908739,0.00011140594,0.028983315,0.042323403,0.0029535955
-0.030087432,-0.055684015,-0.0034685559,-0.04184567,-0.018303063
0.02881568,0.020766923,-0.03902274,0.025525937,0.0074509196
-0.026457364,0.04041846,0.023285046,0.015281954,-0.02718988
0.031625923,0.0058770995,-0.0029613508,-0.035595406,-0.0060573965
0.029936293,-0.05499559,-0.025134707,0.0030018971,0.012380557
-0.029431818,-0.017053472,-0.007120059,-0.052477624,0.020847326
-0.0058643175,0.038936537,0.02597772,-0.00067695987,0.030791875
-0.0404122,0.0073065986,0.0352161,0.018068688,-0.033085383
0.045823038,-0.0076197255,-0.025014633,0.055034246,0.000266537
-0.050143566,0.0235495,-0.007196909,0.025551474,-0.029102553
-0.01542057,-0.05322983,-0.05711663,-0.054419864,-0.010323619
0.020223461,-0.053323716,-0.051028255,-0.055147715,0.015012654
0.03174707,-0.049292278,0.02463733,-0.037989322,0.015737072
0.027212404,0.04869868,0.03322171,-0.053696793,-0.03231165
0.062253106,-0.015942942,-0.007481145,-0.025293618,-0.04398666
0.06324713,0.05045928,0.014461186,-0.05343041,-0.027908405
0.0029058913,0.061777614,0.029568989,0.03819038,0.017636642
-0.01659396,0.021122653,0.002921663,0.056319434,0.009755241
0.023822622,0.028154042,0.009197343,0.024693048,-0.024809705
0.03941803,0.010369263,0.0061234403,0.004711465,-0.029876053
-0.008932583,-0.019559626,-0.048931222,0.030393666,0.03110641
-0.03828082,-0.08823763,-0.038504105,0.004965713,-0.034639228
-0.017770547,-0.06541879,-0.03247609,-0.039474692,-0.069962
-0.049576383,-0.05957169,-0.005810904,-0.07096118,-0.067000456
0.01361438,-0.04671807,0.003982039,-0.02607678,-0.038726684
-0.0034419608,-0.029076468,-0.0526185,0.032503046,0.0032821102
0.0027423291,-0.007473374,-0.0591916,-0.04257509,0.012779765
0.05560483,-0.03097711,0.017774561,-0.030917294,-0.026240086
0.0048368135,0.026399355,-0.0080287075,0.00043061143,0.03471653
0.017064882,-0.010992016,-0.0069808494,-0.00081406935,0.010780709
0.032252282,-0.015090241,-0.014525392,-0.043597322,0.024223762
-0.04332072,0.031573635,-0.017054457,-0.07343719,0.0011839904
0.0071733515,-0.01368184,0.0022767459,-0.02879337,0.017852753
-0.05719172,0.010969126,0.010701008,0.008726311,-0.00010358626
-0.04463291,0.0035279836,-0.0010037579,0.0005783506,-0.025999397
-0.023631543,0.013621508,0.020495828,-0.02003568,-0.014157113
0.013073903,0.005359235,0.0061910427,0.003749666,-0.020069474
-0.016152367,0.019438108,-0.024581918,0.023968842,0.016405925
0.0033471028,0.004978039,-0.033769198,0.020796856,0.0418627
-0.038199518,-0.028281512,-0.0134817725,0.022822116,-0.0075821863
0.024560146,-0.041133974,0.005931341,0.028153714,0.0048387614
0.0050393096,-0.00079006894,-0.008148836,0.031439546,0.01071248
-0.042822354,0.036308296,-0.008347019,0.027560545,0.074427545
-0.029681979,-0.039297055,0.007347358,0.0499548,0.01145514
-0.004654266,0.066046864,0.01653453,0.023023997,-0.030818611
-0.046348237,-0.014863626,0.037949845,-0.046738382,-0.014566669
0.024120798,-0.028402,-0.023230938,0.02196761,-0.010141509
-0.004386693,0.0020452992,-0.06182365,0.0070509356,-0.027087087
-0.0053090574,0.04614867,-0.013012717,0.035417926,0.05342976
0.024662206,-0.038028967,-0.027034838,0.010399531,-0.05106325
-0.016970972,0.049262345,0.0024095722,-0.019128785,-0.027622864
-0.008273215,0.0018930476,0.0040835063,-0.014251135,0.012041038
0.010046104,-0.018619562,0.03491215,0.020859601,-0.01837156
0.0019668022,0.04539538,-0.017577926,-0.02650617,0.016409894
0.0034073768,0.036215294,0.04527148,0.04620702,0.027211973
0.0068068276,0.040441215,-0.018823907,0.049293816,-0.0018290582
-0.055021387,-0.010232278,0.0105768265,0.04800672,-0.04302258
-0.022077013,-0.06874382,0.013470155,-0.0027121857,-0.0352862
-0.050487142,-0.028553188,-0.041694485,-0.0578948,0.014855601
-0.0073320167,0.007249924,0.03199228,0.026070945,0.057357717
-0.03976191,0.020192109,-0.030044138,0.023530383,0.023346033
-0.049308248,0.013244449,-0.017088845,0.009949679,-0.0017062426
-0.078048415,-0.07852894,-0.07356726,0.029856123,-0.008569466
-0.020375773,-0.0740286,-0.021526061,0.026765654,-0.02716513
-0.0583502,-0.009176705,-0.0069467807,-0.015881475,-0.033377033
-0.051328063,-0.0048907185,0.02471393,0.0044119232,-0.02249678
-0.049615175,-0.050168224,-0.03810974,-0.0053811884,0.057607926
-0.016797699,0.046787508,-0.0067963065,-0.00065009075,0.023590747
0.04120014,-0.012074044,0.051573366,0.035943285,0.046579577
-0.005353023,-0.017680515,-0.042930584,-0.069765255,-0.06214916
0.059340253,0.009352321,-0.019608578,-0.07043127,-0.049605343
-0.030567558,0.024072772,-0.080763005,-0.08791272,-0.048026774
-0.0031738426,0.010837499,0.0043385993,-0.051846698,-0.023163598
0.055839483,0.03679007,-0.013838562,-0.0011568408,-0.025447529
0.0757068,-0.0067981468,0.022484323,-0.0095934905,-0.019381016
0.055544388,0.04123399,0.046614572,-0.0058993604,0.022395192
0.045526296,0.034769803,0.0016781876,0.016613599,-0.014464431
0.034285232,0.013358847,0.04302996,-0.015332625,0.020389134
1.4411157e-05,-0.027120616,0.045211367,-0.032691356,-0.005904643
-0.055015013,0.0033550598,0.02854303,-0.008072809,0.016702052
0.029369192,-0.0417957,-0.046498965,0.013957541,0.014711668
0.03450959,0.039747607,0.0059289276,0.0065446408,-0.036141045
-0.004558047,0.015977995,0.058218617,-0.0018018344,-0.03375635
0.042240966,0.021093566,0.06818521,0.039922476,0.041414395
0.07530116,-0.06838334,-0.047440924,-0.06133826,-0.06039814
0.11237439,0.062237192,-0.09150605,-0.0696728,-0.069876306
-0.018032435,0.04445569,-0.018059844,-0.06624318,-0.00260557
-0.015349753,-0.022465749,0.041457802,-0.023779638,-0.061041135
-0.046442375,0.02152057,0.015609866,0.05746855,0.025499817
-0.0153584005,-0.08676629,-0.06565851,0.0057418477,-0.012689055
0.058678,-0.036229007,-0.013588284,-0.05858428,-0.039533
0.036412075,0.046405118,0.052751593,-0.02049373,-0.0138364695
0.014591428,0.030181445,0.066236444,-0.016700538,-0.02352131
-0.051083215,-0.031322833,0.062843874,-0.0016150039,0.00033356537
