0.012514909,-0.018900258,-0.01673315,0.00087518047,0.03451798
0.0018439038,0.020394146,0.0087081,-0.020901008,-0.0065445793
-0.0047341944,0.06960454,0.034681544,0.048891082,0.00023882871
-0.036217008,0.034359444,0.009081997,0.045405988,-0.02442037
-0.014134349,-0.011219097,0.016602326,0.024398267,0.021748705
0.021137694,-0.05309365,-0.04579969,-0.03170945,-0.051918197
-0.023540791,-0.0036073145,-0.030624889,-0.05919427,-0.020734094
-0.03483708,-0.0072041713,-0.053238403,-0.05243846,-0.00036407742
-0.0075910897,-0.011537268,-0.016015247,-0.02311898,-0.014562489
-0.033385504,0.008947077,0.032082584,-0.0045706667,0.024378277
0.06593206,-0.028843936,0.009402072,-0.029837279,0.032912467
0.03193779,0.033343587,0.07467551,-0.024511876,-0.005163505
-0.030997021,0.0023640331,-0.007907859,0.018818477,-0.027731229
-0.056047365,-0.005901207,-0.025394302,-0.017654074,-0.022250837
0.01512643,-0.003351519,-0.005215418,0.018985605,-0.0017342359
-0.0022859026,0.036860544,-0.031037115,-0.008203052,0.004223106
0.10346615,0.08486933,-0.034586553,-0.06202767,-0.042449024
0.014117911,0.106036834,0.05967173,0.07657038,-0.010827779
0.06601731,0.09154637,0.09375902,0.08311963,0.065749824
0.046040297,0.0067222253,-0.045712117,0.038636804,0.005354119
-0.01941316,0.04209506,0.02410229,0.037463546,0.013263586
0.050292235,0.025379675,0.0050552827,-0.028298551,-0.023229985
0.032829903,-0.034698617,0.01216389,0.0072847297,0.004200194
0.048182786,-0.026719853,-0.034384225,-0.035616495,0.008162272
-0.014445099,0.0031973866,-0.0067214584,0.04106845,-0.04091336
0.048433505,0.08762684,-0.01898233,-0.029029565,0.08319277
-0.021029886,0.055329498,0.115705594,0.079281025,-0.0026113256
-0.06710655,0.0010892784,-0.021309849,0.0002538216,0.06256281
-0.077017285,-0.0847232,-0.07716566,0.013593266,0.056683555
-0.057586268,-0.03394589,-0.035436254,-0.023185778,-0.01687501
0.028746348,0.008993234,-0.021302238,0.026389947,-0.008099925
0.031422105,-0.013062768,-0.038817234,0.00057509245,-0.011121877
0.008969025,-0.0073110037,0.003134125,0.042761046,-0.0025453414
-0.0010549873,-0.018092072,0.038896035,0.01837964,-0.021974875
0.026912482,0.026414707,-0.010959728,-0.025527641,0.015530217
-0.006676854,0.047872957,-0.012224158,0.025177045,-0.03754892
0.02244344,0.014279796,0.0015381256,0.016199328,-0.036905438
0.0066163004,-0.036762975,-0.05026184,-0.040143795,-0.03803753
-0.018638808,-0.0464527,-0.016558254,-0.029792588,-0.03790882
-0.005334903,-0.008113462,-0.032701697,-0.022105612,-0.0046811816
-0.014660086,-0.041601896,-0.036764205,-0.012593988,0.012930891
-0.013056299,0.034099504,0.019720523,-0.028837202,0.015988257
0.0070738257,0.012048026,0.05267938,0.047533184,-0.025858173
-0.01529003,-0.018801818,0.02108499,0.028620714,0.006796787
-0.0396209,-0.08062778,-0.04451039,-0.008610321,-0.035379253
0.01490358,-0.0048261946,0.063788384,0.030349145,0.020319892
-0.070923835,0.06525811,0.04981244,0.0065053036,0.053499345
0.020472169,-0.0033010114,0.012319708,-0.033088494,0.021226496
0.012318778,-0.040156197,-0.01937904,0.025745265,0.016070766
0.03672706,0.056507606,0.06030085,-0.008665756,0.04030742
0.025577387,0.047769565,-0.004260204,0.037414785,0.036680378
0.041822203,0.013092716,0.032907423,0.012987791,0.038757518
0.010462917,0.030515356,0.067465045,0.04928754,0.042785376
0.036101595,0.020677272,0.0070086946,0.0728502,-0.019449933
0.04344576,-0.0023357128,-0.023119945,-0.02568761,-0.025304131
-0.036663916,-0.023336073,-0.0027279214,-0.047896396,0.038974945
0.0034551616,-0.008258823,-0.062132295,0.012558591,-0.03706333
-0.06580437,-0.009152657,0.025393018,-0.015166101,-0.022455672
-0.009093209,0.0048144525,0.01942311,0.025367567,0.014541447
-0.022441087,-0.045074213,-0.050898578,0.012311831,-0.062366933
0.019652521,0.053268418,0.0008458068,-0.006208101,0.036745097
-0.017105632,0.06518505,0.012643392,-0.014268984,-0.033387795
-0.033774648,-0.03736468,-0.0041467133,-0.056378514,0.019382957
0.0038897044,0.037312724,0.02810572,-0.040476166,0.021546861
0.030622235,0.02020709,0.081874795,-0.0009800893,-0.02311268
0.03457422,0.036037933,-0.011081711,0.042026255,0.024836415
0.0071359007,0.0033787666,-0.03521219,0.011043534,0.007996388
-0.04930013,0.015153948,0.034709353,-0.01886366,0.009958327
-0.038161017,-0.06171619,-0.036612947,0.044560533,0.030399313
0.017707348,0.02473816,-0.0022355183,0.02793565,0.003366705
-0.0052595157,0.04136532,0.025632152,0.031167753,-0.03908179
0.03527551,-0.006498951,0.0031256734,-0.04111747,0.032009695
0.01707622,-0.0147838555,-0.026648302,0.0038589109,0.042501006
-0.022737822,-0.0070325322,0.011718651,0.027685802,0.01727508
0.03270564,0.08237108,0.09901998,0.047557592,0.058256384
-0.036805984,0.01624725,0.035606645,-0.02146844,-0.036152877
0.006564555,-0.04368844,-0.04384451,-0.026149023,-0.036765195
-0.08515578,-0.068069324,-0.026350752,-0.000367219,-0.015072672
-0.008700904,0.0011808729,0.0058227014,0.009646164,-0.04463647
0.031902436,-0.032899104,-0.044482745,-0.008128244,0.0053426893
0.015779551,0.04315321,-0.014152828,-0.016819458,0.069164574
0.046309557,0.07975101,0.06708186,0.0033545734,-0.00014670801
-0.030967705,0.037329987,0.029655943,-0.014485659,0.01540919
0.024576625,0.040460773,0.010888273,0.06949569,0.029225625
-0.034073766,0.044582285,0.018393047,0.004427437,0.008758115
0.06588076,-0.043532163,0.005750239,0.021908715,0.044018988
0.06911372,0.034333143,-0.0352164,-0.020501679,-0.012941408
0.030382246,0.09243201,0.08112227,0.05099524,-0.031007633
0.059707645,0.09580354,0.08648841,0.027995119,0.01755145
0.0022692038,-0.049539395,0.021371655,0.04565732,0.00509863
0.02097814,0.0127618965,-0.037450466,0.008957008,0.010422674
-0.0108987065,-0.023134975,-0.02229982,-0.08826599,-0.0688116
0.042486884,-0.038255464,-0.04801671,0.023701938,0.012856394
-0.032344002,-0.05411044,-0.018119676,0.000384266,0.004586336
-0.022091929,-0.005750482,-0.021087404,-0.0057046614,-0.028255347
0.030834753,0.031098781,0.027724354,0.073636405,0.05341692
-0.03452904,0.0037884668,0.09284385,-0.015492163,-0.04149251
0.038625218,-0.012416875,0.023096938,0.011684984,0.036138587
-0.026323635,-0.05222526,0.006523224,-0.001824852,-0.025065944
0.048502635,0.07252835,0.11200717,0.06041871,-0.0019778304
