-0.0013434698,-0.0228681,0.01283337,-0.023634074,-0.005556387
-0.019991664,0.03344134,-0.026108023,0.023680631,-0.034306444
-0.036966402,0.048415568,-0.03161072,-0.01413458,0.020768201
-0.048941273,-0.044067506,0.011265148,0.048003003,0.0151207205
0.018000139,0.022719411,0.040786985,-0.014323153,-0.029290078
0.01750716,0.026954351,-0.043837756,-0.0521433,-0.002950795
0.0016153042,0.0125901,-0.026570357,0.0134750595,0.05150742
0.034832507,0.009099636,-0.036901418,0.0022683302,0.023384366
0.019843377,-0.059666175,-0.05232847,-0.02806093,-0.007621642
-0.0019674334,0.014664631,0.01714902,-0.042840138,-0.02203826
-0.019756423,-0.050019875,-0.043673202,-0.01398482,0.0067354464
-0.018306045,-0.0058406238,0.0061108014,-0.041563183,-0.010464821
-0.0033109921,-0.048649233,-0.01789367,-0.023148032,-0.00044810068
-0.020391248,-0.02399546,0.03121528,-0.0020764926,0.029903432
0.035942696,0.053238973,0.035154358,0.0119254505,0.04884596
0.04465417,0.0027019684,-0.034442708,0.02108884,0.05939293
0.02874365,0.008676939,0.01623768,0.02063139,0.008927615
0.033148754,0.053471193,0.053758316,-0.0048584696,-0.014715661
0.012889796,0.013133627,-0.01136673,-0.002122871,0.029465517
-0.013647331,0.025398234,-0.03564953,-0.011908434,-0.03732807
0.034002133,-0.017458336,0.011499647,0.037474044,0.033169504
-0.033754263,-0.03604104,0.036891215,-0.0020711003,-0.04417288
0.020014297,0.035683353,-0.02016736,-0.006839733,-0.0057805916
0.0519566,0.01933884,0.025002627,-0.0057759807,-0.010713883
-0.01290904,-0.025078034,0.028190443,-0.039962906,0.01098853
-0.008686074,-0.041303635,-0.013588054,-0.053392038,0.017178128
-0.042716056,-0.053690784,-0.026487492,-0.05706032,-0.02975991
-0.05977151,-0.06936579,-0.019628424,-0.046437226,-0.00897532
0.024372226,0.013112829,0.006784756,-0.007160359,0.024181692
0.1066319,0.1305875,0.074603386,0.084511794,0.04016592
0.054867752,-0.007673741,0.032772306,0.036541533,0.011848726
-0.030994715,-0.026588298,-0.03666585,0.031048838,-0.012613826
-0.009999076,0.001498874,0.05661071,0.034113675,-0.024293667
-0.049165946,-0.038768426,0.014154238,0.023501508,-0.040276997
0.012442199,-0.009327334,-0.040291335,0.020201072,-0.02794022
0.049854077,-0.0006895979,0.026624415,-0.002312858,-0.02694968
0.009949591,0.0071329535,0.037001893,0.012712798,0.029783417
-0.010774602,-0.0016899295,-0.025916182,-0.03684516,0.025554715
0.039133128,0.03027773,-0.008836035,-0.0050869132,-0.014721444
-0.034734268,0.009303487,0.004570203,-0.00978844,0.021694586
0.041259527,-0.011032693,0.003869281,0.005891361,0.041529037
-0.040878616,-0.027497122,-0.028996767,0.02184307,-0.036300443
-0.024888948,-0.061608303,-0.0112017365,-0.034116022,0.0032391243
-0.045110323,-0.049573395,-0.05373427,0.006798457,-0.018547548
-0.02346577,0.026151795,0.021907352,-0.014435465,0.0035110512
-0.0430686,0.023361422,-0.010780261,-0.036316276,-0.041261762
0.009962962,-0.011455546,-0.018909156,0.044069637,-0.008738577
0.012956843,-0.0042943447,0.030381953,0.0031632595,-0.01700734
0.054454297,0.036438733,0.025967337,-0.01942292,-0.014989246
0.07032745,0.07972329,0.066800065,0.022387741,-0.04098838
0.02524817,0.01591979,0.018682657,0.046228435,0.03163579
0.038357787,0.009461434,0.035095736,0.010807992,-0.02441128
-0.04051883,0.019099178,0.053136874,0.015771002,-0.02419743
0.008471399,0.0011906158,0.012528835,0.0042471234,-0.050800186
0.0032383075,0.025538139,0.02803959,-0.038003404,-0.004614502
0.0407367,0.021999326,0.018966723,-0.010584708,-0.025281696
-0.0263837,-0.011515801,0.018135345,-0.013803374,-0.040713713
-0.013827873,-0.026570043,0.041060776,0.070276946,-0.010857638
-0.022545248,-0.03125688,-0.04466153,-0.014144344,-0.045251805
0.01390768,-0.04462419,0.0071391454,0.02364569,-0.009386186
-0.0017857308,-0.029094536,0.015065957,-0.027862472,0.031874813
-0.0026377267,-0.04452124,-0.002443234,0.004850155,-0.031210316
-0.01746185,-0.023775874,-0.030968215,0.02857039,0.008958471
-0.023764374,0.040503956,0.081344076,-0.0032482184,0.012736081
0.05080965,0.00824809,0.018490171,0.0075327726,-0.016348727
0.02207455,0.013887394,0.01627897,0.006122885,0.008486539
0.008879076,0.030973537,0.03056676,-0.009516939,0.040726475
-0.03219723,-0.05484754,-0.0024401746,0.04064578,0.018548792
-0.007625323,0.014801913,0.046684463,-0.02660697,-0.031269692
-0.032995977,-0.005555392,0.0010393577,0.0033733002,0.01853803
0.013456799,0.020810671,-0.0092247175,-0.044369686,-0.0066716173
-0.01722816,0.00967713,0.00868156,0.035831474,-0.01823209
-0.015267574,-0.044118997,0.037651066,0.021910932,-0.032242104
-0.031076327,0.030005032,0.064132765,0.050743435,0.041638114
0.009331437,0.026363518,-0.018354885,0.009699811,0.011385448
0.042796765,0.03753005,-0.031143934,-0.025533613,-0.002075615
0.025800781,0.0048542856,0.012301476,0.046386804,0.032543693
-0.023341326,-0.0564055,-0.025907978,0.025503559,-0.035586882
0.02033024,-0.037823346,-0.008034417,0.012941193,-0.032538734
-0.059617296,-0.06458717,-0.051319,-0.036849298,-0.010858498
0.038976967,-0.007208914,0.046140846,0.0060483264,0.042087972
-0.009547108,-0.03398615,-0.034592953,-0.008967271,0.033221997
0.009933939,0.061007205,0.056782506,0.018154893,-0.013409037
-0.014810062,0.003080979,0.02858903,-0.01563755,0.034548964
0.03458472,0.053148404,-0.009118095,0.05118418,-0.015727563
-0.01959748,-0.042481434,-0.03221445,-0.02619314,0.015428586
-0.027867958,-0.04420346,-0.017081704,-0.023879562,-0.019040257
-0.024507668,0.06275713,0.029676484,-0.030340763,-0.012020937
-0.028224928,-0.008409142,-0.020112183,-0.047929924,0.0060514477
-0.022024766,-0.054947414,0.023452885,0.0043941126,0.02464929
-0.041322384,0.035657514,-0.021645809,0.024288053,-0.0134839
0.028508604,-0.00938028,0.03411238,0.022755165,-0.030807905
0.029832713,-0.054101054,-0.009630431,0.021980893,0.025413424
-0.040830586,0.009402802,-0.025536487,0.03398728,0.05005909
-0.041534845,-0.0474033,-0.01068654,0.00799319,-0.0069987136
-0.03258985,-0.017599745,-0.0074408753,-0.024890436,-0.043332577
0.014825265,-3.5766872e-05,0.03635163,-0.035616193,0.008729484
-0.016747387,-0.046006072,-0.057661653,-0.0413372,0.0033358517
0.038614407,0.005495383,-0.0073246397,0.024479587,-0.008661748
0.053779796,0.044552315,0.06119562,-0.017106213,0.015245434
