-0.016513905,0.037546046,0.010625599,-0.012130904,0.026883079
0.040451515,-0.009663174,-0.030145517,-0.013573619,-0.02225095
-0.023444247,-0.04112872,-0.024888927,-0.045678686,0.0017246761
-0.057062637,0.009054457,0.016294291,0.009229123,-0.051413238
0.022241732,0.038387995,0.0009718817,0.014386644,0.025084848
-0.0409447,0.01416113,-0.026245376,0.011164165,-0.028703863
-0.017901054,0.05053351,-0.008382708,0.0064436975,0.004159362
-0.05476681,0.07621964,0.0039439765,-0.024951462,-0.051518485
-0.039250933,0.042566236,0.08090149,0.04787002,-0.011858737
-0.0464647,0.07314377,-0.014408092,0.035900995,-0.0151319625
0.0063561243,0.050440244,-0.0030220102,-0.0042376556,0.035898123
-0.047183055,-0.01843856,0.04133088,-0.018065186,-0.011393618
-0.033417467,0.024898315,0.049751554,0.06161693,0.039283417
-0.08291561,-0.037619766,0.03085495,0.02344984,-0.030649314
-0.045008864,-0.042924345,0.01166662,-0.0071213227,-0.04276042
0.04637706,-0.00021402954,-0.028951667,-0.05400213,-0.027772117
-0.017161604,0.021680752,-0.025046501,0.010812464,-0.017276518
0.01586814,0.0010687207,0.0027832456,-0.044309907,-0.019433742
0.0045324014,0.041545622,-0.024228856,-0.006826,-0.037314635
-0.02125665,0.013447958,0.03547669,-0.029843606,-0.00064607506
0.020168755,0.018906154,-0.043100856,0.026273344,-0.01443925
0.015625682,-0.032687943,-0.033866767,0.0030695947,-0.03582176
-0.00047498295,0.017947309,-0.0036458191,-0.013452908,0.0152544
-0.03680683,-0.052490164,0.030030739,0.001887007,-0.036798697
-0.017203024,0.011086608,-0.04772786,-0.029520173,-0.036072858
0.008798152,0.021297704,0.0578638,0.06357393,0.0022363001
-0.022482166,0.020600736,0.028655134,0.080176964,0.053656906
-0.091311455,-0.061154842,0.060202748,0.010593255,-0.0005691758
-0.09142219,-0.09698622,-0.016260134,0.045126747,0.04006776
-0.06806698,0.0016889564,-0.025770916,0.047692053,0.02180115
-0.035517976,-0.047523085,-0.038816664,0.0033680787,0.008399548
0.02519456,0.022635618,0.019967737,-0.041837905,-0.04477779
-0.021643246,0.007143768,-0.055361733,-0.024157716,-0.0034899043
0.028938483,0.01909352,-0.001724872,0.029067405,0.0029013997
-0.001316823,-0.033470377,-0.003721973,-0.019732676,0.04342701
-0.0121851,-0.03347388,-0.007973776,0.0013141511,-0.033626746
-0.034808416,0.005341876,-0.013740013,-0.009451186,-0.035366468
0.015204954,0.009756005,0.042569965,0.029267162,0.0060741496
-0.030855302,0.027209666,-0.02483177,-0.012331371,-0.039062098
-0.012787242,0.0024057552,-0.011023595,0.03298026,-0.023436613
-0.0020364034,-0.0013143929,0.015923088,0.013071498,0.010901854
-0.047517646,0.029777462,0.048382383,-0.02406912,-0.031933468
0.023899032,-0.039870594,0.04896507,0.047032982,0.024041142
0.0041399393,0.0023051628,0.006717082,0.009179726,0.00054915855
0.022596383,-0.063212104,0.027048474,0.0259058,0.018656608
-0.036754437,-0.04154531,-0.02860493,0.028956383,0.0020978996
0.019092707,-0.020601368,-0.011973734,-0.008112544,0.026100859
0.026275026,-0.034765113,-0.0028500888,-0.033044428,0.026322706
0.038603697,0.014058916,-0.058247868,-0.023667054,-0.0048625683
0.04179725,-0.045224678,-4.9801263e-05,-0.04840343,-0.02637697
0.01972086,-0.040101275,0.016972203,0.015083209,0.016557895
0.020095617,0.011082867,0.008370445,-0.035620354,0.01869409
-0.019771587,0.024846047,0.007472111,0.036111336,-0.01368753
-0.027173048,-0.02080976,-0.008893335,-0.008346407,-0.01308492
-0.026845528,0.027296126,-0.019990716,-0.04842771,-0.037000746
-0.0073531433,0.013804024,0.026385637,-0.017257804,0.04083431
0.037895974,0.008259018,-0.02856395,0.03678717,-0.004011495
0.046794664,0.019766128,-0.003885175,-0.043329082,-0.02595993
-0.015257207,-0.042235218,-0.049601637,0.034016635,0.0048905285
-0.022540633,-0.05206374,-0.001760159,0.018449673,0.054949865
-0.036616195,0.02494907,0.008715151,-0.044017524,-0.0066295913
-0.012477332,-0.0026854668,-0.0313896,-0.018124022,0.031338915
-0.05249685,-0.0027203562,-0.0175771,-0.047823496,-0.018354792
-0.04827214,-0.01016262,-0.03649041,-0.014613269,-0.033318397
-0.013601759,0.034825306,0.028323824,-0.035352785,-0.04415964
-0.013612473,-0.033527117,0.019922249,-0.04360783,-0.041114878
-0.015455608,0.054435935,0.038382206,0.035742268,-0.005815
-0.02342218,0.051457055,0.023334123,0.02074878,0.0067386455
0.0076439083,0.025107551,0.01831091,-0.028516326,0.03694405
0.0074942987,0.017366353,-0.04694161,0.039589476,-0.025579706
-0.0095958,0.03736004,0.003264264,0.01990022,-0.013200992
-0.030988423,-0.04503408,0.0009322755,0.005063161,-0.036025334
-0.017846981,-0.01455514,0.0020379517,-0.05441414,-0.0026990087
-0.028247708,-0.0034705733,0.0076913848,-0.039922237,-0.0013889887
-0.0040621827,-0.004895211,0.0052542975,-0.04079923,0.017998165
-0.026260164,-0.029365575,-0.05815875,-0.015528037,-0.0027614895
0.04329774,-0.022131903,-0.03741092,0.020836918,-0.025906157
0.03045593,0.02007697,0.035124343,-0.032851357,0.017704694
0.027067434,-0.01450808,-0.028849466,0.037188224,-0.037211068
0.036391567,0.044250637,-0.046544358,-0.022882758,0.021864556
-0.026174247,0.0039806725,0.007489159,-0.01921578,-0.013460913
0.042094696,0.008185216,0.023033338,0.00012331623,0.018864991
-0.02680365,0.020531606,-0.014304501,0.021881728,-0.035674073
-0.04488935,-0.0437809,-0.034244124,0.020874888,-0.04851723
-0.0017325747,0.004794641,-0.03803858,0.035615686,0.045919217
-0.02882327,0.05573487,0.041074608,-0.038714092,-0.010931484
0.0048579588,0.06581596,-0.01870123,0.007966082,-0.05006786
0.0064537176,-0.007893528,-0.018429918,0.014051674,0.025169788
-0.04405005,0.019422662,0.022373728,0.039791197,0.0056423317
-0.024680208,-0.030226845,-0.004980268,-0.006487787,-0.0066075935
-0.0006502571,-0.01023946,-0.03567197,0.03104679,0.044974703
0.053827357,0.0397623,-0.021007948,-0.025611423,-0.0049983645
-0.019367447,-0.012625995,-0.02789258,0.01955991,-0.026755022
0.043241628,0.0018142583,0.008680919,-0.017209604,0.040340934
0.009072277,0.028257623,0.01925144,0.041368183,-0.03623888
-0.024937361,-0.041320086,-0.01541794,-0.012333537,0.013252276
-0.048616987,-0.061007142,0.0026530977,-0.044474788,0.0065286933
-0.027548267,-0.036918793,-0.024111474,0.0125298835,-0.034200873
-0.03049828,-0.037449185,-0.014258281,-0.002361738,-0.04806173
-0.0527842,0.01868227,0.008676751,-0.043452594,0.007914921
