-0.0058498047,-0.012275064,-0.0016495446,0.031710684,0.03416256
0.04361358,0.010627894,0.021211766,0.009972353,0.018597946
0.037902005,-0.0092179235,-0.0044889953,-0.032360815,0.008819858
0.04060925,-0.034608655,0.030239172,0.02632143,-0.027915666
-0.009936201,-0.03145459,0.002812505,0.019461745,0.0126216775
0.019191457,0.04521039,-0.005739559,0.046443272,0.04297357
-0.037172325,-0.0049258852,0.029191166,0.009237541,0.016114723
-0.048658866,0.013859722,-0.042417422,0.019058242,-0.0005972845
-0.026403759,-0.050739262,-0.035012294,0.009055223,0.016289482
-0.011643485,0.016517486,-0.03129342,0.014228739,0.0024363098
0.033490274,0.009557015,0.032198843,0.018692922,0.036358092
0.016987136,-0.009684882,0.021337364,0.016777968,-0.0146660395
0.001970918,-0.0026283746,-7.920624e-05,0.005873364,-0.015882576
0.0080184145,0.021962686,0.030764608,0.0039453786,-0.02387755
-0.0034718558,-0.053773366,-0.018741315,-0.064554185,0.03569908
-0.060586754,0.012443937,-0.031261347,-0.03816375,-0.017468974
0.0027029188,-0.047665443,-0.015088041,-0.010484779,-0.043103434
8.600904e-05,-0.01074837,-0.053136405,-0.007650384,0.004497187
-4.4619082e-05,-0.047778405,-0.028547933,-0.03931201,-0.0023847248
0.0041699237,-0.040737223,0.04378919,0.051563285,-0.022328014
-0.035076726,0.003085774,0.035570018,-0.0056763557,0.02528885
-0.017514188,-0.036496997,-0.04014788,-0.015943535,0.027819397
0.008400119,-0.028791348,-0.045800723,0.035255503,0.03981821
-0.005537769,-0.015849933,0.03350574,0.029033042,0.043042336
-0.017046995,-0.024350503,-0.042579133,-0.022675948,0.023623286
0.037365597,0.07183157,0.014232928,0.0019399672,-0.033822156
0.005018801,0.062811084,0.06340695,0.026761418,0.03678116
0.035024155,0.052449632,0.037564352,0.03336216,0.0532816
0.012527962,0.03969057,-0.04457586,-0.019993585,-0.016062094
0.009594329,-0.031741012,-0.01217518,-0.070190564,-0.00042348605
-0.038462568,-0.040380016,0.030165255,-0.04445056,-0.03513993
-0.024627915,-0.05142891,-0.02631934,-0.053228572,-0.0023864524
-0.054553676,0.0043751523,-0.01188967,0.009682013,0.00936305
-0.012218612,0.044033717,0.024342163,-0.033534065,-0.059150673
-0.0350286,0.037700534,-0.021309447,-0.03963784,0.00723845
0.003104127,0.024311097,0.026795873,0.012509578,-0.03300975
0.031613268,-0.019801736,0.015873706,-0.0026714993,-0.032122016
-0.0010945279,0.007886881,-0.00949943,0.026649421,-0.010938088
-0.04171045,-0.00786814,-0.0060545355,0.013715783,-0.036244575
-0.030126851,0.02425768,-0.007963001,-0.0037897234,0.0052602165
-0.015502143,0.0050696526,0.032213017,-0.016967217,0.01356753
0.040953614,0.053741362,-0.03174374,0.037721913,0.026410777
0.053299624,0.058537774,0.032232136,0.011037795,0.030165503
-0.023390193,0.058771297,0.040648837,0.016426232,0.027139265
0.04270191,-0.00075303554,-0.028012913,-0.056288585,0.020627668
0.040573563,-0.011680077,-0.02099594,0.0023865432,0.03943478
0.020724334,0.017190438,-0.010188784,-0.047387537,-0.034270518
-0.041490942,-0.016503263,-0.037944008,-0.02109455,0.00784288
-0.056400575,-0.014399992,-0.00047429907,0.027135432,-0.039669674
-0.01801837,0.036923155,0.0012974346,0.016921181,0.016415339
-0.02889104,-0.017708298,0.021873096,0.005882688,0.017382158
0.01558215,0.017111594,0.028860841,-0.044515263,0.00630434
0.031024234,-0.031513095,-0.011284885,-0.0462098,-0.020951826
0.0044207573,0.02990852,-0.02611367,0.030993152,-0.043840796
0.03329572,-0.015562123,-0.024766702,-0.011441692,-0.02405596
-0.023293264,-0.015563319,0.0114174895,0.016546965,-0.035458528
0.015871907,-0.008189388,0.031254414,-0.007349127,0.019783754
-0.03397933,0.024993442,0.040645175,-0.04429484,-0.008451282
-0.03322285,0.007864801,-0.0034741433,-0.024544636,-0.048116244
0.04652323,0.06210296,-0.0148772085,-0.045748312,0.009123221
0.011521334,0.010359248,-0.046553977,-0.014030568,-0.02910721
-0.012344591,-0.011257009,0.018596198,-0.03859011,0.029295497
-0.008652898,-0.050837237,0.013217362,-0.0341871,-0.009732839
-0.008712334,0.0072504077,-0.023940682,-0.03429354,-0.0060096565
-0.008360835,-0.014677016,-0.038881518,0.024655476,0.003876344
0.02696484,-0.014372912,0.03310381,0.039047536,-0.02840193
-0.0386423,-0.03632682,0.016916767,0.026375463,-0.008287098
-0.01453669,0.018595288,0.028257491,0.02583689,0.035665393
-0.035201825,-0.008564452,0.017361138,-0.009447094,-0.014917626
-0.030584,-0.03400053,-0.008457253,0.024037318,-0.01685136
-0.04239314,0.038088415,-0.046802126,-0.0028395583,0.01995144
-0.054222282,-0.006608514,-0.051223587,-0.032633044,-0.0017445533
-0.019201009,-0.032606117,-0.039615784,-0.003734139,-0.015817372
0.019529969,0.026077267,-0.026501596,0.023977697,-0.019965334
-0.031761408,0.002745702,-0.012603367,0.0013486121,-0.028374555
0.028921334,-0.0092853755,0.01807394,0.018258732,-0.014367897
0.0044832653,0.024741344,-0.03510281,-0.02163,-0.008369313
-0.037138175,0.011894753,-0.019497687,-0.040071163,-0.03642017
-0.052668497,0.019558523,-0.03333357,-0.05147414,-0.0013286629
-0.0034414998,0.020831842,0.018067382,0.02397543,-0.04497832
0.029028585,0.007764254,0.036557797,-0.003170686,-0.024435999
0.03442937,-0.012102437,0.014166739,0.010427605,0.0107415775
-0.043007024,-0.038526546,-0.016359042,0.0039301435,0.039015215
-0.013068248,0.0021713695,0.04410036,0.0029785486,-0.04459195
-0.036375917,-0.04026049,0.01987478,-0.037142765,-0.010955573
-0.04591016,-0.05021189,-0.016842669,-3.5151803e-05,0.012144583
-0.03182371,-0.043982223,0.012822958,-0.03463998,0.008953602
-0.037046105,0.0031890213,-0.034401286,-0.019196052,0.036157344
0.04091757,-0.020136937,0.023497898,0.04694314,-0.015004199
0.0021062463,0.03029814,-0.018463183,-0.034584567,0.0036533338
-0.012449286,-0.008471388,-0.015603692,0.019900825,-0.017797891
-0.016132122,-0.04917872,-0.024154011,-0.0006820333,-0.015823476
-0.0018114314,-0.025598733,-0.036387645,-0.022186521,-0.024630819
0.0021729923,0.014570976,-0.0068979124,-0.0023929535,0.004082299
-0.013114028,-0.012441597,-0.032260463,-0.0045680813,-0.023505233
-0.029093074,-0.026575763,0.004263367,0.03485254,-0.013563971
-0.04816443,0.019486906,-0.013645892,-0.032993525,-0.022309666
-0.04252014,0.013787862,-0.034049705,0.023197511,0.036210123
-0.025643753,-0.025921574,0.0064156945,-0.04410253,0.0009211024
-0.00940458,-0.048095684,-0.034589335,-0.045858704,0.017403163
