0.004945904,0.04733924,-0.013027796,-0.00875659,-0.02402594
0.03668407,-0.029908119,-0.00437186,0.02306912,0.027342299
-0.013512488,-0.009124453,-0.03337559,-0.043365087,-0.04795549
-0.0064647174,0.01649555,-0.026669266,-0.022513963,-0.033706784
0.032843,-0.042617884,-0.007367742,0.016307047,0.024101734
0.0022683921,0.008859028,0.025622964,0.03157156,0.0027300972
0.01042494,0.0028616148,-0.037905812,-0.009664826,0.0036751719
-0.019850468,0.0015122714,-0.021094713,0.004857151,0.04403203
-0.0431976,-0.024823481,-0.052032374,0.0129600745,0.027002733
-0.016506108,-0.015450021,0.034214586,-0.0012365087,0.027795155
0.03049013,0.022822412,0.003624185,0.020350365,0.0030473035
-0.027090684,0.041233182,-0.042384565,0.0057348963,-0.010604518
0.048978787,-0.013297217,-0.0095968675,-0.025288744,0.03334794
-0.023797004,0.0044010207,0.0016839632,-0.03550808,-0.050227653
-0.015029759,-0.03280571,0.014685452,-0.009684111,0.030823125
0.013345216,-0.025903111,0.021459477,-0.042057097,-0.04979309
0.011730951,-0.02669102,-0.026194442,-0.045028552,-0.02940615
0.05523592,0.009832747,-0.047255144,-0.004628546,0.0015123071
-0.0070530185,0.04115529,0.0144437915,-0.02775964,-0.009411936
-0.00595554,0.028041039,0.019751031,-0.02660813,0.014975233
-0.03849603,0.006069665,0.027469428,0.020528506,-0.00049070054
0.040655896,-0.04159856,0.00475116,0.0010285084,-0.016169608
-0.006093739,-0.023007598,0.017407844,0.030063275,-0.018342968
-0.025959706,0.008952445,-0.037493106,-0.04166093,0.026432188
-0.034389008,0.00040739172,-0.001329393,0.008958538,-0.048504256
0.032235526,0.0084152,0.011254327,-0.022952585,-0.0004565479
0.04987071,0.044862717,0.010105301,0.008506378,0.03554023
-0.026276771,-0.0034997074,-0.0077729113,-0.030205157,-0.024946174
0.0073405085,-0.024919443,0.021481367,-0.024543302,0.0039344053
-0.024931375,0.012130812,-0.0022711903,-0.036695633,-0.022128072
-0.040067706,0.024595944,-0.029564215,0.034540243,0.0134494435
0.0069832816,-0.0032836008,0.026607672,-0.04300525,-0.00054178736
0.0325579,-0.03945704,0.015150175,-0.013951952,0.030902702
0.012245154,0.0069202674,-0.035396278,-0.03753005,-0.0010780601
0.03803707,0.0022272835,0.04903918,0.010267858,-0.03493599
0.030094704,-0.004169541,0.018257812,0.0056815287,-0.0033910132
-0.01897637,0.039981678,-0.01586419,-0.0028297892,0.027323436
-0.012618738,-0.023802256,0.027221266,-0.03500443,0.040013343
-0.04151451,-0.04193705,-0.021065725,-0.04201353,-0.042480767
-0.036464952,0.016721178,0.022543775,-0.036422916,-0.035267476
0.037064783,0.044546437,0.004518639,0.007926848,0.054767307
0.0058024037,-0.029466173,-0.037650164,0.0013832299,-0.038165297
0.05689658,0.023246748,0.015747385,0.03547382,-0.01635011
-0.008587607,0.035216227,0.030360555,0.006217736,-0.029185165
-0.025024796,-0.037502468,0.03143742,0.020942036,0.012012755
-0.04778768,-0.0017783034,-0.038098987,-0.04103713,-0.042408817
0.02946978,0.030382244,-0.002888121,0.0074623195,-0.028346231
-0.021135855,-0.03692073,0.017802898,0.0042685997,0.01541294
9.9235825e-05,-0.00082291465,0.012689287,-0.044679344,-0.070955366
0.0035096323,-0.01863235,0.027468037,-0.027685106,-0.030199448
-0.037448287,-0.047976043,0.022629242,-0.005776761,-0.020334695
0.019019179,-0.02534455,-0.015985943,0.025254006,-0.022602323
0.044178303,0.029757515,-0.026089255,0.0067817066,0.021135977
-0.013493691,-0.019471643,0.027336568,-0.0069115334,0.008097658
0.02590046,0.015618247,-0.028467547,-0.024298547,0.006459388
0.026266553,0.02474916,0.04948901,0.014559233,-0.046295196
0.027997283,0.023761144,0.028771494,0.01578298,-0.05074495
-0.013645749,0.024554709,0.044407923,0.016709113,-0.016189681
0.033724304,0.03132238,-0.01631916,0.007931181,0.0028237214
0.013501584,-0.0083384225,-0.016711887,-0.019506324,0.00082996115
0.00081446016,-0.015261016,0.029358821,0.020811968,-0.035683118
-0.032369785,0.035844814,-0.00057280925,-0.0074374233,-0.04364918
0.037567355,0.031192223,-0.023200737,0.020712698,-0.016746528
0.038311686,0.010016206,-0.0063707638,-0.012799561,0.029088497
0.026354117,-4.9610055e-05,-0.034979954,0.024834998,0.033230174
0.046871364,0.030550346,0.031056076,0.029762883,0.0003318024
0.021799633,0.038117066,0.041430116,0.0044645956,-0.02495052
-0.018385723,0.005222682,-0.040235892,0.012200792,0.05122051
-0.027340358,-0.038713425,-0.021772318,0.03872286,0.025302097
-0.014515626,-0.04144938,-0.044081505,0.0018493234,0.05442523
-0.039999668,0.030120214,0.022567159,-0.006395341,-0.045115735
-0.024993222,-0.0008917838,-0.011882494,-0.02225988,-0.042443037
-0.01145458,0.029757287,-0.03918379,-0.0096147135,-0.04783546
0.016087372,-0.026835121,0.04493683,0.021003878,0.013868307
0.041538306,-0.0039518094,-0.0011979123,0.02313851,0.02596978
0.013042746,-0.024285976,0.01294181,-0.04849579,-0.023496274
-0.014509531,-0.0014144395,0.006676728,-0.026291244,-0.031566214
4.288734e-05,-0.039700862,-0.05290064,0.037279367,0.0096497135
-0.044216197,-0.027973646,-0.012520567,-0.02603775,0.0019653998
-0.01484565,0.0030635155,0.03861532,0.038961716,-0.029246788
0.029580906,0.044241983,0.0455659,0.0008298478,-0.010484874
-0.017099306,-0.035059664,0.03471365,-0.008506982,-0.008147918
0.038757533,0.051537253,0.021186363,-0.04002072,-0.055875216
0.035671398,0.018544171,0.03272923,0.0044578896,0.0015100247
0.044326346,-0.0029311783,-0.0066756215,-0.0040208134,-0.039955024
-0.015156744,-0.015102922,0.008088538,0.014497928,0.0038787802
0.0165034,-0.021636888,-0.011044446,-0.041691873,-0.0444178
0.030538207,0.04986444,-0.04091996,0.020426614,0.020068295
-0.011317506,0.03137882,0.0023015554,-0.034458403,0.01612871
-0.032448675,0.036568668,0.022637345,0.008724991,0.000538502
0.0039949203,-0.048433535,-0.0010881711,0.034789577,-0.0031759143
-0.026022965,0.02749299,-0.010081934,0.025706105,-0.01625074
-0.04282222,-0.03566712,-0.028612358,0.017340548,0.042483777
-0.03623329,-0.007656905,-0.00054465915,0.054739527,0.036849573
0.046905916,-0.0094955545,-0.04027357,0.030258432,0.0512108
0.014778339,-0.039076712,-0.02828024,-0.014065504,-0.06457486
-0.0014478276,0.019710345,-0.017830178,-0.023693053,-0.0037797724
0.026074123,0.010278414,-0.028064927,0.027433079,-0.048295207
0.023564376,-0.033873234,0.029466886,-0.0030255208,-0.040403336
-0.011910706,0.049745865,0.018143248,0.020984419,-0.028326359
