-0.007846472,-0.032909185,-0.046513654,-0.03197345,-0.049095247
0.03476618,0.029908732,-0.04489829,-0.014720278,-0.035521213
0.023527244,-0.049677603,-0.027683761,-0.034070086,-0.0047803433
-0.012676136,0.014168332,0.030119393,-0.008165281,0.027010247
-0.042364348,0.004818571,-0.0035189085,0.019932682,-0.033461653
-0.016255043,0.028089007,-0.043313045,0.0023876184,0.072779074
-0.0052805524,0.00746876,-0.04495968,0.05955909,0.061988086
0.027173322,-0.048630677,-0.03695499,-0.018861195,0.018414285
0.022143483,-0.021763673,-0.0029236334,0.011124811,-0.025570214
-0.002894975,0.036394097,0.013014428,-0.019904854,0.017431332
-0.029427547,0.046020944,0.020851526,0.023073187,-0.014120006
0.025496397,0.040208172,0.0063456884,-0.050469175,0.03535721
-0.009348638,0.0019472218,-0.0134332,0.02697918,0.0123420665
0.023661444,-0.038395654,-0.014477274,0.042857073,-0.03404701
-0.0012331129,0.04276904,-0.0072088833,-0.026304023,0.0003716702
-0.024090707,-0.027336188,-0.045510046,-0.05456331,-0.0024644309
0.0008591935,0.020988582,0.014490416,0.0032478366,0.010226353
-0.007796256,0.026288377,0.03771082,-0.026767429,0.015883733
-0.017949577,-0.061103076,0.009617564,-0.046199314,-0.048947733
-0.04328126,-0.027075527,-0.045350827,-0.057486884,-0.029929202
0.014570696,-0.006443422,-0.049561497,-0.033991214,0.015181204
0.018643754,-0.023744754,-0.039703343,-0.042381946,-0.006212385
0.029306594,-0.030977704,-0.033516336,-0.03268771,-0.045248378
-0.023201544,-0.0050924984,0.00028279366,0.025683554,0.0014306832
-0.03369869,0.0065468666,0.007238763,-0.027636845,0.00737184
0.014769516,0.034647483,-0.0003858713,-0.059750326,0.0025885284
0.060281567,0.053674877,0.012550222,-0.05430071,0.04496644
0.027610412,-0.056395933,-0.07298944,0.01629532,-0.007742195
-0.04322108,-0.04505774,-0.015080225,0.05744278,0.055625066
0.034347523,0.036650635,0.051173247,-0.01809705,0.050437827
0.040450927,-0.020730752,0.030698074,-0.011377957,-0.03342127
0.042501647,0.04178651,0.002761186,0.0117694605,-0.02128062
-0.016923105,-0.017422326,-0.027151765,-0.03244495,-0.014401533
0.04911809,-0.001689415,0.016551908,-0.029344084,0.0067544817
0.01848776,0.027966024,0.023658497,-0.041645646,0.0062513766
-0.032543294,-0.03879877,-0.02316931,0.005548886,0.00812832
-0.027683266,-0.008036247,0.012533389,-0.032771163,-0.037509535
0.0119936485,0.00026935717,-0.001668067,-0.00016269906,0.0043677213
0.021721004,-0.020179393,-0.02949345,0.04377064,0.01776274
-0.0209301,-0.036418635,0.003975878,0.008910199,-0.007444534
0.0062631997,-0.041773356,0.03213315,-0.043232787,-0.0025113672
0.014482218,0.027316535,0.018890122,0.014921548,0.016710486
0.005530602,-0.038335394,-0.033695217,-0.024147268,0.04162601
-0.008228166,-0.032884203,0.011534704,-0.020067923,-0.00281765
0.016396288,-0.0023027488,0.043651946,0.048319902,-0.010891132
0.004532345,0.04193974,-0.029448109,-0.026702711,0.040656842
-0.012890404,0.028890785,-0.0069133076,0.00796844,0.008757709
0.010981976,-0.06270143,-0.0050746575,-0.0031968283,0.02071758
0.017312402,0.011748391,0.023385227,-0.025982453,0.011222781
-0.023549214,-0.01925369,-0.03471836,-0.049931116,0.013910178
-0.0051693893,0.03629361,-0.012933435,-0.00077528006,-0.008592253
-0.019493321,-0.029409463,0.0058086007,-0.034547906,-0.005819762
0.019000301,-0.0049699065,-0.013086725,-0.034903456,0.026502933
-0.010456716,-0.01011997,0.024406936,-0.04437702,-0.036017474
-0.037932675,0.013196961,0.0031753879,-0.01377104,-0.038262308
-0.016981006,-0.027564287,0.03148945,-0.039447624,0.027933864
-0.026779754,0.056047246,-0.014998314,-0.03212996,-0.04175313
0.068463564,0.009533604,0.017144514,-0.02476351,-0.010809964
0.04289967,-0.030318687,0.016636306,-0.0307796,-0.045344874
-0.013263688,0.01038967,0.0035043678,-0.052434247,-0.044345655
0.04621274,-0.026687952,-0.02765205,-0.013730711,-0.029434359
0.0071818507,-0.05235204,-0.044991624,-0.011530267,0.006022469
-0.009901258,-0.03215446,-0.03460748,0.004464128,-0.051672842
0.019971268,-8.679551e-05,0.031511348,-0.02053387,-0.020419134
-0.043293353,-0.016571065,-0.04988194,-0.05478264,-0.00036173232
0.04359465,0.00762563,0.028809922,0.0139391795,0.03894704
0.030564912,-0.0027698146,0.027120428,0.012070719,0.00033909714
-0.026394662,0.005624378,0.025151186,-0.034896277,-0.043799374
-0.045263506,-0.032569163,0.025204943,0.011476005,-0.041067675
-0.031601764,-0.0012331342,-0.036813337,-0.0062523726,0.01703107
-0.0173991,-0.00055681006,0.03403706,-0.0347471,0.03686171
-0.010867437,-0.012884198,-0.023588743,0.04113983,0.039951887
0.027890543,-0.007694157,0.039825793,0.009488851,-0.023220757
0.0005270708,-0.0012215668,0.015607026,-0.0014531368,-0.010831885
0.042835727,-0.029652884,-0.00025631048,-0.05141126,0.013813986
0.033315416,0.00086228625,0.0375057,0.037764788,-0.042394817
0.02912295,0.052161567,0.055106293,-0.024703216,-0.025745783
0.0063260705,-0.010072794,0.025528817,0.0014156388,-0.04161812
0.03142103,0.023473527,0.02325445,-0.02459451,-0.013610445
0.053724255,-0.0012876616,0.004845759,-0.01790195,-0.022803772
-0.012935919,-0.029768676,-0.026549174,-0.048959948,-0.034047723
-0.04398849,-0.0075649284,-0.037165634,0.0051027653,0.027082527
-0.017291004,0.04443137,-0.04845688,0.002455978,-0.011676303
-0.041910373,-0.051265553,-0.044167686,-0.054538608,-0.05847245
0.019185027,0.022619782,0.036696333,0.038287602,-0.052889843
-0.012478772,-0.018006828,-0.0062766885,0.024244668,0.018793382
-0.01003174,-0.028567761,0.027547887,-0.014006412,-0.018856265
-0.011910842,-0.04721061,0.009975113,-0.04119219,0.038892634
-0.04687532,0.0012955392,-0.0219549,0.0067241555,-0.050334454
0.0050471704,-0.03760602,0.0399729,-0.018875904,-0.005727334
0.024985692,-0.03155117,-0.006990683,0.049752776,-0.025547579
-0.017309418,-0.029646017,-0.01642371,-0.0066471486,0.040473536
0.013851715,0.0007657805,0.039798632,0.048835643,-0.0015801688
0.005212506,0.06372312,0.062451404,0.010281301,-0.03482085
-0.031144476,0.014652536,0.03138243,0.048296046,0.003944446
0.0325376,0.012307913,-0.0018680252,0.01326785,0.040878005
0.019819913,0.030850839,-0.014328426,-0.019131128,0.031780776
-0.016239712,-0.027251808,0.018085746,-0.02899986,0.0351256
-0.01381528,0.04069456,0.048798908,-0.033987876,0.025141831
-0.018420689,0.032993942,-0.024219833,-0.021887034,-0.011155668
