0.020949649,-0.01875986,-0.0038903574,0.017086403,0.03822899
0.0030179587,-0.02678633,-0.035036974,-0.016222885,0.03420215
-0.026628962,-0.014526963,0.027454225,0.020157518,0.056541774
0.018255532,-0.026294477,0.014022768,0.0073700636,0.056197375
0.048146807,0.02647243,-0.043877468,-0.05127434,0.011739362
-0.02863766,0.05293174,-0.004120188,-0.0025469824,0.030713962
0.03430068,0.026408188,0.029850641,0.00444636,0.0072086197
-0.011350568,-0.03182037,-0.017965784,0.0045524403,0.03082083
0.06072666,0.018454863,-0.048516966,-0.0419686,-0.04334436
0.008347662,0.032598503,-0.026369976,0.018083952,0.00041870904
-0.031338263,-0.02817231,-0.0050233807,-0.008835977,0.039251477
-0.010819929,0.011035546,0.018506771,-0.03219628,-0.0031247097
-0.008148271,-0.06132352,-0.016301703,0.024200927,0.038565148
-0.013104482,0.027993347,-0.07613404,0.0002770997,-0.029665262
-0.016861117,0.0628369,-0.028074209,-0.065228164,-0.040166385
-0.008925359,-0.030612543,0.037713587,-0.0014026007,-0.033867683
0.028927546,0.01705202,0.07058593,0.038672704,0.01836201
0.030414391,0.020345306,0.07259174,0.03791077,0.026295505
-0.024496967,0.0137843825,-0.00092946796,0.04242863,0.033759817
0.0067612175,-0.058244485,-0.05293181,-0.039206237,0.06888759
-0.027600557,-0.0014864398,-0.009205559,0.0036097672,0.022885956
-0.018437563,-0.03468746,0.036068898,0.0065929517,0.029965317
-0.032503143,0.004066214,-0.019020353,0.05191005,-0.0017994918
0.008560745,-0.016738603,0.025329454,0.03849814,0.008352908
0.026025843,-0.0012385767,0.027107757,-0.013755524,0.011315015
-0.0014755472,0.05128108,-0.005855505,0.030324623,0.034919526
-0.03701828,0.03132997,-0.04604042,-0.03647561,-0.030616725
0.012753022,-0.05414896,-0.061904415,0.00074085017,0.03835091
0.035580803,-0.01730551,-0.086370595,-0.031609602,-0.0077122506
0.022958098,0.09269317,0.047271002,-0.0669112,-0.020496454
-0.022076517,-0.0018484755,-0.024138277,0.009788428,0.018032368
-0.014458323,0.040135603,0.011330374,-0.009351784,0.008714963
-0.0022153356,0.0069242464,0.011973979,-0.02119368,0.01832646
0.02393913,-0.005674192,-0.011864846,-0.023940772,0.0619112
-0.0037814984,-0.033069048,0.00022280854,0.022351826,0.034916777
-0.013929644,0.04732386,0.03292609,-0.0024156466,-0.019532124
0.024117867,0.040775713,0.012250892,-0.0057662087,-0.012325055
0.013335682,0.04323543,0.012078431,0.015673254,-0.006051355
0.039389968,0.054043747,0.034794845,0.024584992,-0.038859632
0.029900748,0.03996872,0.008995292,-0.01331911,0.021285469
0.046668127,-0.0099046845,0.046929825,0.021172026,-0.012067665
0.010760381,0.0015018223,-0.004940684,0.046655785,0.008000867
0.019703813,-0.034658562,0.008165435,0.03295766,-0.012680643
-0.01368866,0.0001359831,-0.04091922,-0.0298456,-0.0370894
0.012932463,0.0033719575,-0.050058737,-0.008614351,0.0026536894
0.009454867,-0.042475276,-0.049440704,-0.0037383048,-0.0014584294
-0.04258347,0.020225832,0.0068235337,-0.040255073,0.048082434
0.02319567,-0.03331387,-0.015035905,-0.00901778,0.0035274078
0.06495072,0.077681914,0.023191325,-0.021648886,0.0055891825
0.02314612,0.04814745,0.080954954,0.03246698,0.03726794
0.006560783,-0.046064448,0.01067133,-0.04402912,0.002615555
0.026895188,-0.019298298,-0.041443385,-0.014008447,-0.02794342
0.0035341124,-0.017659582,-0.009590158,-0.039102685,-0.009523007
0.008776571,-0.030070791,-0.020481717,-0.016182013,-0.0010305829
0.032415945,0.033342205,0.05513363,-0.021877106,0.008493211
-0.00085429184,0.02409019,-0.020265428,0.0415468,0.06623503
0.011737154,0.05851848,0.0443793,0.051336683,-0.03475443
0.023837276,-0.0029336582,-0.020911776,-0.017855586,0.006890057
0.0045343433,-0.011753221,-0.016837439,0.0043207114,-0.027697086
-0.02278701,-0.05207275,-0.032891635,-0.06301843,0.011673492
-0.03890948,-0.050218597,-0.020688858,-0.006860525,-0.03418741
-0.0069088084,0.016552113,0.0062440853,-0.02639734,0.033062447
-0.01465983,-0.01688872,-0.04968624,0.0041815527,0.011883663
-0.031413343,0.005254212,0.011489406,0.0064718314,-0.039209448
-0.033857856,0.05174282,0.0335476,-0.00059739075,-0.025819387
0.051389016,0.02400063,0.0019149263,-0.0031219185,-0.028921504
-0.027894357,-0.005558247,0.020895895,-0.042331222,0.05648938
0.035801537,-0.025249641,-0.034327783,0.032199837,-0.014344283
0.05627135,-0.036213268,-0.06264406,0.026679626,0.035141
0.044099607,0.039543796,-0.03780072,-0.033957474,0.04971709
-0.019114083,-0.017015366,-0.03526279,0.019353472,-0.021740077
0.0053112577,-0.04217544,0.020842033,-0.0134862345,-0.005806619
-0.028603315,0.0018053511,0.016255563,0.01662085,0.020767976
0.040999014,0.04252215,0.009912614,0.03981785,0.015547956
-0.016095562,-0.02069216,-0.013636349,0.016782396,-0.012853368
-0.017458016,0.012769401,0.047648754,-0.015516387,0.0086406255
0.01301007,0.03348629,0.01680647,0.031959075,-0.051005494
-0.0154401995,-0.029138153,-0.023239419,-0.030017754,-0.033422314
-0.0076317727,-0.00867217,-0.03144902,-0.044933748,0.031607058
0.01368691,-0.0007126981,0.02413578,-0.026445037,-0.0018816029
-0.026653519,-0.03301548,0.0043264944,-0.029201837,0.0033266721
0.02112096,-0.036354102,0.042984776,0.038028736,0.009273256
-0.037120815,0.015595463,0.0016065818,0.0011067889,0.021250246
-0.02383454,-0.016000265,0.014047987,0.065815456,0.029395001
0.019072402,-0.043718226,-0.045165416,-0.021119736,0.05266866
-0.030136101,0.010551483,-0.0048750574,0.008381629,-0.0011806444
0.0010953895,-0.011138439,0.028000448,-0.019122692,-0.016550375
-0.02902298,-0.0021991604,0.05415433,0.0033470953,-0.02914975
0.027740268,0.013704269,0.055445954,0.06422484,0.03372054
-0.025501924,0.023856817,-0.054540783,0.041630156,0.050512463
0.013148324,0.022632966,0.037654467,-0.021221412,-0.046447556
0.019314112,-0.008129162,0.05944958,-0.024266811,0.034272186
-0.005775607,-0.0038539914,-0.00212797,-0.0117141055,-0.04630202
-0.02242837,0.021163257,-0.02747225,-0.041375212,-0.049366746
-0.028663043,0.018053915,-0.06728625,0.021101672,-0.00080587907
0.0048864186,0.02512435,-0.023935074,0.023462214,0.023060435
0.031978067,-0.042569004,0.010882664,0.022024933,0.037924886
-0.006498931,-0.0070391214,0.013335684,-0.0065678437,-0.023821924
0.02938248,0.006764382,-0.024316296,-0.042109508,-0.019830773
-0.0027428877,0.07297009,-0.003956666,-0.0095588,0.039349984
