0.034081947,0.042296406,-0.037412815,-0.018111333,0.045675363
0.0014028694,-0.0015651328,0.049985144,0.0029335974,-0.011352487
-0.055696577,-0.0011626331,0.045784757,0.011161831,-0.02163826
-0.0062960293,0.008248864,0.03522222,0.00986789,-0.03243615
0.023972748,-0.01860829,0.009865082,0.009241227,0.034379326
-0.016038464,-0.0058928216,0.020110657,-0.014148238,0.06537966
0.028283445,0.0063935844,0.021155596,0.06510724,-0.012303054
0.03018735,0.09841787,-0.010579355,-0.03266898,-0.05015039
0.046598047,0.08980716,-0.04518318,0.01249512,-0.059911143
-0.018583838,0.0043958663,-0.024976144,-0.026561873,-0.0321922
0.0063513303,0.010504346,-0.0664809,0.010985042,0.04527129
-0.015474276,-0.016951488,-0.058606803,-0.00904974,0.015189284
-0.07536253,-0.054944076,0.07141478,0.053245585,0.026337033
-0.04418023,-0.014843955,0.027967444,0.012641463,0.051087648
-0.014254726,-0.011361086,0.01845076,0.028434653,0.057359777
0.03605689,-0.0070478464,-0.021899698,0.033919655,0.023853566
-0.024152033,0.030864233,0.012610219,-0.05926024,-0.040588215
-0.06301559,-0.01594593,-0.03616603,-0.011083619,-0.016529847
-0.0034561737,-0.017493904,0.035994887,-0.027246341,-0.02702419
0.013350871,0.004669703,-0.033563036,-0.034149114,-0.018008174
-0.033837058,-0.0023579018,0.041764867,0.031592187,-0.0015151956
-0.03936292,0.054120958,0.0198815,-0.029086566,-0.03138633
-0.026772004,0.0021391995,-0.040073738,-0.02354219,0.02553866
0.050251458,0.015413375,0.0008849109,-0.044112425,-0.017935166
0.040765826,0.014758768,0.010876543,0.040153515,-0.025223585
-0.05038706,-0.081308894,-0.10654234,-0.09052226,0.03479198
-0.08767871,-0.12832725,0.013337922,0.054292243,0.05603706
-0.12541081,-0.048811443,0.046547953,0.030125123,0.036239207
-0.037023466,0.020391747,0.061726544,0.0027035826,0.05705493
-0.025437288,-0.0064796265,0.049121127,0.036730677,0.043143798
0.033816516,0.082598336,0.085742995,0.032569353,-0.014236061
0.08535521,0.021375686,-0.03515122,-0.03287563,0.011391636
0.019108731,-0.035282675,-0.030245893,0.007931186,-0.0443014
-0.02207001,-0.04242939,-0.006304765,-0.011324263,0.019322855
-0.01858833,0.017434059,-0.03969412,-0.0060254205,0.010064725
0.030822663,-0.028083324,0.01820322,0.026445681,0.004506832
-0.03543437,-0.016031262,-0.032639083,0.0047478424,0.04773528
0.0045424798,0.0035282883,0.043756865,-0.010735587,0.01643075
-0.030809993,0.03762479,0.0127196,-0.019647846,0.034728646
0.041052047,0.01781877,0.0302129,0.006395974,0.013457127
-0.016157825,0.011531028,-0.011891959,-0.06386594,-0.011909114
0.010801948,-0.03142836,-0.035061743,-0.057095885,-0.0031740475
-0.004072529,-0.032433543,-0.01117866,0.0033781375,0.0529648
-0.050091524,-0.013210528,0.021517793,0.02684509,-0.01558772
0.0077938344,-0.025531603,0.050865263,0.012594628,0.0010766003
-0.011871023,-0.058159027,-0.01509272,0.061793502,0.009064406
-0.020983212,-0.012191782,0.014236137,0.04615947,0.022558806
0.03207345,-0.004376982,-0.008025803,-0.010228929,-0.029705098
0.020816267,-0.032437667,-0.045669213,-0.018256657,0.044347838
-0.010829909,0.045470927,0.043031238,-0.0065358137,0.042747397
-0.034673825,0.034722477,0.043787926,-0.0012950985,-0.04245716
0.027753616,-0.004796381,0.00079515623,-0.04031709,-0.04439737
0.035039958,0.02789035,-0.03557964,-0.052745316,0.032210764
-0.00902368,0.019883951,-0.026598439,-0.0252374,0.040320247
-0.037852164,0.0062886113,0.0029434047,0.004500269,0.034403067
0.05123931,0.030086916,0.07904964,0.01595004,0.018778466
0.06637066,-0.0076261275,-0.06453569,-0.00078499934,0.024799349
-0.013874556,-0.07634274,-0.012599733,0.019994756,-0.0045551634
0.006651533,-0.00566473,0.005293419,0.040513184,0.029282141
-0.061203845,-0.03406511,-0.0029234404,-0.012198665,-0.011822891
0.025474641,-0.02036331,0.0133471545,0.08476273,0.06319822
-0.033563416,0.03671546,0.04157828,-0.005140071,0.0533057
0.037549343,0.07254384,0.00865857,0.01562852,-0.030743416
0.017680073,0.032506045,-0.0005579162,-0.020225987,0.0038080388
-0.026003575,0.023568098,-0.045927342,-0.023677304,0.030003062
-0.053035997,-0.014720132,0.041317493,0.016538354,0.043260492
0.005926942,0.034765188,-0.012781574,-0.025642466,-0.039459735
-0.0023073754,0.031938627,0.021905808,-0.02885605,0.021783553
0.044441383,0.04109916,0.00597909,-0.021331783,0.013863532
-0.0018398735,0.010258217,0.009083704,0.027988758,0.010277989
-0.043160163,0.03067357,0.008998073,0.02485372,0.03427289
0.0068793334,0.030038495,0.09243021,0.01446254,-0.0026264894
-0.022232383,0.06423636,-0.01999243,0.014180231,-0.0015730447
0.0290184,0.018017285,-0.01556386,-0.027143901,-0.049470764
0.009428449,-0.05170262,0.030984923,-0.02804231,-0.03295792
0.0059461426,0.05687739,0.06041101,0.0014543626,-0.011601063
0.10281259,0.078399725,0.017134987,-0.04506832,0.015295286
0.07588033,-0.05210638,-0.025490137,-0.042717397,-0.019030742
-0.02500953,-0.057029776,-0.06110857,-0.049532417,0.014561399
-0.032692112,-0.0035788114,0.018312607,0.0034209094,-0.039121367
0.043970138,0.041602828,0.032641966,0.007526957,-0.012656004
0.048938744,-0.012613268,-0.01601848,-0.039660558,0.024727257
-0.0029149388,-0.050403625,0.018083854,0.0021317734,0.05909521
-0.0011188524,0.036565416,0.033856653,0.035148792,-0.025228648
0.017373582,0.015073647,0.040896095,-0.010590189,-0.02194673
0.039282307,0.03308254,0.035757273,0.03616192,-0.02970461
0.012372827,-0.003910847,-0.00011183043,-0.03541995,-0.022653904
-0.027504664,0.034487743,-0.0013115408,-0.02960999,0.029871764
0.026821611,0.10006664,0.025853185,0.026980845,-0.016988885
0.0143514825,0.02424391,0.046784293,0.0055738003,0.013318958
0.039023362,-0.000921786,0.03388948,0.070840485,-0.032975156
0.015432718,0.098717764,0.100436434,0.022025712,-0.012383133
0.0913835,0.087352365,0.039352693,-0.03785196,0.003908433
-0.012097667,-0.0072252755,-0.04671446,-0.0045858487,-0.00667966
-0.058612395,0.005070326,-0.06597951,0.016051607,-0.006633764
-0.030806035,-0.012862238,-0.0018951298,0.01215706,0.05398992
-0.07188393,0.034019705,0.118238665,0.044656787,0.005082175
-0.018249948,0.047200367,0.04492415,0.017329678,0.055638168
0.015905635,-0.02474611,-0.034416854,0.025351034,0.024051268
-0.051682632,0.028891833,0.04391817,-0.0357051,-0.034393072
