0.007945972,0.006344427,-0.027710225,-0.033347208,-0.015962044
-0.0101095075,0.0150722815,-0.03312187,-0.026868032,0.049271796
0.028081212,-0.06641888,0.02572052,0.092310935,0.046674278
0.022003518,0.023307174,0.055180874,0.060838815,0.03887722
-0.006572312,-0.012454729,0.03206452,0.023468893,0.04111496
-0.038952403,-0.01965228,0.015949942,-0.028841859,0.0012344329
-0.0063510537,0.01676371,-0.0069231526,0.051617883,0.04396046
-0.04758326,-0.0035578252,-0.011949055,0.0036736121,0.039013624
-0.02646288,-0.048779592,0.01301107,-0.026184762,-0.07124982
-0.03656355,0.025847975,0.011457281,0.035197373,-0.05221087
0.020922014,0.01606454,-0.04828699,-0.055649143,-0.06832644
0.011281728,-0.01569907,-0.021998784,-0.0558734,0.006743888
-0.00606825,0.01855789,0.017281901,-0.010627371,0.08031702
-0.01563199,0.037600383,0.031216348,0.06646854,0.010782669
-0.012998217,-0.031200837,-0.01830493,0.013799126,0.047986455
0.028599082,0.043953966,0.011367634,-0.020931322,0.015638137
0.0071823304,-0.02228765,0.023364026,0.009137481,-0.073185675
-0.018058918,-0.034462273,-0.035552274,-0.006109818,-0.040570665
0.03142463,0.031868204,0.04512411,-0.0050368113,-0.035862032
0.0027337617,0.024733154,-0.056131087,0.03419737,-0.0036715248
-0.0014792155,-0.031827964,-0.04147243,0.008775846,-0.007876744
-0.0022876675,-0.036996808,-0.0069422447,0.0062268805,-0.012684601
-0.030479107,0.026450478,0.018257389,0.0029601855,-0.043060523
-0.011221474,0.04152399,0.03458554,-0.00063033757,-0.045574896
0.04350648,0.024286622,-0.038324844,0.017818527,0.027314167
0.012685247,0.001725194,-0.04217817,-0.06748955,-0.11395123
-0.0123686595,-0.04725995,-0.08688403,-0.07213208,-0.0072431024
0.062463295,0.030015063,-0.00700192,0.03805257,0.11165863
0.016231433,-0.016552744,0.011356479,0.0768808,0.06376909
0.038683824,0.016621692,-0.008033658,-0.021127935,-0.016896764
0.02826529,0.044481948,0.038302276,0.09884993,9.529892e-05
0.027940297,-0.019251073,0.00041267282,-0.020087222,0.011372094
-0.04170473,-0.019733412,-0.02203748,-0.036403507,0.03498517
-0.0040577776,-0.045135085,0.027905274,-0.0072030583,0.0073209372
-0.008683461,-0.05016888,-0.011061139,0.020669296,0.023440067
-0.020380665,0.048556734,-0.023043035,0.017425533,-0.01965489
-0.04262714,-0.032904256,-0.043568164,-0.034689363,0.026214005
0.030844308,-0.03674964,-0.011361786,0.04857942,0.06887009
-0.009887685,0.027344277,-0.03724027,-0.01565508,0.048620246
-0.0105494475,-0.040698934,0.028512552,0.010089624,-0.043265853
-0.00965084,0.005694501,0.019463766,0.020312529,-0.0446472
-0.026207805,0.010057113,-0.06984008,-0.09971498,-0.066343226
-0.0018585204,-0.03523889,-0.039517485,-0.0322462,0.053824324
-0.00022245545,-0.052340426,0.014716693,0.051169433,0.06363823
0.0116739115,-0.0018108434,0.021175643,0.021255048,0.024289602
-0.050631188,-0.07109968,-0.033588454,-0.054807864,0.009102436
0.021529403,0.016980307,0.0031310427,0.00072098686,0.05782429
0.042023398,0.06550987,-0.0004243449,-0.026144592,0.053575166
0.023673499,-0.00069549354,0.022758098,-0.086164005,-0.056877475
-0.018597187,0.032434102,0.0047365534,0.026065947,-0.012268184
0.0077813105,0.034629542,-0.03675844,0.050597116,0.021494824
-0.03659778,0.018825332,-0.027041145,-0.004963205,0.010105704
0.02571561,0.012628813,0.03520509,0.010948278,0.012571211
0.04666149,0.041665222,0.0007281679,0.010461544,-0.024920182
0.014726175,0.03277835,-0.009727702,-0.0023282208,-0.016150743
-0.009082247,0.07504066,0.078251995,0.063702166,0.01636448
0.028628992,0.040803526,-0.019028064,-0.029754708,0.0017120745
-0.011599125,-0.008439495,-0.07294379,-0.054956123,-0.030527564
0.055394515,-0.040834196,-0.04093812,-0.027773537,-0.02535216
0.043668296,0.0010718537,-0.025153995,0.01570144,-0.022880485
-0.040732075,-0.0537032,-0.017396675,0.0011435848,-0.006157749
0.00076440175,-0.048349146,0.053678755,0.11951205,0.05740975
-0.03366796,-0.0072740973,0.07947285,0.08765325,-0.034299403
0.01571857,0.0400667,-0.020780653,-0.0417869,-0.04572088
-0.04684302,-0.030780561,0.013761815,-0.02916096,0.008268466
0.0038264582,-0.0012501036,0.005163642,-0.050387423,0.027846668
0.027494311,-0.03064037,0.030115299,0.05073349,0.038569037
-0.05687974,0.010488415,-0.008891659,0.025363902,-0.00048194922
-0.028422756,0.0032749781,0.022705728,0.027810227,0.03323652
0.02409913,-0.023007292,-0.04140723,0.036194254,-0.023159603
0.0008649851,-0.048700552,0.029768897,0.021708708,0.051731367
0.040250476,0.023289775,0.002309236,0.110789925,0.02112125
0.016409976,0.061553575,0.06482011,0.024836311,-0.019888824
-0.01044066,0.013515747,0.021982756,-0.05078281,-0.001325327
-0.035929363,0.029793411,-0.00085455197,0.043268763,0.033227973
0.028637238,0.024682907,0.07788589,0.097670935,0.0363612
0.0029613334,0.05753492,0.076495655,0.06338758,-0.011759952
0.0051593096,-0.005532903,-0.035952717,-0.061060783,-0.02627508
-0.020917058,-0.018270763,-0.038024943,-0.032253724,-0.014636511
0.02307333,-0.032518446,0.023327187,0.0007407274,-0.038070343
0.010275198,-8.386324e-05,0.022022553,0.036667287,0.060313765
-0.039784998,0.018889237,-0.029514039,-0.016682783,-0.03776421
-0.005062956,-0.030512635,0.010805321,-0.050570704,-0.015683528
0.006204711,-0.035701744,0.0037491757,0.012565368,0.067992106
0.0077794306,0.0026702026,0.014027708,-0.0181775,-0.025074776
0.041375056,0.01717255,0.0350519,0.02095443,0.033643954
-0.035584994,-0.03196435,-0.025920691,-0.04381682,-0.045497134
-0.02027952,-0.07181758,-0.036690857,0.025688782,-0.058660652
-0.033463947,0.030058868,0.0124447625,0.04184734,0.018717485
-0.037307356,-0.015437291,-0.00785233,-0.023978628,-0.018561024
-0.016941285,0.02124035,-0.021929914,0.057022482,0.035763063
-0.030351708,0.04804371,0.06695316,0.08728257,-0.004588824
-0.01266319,-0.016755953,0.05184907,0.04957789,-0.039907057
-0.045002975,0.013584468,0.01821221,0.016037624,-0.033997867
-0.031303827,0.00062109955,0.014896046,-0.009738195,-0.02419008
0.0005750849,0.016260764,-0.051725894,-0.040991955,0.011109905
0.03831015,-0.053741843,-0.044463653,0.08570213,0.048535354
0.02147876,-0.035894692,0.06561028,0.11819508,0.034699176
-0.031491924,0.016054863,0.056325216,0.028914846,-0.042585503
-0.0127490545,0.036336295,0.02083284,-0.042023506,-0.024917781
