-0.1509577,-0.052227885,0.046573654,0.02076091,0.015513715,0.03055471,0.016798489,0.016886078,-0.012385438,0.0136919515,0.00025321348,0.06030643,0.020932633,0.030364022,-0.028398683,0.021355383,-0.104087956,-0.018349411,0.036803707,-0.02187647,0.04433721,-0.009948804,-0.01914974,0.011144973,0.05884641,0.070664845,0.005397535,0.03779037,-0.04615394,-0.112685636,-0.017083755,-0.06789081,-0.065264486,-0.0106048,-0.106187604,0.04055454,-0.04574351,-0.049506232,-0.061278827,0.09142899,0.08884107,0.069828875,0.010408336,0.059063297,0.058089156,-0.17565404,-0.008234625,-0.008368772,0.008664814,0.020485079,-0.02089439,-0.042805463,-0.048758782,0.035110615,0.027333844,-0.028349666,-0.006006585,-0.024260875,-0.018359328,-0.04476638,0.0028368179,0.05536437,0.025954928,-0.11108339,-0.026377298,-0.0691638,-0.055954408,0.042607013,-0.034245986,0.015079648,0.058182564,-0.042092524,0.038668595,-0.0884227,0.03412867,0.0404215,0.060730573,-0.014537629,0.05393553,0.011922425,-0.013158712,0.0053235707,-0.042055298,0.006198222,0.006555826,-0.02444464,0.05778837,-0.01574781,-0.048046313,-0.010767881,0.013238031,-0.016876873,0.0108051635,0.08300927,-0.035411265,-0.039322797,-0.054169815,-0.102768235,0.120895125,-0.011497363,-0.07324276,0.0035079988,0.073998876,-0.037273824,0.042772256,-0.10310589,-0.0023060455,0.06432236,0.002848346,0.04808281,-0.05874926,-0.055615336,-0.0056993477,-0.028397579,0.030430783,0.02374041,0.034636512,0.06718356,0.08393118,-0.0032481696,0.10014612,-0.053857394,0.0013986832,-0.014146309,0.00810247,-0.026089765,-0.007869113,-0.0043254243,0.020005709,-0.01418144,-0.018129427,0.069661155,-0.020972883,-0.0045576994,0.031325653,0.037013467,-0.049962327,-0.04393529,0.011909699,0.061569236,0.023384169,-0.008854605,-0.048762277,0.010744697,0.04598537,0.016818719,-0.031266022,0.0029756806,0.09265775,-0.0012520268,-0.004979352,-0.02271245,-0.00246584,0.024224363,-0.012400403,-0.09110883,-0.002820788,0.012787817,0.06439087,-0.023671867,-0.015156774,-0.032696825,-0.12165994,0.08356879,-0.103863895,-0.043955375,-0.005940159,-0.03575739,0.024573592,0.037777066,-0.006060926,-0.026673807,0.022723464,-0.024775265,-0.046957307,0.05719409,0.04728552,-0.07620798,0.001726732,-0.034764133,-0.006194437,0.054191615,-0.008158454,-0.07353367,0.0066330447,0.011612703,-0.06242851,-0.08971594,-0.103005335,0.014499969,-0.05073697,-0.056712937,-0.095530964,0.04211304,0.06675033,0.041226313,0.0033811608,0.033580914,0.060768843,-0.04532237,0.031190872,0.0012432946,-0.07224352,-0.0024382854,0.018029418,-0.02328522,0.040957123,-0.01804733,-0.06793848,-0.02390778,0.12388328,0.02502482,0.027184885,0.079643995,0.013414288,0.09648627,-0.004112989,0.020909823,-0.0105410535,-0.05646765,-0.02305648,-0.010415682,-0.05186313,0.017211316,-0.0009955637,-0.0012364747,-0.060213156,-0.0056322874,-0.026792781,0.011905199,0.04560855,-0.03924726,0.013375876,-0.00834634,-0.036984347,0.051386118,0.015543695,-0.013697168,-0.013132356,-0.0028949329,0.015691554,0.059624318,0.034840174,0.024827128,-0.014750957,-0.02436054,-0.009749828,0.00930201,-0.05118622,-0.000110210305,-0.017722175,-0.03884812,-0.021307973,-0.055342358,0.055218104,-0.0011477253,0.029756533,-0.028178371,-0.051826827,0.052453674,-0.031764362,0.070911095,-0.007530027,0.0751666,0.08450449,0.037402887,-0.026590604,-0.01929492,0.0009220088,0.028590504,0.036790747,-0.1074683,0.057054095,0.012552164,-0.07241039,0.05115665,-0.030775271,0.07379969,-0.05199652,-0.026683388,-0.034488477,0.028999565,0.04337099,-0.09519803,0.01823055,-0.0058686747,0.044147268,-0.048308086,0.06806563,-0.039393384,-0.07790323,-0.11427327,0.00044729566,-0.06865386,-0.047613923,-0.013146546,-0.0037683395,-0.013412302,0.0147329355,0.029238267,0.055175096,0.06433683,-0.013813172,-0.012120661,-0.011769013,-0.048079893,0.020944389,0.007372912,0.02376112,-0.00083398336,-0.012997572,-0.01147582,-0.032246407,0.052761868,-0.044700503,-0.025766728,0.030135188,-0.0105651785,-0.06108159,0.036605496,-0.016054822,-0.01854537,-0.0025291513,0.04955327,-0.019825667,0.049120832,0.015789071,0.048344012,-0.071877085,0.029235896,0.0070377695,0.058226757,-0.072954774,0.020919725,-0.051847324,0.057076424,0.054628037,-0.022729155,-0.07113729,-0.040477857,-0.074675255,-0.02209538,0.06947122,0.027851433,0.062015932,-0.048265334,-0.010563398,-0.05579622,-0.098642655,-0.07278553,0.061835397,-0.053302187,-0.022325492,0.07031564,0.02268582,-0.03347296,0.056082267,-0.0829581,0.0016415378,0.07146867,-0.022245621,0.018649824,-0.008553296,-0.047434974,0.052027687,-0.039246257,0.009399344,-0.024228137,-0.04003646,0.0022734143,0.03760925,0.056264367,-0.027628709,0.028536059,0.021428678,-0.018255081,-0.0659029,0.06486929,0.035602186,-0.02782361,0.05462438,-0.02784092,-0.11089404,0.0240437,0.052179396,-0.035753023,-0.062065568,0.011223167,-0.08129388,0.059400186,-0.044825953,-0.009944099,-0.009999504,-0.028262224,0.07300511,-0.048736848,0.090943985,0.0089082,-0.03550116,0.007799706,0.04239496,-0.08155136,-0.06340559,-0.002404128,-0.06502419,0.012604391,0.013316584,-0.03195338,-0.058124,0.033551373,-0.06762977,-0.04456561,-0.0949425,0.0224307,-0.012466155,0.02272082,0.04931276,0.013898231,0.037423078,0.020471405,0.04840341,-0.007300038,0.11594051,0.09887837,0.0436792,0.087600484,0.08355081,-0.04310431,0.014203324,-0.023149146,-0.038641866,0.042360842,0.033157986,0.034573596,-0.04699827,-0.035589345,-0.026250623,-0.04670041,0.03043616,0.040556114,0.076970436,0.08213185,-0.023448529,0.014008554,0.037992906,0.04214872,-0.0147054475,-0.08429234,0.053879626,0.010097547,0.041036945,0.005933383,-0.043145984,-0.006619552,-0.08777036,-0.09634008,0.043386303,0.06268838,-0.10028867,0.0159994,0.039677985,-0.049377557,0.028111178,-0.009993293,0.016034054,-0.009183837,-0.01747336,0.026356708,-0.05155838,-0.014653112,-0.02726493,0.027926173,-0.044130467,-0.045535807,0.12903656,0.060296103,-0.051165998,0.057844684,-0.046705786,-0.013110485,-0.033138603,-0.0138649605,-0.025219506,-0.029090095,0.119005814,0.031584363,-0.046529375,0.07074602,0.031554,0.008625037,0.09187281,-0.04283926,-0.069830805,-0.0011293538,-0.013470043,-0.030156132,0.03620615,-0.0020200864,-0.0641381,0.106177986
-0.063319385,-0.032422,-0.022652155,0.08106472,-0.041479606,-0.007552187,0.03703688,-0.0011470519,-0.070988104,0.041634146,-0.052367933,0.0131160915,-0.012173956,-0.065924875,-0.07031441,-0.0003818322,-0.075869285,-0.121076316,-0.023621848,0.01271127,-0.0027904648,-0.010132815,-0.0022238786,-0.0010693882,0.042519167,-0.04447308,-0.030597903,-0.082926415,-0.018305732,0.10225595,0.007795421,0.050104994,0.07611692,0.07326007,0.047674645,0.09621105,-0.04075521,-0.023704108,0.0783127,-0.07992236,0.045411758,-0.14968972,0.015758054,0.094154924,-0.025013015,0.061489042,-0.045345183,-0.041824587,0.0062304987,0.027559085,-0.02038056,-0.043505844,0.049263213,0.028883506,0.0078024943,-0.05174238,0.009549397,-0.021855585,0.07518051,-0.05204928,-0.04492518,-0.017342912,0.004953149,0.065114774,0.034898847,0.04413766,0.09462597,0.04416116,-0.014192631,-0.012295357,0.07903382,0.058471102,0.0922597,0.014670468,0.029795414,8.832716e-06,-0.07730407,-0.034507718,-0.03939006,0.040259544,-0.0034514747,0.008866414,-0.04368873,0.011281338,0.030328825,-0.08013444,0.04442156,-0.007190064,0.07537679,-0.010978519,0.018087367,0.03468304,0.054824185,-0.13215995,0.1308064,-0.0100722825,0.12152193,0.013841554,-0.008053513,-0.012008428,0.026844999,-0.01946036,-0.016058434,0.027620006,0.041144248,0.0546321,-0.019727344,0.05166542,0.08548299,-0.06806291,0.16114788,-0.016081622,-0.039936844,-0.025370305,-0.00088460604,-0.031792928,0.14242259,-0.05078612,0.038633134,0.016948314,-0.007234191,-0.02522566,0.022494864,-0.069472596,0.017548759,0.03716056,0.0010134934,0.005494771,-0.044038728,-0.053738993,-0.0139606865,0.05417429,-0.04419582,-0.056076877,-0.03161071,0.09169472,0.06740136,-0.021862762,-0.004264781,-0.071189195,-0.03168203,0.030153224,0.017260028,-0.0061373063,-0.04861742,0.060258422,-0.0011681592,-0.0032276125,0.051336758,-0.00800006,-0.023410488,-0.020736074,0.011521314,0.059578076,-0.0107430685,0.0669898,0.07524675,-0.023669967,0.10925647,0.041299134,-0.041327164,0.03049094,-0.012079338,-0.0031074525,0.0690497,-0.069815114,0.027749233,-0.08431387,-0.050532646,0.04817122,0.012861133,0.001307748,-0.1316045,-0.013013749,-0.07155583,-0.020922434,-0.021023719,0.0015634991,0.08022655,0.003995371,0.028862672,0.032528006,-0.011393474,0.12229035,-0.008190938,0.04689058,-0.033293027,0.017081104,-0.07053111,-0.05448639,-0.072514825,0.01842612,-0.10270703,-0.03507047,-0.0051209154,-0.031855505,-0.054595433,-0.014926567,0.011345832,0.010355078,-0.046976916,-0.008426754,0.019389851,0.07523352,-0.008904975,0.012501413,-0.0075480617,-0.02345002,0.056441713,0.058636326,0.019058554,-0.041925218,0.029594917,-0.059872285,0.047690015,0.05614856,-0.036089886,0.035904508,0.08048231,0.046666663,-0.009950489,0.025890326,0.06389928,0.09018488,0.0026986941,-0.0001362766,0.016667956,0.099153854,0.040149283,0.005153008,0.015313353,0.1002256,0.052398343,-0.0017675774,-0.021285955,0.010032402,0.03369518,0.020090075,-0.03290707,-0.04356116,0.010407853,0.024465675,-0.029427158,-0.0010956867,-0.060237944,0.03580285,-0.024690835,-0.038653057,0.027471768,-0.028096404,0.05817031,0.037875596,-0.051142715,-0.0133772595,0.036775015,0.088069476,0.019080266,-0.028767139,-0.09103252,-0.085003346,-0.02098387,0.0115744965,0.030946175,0.0019773047,-0.11091666,-0.015239648,0.05789583,0.016761899,0.06274468,0.027946446,0.03483281,-0.019822946,-0.05620261,0.0805718,0.031131092,-0.11644152,-0.039757445,-0.011222724,-0.048878036,0.029542308,0.079045355,-0.04207878,-0.021992614,-0.05007251,0.009055945,-0.046692897,0.040817957,-0.025350092,-0.0006717417,-0.033416916,-0.063761234,0.0056997766,0.03351494,0.0017396731,0.14865792,0.0117267445,-0.00063421833,0.0058920984,-0.038663514,-0.06554675,0.036903355,-0.031948105,0.058650155,0.08307296,-0.032366052,0.11729179,-0.010594072,0.037190743,0.038904388,-0.040579155,-0.012918787,-0.04276035,0.035039052,-0.09541394,-0.050801534,-0.04451611,-0.047480356,-0.029138379,-0.08591973,-0.05328938,-0.06014968,0.021632724,0.028757477,0.018081762,-0.062507406,0.05267235,0.026932398,-0.1341445,0.026582517,0.043260727,-0.017758096,0.06300254,-0.05074225,-0.07917116,-0.0450867,-0.088080056,-0.023600752,-0.039163332,0.09865174,0.028752591,0.09542236,-0.069501214,0.04763058,0.031921428,0.012262565,-0.014710922,-0.0040167426,0.04270297,0.08511641,0.035696086,-0.047756866,0.13555856,-0.017202444,-0.12212408,0.01726023,-0.025137633,-0.0072421404,0.049540725,-0.022965953,-0.00014605685,-0.003951724,-0.08888778,0.0433305,-0.11583369,-0.028682446,-0.022930449,0.097421944,-0.017235527,-0.016348716,0.05466496,0.007497065,-0.025810625,0.008252552,0.03306692,0.029349921,0.05853458,0.05595394,0.080552906,0.051982608,0.06824699,0.07714574,-0.026050907,-0.06429886,-0.016467448,0.007542776,-0.01412608,0.037593815,-0.0545126,0.14916734,-0.006498274,0.09943845,0.009440662,0.04944349,-0.036882285,-0.03867465,0.0040705022,0.0019574813,-0.016661542,-0.01852221,-0.030007787,0.028282534,0.08185425,0.09611796,0.009877488,0.0118828155,0.0291349,0.00897316,-0.041230872,-0.047366034,0.093483776,0.0065263896,0.006233038,0.007965179,0.0024510806,0.043873113,-0.017380392,-0.02717364,-0.07913727,0.039784424,0.015220174,0.019792475,-0.025812745,0.087928966,-0.059032414,0.012081153,-0.07170142,0.033603534,0.019204758,0.031737283,-0.023011563,-0.123512305,0.00015886896,-0.052074883,0.026980173,0.047373697,-0.02883627,0.0020249458,-0.005025401,-0.048201766,0.060883086,-0.022149919,-0.027330896,0.00886385,0.008473527,0.022178939,-0.0067291656,0.1026982,0.07441336,-0.044582505,-0.09243971,0.07762799,0.059825532,0.0032322668,-0.0004008811,-0.14130245,-0.02059328,0.01927941,-0.08688774,0.03912429,-0.010098557,0.07178177,-0.028061986,0.057142768,0.074194394,0.009963281,-0.007082736,-0.055541657,0.042495158,0.016773803,0.08318997,-0.023747675,-0.009171134,0.039640337,0.05502329,-0.024834905,0.041866843,-0.059537504,0.01544602,0.013686056,0.0654493,-0.06817801,0.0037905942,-0.071301654,-0.050793856,-0.0615078,0.0068367273,0.043584213,0.113358125,-0.09906711,0.010919742,-0.023575855,-0.04412781,0.05561632,0.07330253,0.019184817,0.0800012,-0.068588026,0.012776927,0.013607972,-0.009732383
-0.06434694,0.021009794,-0.0040488606,-0.11846984,0.12843987,-0.098091,0.041610364,-0.030994358,-0.09845322,-0.0050950325,-0.076288946,-0.032971095,0.016587514,0.011105969,0.05743249,-0.048911475,-0.10117955,-0.06618201,0.0015133003,0.083107114,0.023515584,0.038202334,-0.028181318,0.01472637,-0.056677904,0.04800391,-0.052594777,-0.16329227,0.02387722,-0.066266164,-0.004555355,0.11946442,-0.10913071,0.011547771,0.09210487,-0.056746308,0.04616351,-0.045897707,0.022927873,0.04888099,0.0392823,-0.08331509,0.034481432,-0.030219236,0.12908342,-0.03338683,0.038432825,-0.025048615,0.028552452,-0.16631451,-0.0035953224,0.061716773,-0.01846198,-0.048421692,-0.062099263,0.0051053567,0.0030667887,-0.0054060016,0.043791335,-0.04879025,-0.044638302,0.048902567,0.029068904,0.1320727,0.0075644227,0.033340085,0.011879511,0.09234981,0.0010467912,0.027704516,-0.06546783,-0.08044017,-0.039559636,0.05345679,0.14025135,0.13704342,0.07822104,0.025192624,0.038977496,0.025080686,-0.02603599,-0.049309473,-0.008251112,0.050239295,-0.004445143,-0.076911956,-0.053929955,0.037014794,0.07337453,0.011207878,-0.0021075385,-0.07633462,0.06820817,0.028560769,-0.02011132,-0.0011117444,0.037694365,-0.01804306,-0.1234766,-0.023351438,0.021478409,-0.00028356983,0.059779562,0.0427277,0.08641679,0.06958045,0.076895684,-0.036366213,-0.10263077,0.014479935,-0.06256792,-0.11076146,0.022815453,0.04503704,0.007356308,-0.08789695,-0.11827066,-0.116307475,0.024033207,0.0025158455,0.090721264,-0.07630892,0.012309648,-0.090471126,-0.04494563,-0.0126022985,-0.033145666,0.006997178,-0.03280139,0.046044253,0.054942437,0.11333875,0.07438255,0.0106719155,-0.03264066,0.10584027,0.06675787,0.010020948,-0.03695943,0.059873555,0.02771629,0.02832501,-0.013439736,-0.008040729,-0.0712188,-0.007216147,-0.016273335,-0.05872441,0.07466239,0.03112987,-0.02999989,0.09673828,-0.02180551,-0.08304241,-0.05934555,0.064628914,0.085274786,-0.005545636,-0.097233154,-0.021935917,0.077018075,-0.04938616,0.016279366,-0.06200231,0.06198262,0.010937499,-0.019769337,0.022581052,-0.053737354,-0.049588483,-0.1108541,-0.039549395,0.087076604,-0.032031003,0.018098325,0.03772397,0.010416133,0.07318399,-0.06923587,-0.0034299567,0.075378016,-0.05462439,-0.011288829,-0.0055367644,-0.09212642,-0.044771843,0.04955498,-0.0762077,-0.08212441,0.0061875586,0.017018462,0.010801974,-0.050182026,-0.03716113,0.059912976,0.03292863,0.091645494,0.028850341,-0.050011333,0.036038056,0.015422386,-0.010773283,-0.10671803,0.04143062,-0.01229635,0.0023319132,0.032142095,0.050794505,-0.0105422065,-0.029010976,-0.017971948,0.038807508,0.006238717,-0.038135085,0.026925402,-0.06789184,-0.007661584,0.04209066,-0.09548773,0.03996485,0.023754593,0.021107491,0.11262213,0.011658786,0.08311653,-0.031647075,0.07253813,0.10649437,-0.015655417,0.10129269,0.06383107,0.0059387474,0.03474492,0.10301373,0.0003376517,0.027394788,-0.044870682,0.0033837438,0.05258812,0.041474134,0.010506138,0.01843624,0.057124797,-0.0043660123,-0.022432173,0.07970213,-0.02071388,-0.040754974,0.005811173,0.014103431,-0.11027305,0.035046246,0.04566635,-0.03440382,0.024604633,-0.04381101,-0.0632856,0.038431823,-0.11373133,-0.0044739647,-0.07217919,-0.091923,0.027293019,-0.022228295,-0.018658828,-0.025044486,0.09263216,-0.024583036,0.042061757,-0.039792843,-0.016670028,-0.066282034,0.07944585,0.08036602,0.094836585,-0.02589539,-0.09673899,0.02589816,-0.033294648,0.015204968,0.061351135,0.11511555,0.119593926,0.030947484,-0.017608037,0.034220856,0.012204515,0.03314369,0.0822661,-0.034667168,0.011338538,-0.08101621,-0.020007787,-0.021018762,-0.020646675,-0.035377376,0.0026493252,0.007977743,0.043755855,-0.09834955,0.03801021,-0.12432462,0.11823158,-0.03810572,-0.1021209,-0.006720618,-0.044718996,-0.019102132,-0.0063162893,-0.0119932825,-0.004867569,-0.016145349,0.04284368,0.070629336,-0.0040641488,-0.04620612,-0.054718267,-0.07551894,0.09720704,0.034646757,0.05627571,0.046846718,-0.11529416,-0.06256685,0.15031542,-0.004950579,0.047034673,-0.03920759,0.038339082,-0.007596674,-0.018259544,-0.036080237,-0.04475466,0.048058737,-0.052557733,-0.0057929577,-0.034960534,-0.002176036,0.02587307,0.10860857,-0.024639672,-0.059349198,-0.022364449,0.0072473725,-0.048458878,0.0023063666,-0.07093926,0.029839966,-0.074014045,-0.0021476299,-0.00697345,-0.112276204,-0.007323987,0.07791902,-0.038592283,0.022148574,0.042059574,-0.057799425,-0.040077712,0.037913445,-0.043297872,-0.079120435,-0.038426023,0.017533807,-0.0038252408,0.018559415,-0.027063081,0.041493054,-0.024538489,-0.064626954,0.0048474823,-0.023390485,0.06179689,0.0781345,0.03402984,-0.09303067,0.08952283,-0.064136274,-0.08972275,-0.045831587,0.10706493,0.0623793,0.073357865,0.040009744,0.07748077,0.0609267,0.0001377716,0.07873713,0.020652015,-0.019648582,0.10153692,0.016953157,0.0064406334,-0.01367657,0.04186663,0.055431522,0.0700103,-0.06375023,-0.017379897,-0.0032482862,-0.07628427,-0.016624149,-0.07321546,0.04105166,-0.079778366,0.021012522,0.06496451,0.036193367,-0.006973972,-0.07164155,0.0451038,0.081762955,-0.12213465,0.04679366,0.049891055,0.022019373,-0.09662782,-0.013938979,0.012937918,0.035967693,0.0703053,0.025916675,-0.12432825,0.08946807,-0.074710675,0.031243049,0.017118514,-0.049788356,-0.025140986,-0.049796343,-0.058048576,0.0972845,0.054916807,-0.026208855,0.08622083,-0.016846126,-0.036935247,-0.059335,0.04295316,0.008779024,-0.09267253,0.053178042,0.029908342,0.09710432,-0.013421803,0.10045092,0.082792655,-0.081547536,0.029636899,-0.0060697347,-0.05677593,0.095141724,-0.07161877,-0.0155337,0.01738438,0.10120055,0.025687676,0.022504538,0.014335236,-0.09170068,0.066479854,-0.010820918,-0.00034282953,0.06136874,0.04933089,-0.023077296,-0.15591356,0.022347528,0.059955075,0.052202966,0.040457685,-0.045812473,-0.021814926,-0.046769965,0.04411184,-0.0008996391,0.043334115,-0.023096196,-0.053750046,0.072999746,0.011035726,-0.009818657,-0.03436313,-0.009222635,0.14054465,0.042972647,-0.012400828,-0.038544863,0.07066275,-0.03618814,-0.030001376,-0.09390731,-0.06789482,-0.051382568,-0.02810086,0.0017809531,0.104862355,0.0649793,0.04258405,-0.0015796816
0.1686018,-0.03818207,0.040632892,-0.06104349,-0.032459542,-0.03158008,-0.09709747,-0.03372608,-0.02512215,0.03030506,-0.013448109,-0.061853487,0.019842228,-0.011821647,0.053780776,0.038030565,0.051842898,-0.0076036756,0.07621855,-0.07745985,-0.0038929717,-0.0076933885,-0.0065567764,-0.05665424,0.03504597,0.042779185,0.046972107,0.113290355,0.06498556,0.061142948,0.0016497932,-0.1209068,-0.005884069,-0.009746669,0.08001,0.016899781,0.013608896,0.0019002776,0.061637845,-0.016015183,-0.12452583,0.0071388884,0.020918673,-0.047727738,0.033636373,0.041970603,-0.033506483,0.018713562,0.04594899,0.014142079,0.036049865,0.015505726,0.005400364,0.035827707,-0.10225291,0.04437774,-0.037298694,0.1381537,0.07575915,-0.096628286,-0.011249226,0.10520563,0.007986013,-0.020929778,0.008380016,0.09297341,-0.06219527,-0.073955156,0.06436286,0.023471523,0.03273865,-0.04983971,0.037232663,-0.032912258,-0.007124386,-0.064614944,0.08115685,0.09090714,0.049864292,0.0007345439,-0.034838554,0.024886433,-0.049319793,0.06212072,-0.064159974,-0.11387569,0.13901155,-0.025250303,-0.005540291,-0.008815816,-0.047606632,-0.022395575,-0.14037287,-0.0024087375,-0.080426715,-0.06918065,-0.05723513,0.1313336,-0.020508986,-0.08391288,-0.02781975,0.05720172,0.084765606,-0.011170917,-0.06935986,0.069843434,0.020725517,-0.11376456,0.046373334,-0.0096283965,-0.034731187,0.059236694,0.019052323,0.016042007,0.021374762,0.06723055,-0.050387003,0.04338648,-0.006951294,-0.050479446,0.023300467,0.09731396,0.020448342,0.06097502,0.11987167,-0.012145469,0.004543848,0.0050842525,0.040505063,-0.068132505,-0.03230288,0.0053066765,0.07218934,0.09367453,-0.084022395,-0.08580058,0.043402415,0.011177409,-0.02253422,0.068486966,-0.05379511,-0.020093074,-0.016228031,0.024222571,-0.023605036,-0.080976374,-0.01287262,-0.053181592,0.046357226,0.0070585255,-0.0037638752,-0.022759572,0.02636476,-0.063288584,0.098076865,0.09518294,-0.049045544,0.014170482,-0.018190052,-0.006946739,-0.02586448,-0.122290045,0.010135413,-0.009342563,0.04604265,0.0038281474,-0.016065076,0.014806993,0.07196222,0.12416561,-0.03210257,-0.08278657,0.0061655464,-0.019554714,-0.025073793,0.021211961,-0.10422085,0.071147196,0.14991935,-0.03499112,0.04858689,-0.0056884154,-0.062056296,-0.113888286,0.04414005,-0.06636153,-0.046737075,0.07596837,-0.10745837,-0.020049233,0.10565654,0.041636717,0.097658284,0.049409784,0.023595681,0.06928123,-0.042336337,0.0043746466,-0.010542782,0.02779121,0.035607014,-0.10858943,-0.028709752,-0.028500153,-0.00025865162,0.028050415,0.022264138,-0.05526301,0.033047985,-0.040663682,-0.11520922,-0.011444017,0.07534131,0.0022418317,-0.03980306,-0.06394955,-0.030553164,-0.026926294,-0.02436413,-0.084056325,0.0605547,-0.021622187,0.08796356,-0.027632425,0.012209203,-0.014520784,0.033047844,-0.08227969,0.025935484,0.008010682,-0.007719604,-0.13142486,0.007321035,-0.037662208,-0.010663427,0.092674606,-0.053812485,0.0034167017,-0.039984036,0.035963014,-0.0008224126,-0.030959701,-0.1038273,-0.13833651,-0.072050236,0.0049850787,-0.043366928,0.025270008,0.08537656,0.033215277,-0.053009853,0.00577836,-0.0773193,0.079600245,-0.042671222,0.028436178,-0.027041651,-0.06449711,-0.0008116194,0.03721279,0.0101340255,0.015064303,0.0150812855,-0.09213269,0.022896208,0.02595314,-0.03653686,-0.031106185,-0.053980455,-0.003266122,0.08344635,-0.05631309,-0.031379286,0.022140749,-0.034512885,0.040191267,-0.0332377,-0.14449781,0.09386058,-0.042145878,-0.106453754,0.020336322,0.069715895,0.09449266,0.041310567,-0.016726406,0.030071612,-0.008429419,-0.0134200165,-0.0993181,0.102096505,0.056552347,0.0210493,-0.10644672,-0.045570143,0.00888732,-0.051068056,-0.045745265,-0.012988956,0.09180391,-0.03939387,0.046136815,0.034879196,-0.037893645,0.048244275,-0.003873388,-0.08310829,-0.09736145,-0.04403168,0.027380446,0.050670747,-0.039532565,0.0026784837,-0.024426173,0.023159482,0.03690945,-0.12268401,0.041597772,0.006527442,-0.062046114,0.12576835,0.017259719,-0.029164644,-0.06666297,-0.035376005,-0.0396631,-0.019562265,-0.031906437,0.11034145,-0.014676269,0.0041337525,0.03397286,0.066489235,-0.0024577759,0.07714603,0.02354006,0.04494934,-0.028182974,0.08213156,-0.07580858,0.069627486,-0.055052634,0.036917865,-0.068865426,-0.078593545,0.03053644,0.026069982,0.03967648,0.06786635,-0.05996099,-0.15300998,-0.02744145,-0.015120381,-0.015908312,-0.045008074,0.017999675,0.073176056,-0.05067554,0.033868495,0.071601905,0.016122447,-0.010875903,0.13577886,-0.053219803,-0.0889116,-0.04088641,-0.061419435,-0.08200843,0.00013484391,-0.067774616,-0.04926569,-0.04655857,0.07570473,-0.12787184,0.030398026,0.057006992,-0.076197036,0.0063499142,0.002908269,0.024346234,-0.03900277,-0.0325523,0.08480642,-0.038082212,-0.12694813,-0.0062538064,-0.039175272,-0.04832006,-0.071064025,-0.08265466,-0.010215551,-0.099369854,-0.14911808,0.02178592,-0.021380052,0.036549814,0.041549034,0.013409314,0.033467267,-0.026714183,0.074304946,-0.06369153,-0.0042541954,-0.03280601,-0.014310806,0.03330014,-0.034092274,-0.01742182,0.013024874,-0.09611372,-0.030674547,0.017900772,0.09542619,-0.02646357,-0.00977205,0.010679161,0.025009736,-0.016360046,0.033116188,0.04033537,0.027815852,0.026258796,-0.01268035,-0.117295355,0.0020533772,0.025164142,0.032964483,-0.04519594,0.054369953,-0.013736818,0.052798137,-0.0483121,-0.0040571983,0.032045584,-0.099107236,-0.038676642,-0.006505681,0.09119172,0.02461114,-0.023810739,-0.010545316,0.024091562,-0.01346288,-0.03138071,-0.027257934,0.028277794,0.013731884,-0.04688046,-0.08070054,0.113584034,-0.073534705,-0.016187914,-0.01365862,-0.041381802,0.013701914,0.06800118,-0.015980188,0.027318237,0.02926893,0.022394706,0.001669589,-0.020888947,-0.056262337,0.04292156,0.08362288,-0.019586632,0.10923158,0.02874521,0.041267943,0.08527417,0.031778444,0.000654748,-0.018951276,-0.028336326,-0.114785954,0.0072823633,0.11154494,0.05329632,0.08378988,-0.059447993,-0.039058436,-0.038686167,-0.06408015,-0.010888503,-0.11194775,-0.0056063137,-0.096039996,0.066030964,0.016405687,0.011744862,-0.058557294,-0.037456036,-0.09599801,-0.07058562,0.026429456,-0.054588366,-0.048347957,0.13967983,0.10611209,-0.12046455
0.06294631,0.0040955436,0.046832208,-0.09002148,0.07224179,0.053533904,0.07269471,0.025540192,-0.038290944,0.0103428755,0.0074849357,-0.015868358,0.030023709,-0.03659303,0.047216706,0.011342958,0.005721696,0.08486318,-0.0056672166,-0.00023673632,0.086689234,-0.019658577,-0.033159424,0.034758102,-0.037432414,-0.037282117,-0.032747112,-0.044639487,-0.046974294,-0.023355577,0.04316468,0.0037114727,0.08335426,0.041813966,0.0013789226,-0.04981251,0.02203749,0.023467204,0.0011487735,0.025982896,-0.010079554,0.073955275,-0.031287506,-0.0818856,-0.06276221,0.054953404,0.025918657,-0.028602596,-0.032606125,-0.046577267,-0.012980897,-0.068493195,0.03309252,0.10175139,-0.018933896,0.032274675,0.023574086,-0.07239247,0.09369532,0.013821196,-0.0022007735,-0.034722902,0.0488894,0.08560198,0.06081753,0.009111085,0.0024643005,0.021939956,-0.021263499,0.033057053,-0.063661404,0.011737799,-0.05095258,0.022364674,-0.032699004,0.027683506,-0.054453664,-0.021446407,-0.07804359,-0.008464562,0.00024674108,0.053506058,-0.0036079604,-0.0054693394,0.03815432,-0.09286766,-0.08164376,-0.02369844,-0.03527212,-0.008143213,-0.034680475,0.017184472,0.04218632,0.038243625,0.10381198,0.06479545,-0.018415624,0.0062828567,-0.057710115,0.05292222,0.0575881,0.0044209403,0.02780485,0.008849407,-0.0010563134,-0.07502696,0.005333281,0.118597806,-0.006422419,0.020272491,0.07470862,-0.041183107,0.005600347,0.044269174,0.038351774,-0.0080892,0.09689329,0.08988912,-0.038163353,0.06873075,0.07646779,0.05477547,-0.020148832,0.06051981,-0.11182435,-0.091933325,-0.027214414,-0.005981578,0.029813662,0.071622625,-0.015647653,-0.009818845,0.0014686402,0.006972243,-0.03999535,0.059318833,-0.08118592,-0.024549674,0.030781735,0.03165421,0.026260488,0.031847764,-0.007554029,-0.030729081,-0.0043706642,0.023138108,-0.04000087,-0.028352067,-0.14773259,0.034835458,-0.024882266,-0.025412368,-0.02750714,-0.006832177,-0.11119486,0.012737574,-0.03381458,0.063477725,0.009325979,-0.076705724,-0.13350803,0.075193666,0.04327896,-0.015256995,0.115408845,-0.081388205,0.018847236,-0.047037534,0.011599896,-0.12190526,0.0042310045,0.012921319,-0.050388653,0.011158433,0.029047996,0.04012924,0.055853944,0.017245341,-0.07863286,-0.04280221,-0.07819069,-0.008470182,-0.023043795,0.057996802,0.03297931,0.104012094,0.08082855,0.061014313,0.0911056,0.026753236,-0.046923876,0.08398407,-0.009885946,0.04183806,0.0033891313,-0.085896894,-0.0144882705,-0.0660868,0.05183817,0.054438207,-0.011458523,0.052435752,0.008038545,-0.08863919,-0.016434817,0.040896073,0.0018597507,-0.060161483,-0.0067618103,-0.019938579,-0.009553067,-0.009636078,-0.04776554,-0.027076816,0.040196422,0.026526425,0.030112857,-0.05321986,0.036696162,0.042332415,0.013228618,-0.016328229,0.00016799828,0.04047753,0.05641157,-0.028855318,0.009804998,-0.033918735,-0.034808557,0.018073069,0.03077832,0.10023355,-0.09108529,0.06416578,0.008408534,-0.062484547,-0.036345538,0.019460402,-0.07287617,-0.013607183,-0.0019670266,0.043318957,-0.01278749,0.11741595,-0.016470617,-0.08954833,0.0689394,-0.0316973,-0.068560235,-0.07611623,0.08941292,-0.032736525,-0.05225708,-0.041031726,-0.11074859,-0.041246515,-0.03097931,0.054980636,0.012025731,-0.020733826,-0.04326713,-0.012218693,0.016286477,0.023239339,-0.06598428,-0.02333157,-0.09722106,-0.04953373,-0.054045785,-0.036867883,-0.014219912,0.106144965,-0.068090625,-0.047454998,0.07046344,-0.069416925,-0.04922206,0.0016749884,-0.025461188,0.08362766,0.101916835,-0.07368111,-0.017777167,0.07714461,-0.11036492,-0.090141706,-0.030903641,-0.01953725,-0.040885344,0.07338444,0.07587356,0.040685076,-0.03525426,0.021981517,0.13547282,-0.0063101216,-0.005199734,-0.026936682,0.09148434,-0.10791843,0.034583945,0.012292752,-0.054298684,0.036087096,-0.002795617,0.028375244,0.011600646,-0.029048692,-0.037442844,0.016484573,-0.016612282,-0.04944179,0.025785299,0.09112704,-0.006971464,-0.04566779,-0.043878835,0.10816087,0.038154032,0.008298568,-0.13483326,-0.00037058396,0.09619513,0.014541313,-0.059289236,0.06229518,-0.027107842,0.01786269,-0.027862463,0.04082385,-0.0009159992,-0.077690355,0.05883461,0.0014262869,-0.08129234,0.006609825,0.024457093,0.010806429,-0.039408956,-0.044022225,0.033500478,0.08128162,-0.02405725,0.07604817,0.090856746,0.007949998,0.005549816,0.020087797,0.053813454,0.0750846,0.029732574,0.098471984,0.02309494,0.022178626,-0.03387826,0.013309926,-0.0962746,0.04497471,0.01570899,-0.08116692,0.05901191,0.02941082,-0.07043332,0.018215185,0.031900533,0.047193475,0.05519952,0.07238529,0.010983213,-0.030810805,-0.012124655,-0.02765199,0.03730333,-0.069635876,0.0525078,0.05931377,0.010499128,-0.033875696,-0.0033383407,0.13664447,0.045205694,0.014602804,-0.045511253,0.06692356,-0.059785224,-0.021069912,-0.06494282,-0.06422253,0.08009808,0.04042894,0.0447282,0.066525266,0.10897221,-0.07230516,-0.15610698,0.029631643,-0.060617916,-0.0033794376,-0.010349783,-0.01446992,-0.008442548,-0.030079458,0.041899607,0.036272995,0.042213444,0.0033096948,0.031366892,-0.003283554,0.01162251,-0.010983174,0.037531104,-0.11741564,-0.038226593,-0.05387488,0.033389498,-0.06920263,-0.016134243,0.049667083,-0.06512873,0.04893895,-0.12806907,0.00036204758,-0.048262402,0.21161169,-0.076784454,-0.09099503,-0.13195945,0.062030215,-0.03143918,0.07717686,-0.025574243,-0.07405606,0.018528696,0.019329624,0.038214687,-0.0017162084,-0.0031202002,0.009933288,-0.07683761,0.002451671,0.03300802,-0.037643738,-0.003924969,-0.022863515,-0.017588673,-0.0048390883,-0.07163294,0.08825645,-0.085714675,-0.05049952,-0.049123265,0.03405216,0.07576599,-0.025131105,0.13817942,-0.05646228,0.0023250384,0.04343808,0.018142803,0.044072174,-0.053288206,-0.023223998,0.019372268,-0.062372837,0.05656854,0.020256594,-0.10372817,0.0071121547,0.045368575,-0.045983247,0.0113101825,0.0350145,0.048593532,0.023902223,-0.018770732,0.002921377,0.051449027,0.050614987,-0.0010376701,-0.070321284,0.058604475,0.03283717,0.105765074,0.044195864,-0.013145945,0.08026047,0.07085075,-0.19504057,-0.1009208,-0.03179112,-0.068312585,0.047079712,0.039623614,0.03521471,-0.015186779,0.01824597,0.010683322,-0.07000312,0.058341235,-0.047595598
0.01748853,0.035832535,-0.0053139664,0.09375129,-0.11994716,0.122411765,-0.11024423,-0.00025943556,0.06477021,-0.036404707,0.003901653,0.031722568,0.064317375,-0.025381928,-0.08216554,-0.015186616,0.007093973,-0.049023416,0.022515059,0.040231276,-0.013436154,-0.0017858702,-0.0042618853,0.0015880493,0.048838906,0.086063705,-0.047693938,0.06911271,-0.045840017,0.09039401,0.0037689595,0.010546159,-0.06371854,-0.06315147,-0.067008816,-0.0078242505,0.02761538,0.035906997,-0.09057344,-0.02736565,-0.11461993,0.056682833,0.031594098,0.054134615,-0.052969266,0.049555823,0.027857535,-0.0068386886,-0.046937764,0.0065029874,-0.05442424,0.063559644,0.03865479,-0.053333424,0.06546876,0.019296851,-0.008912328,-0.02693023,0.03405259,0.08757996,0.028612688,-0.018136835,0.08621501,-0.06611016,-0.03324138,-0.0776447,-0.013270693,0.06659833,0.004729316,0.0016324759,-0.08642235,-0.023687417,0.026344629,0.08851914,-0.059219483,0.0082333535,-0.102805115,-0.04590471,0.020241657,0.014128418,-0.035604537,0.038859006,-0.008641366,0.03408977,0.048820347,0.106815055,0.029984402,-0.022209039,-0.016319076,-0.009645938,-0.006138243,0.06256407,0.016437342,-0.033520836,0.06758251,0.0029918558,-0.05947319,-0.02625648,0.0434573,-0.056375355,-0.04551184,-0.045803074,-0.079723306,-0.046511423,-0.07080348,0.041141156,0.0999104,0.015194267,0.090640634,-0.085676335,-0.054081254,0.118212104,-0.023846613,-0.01744682,-0.035187602,0.02197277,-0.0012207867,-0.10379942,-0.050899755,0.0064814766,-0.03968213,-0.045774292,-0.040551756,0.07756308,0.033240154,0.029348785,-0.025992436,0.01140324,-0.1017147,-0.033186924,0.047961388,-0.009976248,-0.043289304,-0.08603631,-0.027117545,-0.07910458,-0.011148188,-0.032301273,0.0023165215,-0.05157617,-0.009320211,0.035529748,-0.069232784,-0.011504138,-0.11944045,0.058046315,0.013424439,0.05218443,-0.024955202,0.0016824277,-0.0025022887,-0.008644391,-0.031245377,0.054037176,0.10593005,-0.216732,0.035219472,0.010231969,0.013546582,-0.07645576,0.06281786,0.0062527456,-0.10548573,0.070090935,-0.14679937,0.07818211,0.011633729,0.050268512,-0.070637956,-0.049177144,0.13467926,0.030242583,-0.02476019,-0.007405396,-0.07285201,-0.043745354,-0.030053113,-0.046912987,0.0679021,0.07469132,0.048351955,0.027315145,0.009036888,-0.025827145,0.055512886,0.08624328,0.07914852,-0.076809235,0.042316806,0.011722377,0.019954083,0.035930548,0.056006532,0.05949155,-0.076625906,0.00883235,-0.0042219707,-0.041533507,0.012177616,0.08512954,-0.045142375,0.04024067,0.014863162,-0.031827383,-0.031468857,0.05861557,0.021394996,0.07135849,0.057576504,-0.028543063,-0.057323582,0.01773286,0.058533516,0.0035775541,0.03582842,0.05987059,-0.041802634,0.02344384,0.05928696,-0.013703059,0.021388946,0.008517104,-0.108197935,0.0075784344,-0.066779785,0.029239113,0.01178533,0.0079864925,0.016156925,0.038616903,0.020819474,-0.11551544,-0.045066003,-0.06069178,-0.0023907728,-0.038232237,-0.04281514,0.005030958,0.0058033443,-0.03596093,0.019419022,0.040366422,-0.0035257053,-0.073105976,-0.050046373,-0.012011552,0.113921754,0.039383788,-0.015086378,-0.0017884112,-0.012003587,-0.0023810717,0.026545256,0.07446933,-0.004309218,0.020211373,0.010678725,0.07679213,0.0041261916,-0.008706496,-0.06479442,-0.042617843,-0.015362786,0.030800985,0.06361032,0.0026017844,0.00877719,-0.042920005,-0.019928958,-0.028859636,-0.06486492,0.014396938,-0.059442304,0.053460333,-0.02393575,0.00011487863,0.014911338,0.06674775,-0.047055054,-0.07794786,-0.048816547,-0.084910996,-0.02247781,-0.020681364,0.011733521,0.066994205,-0.0220657,0.07777346,-0.027669938,0.042589385,0.06316371,0.0409874,-0.019705566,0.030129526,-0.02337116,-0.037655093,0.024834689,0.056293957,0.04039522,0.0620554,0.004559204,-0.061922133,-0.024288243,-0.045300703,0.041448887,0.13417765,0.0845797,0.0029151072,0.0016007798,0.007960296,-0.018367594,0.0054806755,-0.03167228,0.0067181974,0.012280748,-0.035930853,0.06453263,-0.021529954,-0.03786583,-0.12582844,0.09298811,0.08484127,0.033165317,0.117827326,-0.09057572,-0.08223692,-0.0322132,-0.050789416,0.018027948,-0.032109868,0.032271307,0.028085344,-0.026995901,0.03825834,0.03666234,-0.025387146,-0.08576499,0.034284253,-0.06697947,-0.040200528,-0.074057125,0.026406769,-0.06724172,-0.050036382,-0.13710645,-0.024121827,0.025355918,0.044836722,0.03185493,0.10783384,0.05860935,-0.005626015,-0.07546174,-0.08400485,-0.03282475,-0.028720781,-0.03789412,0.089041494,0.04081264,-0.051499892,-0.002141512,0.119516395,-0.08481981,0.025950417,0.039168596,-0.037198987,0.01565956,0.04996342,-0.0073078913,-0.0100937355,0.046625428,0.0808069,0.04190916,0.040663224,-0.031828392,-0.0029079267,-0.06988921,-0.04041577,0.0005030134,-0.064878374,-0.06353166,-0.038349856,-0.013027364,-0.022926051,0.018145334,-0.060156304,0.12819111,0.05005115,-0.11214258,0.008784431,-0.008734727,-0.03540813,-0.11691039,0.090650074,-0.050411254,0.08151776,-0.038608298,0.018334346,0.040346645,0.0022304223,0.05372249,0.056198847,-0.0070670396,0.034658927,0.085781954,-0.03083121,-0.019825397,-0.033397008,0.06688083,0.006210273,-0.0447155,-0.004812649,0.115482785,0.06458841,-0.020974426,0.011496649,-0.04370605,0.0021394196,0.043632794,-0.0084686205,0.098302834,-0.05419631,-0.0010246155,-0.00078779744,0.057631724,0.03644462,0.060240462,0.030059388,-0.040067766,0.035587423,0.085274965,0.07349592,-0.017686326,-0.026898263,-0.03136564,-0.009092386,-0.041506074,0.05996664,0.051351134,-0.009591479,-0.07020947,-0.06477807,0.023097884,-0.16509414,0.03413569,-0.026812548,-0.054681107,0.051456932,0.10737109,0.116885826,-0.047656756,0.040503073,0.08366394,0.00887276,0.08430754,0.018927628,-0.012095751,-0.13038547,0.095280774,0.065861955,0.05722626,0.0696615,-0.0387949,0.008318486,0.0074392674,-0.011622398,0.11079096,-0.009115494,-0.022590647,0.10666828,-0.021697965,0.047462888,-0.021073364,-0.00020135698,-0.0710347,-0.0043392573,-0.07656292,0.035028934,-0.036804844,0.038879775,0.009350995,-0.02132198,-0.038447764,-0.024132948,0.026839212,-0.113178745,0.06707289,-0.068825856,-0.007962538,1.6782693e-05,0.09131643,-0.08171723,0.06551469,0.07210885,-0.0009564236,0.0614134,-0.027258862,-0.004741576,-0.022992255,0.0063263965
-0.09971265,-0.020250695,-0.04038944,0.0505781,-0.0531778,-0.11342414,0.080972165,-0.016312955,-0.025002684,0.0022223599,-0.075278655,-0.006750316,-0.041455403,0.016592009,-0.046860162,-0.015960453,0.011438764,0.010861523,-0.053835083,0.008124766,-0.030267349,-0.04010096,0.0017342974,-0.02516713,-0.05456911,-0.07048373,0.016164983,0.112245165,0.033040803,0.017695894,-0.00060677546,-0.050772045,-0.06516617,-0.045669805,-0.14738995,-0.048953954,0.02006098,-0.008249628,-0.027631676,0.061236717,0.0099329045,-0.09909666,0.017318683,-0.038316626,-0.03811814,0.004672964,0.109457426,0.031911556,-0.041456472,-0.034001008,0.024843425,0.030080564,0.028617656,0.010242047,0.11469554,-0.008570502,-0.027847914,0.01170148,-0.085948355,0.07837217,0.03477129,-0.10339717,-0.043675147,-0.1217685,-0.026683759,0.012171056,-0.02863576,0.04516361,0.033944692,-0.019664045,0.013355363,-0.059314363,-0.017868998,-0.02502753,0.07742899,-0.14883913,0.07949935,0.040409043,-0.08684982,-0.02795186,0.02286125,0.070958644,0.0567743,0.0059413863,-0.043927673,0.09062221,0.0050783237,-0.004750656,-0.03067352,0.0039092335,0.03288918,-0.01708203,-0.01522935,0.00015840918,0.043745775,0.033569664,0.06146959,-0.03819865,0.03668731,-0.0025071127,-0.01600631,-0.013571145,0.11154331,-0.0003764986,-0.031319216,0.0025356372,-0.03143317,-0.016864033,0.01653302,-0.03908248,-0.11205106,0.047272496,-0.01819724,0.037402123,0.009288948,-0.03373264,-0.002009129,-0.111195795,-0.060424473,-0.01538406,0.012507756,-0.09975443,-0.01835194,-0.052874207,-0.032267116,0.0076396028,-0.016497383,0.019808078,-0.06776249,-0.03806207,-0.052725967,0.019112604,0.051177636,0.0282486,0.07847843,-0.0809541,0.050418563,-0.040245146,-0.013236806,0.02416085,-0.03557169,-0.0015874904,-0.03135403,-0.031680405,0.008021577,-0.032760825,0.034849983,-0.025663117,0.060116637,0.03984277,0.02673014,-0.019375749,-0.021943143,0.012821503,-0.022460205,-0.0011158886,0.08878872,-0.03710067,0.05634114,0.050299224,0.098776184,0.071947075,0.061200436,-0.039800547,-0.07293755,0.063292645,0.050436724,0.051166244,-0.09162706,0.012444628,0.1011798,-0.06085698,-0.09832223,0.026526209,-0.10168516,-0.05177608,-0.08366941,-0.005688219,-0.0855489,0.039764248,0.040003333,0.088786714,-0.009789088,-0.08338039,-0.00419479,0.12070051,0.11202589,-0.0051370678,0.08581354,-0.023645498,0.0837958,-0.055823855,-0.14430133,-0.037886865,-0.0021518208,-0.027770463,-0.031674672,0.069003366,-0.021413548,0.01329088,0.012639884,0.06300719,-0.033859033,0.01416709,-0.0047607897,0.052736267,-0.015199254,0.015256906,-0.06373523,-0.03670043,0.06605169,-0.014712124,-0.0067397817,0.05899911,-0.07036812,0.03457876,0.017440625,-0.012944966,-0.07278303,0.01903789,0.025943665,-0.021246905,-0.11351624,-0.01683348,-0.067514546,-0.0075651957,0.017881976,-0.06578123,-0.008099285,-0.046332236,0.037882097,-0.052920174,0.054335173,0.037260454,0.017133329,0.10190242,0.059198156,-0.03882627,0.015871996,-0.006154704,-0.013330883,-0.062379792,0.02098484,-0.03603921,0.044185992,-0.030590545,-0.02349239,-0.036686927,0.06557549,-0.023123404,-0.11097848,-0.005816742,-0.024836836,-0.04455237,0.062449254,-0.06672646,0.09184204,-0.02590509,0.01942397,-0.03851553,-0.063578695,0.05889438,0.010576197,0.08942077,0.08340919,0.01751404,0.06341179,-0.004795948,-0.059251897,0.043057997,-0.07025558,-0.043232795,-0.055645008,-0.052400123,-0.07299043,-0.054513264,0.04632276,0.08985421,-0.07934849,0.11148214,0.0033585096,0.07680061,-0.15447512,-0.109918505,-0.029112821,0.06797557,-0.010773997,0.12044763,-0.00844555,-0.016712688,0.02638564,-0.08043996,-0.026934033,-0.011629742,0.009348874,-0.030801607,0.0020958972,0.038542848,-0.034293786,0.027708529,0.022310382,0.022091582,-0.068281434,0.0021410107,0.055162463,-0.040703636,-0.100078404,0.01875543,0.022428665,-0.011499428,-0.10342641,0.027574373,0.026085196,0.107260905,-0.08718887,0.048436042,0.093685135,0.005732539,-0.07572353,0.032595433,-0.00028775184,-0.048852816,-0.06434285,0.014083592,0.009081468,-0.0058114687,0.010154191,0.083665475,0.0014001391,0.021174181,-0.043551866,0.0025346435,-0.014440501,0.1371804,-0.007553813,0.0224899,0.09979764,-0.023820836,-0.12920626,-0.033459727,-0.072083354,0.08485538,0.013168855,0.049003735,0.07104192,0.015352061,0.04637015,-0.10062498,-0.06321108,0.028387237,-0.033826347,-0.06561837,0.029673837,-0.012885924,-0.02164815,-0.036802825,-0.0137511175,-0.111623846,0.0003256722,0.026985472,0.041233346,0.13031405,-0.047602497,0.035001494,0.008303055,0.03463563,-0.0422397,0.020990074,-0.019611446,0.041809093,-0.017570604,0.072744615,-0.015946278,0.06870408,0.0068823984,-0.0027839814,0.062311422,-0.050296947,-0.0016559256,-0.07683643,-0.015744224,-0.03134491,-0.0028050365,-0.053958338,0.007989351,0.014008078,0.0027056318,-0.020076593,0.1536335,0.07057923,0.017191902,-0.050068796,-0.00428439,0.08710469,-0.08640647,0.09945666,-0.049532074,0.06707335,-0.041961133,-0.00092036877,0.0024719383,0.06925266,-0.07012413,0.01654904,-0.011304261,-0.012280721,0.03401744,-0.0187751,-0.0037902833,0.008115224,-0.079113945,-0.029340649,0.11508979,0.04295668,0.02633375,-0.010683805,0.10644724,0.007408577,-0.017829418,0.019628074,0.11029051,0.036970817,-0.022893716,-0.069042906,0.06225529,-0.09263102,-0.07275318,-0.07814654,0.041560587,-0.03752781,-0.05098306,-0.008563235,0.00083290285,0.04178263,0.08325969,0.032989364,-0.038470015,0.05639836,0.049835626,0.04767997,-0.022478072,0.035973575,0.041617416,-0.09803883,-0.0142232515,-0.050422277,-0.045452993,-0.043579075,-0.056784254,-0.13743763,-0.044659644,-0.033847444,0.05403684,-0.034554567,-0.02787816,-0.07277039,-0.0046202084,0.054757513,-0.055016495,0.067067795,-0.05611836,0.038511157,-0.09116576,-0.036563147,-0.047520965,0.015537472,0.006227555,0.03690175,-0.023562768,-0.04649457,0.03471312,-0.008585307,0.005390415,0.015029923,-0.08322564,0.035195943,-0.020038437,-0.08405167,-0.077308945,-0.08428005,-0.046783365,0.014535045,0.037337903,-0.033891615,0.022745743,0.07032153,0.09015639,-0.036722537,0.091779955,0.042015098,0.11777335,0.100762896,-0.03628221,0.027129902,0.0063083763,-0.0770223,-0.06063366,-0.015585812,-0.08366765,-0.008362335
0.03682768,-0.02463489,0.0051942496,-0.07256961,0.026417635,0.08020847,-0.013984985,-0.000101467274,-0.007091677,-0.042588264,-0.036749937,-0.020186104,-0.004211426,0.008883159,0.00421538,-0.07117154,0.089715995,0.049022317,-0.009771737,-0.01871484,-0.093332015,-0.007429028,0.031717774,-0.024866782,-0.038414363,-0.07482566,0.114982255,-0.024927765,-0.044493683,0.03859484,0.0012747115,-0.007977374,-0.03308744,-0.038102087,-0.022594634,0.12479645,-0.046379026,0.0059470967,0.050539136,-0.071731575,-0.036555707,-0.0018965083,0.044073634,-0.12462553,0.051337577,0.031444207,-0.09324168,0.038111337,-0.057221863,0.08908746,-0.032344673,0.11897715,0.039933577,-0.11876385,0.0010282998,-0.05486978,-0.0053522335,-0.041811764,0.0154816285,-0.028013756,-0.0053347195,0.025905954,0.08903514,-0.025448162,0.008391271,0.004811579,-0.046432726,0.036018617,0.047021624,0.028399585,0.059135452,-0.06554597,-0.029236374,0.057776276,-0.065220594,0.13413905,-0.038700573,-0.059364345,-0.038404386,-0.03543847,0.03601478,-0.019201975,0.030674426,-0.055538654,-0.008721911,0.111467026,-0.049841803,-0.036657587,-0.013707065,0.010082733,-0.016480599,0.12369625,-0.10751898,-0.05676227,-0.053370878,0.01972409,0.06354444,0.041966196,0.04701611,0.12866902,0.058531478,-0.031970542,-0.014031981,-0.0006251277,0.018325174,0.12036893,-0.018326156,0.07683068,0.007256752,0.13131535,0.11518845,-0.1495471,-0.028385663,0.028017718,-0.0031716153,0.056655895,-0.060771182,0.08111827,-0.04691648,-0.005840863,-0.07575398,0.089017205,-0.05580027,0.06520662,0.01621238,0.0059962086,0.05439754,-0.03528187,-0.022539096,0.0706757,0.044315655,0.0006737958,0.027531585,-0.048990887,-0.025690576,0.081372485,0.121256985,0.03432063,-0.034805503,-0.08216005,-0.088155046,0.059199847,0.08773065,0.025918946,0.011522754,0.059802696,-0.03134275,0.020818235,-0.12164957,0.012934163,-0.007431964,-0.067141704,-0.043644954,-0.044530604,-0.04315352,0.0222086,-0.053860657,0.012213585,0.035959776,-0.010732151,-0.0063273734,-0.10123444,0.07729325,-0.04356427,-0.08420905,0.009360438,0.007111611,-0.06723624,0.124396645,-0.0015155313,-0.076913506,0.06609655,0.0826114,0.016211603,0.08961392,-0.07458848,0.051162176,0.021160506,-0.07492728,-0.01238251,-0.047420718,0.048235614,-0.046114717,0.008491004,0.038838584,-0.07151942,-0.069613025,0.15100038,-0.0909638,-0.06406374,-0.061065365,-0.0032130007,-0.023532888,-0.02898042,0.028287692,-0.02448144,0.00044436776,-0.016789123,0.036573306,-0.06934752,0.01461621,-0.05600695,0.09044669,0.059823666,-0.0082121715,-0.037267234,0.014790827,0.06128939,0.0075277872,-0.00031517522,0.010653104,0.03733003,0.050067723,0.087487645,-0.0525204,-0.0785864,0.043526232,0.036627136,-0.0058901794,-0.035217013,-0.030146288,-0.0036968961,0.09450364,0.033459697,-0.016768547,-0.028773272,-0.0060159946,0.023842596,0.007539844,0.043473914,0.014943759,0.11371313,0.024106974,-0.078873836,-0.022024369,-0.08946114,-0.056576155,0.03142898,0.112830274,0.014138539,0.028448507,0.05580594,0.0746231,0.010636569,-0.12290766,0.06918487,0.00918291,-0.003312489,-0.036921415,0.08336848,0.066582546,-0.026005547,0.020270085,-0.08817445,0.0042574503,0.07521122,0.023474265,0.05279322,0.0036731092,0.008617462,-0.045109164,-0.049233947,-0.053803615,-0.08512887,-0.023882022,-0.019479914,-0.034191966,-0.0004034584,0.07788247,-0.015208397,0.06533907,0.09678813,0.04265174,0.012251931,0.11681625,-0.14812732,0.01161526,-0.16140622,-0.081324816,-0.093298025,0.12471595,-0.09897298,0.04367125,0.045140892,0.05885368,-0.029125363,-0.0035240357,0.080430396,0.002443595,0.058769926,-0.033192657,-0.009982797,-0.034896147,0.07417314,-0.015392427,0.030053513,-0.017830167,3.856126e-05,0.044700313,-0.027626924,0.026768077,-0.040202573,0.06422236,0.032366954,0.0067817424,0.018821899,0.11543682,0.02383424,-0.0050560376,0.023836654,-0.0600811,0.024951955,0.009975469,-0.1197992,-0.013068482,0.02855704,0.1028701,-0.07041254,0.008980843,-0.048287474,0.03070506,-0.0809509,-0.017196437,-0.03394373,0.053382393,0.015019595,-0.026903203,0.0028411574,0.04261099,0.03772806,0.041683078,-0.028729783,0.06376239,-0.050369244,0.048455916,0.07945738,-0.06056571,-0.0008476487,0.062920935,0.07036942,0.109633714,0.027053138,0.034885496,-0.048773568,-0.010054474,-0.014598143,0.07688722,0.08028717,0.023509813,-0.004845672,0.08750158,0.030424258,0.003705076,-0.071081206,-0.0082226815,0.049233653,-0.013413845,0.046352983,0.022102108,-0.023714596,-0.01875901,0.06750934,-0.051767327,-0.1285598,0.003711816,0.06408368,0.018463803,-0.054592583,-0.025145795,0.032172587,-0.039513007,-0.035611156,0.037002977,0.027462497,-0.054825682,-0.05331739,-0.03897564,-0.03287476,-0.06440682,-0.083501026,-0.10153702,-0.05499417,-0.113004774,-0.0010877382,0.025140751,-0.04402604,-0.08667489,0.026977839,0.055890147,0.023896515,0.04238545,-0.070887364,0.10805939,-0.004005301,0.04818434,-0.014337371,-0.054941043,-0.07999274,0.0115621025,-0.019641036,-0.05372792,0.07891122,-0.07531863,0.0067603295,0.11333864,0.01876758,0.053002186,0.024604501,-0.0055919006,0.067046374,-0.006253062,0.0544922,-0.08820053,-0.013023357,-0.031113727,0.027577039,0.090028405,-0.028915854,-0.022086266,-0.046257306,-0.09539315,0.044004448,0.019876916,-0.08028317,-0.0653762,0.013642763,0.04700984,-0.019846542,0.03425571,-0.055289,-0.0073357713,0.09065797,0.0027931968,-0.033782747,-0.03200468,-0.0033929339,-0.046586063,-0.05612183,-0.040734645,-0.011326613,0.02805335,-0.035062358,-0.03270785,0.08681391,-0.007900213,-0.04735242,0.08713911,0.034330502,0.04024012,-0.07577849,0.054290414,0.0279768,-0.07634929,-0.013474265,-0.046849083,0.049657315,0.039040845,-0.06640002,-0.016217101,-0.08977608,0.00489782,-0.011089649,0.085015535,0.10498371,0.037551813,0.0033967218,0.022730011,0.009181394,0.001312988,-0.07179536,0.0048008948,-0.033166237,0.032640457,-0.058239806,0.028201845,-0.02828631,-0.024000734,0.01741921,-0.03698601,0.082783066,-0.032830544,0.039987072,-0.0416553,-0.05493875,-0.007023277,-0.12637919,-0.04284127,0.022280725,-0.01033997,-0.01771847,0.010670275,0.10043396,-0.114019305,0.041335754,0.007143616,0.025452971,0.05874148,0.096960336,-0.0628667,-0.019727403
-0.022319369,-0.024026653,0.029882764,-0.03543187,-0.14968222,-0.023524128,-0.12130954,-0.087934054,0.064848244,0.021741696,0.13071181,-0.013691929,-0.03362179,0.015552576,0.075687215,-0.039076082,0.083266,0.09021157,-0.101896316,0.01808598,0.093123056,-0.03123283,-0.003670557,0.07611185,-0.02234372,0.0082667405,-0.08877441,0.013658159,0.05319543,-0.076775,0.030400619,0.003917076,0.109728225,-0.019859267,0.051178914,-0.043479376,-0.02878681,0.017654028,0.01412305,-0.008937069,0.086737625,-0.06290807,0.000377728,-0.044983193,-0.05232667,0.09324947,-0.034103557,-0.03794122,-0.032560427,-0.045966934,-0.0071574138,-0.122304566,-0.04747649,0.025102403,-0.045029946,0.018080825,-0.024662696,0.062270787,-0.025963148,0.052627612,0.01767433,0.0055579026,-0.027665323,-0.12174195,0.0498018,0.0568404,-0.021630352,0.13934961,-0.033063464,0.03778065,0.019729435,-0.065418966,-0.057347756,-0.06583768,-0.11300546,-0.12463131,0.08243972,-0.014641535,0.06179755,0.037852522,0.02023124,0.01674294,-0.00021198418,-0.0050253468,0.028845018,-0.09059305,-0.07007557,0.06478613,-0.024127651,-0.035285857,-0.027271135,-0.09494013,0.09928043,0.029968679,-0.033002228,-0.008413125,-0.08277545,-0.1052153,-0.12090223,-0.12849963,0.0047829323,0.023852149,-0.057815608,0.028255837,-0.036638115,-0.053373,-0.04239526,-0.1643725,-0.11427655,0.073506504,-0.14163685,0.13641994,0.02032587,-0.03127305,-0.04139422,0.056096468,-0.085339375,0.10482687,0.050594375,0.01924183,-0.07537243,-0.013436653,0.032987986,-0.06725098,0.0469963,0.047552854,0.059602443,-0.01845491,-0.022162026,-0.004147315,-0.039451286,0.02524822,-0.0364272,0.07534714,0.08490638,-0.034876112,0.011377638,0.032309894,0.02465167,-0.050355706,0.028202897,0.07944175,-0.026932491,0.02282632,-0.006615951,0.06700951,0.015002509,0.01613151,-0.04043502,0.034847863,0.0267293,0.025611395,-0.0022345497,0.032386377,0.056855418,0.13618135,7.8883044e-05,-0.064679466,-0.07976357,-0.04664152,0.1048976,0.1044467,0.080342315,0.048832923,0.13538972,-0.021015735,-0.032123443,0.089325845,-0.06198817,-0.0282617,-0.048666883,-0.07339595,0.0886201,0.025875723,-0.048706137,-0.009563725,0.03882714,0.071833774,0.06711542,-0.043162942,0.05638855,-0.099905096,0.043399364,-0.061076827,-0.052238982,0.06725938,-0.027626313,-0.07812159,0.17590293,0.045966186,-0.0037063349,-0.0028020216,0.06429934,-0.05161503,-0.036787167,0.034344185,0.02206129,-0.078986,-0.07449531,-0.03671416,0.01740928,-0.11797718,0.03663853,0.0016204279,0.031132555,0.041599397,0.001010276,0.03580693,-0.0887786,-0.042120837,0.038146343,0.030481659,0.04280791,0.0020690325,0.011802753,0.005088707,-0.01667267,-0.114528105,-0.041354794,-0.06685685,-0.023932409,-0.033078156,0.037775673,-0.10732054,-0.041561086,-0.0031893805,-0.062790915,-0.034068495,0.0028825698,-0.022280788,0.008806542,0.040198028,-0.0968044,0.042629767,-0.030442348,0.062096618,0.05351583,-0.020153195,-0.06590437,-0.013455922,-0.028599875,-0.04119745,-0.046281025,-0.00058880023,0.019430766,0.07419139,0.0042418432,0.04123407,-0.0005453949,-0.099603765,-0.054224033,-0.020878896,0.058782984,0.038393058,-0.022232763,-0.036226016,0.008723579,-0.016191598,0.03611244,-0.0032908518,0.113340035,0.06967421,0.0052304287,0.025770346,0.005493838,0.029668242,-0.00015688865,-0.020865994,0.031450797,-0.009554341,0.04092278,0.14807057,0.06347702,-0.024669481,-0.08386648,-0.015649218,0.018534461,0.09225206,0.0004893461,0.10280256,-0.17391329,0.018918695,0.03493887,0.008277544,-0.05272444,0.023922842,0.007938245,0.034305304,-0.05613293,0.09174799,0.08348676,-0.007112505,-0.04410404,-0.1279129,-0.13392086,0.014018826,0.021688785,-0.051598236,-0.027314812,0.021540888,-0.045043685,0.13388725,-0.09328602,-0.04688511,0.04273748,-0.03591609,-0.038303684,0.05986937,-0.024686947,-0.040863518,0.069991946,0.01914966,-0.020947564,-0.10872108,-0.014891852,-0.014353226,0.0038284215,0.01084455,-0.0011122151,0.015777117,0.09190038,0.049450427,0.007930918,-0.08382435,0.07703903,-0.059409384,-0.054763224,0.103586785,0.11862616,0.021531712,0.021920847,-0.090114705,0.015540886,0.03198755,0.06958009,-0.076727875,-0.0684098,-0.0036373744,-0.006823234,-0.040942095,-0.01746963,-0.07320371,0.073207036,-0.027153213,-0.07330527,0.01624865,0.043927457,0.008947877,0.0028293896,-0.06698804,0.09175134,-0.041575182,0.014456326,0.11928769,0.008138951,-0.0080593545,-0.0030602545,-0.013998437,-0.016851906,0.04079291,0.053033903,-0.060114462,0.0067751985,0.08469239,0.12501025,-0.015846193,-0.03375437,-0.028153678,0.014510914,0.014323064,-0.035873275,0.024741627,-0.12344147,0.07287495,-0.06526439,-0.0822848,0.03373319,0.017369518,-0.0012202596,-0.06394112,0.018614655,-0.045838974,-0.010705973,0.06339829,0.09591861,0.02992101,-0.0036364216,-0.05930747,-0.028509151,-0.08116571,-0.10735529,0.09918983,0.09336346,0.14483653,0.10637991,-0.08023867,0.09370397,-0.02873894,-0.030277858,0.033654764,0.012116205,-0.039187465,0.0027712737,0.040861595,-7.674269e-05,-0.03423724,-0.036364127,-0.006038992,-0.034743614,-0.039404597,0.02794408,0.08218232,0.056751736,-0.02656357,0.032591663,0.018670427,-0.03242103,-0.009190643,-0.068899706,-0.07202513,-0.030334767,-0.024794068,0.027909817,-0.1062389,-0.015486609,0.06665213,0.071704,-0.012528057,-0.022588743,0.059871983,0.06542457,-0.070808955,0.010013402,0.0023738106,0.019633485,0.03000296,0.004496458,0.0039215,0.02467542,-0.068960175,-0.0028167164,0.040716186,0.055119894,0.040170375,0.0024415483,0.025018556,-0.06983839,-0.06937617,-0.079686046,-0.0018696096,-0.02931415,-0.058534596,0.06264463,0.0054401713,-0.032138314,0.07493597,-0.036305822,0.043996803,0.03531251,-0.051951192,-0.03665027,0.10135341,-0.0501146,-0.033769183,-0.035686053,-0.03365578,0.0060431114,0.0041256067,-0.013355969,-0.08553096,-0.03376784,-0.033263132,0.0010676158,-0.015517873,0.0003015802,0.036480077,-0.053346694,-0.104592174,0.028825099,-0.02066066,0.06470382,-0.022575667,-0.06821956,-0.026500737,-0.13910401,0.10707809,-0.08016184,-0.015303856,0.024222583,0.03748199,-0.09367365,-0.084333405,0.05525351,-0.09258702,0.00021083276,-0.012759058,-0.14378455,0.043026835,0.01520889,0.028943961
0.1021147,-0.009058234,0.018607445,0.0702815,0.050303005,0.049710948,0.0027600687,-0.018675677,0.10082233,0.041218117,0.024524767,0.10959772,-0.00047451616,0.05990913,-0.053417444,-0.049098324,0.06951647,0.077166714,0.00036630212,0.054968543,-0.004378215,0.042324137,-0.03249349,-0.07034142,-0.021151057,-0.011105074,0.037186764,-0.06276597,0.031411905,-0.09388066,-0.00451434,0.042758893,0.05444176,0.032193117,0.08970553,-0.05501076,0.019168405,0.024501448,-0.08513337,-0.06824923,0.0014641933,0.15022494,-0.038704365,0.10007812,-0.09657605,0.00980242,-0.0678228,-0.04035383,-0.01783883,0.15194549,0.044213478,-0.06759802,-0.04523763,0.057202425,0.04557043,0.018808862,-0.023686549,0.034230694,-0.09144244,0.040703516,0.021196341,0.012553113,-0.03453008,0.08806901,-0.017842047,-0.10500308,-0.051228512,-0.18998978,-0.043465838,-0.0070978664,-0.011705628,0.07088232,-0.09210897,-0.051752966,-0.067913786,-0.061306756,-0.03386216,-0.11550196,0.00055344705,0.009818151,0.009059781,-0.029145658,-0.06369494,-0.056607958,-0.09595021,0.0056898342,-0.086757086,-0.06375305,-0.05796028,0.011170452,0.017085554,0.061918158,0.009896776,-0.04759584,-0.095930934,0.03534574,0.036157593,0.09140353,0.061388355,0.0854915,0.015793927,-0.024440316,-0.11158817,0.032074265,-0.03981478,-0.083398186,0.06982482,-0.008473704,0.0059643057,-0.05771753,0.061298322,0.05858995,0.040618286,0.041746486,0.03502732,0.025529345,-0.077999644,0.013354882,0.053999964,0.02178858,-0.010974892,0.12727955,-0.04774473,-0.018623125,0.022384329,0.052538283,-0.011402991,-0.00030771492,-0.0010721626,0.039188392,-0.06155252,-0.13418333,-0.106622465,-0.044102505,-0.04597047,-0.008895801,-0.1391053,0.0110741025,-0.010582706,0.065908514,0.07611167,-0.09583746,-0.026757674,0.00837655,0.06967204,-0.034499776,0.03424078,-0.040886126,-0.060690552,-0.029746905,0.009066281,0.051079545,0.026881091,0.036148984,-0.004290047,-0.06830773,-0.10873792,-0.018308623,-0.06421697,0.09711672,0.042435773,0.07562372,0.06190812,-0.014255434,0.06986867,0.053302355,0.049943287,0.08168316,-0.013943985,0.041837346,-0.077632666,0.0955564,0.035147488,0.015387758,0.060561463,-0.018198138,0.020356346,0.03705209,-0.066115566,0.039770287,-0.07390862,0.07768349,-0.015956284,-0.053562056,0.041415058,-0.10336035,-0.04478547,-0.05359216,0.021270145,0.011911086,0.04366205,-0.02242058,0.14288613,0.058703918,-0.012045948,0.0076698926,0.046867523,0.07798602,0.027665881,-0.052634016,-0.065127045,0.011442749,0.030889299,-0.03465681,0.0014484748,-0.015291728,-0.020015143,0.028532911,0.09589152,-0.038972255,-0.031544704,0.023446344,-0.1040039,-0.04384231,0.08051449,-0.03844073,0.0013988828,-0.04334723,0.03410661,-0.016081478,0.028333725,0.032816287,-0.10062608,0.0026743666,0.031528044,0.020463431,-0.006793275,-0.09249514,-0.049903728,-0.030513708,0.009406514,-0.054098204,-0.0060564047,-0.106396146,0.032989852,-0.10749077,-0.05012676,-0.0022508262,0.07921217,0.0006643647,0.006338307,0.07668446,-0.052806128,0.06749948,0.15932617,-0.10959979,0.02423879,0.030440208,-0.02441557,-0.0809891,0.011097577,0.009975417,0.06923602,0.074466944,-0.043267563,-0.043985713,-0.12379727,-0.02685383,0.05163572,0.12724444,0.12867019,-0.11112385,-0.0013820425,-0.04847913,0.024491167,-0.025288673,0.07622077,-0.03240391,-0.026179949,-0.011490429,-0.09018716,-0.037107505,0.043087795,0.005928855,0.00580666,0.06574103,-0.015623624,-0.040346343,0.069674194,-0.06613621,0.048825357,-0.03646854,-0.0016884085,0.022215525,0.09902607,-0.0377303,0.063852966,-0.120811395,0.013185581,0.023625277,-0.001639304,0.0069357883,-0.024462482,0.07547656,-0.12695597,0.024791723,-0.0004407281,-0.016014539,-0.11170202,0.03632704,-0.027823236,0.07050543,-0.09276307,-0.04807143,-0.07224138,-0.1013424,0.031876046,-0.055464976,0.029113458,-0.03386406,0.088386975,-0.018808072,-0.0038620825,0.122525975,-0.01883391,-0.094254814,-0.018088946,0.09779325,-0.062942855,0.13126692,-0.12684226,-0.03732251,0.09754394,-0.007332449,-0.09924102,0.05191424,0.0038643,-0.040172722,-0.039896123,0.014744599,-0.0039333017,0.044753324,0.005793166,0.01846586,-0.040948834,0.009528718,0.107247524,-0.019437417,-0.027149098,-0.03506626,-0.06302528,0.04042099,-0.031491604,0.0046258764,0.06631404,-0.13272375,-0.027064085,-0.021976108,-0.026714137,-0.04594032,-0.13813618,0.045475736,0.06527119,-0.024573002,0.044699863,0.020311767,-0.05046502,0.06960998,0.030148737,0.051877297,-0.027684845,-0.059217855,0.039121743,0.09851241,-0.11447493,-0.08198107,0.014480526,0.025632383,-0.008129765,0.04823292,0.016382216,-0.1150914,0.011275979,-0.025505371,0.04076275,0.010168087,0.0973691,-0.03792516,0.062590964,0.07159929,0.028542189,-0.03184827,0.00080826145,0.023910208,-0.116527826,0.06601924,0.071948156,0.118890144,-0.109550424,0.028472628,-0.12774931,0.13535595,0.02082085,-0.05340332,-0.04201956,-0.1257995,-0.09701867,-0.046288945,0.043316502,-0.03316552,-0.06578532,0.019924138,0.16050442,0.043016728,-0.06307401,-0.00209913,-0.055497263,0.033729736,0.014512395,0.00327183,0.069967255,-0.09848858,-0.101749696,0.024129651,-0.051180582,0.030665886,-0.02369977,0.096731424,0.066935144,-0.04324891,-0.10335593,-0.0021810795,0.044693504,-0.007223468,0.04151075,-0.057552364,-0.00051247503,0.08306335,-0.03885947,-0.028287191,0.0518633,-0.032411497,-0.03225815,-0.033901356,0.027672665,-0.023010947,0.021999432,-0.07748716,0.0026210893,-0.021541536,-0.062247347,0.013344741,-0.06187147,0.054266654,0.03194309,0.04906238,-0.14999618,0.05538827,0.08872515,0.10833011,0.0037270177,-0.0785362,-0.07199338,-0.032260545,0.09296675,0.012278113,-0.012093678,0.050820798,0.01596997,0.11025885,0.0066901194,-0.02270106,0.034710504,0.06516179,-0.09478923,0.024750264,0.07229419,-0.029735578,-0.07528265,0.051957484,0.033023085,0.034955814,-0.007966662,0.011627911,-0.049427822,0.0072036255,0.073381364,0.08026055,0.035813056,-0.11402943,0.09847857,-0.032350764,0.073971465,-0.041178897,-0.015087701,-0.019133804,-0.11006359,0.12949064,0.037363347,0.0045969607,-0.06093929,0.061914824,0.03853857,-0.012418056,0.016870474,-0.03344457,0.03629635,-0.13343172,0.0012690572,0.018754655
