-0.01536082,-0.058945984,0.0030737126,0.022031024,-0.031279843
-0.056847893,-0.051107556,-0.0057570594,-0.019231362,-0.0035735525
-0.013676128,0.024333369,0.028436316,0.03526196,0.008016503
-0.029322851,-0.008051123,0.022391357,0.0016374654,-0.027331803
0.032629844,0.011754891,0.013248015,0.015286682,0.033431057
-0.031997614,-0.020378787,-0.018072916,-0.03455528,-0.028428044
0.018414857,0.04535758,0.01008717,0.016615884,0.008055085
0.0004713649,0.018157361,0.00053820806,0.0039147562,-0.002821628
0.03283158,0.07394503,-0.038585577,-0.04762277,-0.05462527
0.024738397,-0.009093892,-0.03773994,-0.0020601186,0.010404207
-0.016200744,-0.007709989,-0.032357257,-0.022097636,-0.02280298
0.012897182,-0.044975195,0.018255107,-0.04853131,0.0037847701
-0.0073054763,-0.023128297,0.0018640399,-0.01776281,0.03670595
0.0028680451,-0.030363135,0.013522453,-0.024968224,-0.023273887
0.023682248,0.0140146455,-0.03677643,0.024942702,-0.02081641
0.045373917,0.018601213,0.01465625,0.0042444486,0.022286886
0.0071465503,-0.047343194,-0.054869935,0.019209133,0.0019190067
-0.012935697,-0.039473582,0.0067647733,0.0073626945,-0.014307041
-0.034509614,0.014295072,-0.0420074,-0.0018016589,-0.016825652
-0.047132745,0.035003282,-0.029440828,-0.0011854355,-0.0016643995
-0.025757661,-0.037072223,-0.008696836,-0.04076527,0.025400152
0.018385768,0.011308788,-0.048981212,-0.016779337,0.02373536
-0.0007434013,0.0024723776,-0.028716428,0.033982567,-0.04096732
-0.03136705,-0.039154742,0.030578993,0.0033081467,0.00086870877
-0.03069982,-0.037852183,0.014212654,0.042077016,-0.006633373
-0.0015349899,-0.05501904,0.0058894358,-0.046792842,-0.0470057
0.013980788,-0.02114442,-0.07520669,0.028907904,0.021737497
0.013742443,-0.066174544,-0.063349776,0.059843946,0.059576146
-0.0527893,-0.05460597,-0.0063191643,0.02312871,0.01553936
-0.00010526458,0.040656447,-0.041862123,0.011036219,0.009500261
0.017393513,-0.00879843,-0.022320334,0.005811907,-0.05876299
0.0182187,-0.00044531462,-0.048957054,0.009341522,-0.020000126
0.010716542,0.002850604,-0.009066738,-0.029593369,-0.059838746
0.010977568,0.029606678,-0.0071815993,-0.02343488,-0.042370226
-0.011445576,0.030530848,0.0059489734,0.0154509675,0.0031473157
-0.019180963,-0.025341203,-0.021154491,-0.060500886,0.00696574
-0.030320583,-0.03957003,-0.07005748,0.0020260746,0.007545617
0.018669732,-0.0891048,-0.007490331,0.003599164,0.009763149
-0.020946223,-0.05116098,0.0021965725,-0.006999912,-0.006616239
-0.048822533,0.028894143,0.003944785,0.024108483,-0.040452953
-0.010362154,0.011212827,-0.010080663,-0.030023398,0.031168727
0.035470232,-0.033260494,-0.017402781,0.029881705,-0.037199594
0.03836516,0.022299735,-0.03122482,-0.05058818,-0.0010700873
-0.0032767346,-0.032368865,-0.022535224,0.03240392,0.027782105
-0.055709764,-0.026557622,-0.045062307,0.008918623,-0.0003864464
0.026272938,0.010439538,0.006925833,-0.033856485,-0.0033891955
-0.05347171,-0.049894426,-0.015483939,-0.016758816,-0.04804016
0.041438937,0.019511472,-0.04368455,-0.061704926,0.0010139307
0.027447756,0.02853996,0.00041632855,-0.016029006,0.03633371
-0.04218666,-0.014562839,-0.024629364,-0.032883577,-0.03319981
-0.04856653,-0.01570036,0.030113371,0.009681627,0.054764856
-0.02674263,-0.003738067,-0.015981296,-0.03216914,0.04796403
-0.04860998,0.007779814,-0.022416294,0.00026406016,-0.0401272
0.005073633,0.0112403575,0.011614504,-0.06845584,0.0007190846
-0.024456302,0.001345058,-0.04593492,-0.037460867,-0.028081754
0.014412672,-0.052849364,-0.0104305465,-0.02282857,0.0076744887
-0.012404329,-0.0044076503,-0.04155894,0.049260933,-0.004784292
-0.01012759,-0.027531547,-0.012787616,0.0031394477,-0.03646815
0.005959338,0.014376213,0.052670967,0.044215996,-0.020773325
0.012815167,0.042480584,0.045578912,0.0074336366,-0.015136749
0.044164326,0.0049474463,-0.04291904,-0.05984253,-0.021940807
0.102084525,-0.031747278,-0.043008786,-0.0020011072,0.0060794563
0.07776973,-0.06854046,-0.045831606,0.0586462,0.019352872
-0.020685628,-0.013589261,-0.033190295,0.048594773,-0.0058258404
-0.002812151,0.035496965,-8.4679836e-05,0.006256951,0.06377079
0.021616444,-0.022322677,0.019229254,0.009049236,-0.013896139
-0.013005425,-0.0032437167,-0.04541047,0.011287413,0.039401274
-0.04885158,-0.022496235,-0.0077119702,-0.014147163,-0.016845047
0.008730889,-0.0638442,-0.057957593,-0.013464199,-0.03172938
0.040712226,-0.038517565,-0.04360837,-0.032216057,-0.015309125
-0.03983442,-0.005083066,-0.01648237,-0.07144358,0.01249173
-0.03192153,-0.005396584,-0.00586139,0.040719833,0.053874526
0.043247364,-0.062452964,-0.04626841,0.080270596,0.011276372
-0.0019425806,-0.048938096,0.024409676,0.06572814,0.067845784
0.051701557,0.0017782181,0.042685904,-0.004303318,0.064576276
0.04655522,-0.014462249,-0.021850606,-0.001695351,0.027040115
0.009408624,-0.028952125,-0.007557064,-0.023416404,-0.019477345
0.0141948275,0.030097734,0.0027398102,-0.04489388,-0.028649531
-0.04138531,-0.0336441,0.004058829,-0.021940388,-0.04003416
-0.052738138,-0.04681583,0.0059015467,-0.009480887,-0.009661636
0.001504998,0.0012067895,-0.057110418,0.0055177435,0.030070594
-0.04417189,-0.031130236,-0.017854372,0.022168647,0.015569438
-0.05819497,0.0032966791,0.038768522,0.038075723,0.030335845
-0.062688895,0.045018367,0.012251148,-0.030302858,-0.0049072164
0.01778523,-0.0027320823,0.044737194,0.0030443,0.033262722
-0.05664721,0.0026060585,0.02432725,0.08612439,0.029657088
-0.06376249,0.05354016,0.13827348,0.084066816,-0.06327268
-0.05058188,0.13218693,0.17051142,0.07069535,-0.05890682
0.004402943,0.09503722,0.10384069,-0.011063973,-0.081274696
0.09015243,0.08060641,0.021661442,-0.0006882362,-0.002020697
0.0004111562,0.05420202,0.005272871,0.05007961,-0.04321552
0.017014595,0.0831106,0.024073085,0.0402824,0.015784333
0.013913463,0.08082201,0.03325022,0.033830293,-0.034009974
0.030023396,0.052205194,0.02947513,-0.04279253,-0.00061489776
0.014393995,0.055621717,-0.016300304,0.009245092,0.03072335
0.0024432717,0.03189688,0.012203219,-0.014309457,-0.027412608
0.02571012,-0.035907056,0.033696733,0.012656373,-0.0035560443
-0.008744387,-0.06139118,0.037046615,-0.043551788,-0.0053324034
-0.090459965,0.009957986,0.037667625,-0.042349152,-0.0053950804
-0.075411715,-0.009287829,-0.037187226,0.02948383,-0.04575718
