-0.036606424,0.023544474,0.00038940075,0.017828992,0.007631972
0.018138802,0.0482942,-0.004017747,-0.005506282,0.00010797697
-0.03812084,-0.018401595,0.017101917,0.058424994,-0.014481354
0.034009185,-0.020118954,-0.002793453,0.037736252,0.022561666
-0.018201515,0.0238601,-0.00803878,0.016945079,-0.020424448
0.010358228,0.026892256,0.04125912,0.017579718,0.004283448
0.00052644394,-0.0151497265,0.029665323,0.055086117,-0.022418968
0.013853535,0.0313368,0.0260786,-0.034799624,0.013327429
-0.006279064,-0.049396873,-0.04814405,-0.05033513,0.019436771
0.023802776,-0.00817395,0.033815384,-0.029187199,-0.004038789
0.041562125,0.019264098,-0.039199233,0.033226088,0.016437614
0.0069822203,-0.029179828,0.0036538425,0.007989031,-0.025208414
0.029698819,0.0011998934,0.008486188,-0.026594985,0.010239774
0.03561613,0.008078164,-0.013406615,-0.013618091,0.030272176
-0.034525983,0.066943586,0.06467868,0.03227764,-0.005614798
0.022305952,0.004805179,0.044339024,-0.0015327821,-0.012948243
0.013292185,0.044240717,-0.034456033,0.012633619,0.013176743
0.048557937,0.0854657,-0.049581405,-0.04952071,-0.027896866
0.02711207,0.09416555,0.054524504,-0.0338287,0.016261717
-0.04878938,-0.037156656,0.01203888,0.056389697,0.044158958
0.004708382,0.04810608,-0.005276192,-0.020155143,0.035352375
0.03779849,0.010005859,-0.008987387,-0.005451427,0.030859357
-0.041425195,0.06152285,0.03893009,0.017841335,-0.015549047
0.022079587,0.03218174,0.031572796,0.008405814,-0.018379958
-0.030513806,-0.02427439,0.022757102,0.023188123,-0.017310584
-0.01787041,0.03140053,-0.032317847,-0.057771727,-0.026960518
-0.025012413,-0.03338479,-0.009591384,-0.008035616,-0.020223478
0.03230855,-0.08036597,-0.027318241,0.05077868,0.012781673
0.07672743,0.031021649,-0.046847735,-0.045074422,0.023875898
0.063291,0.005954654,-0.006903317,0.0038409587,-0.020102024
0.0030001313,-0.009268746,-0.02188711,-0.030342277,0.03270935
0.023166947,0.020847255,-0.02534741,0.043320745,0.040602416
0.0055545154,-0.0015903192,-0.029410133,0.00054987334,-0.03457922
-0.054041516,-0.028070578,-0.036533777,-0.0031142663,-0.027240641
-0.01547049,0.03843267,0.0012026522,-0.039595544,0.022027997
-0.0009724391,-0.026554096,-0.013502081,-0.034968924,-0.010401459
0.016537815,-0.007140385,0.035340365,-0.034067668,-0.02395982
0.01610775,0.029295262,-0.0012941532,0.027006617,-0.018212374
0.058864526,-0.010662456,-0.029668376,0.037727013,-0.028255101
0.026255548,0.01738746,0.010870628,0.0034266212,0.014770509
0.0030025942,-0.046038713,-0.020409914,-0.034547664,-0.007808735
0.02127749,-0.027666034,-0.038237922,-0.0015749597,0.008289788
-0.0081488155,-0.012154367,0.013782467,0.006489494,0.0014520719
-0.037032664,0.022034826,0.044191044,0.03658995,0.004149529
-0.037936997,-0.04814841,-0.04006396,-0.015139579,0.043129105
-0.027737798,-0.0006941038,5.9305457e-05,0.06135153,-0.0049073696
0.00976298,-0.032105718,0.024524761,0.012531329,-0.022693882
0.011325147,0.0034483091,0.008993469,0.040043667,0.016137881
-0.004262482,0.020224702,0.02044137,0.056908097,0.03340827
-0.048714187,-0.03982429,-0.0050225565,-0.030523378,0.0424477
0.014044119,-0.033588734,-0.042600445,0.025503682,-0.029607967
-0.04620678,-0.041951645,0.009000937,-0.018083503,0.01909702
-0.050375663,-0.07603296,-0.00948851,-0.005456678,-0.049365517
-0.03198709,-0.032541364,-0.01148347,0.008441476,-0.032788277
-0.013465217,-0.0041177263,0.059597097,0.0022022096,0.040671397
0.017031407,-0.019184088,0.02636814,-0.042855367,0.0063426313
-0.018752752,0.002314482,0.018075055,0.038418707,-0.0036083276
-0.046644714,-0.06593649,-0.050765745,0.010582063,0.01029986
0.040596783,-0.012115062,-0.004561049,-0.04833897,0.0202395
0.024904316,0.02307299,0.043204013,0.047748767,0.024577323
0.032391172,-0.004068413,-0.029075403,-0.023057494,-0.05718539
0.020815173,-0.04353076,-0.0341849,0.00036858115,-0.0071703233
0.05356026,-0.019535633,-0.028754964,-0.032789625,-0.0080025
0.07199284,0.033819493,-0.10349671,-0.05953511,0.018930657
0.032212872,0.035298295,-0.010272378,-0.065583415,-0.02563742
0.014180532,-0.04969798,0.014132961,0.015524815,-0.023917064
-0.024047961,-0.029466284,-0.05906735,-0.02498987,-0.01890747
-0.014428305,-0.039175373,-0.046773892,0.028055575,-0.030785128
0.080709055,0.036124665,0.02428055,0.0012366547,-0.018128023
-0.024905706,0.096956156,0.07221597,0.026111443,-0.0279431
-0.017828178,-0.027621038,-0.03301374,0.03191035,0.038088735
-0.034990083,-0.016725117,-0.022684451,-0.05188137,0.0070648007
0.042044595,-0.00626949,-0.03650421,-0.0055857804,0.031164296
0.04079838,-0.011241171,-0.026032122,-0.012318102,-0.01214066
0.035784956,0.05614007,0.0010670659,-0.05282377,0.0075453594
-0.036798973,0.012007708,-0.020945687,-0.013907146,0.011276764
0.0076853577,0.030070119,-0.041931923,-0.0072095077,0.017628625
0.015848167,0.036122687,0.018609058,0.032483146,0.0215818
-0.015415538,-0.007340101,0.010012961,0.048931256,-0.023950465
0.009259536,-0.03485351,0.061692618,0.06046416,0.0005712116
0.0331356,-0.0064068222,0.02182577,0.032175124,0.002392494
-0.008998014,-0.016976824,0.019027216,0.0025758566,0.03702332
-0.0057727457,-0.026369464,-0.026359787,-0.05546944,0.012529223
-0.018842261,-0.00450066,0.0113384705,-0.047282305,-0.026952608
0.04761297,-0.013833313,0.009313958,0.012005965,0.003904256
0.01280746,0.033343893,0.023177521,0.013949942,-0.017373191
0.009050073,0.06359132,0.05052671,-0.021814201,-0.029097978
0.014686975,0.045985423,0.069404475,0.007948364,-0.0035253882
0.0044593313,-0.03287652,0.008809095,0.03340244,0.005004917
0.003002357,-0.028318569,0.012918799,0.006451782,-0.031860985
0.011707279,0.024694424,-0.009840531,0.010861319,0.02527919
0.019169545,0.01671086,-0.01935142,-0.016193101,-0.027004695
-0.0130718835,0.07890429,0.07077845,0.033205993,-0.046470273
-0.017344538,0.025285872,0.01431751,-0.024633972,0.025679585
0.018265473,-0.023847632,-0.041440345,0.028972032,0.033196744
0.031200731,0.046589952,0.0029202667,0.04809302,0.051236223
0.024707776,-0.032135803,-0.02784816,0.018192261,-0.034382943
-0.02946597,0.024501322,-0.0067719985,-0.0048669805,0.025516627
-0.015574087,-0.021498978,0.04270442,0.02616822,-0.009671243
-0.03174725,-0.0205772,-0.038050245,0.019463047,0.033981502
