0.0357779,0.043533627,-0.00086353265,0.00040638098,-0.025208231
0.021982173,-0.040318977,-0.045070145,-0.036954578,0.008659553
0.02885591,-0.01991249,0.014026492,-0.038028475,0.030057816
-0.024401031,0.02724704,-0.030287929,0.00071691384,-0.008658021
-0.025493864,-0.030653063,-0.023948086,-0.043161344,0.03407571
0.0047977027,-0.011369208,0.0013288513,0.009007997,-0.003913151
0.042169046,0.023685858,-0.026603037,-0.00047873153,0.042279508
-0.026457114,0.033203896,0.008501046,0.05759808,0.05485774
-0.02555047,0.08422951,0.032641925,0.011631571,0.0035310371
0.052854363,0.026609823,-0.014315304,-0.0535308,-0.053524654
0.029551303,0.021370556,-0.024083748,0.026147863,-0.0052190553
0.033313908,-0.009486796,0.015772237,0.0049479012,-0.006756904
0.020076044,0.017457182,-0.055465642,0.010846512,0.014139565
-0.04850022,-0.015822776,0.009799599,-0.03046806,-0.030023292
-0.019350745,0.035520464,0.016377326,0.052897125,-0.021595133
0.001955351,0.040697545,0.02944588,0.0025359672,0.012957915
0.010304824,0.032248247,0.024918469,0.023314925,-0.0051477626
0.00071815995,0.021996714,-0.004346039,-0.00078752835,-0.012438828
-0.004211777,0.027431516,0.038009472,0.0050058994,0.018476885
-0.042725608,-0.035194784,-0.030738717,0.063687645,0.027675984
0.03976601,-0.005454365,-0.0147447195,0.058211666,-0.016587589
-0.030589623,0.02134206,0.041939598,-0.030928757,-0.040434208
-0.019830318,0.025879335,0.009176724,-0.024835626,0.011016067
0.018252818,-0.015182803,-0.020044627,0.01700438,0.02085022
-0.045263927,0.0026216484,0.025966235,-0.019162497,-0.0037287695
0.027636169,0.03702949,-0.016590517,-0.025819207,-0.04405836
0.02894051,0.04034136,-0.013860533,-0.049045697,-0.022685103
0.04797276,0.017377011,-0.07751628,-0.036634106,0.03671229
-0.042238038,-0.05053382,-0.062282432,-0.017842196,0.0610093
-0.034847926,0.010720275,-0.029878495,0.020761074,0.013538759
-0.024480626,-0.046983093,-0.026335811,-0.014820271,0.057763405
-0.014170853,-0.014725513,0.021776719,0.063593686,0.050543137
-7.073458e-05,-0.00072085764,0.051090207,0.04767943,0.044494856
-0.034844615,-0.010148564,0.020608798,0.02947097,0.012318195
0.004751187,0.008824865,0.03276601,-0.001911097,0.009726144
0.0048137307,0.024140572,0.023238147,0.027496062,-0.033507146
0.04559527,0.007449264,0.022275873,-0.028269231,-0.009197091
-0.033729706,-0.035022907,0.041832026,0.038965162,0.014839019
0.0263435,-0.01617885,0.018173171,0.029884147,-0.013906955
0.008361756,-0.016650725,-0.0073311403,-0.022397246,0.041582875
0.0153233055,-0.017146781,0.032597866,0.036105946,0.033677455
0.006035896,0.023964401,-0.050260823,-0.011076457,0.015865587
-0.007995245,0.0067605893,0.034443006,0.019650944,0.008719832
-0.0030297241,0.04979312,-0.0011398636,0.055148907,0.042810604
0.0029945269,0.03645802,0.021576319,-0.032364003,0.014390116
0.044860642,-0.017534941,-0.022129662,-0.01914502,0.028066775
0.031989973,-0.010407787,0.022954766,-0.0021327639,0.03205148
-0.042568937,0.009074301,0.048406333,0.037037473,0.0053144237
0.012294516,0.048179824,0.0468902,0.026072677,-0.022142269
-0.0014401939,-0.004344929,0.03822998,-1.141883e-05,-0.029349219
0.038645197,0.05127268,-0.0018727791,-0.030682761,-0.055058774
-0.026073681,0.017581105,-0.023070857,-0.048492778,-0.042534728
-0.010033109,-0.022518646,-0.028614834,0.021545421,-0.009998088
-0.03927909,0.040644422,0.08493537,0.03470419,0.026840009
0.033161346,0.031670675,0.061742477,0.064252324,0.005347734
0.04580632,-0.027190942,0.0037886866,0.04607486,-0.0394008
0.018608332,-0.025191706,0.024455847,-0.051531952,0.014354167
0.039932266,0.0041772923,-0.054947294,0.018567426,0.0049426197
-0.008223947,-0.056772187,0.039014,0.038295098,-0.011229443
-0.015119303,0.038537845,-0.002534695,0.05151949,-0.020600088
0.00035314166,0.034015886,0.02645225,0.026587341,-0.0079418775
-0.024577586,0.018639335,-0.015657578,-0.03629891,-0.049170773
0.050394434,0.01944873,-0.044733405,-0.028484082,-0.030169783
0.0011627085,-0.027346212,-0.026706832,-0.07815737,-0.03083192
0.023468107,-0.034431357,-0.050073724,0.034634616,0.0026369765
-0.014911961,0.042207394,0.030057374,0.00018254854,-0.028446533
0.008536618,0.004990592,-0.0027800188,-0.023192411,-0.019766526
-0.0045777704,-0.055605564,-0.010164179,-0.0022494784,0.022817865
-0.036766104,0.0062872847,-0.0123320585,0.062428053,0.013719581
0.057914875,-0.0024411508,0.07202567,0.059566654,-0.012673682
-0.008192721,0.011792317,0.023374304,-0.005458569,-0.058252614
-0.0023606415,0.034716338,0.012971967,-0.008308067,-0.028824514
0.050830513,-0.0065469807,-0.03715669,-0.068475984,-0.045959204
0.014330259,-0.053296454,0.00012153348,-0.018579584,0.04617008
-0.047823872,-0.02933743,-0.012241921,0.039314874,0.048451222
0.007571292,0.05379295,0.022972157,-0.013350537,0.018768521
-0.032997027,-0.011912065,-0.011270192,-0.032143705,0.020092241
-0.044246186,0.03928874,-0.014328725,0.038086943,0.031197127
-0.015014249,0.024764966,0.024092078,-0.016405588,0.006885687
0.050996266,0.02814583,0.020432338,0.043510374,0.0013105614
-0.025610352,0.029459428,-0.021716496,-0.032552507,0.012167081
0.021711212,0.04778375,-0.029023143,-0.048573103,0.0062925867
0.021910436,-0.04383462,-0.054571066,-0.03840356,0.0016807579
0.024953077,-0.050967555,-0.029217046,-0.008071188,0.012359781
0.021955281,-0.02432384,0.034407202,0.05168368,0.024431609
-0.0010765059,0.048056882,-0.023225103,0.033291392,0.05630736
0.0047694966,-0.03998739,-0.05390116,-0.0655532,-0.0063121896
-0.038832325,0.022617338,0.030913813,-0.0037858032,0.03527793
-0.00477671,0.030873053,0.015127165,0.018522212,0.0035704682
-0.035777118,0.04127401,0.030030569,0.021603294,-0.040116794
-0.0024490578,-0.0017134038,-0.015860982,0.0052305427,0.06796656
-0.029149374,0.017147304,-0.014696234,-0.012097457,-0.010532133
-0.0047217677,0.01918556,-0.030637609,-0.029502053,-0.010584717
0.002926638,-0.036926553,-0.0024539647,-0.027782205,-0.008436778
-0.011034177,0.03316899,0.050010383,0.039997358,-0.0078100134
0.033781387,-0.030290242,-0.026003854,0.0018439001,0.039451912
0.026488956,0.015287661,-0.012160889,0.012539325,-0.03253921
0.029900227,0.032977592,0.00030151027,0.035555866,-0.014889558
0.032913618,0.022694279,-0.036974292,-0.012144355,-0.018893007
0.03832075,-0.009149418,0.02241961,0.01175928,-0.025962684
