-0.020956548,-0.0033110767,-0.03104381,-0.0061954213,0.053485177
-0.024860796,-0.033509206,-0.055992503,0.03471242,-0.00946113
0.021566981,-0.016350718,-0.057383493,-0.043139182,-0.0026016126
0.029935744,-0.020524297,-0.008836523,0.045326363,-0.0038623782
0.0033354852,-0.0058521945,-0.018100431,0.0015327029,-0.0012878332
-0.0018821947,0.010167973,0.005547832,0.0073261447,0.011144705
-0.015120981,0.010535987,0.02351708,0.0064397273,0.0055489186
0.03566845,-0.01072269,0.007006983,0.05295738,-0.027571233
-0.028219849,-0.051551025,0.02845132,0.015582057,-0.004286604
0.040538207,0.029516688,0.03834879,0.03192763,0.0071932897
-0.015229882,-0.031467248,0.025867214,0.005598298,0.018904408
0.030002773,0.004678466,0.04052815,-0.014437799,0.040265623
0.013447786,0.0041958885,0.024476817,0.0017689605,0.009860601
-0.010617993,-0.030803036,-0.03859088,0.021952834,0.011259567
0.037573446,-0.021320634,-0.0070217336,-0.013709356,0.0130802635
0.0033985332,0.01307533,0.025936464,0.042389546,-0.014594865
-0.056289453,-0.037876736,-0.00090901426,-0.0055971514,0.032297935
0.022736773,-0.024758969,0.04371156,-0.015639469,0.022115842
0.0027303838,-0.0003419597,-0.053192083,-0.021640616,0.023921875
0.023472361,0.024588803,-0.034970924,-0.0126668215,0.03523142
0.01768804,0.0053148004,0.0017003454,-0.041443575,0.038134668
-0.0004936089,0.020517012,0.04387758,0.0037092525,-0.016462991
0.047402967,-0.009213673,0.023153104,-0.04684077,0.0349603
-0.012040559,0.014985647,-0.049448527,0.02732343,0.040627252
-0.00032253555,-0.036463976,-0.03195133,-0.013311011,0.007432791
0.022815483,0.013232997,-0.023408089,0.019411756,-0.016170098
0.0073521524,-0.012834448,-0.04222421,-0.008841589,-0.051067904
0.011677806,0.04251246,-0.032785613,-0.012493964,0.028921446
-0.0143797,-0.002167949,-0.05241583,0.016190134,-0.015062894
-0.054675456,-0.06459101,-0.028035017,-0.024691721,-0.0042398903
-0.031679887,0.04245293,0.016675016,-0.032632902,-0.02340203
0.03812155,-0.027731,-0.0485,-0.02533613,0.0028608027
0.03648843,0.024917757,0.03510774,0.055685677,-0.031956162
-0.012310086,0.044120293,0.04644723,0.026708543,0.028684039
-0.0052249404,0.04382564,0.022160066,-0.041969,-0.04729045
-0.025812557,0.008406904,0.026346793,0.009789271,-0.022895914
-0.020851066,0.0039133225,0.02158984,-0.010295407,0.013480324
-0.036961697,-0.0062396764,-0.007259444,-0.042055123,0.034039132
0.0080926055,0.017761156,0.03752461,-0.01041816,-0.029522263
-0.01908568,0.046122197,-0.012925219,-0.013309829,-0.042588335
0.030538319,-0.004072684,0.04646273,0.0081403665,0.029680924
0.0049053915,0.014863888,0.056373414,0.039793693,-0.029286012
-0.020255305,0.0032710908,-0.028406156,0.024378514,-0.04261425
-0.03337081,0.04516206,-0.015978636,0.015179266,0.014448661
0.032391496,-0.02949627,0.0073417984,-0.027328268,-0.017273758
-0.01314245,-0.0056210333,-0.025031397,-0.025922433,-0.027290598
0.054763492,0.044511713,-0.0237763,-0.042117205,-0.01434173
-0.024815323,-0.010639189,-0.012999917,0.02145195,-0.036778968
-0.023214228,0.026609277,-0.027061291,-0.0062258574,-0.020021003
0.031653468,-0.02236954,-0.017960275,-0.015663356,0.005915353
0.02524455,0.043295324,-0.033448655,-0.03881025,0.045487262
0.029624287,0.031477734,0.045956545,-0.027478052,0.018020783
0.02971358,-0.0091677755,-0.012602002,-0.017367406,0.018517544
-0.024322515,-0.03791729,0.00025059824,0.019686677,0.007232282
-0.005050095,-0.03012968,0.022146232,0.038122755,-0.01336416
0.0180039,-0.049640443,-0.017180085,-0.030540071,-0.042425137
0.019568117,0.0052358327,0.022379857,-0.051126577,-0.03216009
0.06151617,0.05465894,-0.0053437417,-0.039302792,-0.008637134
0.04990326,-0.013504634,-0.030545184,-0.037939,0.0056344285
-0.00044769302,0.0023632653,-0.044931088,-0.012862714,0.0031986583
0.034691527,-1.3083714e-05,0.0005236947,-0.017785005,-0.0009255543
0.013562706,-0.01724683,0.048940584,-0.040695082,-0.0007973009
-0.030283565,0.048185114,-0.00022802918,-0.06751914,0.0020757788
-0.010847617,0.047699433,-0.0014012461,-0.040263727,0.01988065
0.002529784,0.021777028,-0.072631024,0.0222442,-0.008988146
-0.0069217654,-0.027992342,0.0064963936,-0.02342708,0.008428148
0.009296398,-0.014919526,0.039016977,0.039798804,0.03196584
0.079446435,0.022046017,0.039166257,-0.006014119,-0.045463324
0.027311187,0.020918991,-0.04968072,-0.03355108,-0.021306368
-0.000884231,-0.00773992,0.023869194,-0.025532223,-0.004110907
-0.013964529,-0.037058443,0.031435035,0.008992821,0.011551144
0.026777823,0.036725413,-0.052516572,-0.015727485,0.0030966005
0.048690572,0.03134463,0.007810594,-0.041587282,-0.034588408
0.003803288,-0.031027917,0.013326081,0.004193948,-0.017001877
-0.022392616,-0.02364638,-0.013848725,-0.041133437,0.0030352348
-0.045318767,0.042160504,-0.013854192,0.041572236,-0.023070112
-0.01826571,-0.020932673,0.0423335,0.013414633,-0.041030653
-0.005472537,-0.02236803,-0.04435554,0.014322672,-0.04932765
-0.04193562,0.021958996,0.0075783595,0.004116683,0.035867088
-0.019786017,-0.027847432,0.020800218,-0.014414463,-0.04354884
0.044177096,-0.002129437,-0.005733313,-0.02317788,0.00830137
0.030967077,-0.00075792905,-0.015748495,-0.0031271048,0.019275578
-0.038680915,0.004011126,-0.031855945,-0.055979848,0.04957797
-0.024705537,-0.017122488,0.007914062,-0.00069859537,0.052797988
-0.0315673,0.030628648,-0.023574166,0.0106758615,0.06594944
-0.013220995,0.021385267,-0.03851158,0.021941822,0.003933307
-0.042786375,-0.025660504,0.015940556,0.00094514823,0.044384625
-0.06297259,-0.048328083,-0.047794644,0.04849341,0.04256123
-0.052833304,-0.049355727,-0.054164104,0.04868871,0.09803874
-0.059323017,-0.0020845034,0.021199659,0.03824417,0.05123991
-0.051853,-0.0011335302,0.043296106,0.057912942,0.00523151
-0.010699472,-0.03826935,-0.028725244,0.07786358,-0.008259126
-0.055208948,-0.0030254507,0.0072283926,-0.007286073,0.054013986
-0.056495205,-0.068566605,0.010655388,0.05383993,-0.0023824614
0.013673699,-0.04596787,-0.010189662,0.016981652,-0.006924428
0.0057581034,0.04789709,-0.029748106,0.037434176,-0.0076372786
0.0031085527,-0.002895769,-0.043984108,0.013261641,0.033884957
-0.038649008,-0.05618791,-0.05982679,0.0032507053,0.05911256
0.012192139,-0.015421592,0.024306519,-0.050165806,0.047825303
-0.026705856,0.012315277,-0.03883616,-0.018967392,-0.04511966
