-0.026937714,-0.051994033,0.051359665,0.10614511,0.112998955
-0.07861758,0.05804803,0.10677615,0.06557666,0.079627916
0.031885915,0.08516036,-0.007229068,-0.029516622,-0.08636523
0.023211006,0.018910358,-0.07795037,-0.038927652,-0.03505659
-0.030561468,0.002859821,-0.02854988,-0.043716125,-0.047958
-0.012400403,-0.016255973,0.048454117,0.10832372,0.08537062
0.044798337,0.050022975,0.030972634,0.01935827,-0.027765317
0.02874664,-0.025342947,-0.049297743,-0.08400673,-0.08254556
-0.007243248,-0.023466764,-0.024766063,0.013790215,0.007598494
-0.05728345,0.015328484,0.02226134,-0.003116582,0.017982222
-0.03534294,0.028998373,0.015467293,0.06561456,0.05314704
0.019917116,0.06284614,0.062344447,-0.017154537,-0.010601845
0.04993807,0.07898601,0.027764237,-0.03989249,-0.02082641
-0.008748478,-0.016474567,-0.05747557,-0.02164079,0.002380442
1.3772767e-05,-0.042249374,-0.045015275,-0.00053651683,0.046280716
0.0033299422,0.033001084,-0.01753626,0.02269142,-0.0009423852
0.018671531,0.07994895,0.080464214,0.027655186,0.020234495
0.01919493,0.022139132,-0.049307477,-0.05010687,-0.047861163
0.03069762,0.0011880172,-0.06700727,0.017732311,-0.043341033
-0.01884017,-0.060880635,0.025122087,-0.019999238,-0.038873497
0.02292416,-0.0151482355,0.01679065,0.029460093,0.025478236
0.0021524464,-0.013875109,-0.043350395,-0.034806896,-0.031391174
0.023248425,-0.0065321745,-0.036512572,0.039111976,-0.013405146
0.04197695,0.038629208,0.006894103,-0.032531872,0.020762637
0.0017309688,-0.022066755,-0.025595035,-0.029401531,0.01154324
0.012518165,0.028856734,0.05800731,0.0066206306,-0.008074836
0.059864715,-0.01587037,-0.047366083,0.02587971,0.010944053
0.0003957757,0.0008479295,-0.025703432,-0.014851451,0.00813114
-0.024435168,-0.012902787,-0.018424613,-0.026074685,0.03010342
-0.044516236,-0.050122097,0.010659726,0.03536038,0.0041744565
-0.03339984,0.024921943,-0.01792746,-0.008007328,0.024801692
0.017027719,-0.015813496,0.024914067,-0.012945562,-0.015736613
0.031404175,-0.008401557,0.0009229703,0.039285827,0.040509705
0.011298192,0.03394984,-0.0046968115,-0.018723309,0.043584727
0.023117611,0.031239096,-0.0194469,0.02718495,0.03939396
-0.013613868,0.04196699,-0.012285186,0.046328403,0.015159039
0.047694843,0.030079855,0.05550512,-0.016010214,0.0016367303
0.031245925,-0.03018595,-0.027687874,-0.07398805,-0.06694834
0.0189879,-0.015937619,0.011406834,-0.008930232,-0.0055969167
-0.009205977,-0.05692704,-0.012751753,-0.02273974,-0.027328745
0.034079354,-0.038996365,-0.041697644,-0.0190901,-0.017216787
0.007296953,0.022634078,0.0041582375,3.3483047e-05,0.021577062
0.023489155,-0.0004544225,-0.029177869,-0.03712533,0.04627155
0.015387511,0.040892605,-0.015861362,0.020841744,-0.013751648
-0.02466116,-0.01922809,0.048734326,0.039032154,-0.020220282
-0.030235535,0.015049215,-0.010359141,0.011025884,0.018984068
-0.048855178,0.0066716135,0.01719307,0.0009343745,-0.013862026
0.013729845,-0.031406928,0.0045144036,0.05241238,-0.011184243
-0.026331885,-0.02231911,0.03092731,0.010155789,-0.0026626415
0.014146526,0.010337318,-0.012619961,-0.010342052,-0.029565847
-0.0156988,0.017719727,0.021254264,0.043029632,0.049714107
0.047432162,0.057653695,0.0071405894,0.007847892,-0.051739562
0.030814085,-0.017313385,-0.050997403,-0.05004848,-0.04808126
-0.030332427,0.0029755402,-0.03695314,0.00964512,0.0043564397
-0.0045348993,-0.026960114,0.027280118,-0.022195673,0.027001202
-0.044562995,-0.030461438,0.015675073,0.0068653454,0.031324923
0.023280017,-0.037269738,0.035160027,-0.011598658,-0.008444724
-0.019043513,-0.007757798,-0.041754764,0.0034622105,0.033700313
-0.008951333,0.034392763,-0.020215765,0.018066935,0.0044136415
-0.01734025,0.043609004,0.0036591794,0.001979084,-0.004849104
-0.029811654,0.054446038,0.041263126,0.08477157,0.07327185
0.046078738,-0.009300816,-0.02039111,-0.012622949,-0.013110211
0.038007997,0.022446595,-0.028533397,-0.06609015,-0.04179165
-0.0010720994,0.014791127,0.014579114,0.039860457,-0.009868206
0.012411837,0.0023308815,0.0003370138,0.051243134,-0.0037220486
0.0017852575,-0.008645012,0.02626388,-0.013261803,0.034892406
0.023876315,-0.0007228006,-0.007335119,0.017523495,-0.043666016
-0.014794956,-0.015808506,-0.0054780846,-0.021401428,-0.019315867
0.021266906,-0.0047405297,-0.030996438,-0.0032312812,0.014439057
-0.018118383,0.03804945,-0.03104693,0.0389393,0.017212898
-0.034303013,-0.056175318,0.015343241,-0.0057462277,0.017602341
0.0108712455,-0.028928356,0.027550688,0.014798805,-0.029417519
0.0027691952,0.028160824,-0.002076855,0.06143835,0.027553989
0.027387882,-0.023653246,-0.040166274,0.0057449136,0.01301266
-0.0399232,0.040195152,-0.017269371,-0.04451248,-0.035875227
-0.024433566,0.021568812,-0.034845073,0.033502724,0.04698238
0.04009083,0.015886422,-0.019633725,-0.0013378877,0.044731066
-0.009978354,0.0074726054,0.045282528,-0.06242388,-0.025878755
-0.010700625,-0.004671939,-0.014470247,-0.033226434,0.015852803
0.023881825,-0.030322284,0.044748448,-0.011203831,-0.0076720454
0.018132307,-0.020954087,0.024324767,-0.035005894,-0.053353198
0.05652133,0.03600272,-0.033356734,-0.056277577,0.024067806
0.026316473,-0.039192338,-0.05667489,-0.030904824,-0.028764
0.00045156886,-0.004774401,-0.046565793,0.021410635,0.017419081
-0.04183068,0.038074005,-0.01264548,0.021575093,0.03292285
0.025915561,0.055773716,0.033419758,0.03164242,-0.02530163
-0.006606472,0.053249605,-0.046313062,0.006089304,-0.03456788
0.042908832,0.015149012,-0.026505118,-0.027609283,-0.042462382
0.02807942,-0.039798774,0.01781562,0.042618096,-0.044875078
-0.061123695,-0.0367892,-0.0034527008,0.033921514,-0.024387587
-0.02681196,0.06818403,0.09645497,0.07068933,0.06099214
-0.0076016025,0.00010097627,0.02059567,-0.05420258,-0.036180776
0.043256484,0.041045386,-0.044789806,-0.07494651,-0.03817086
0.034887478,-0.03578818,-0.059227265,-0.021663459,-0.028955014
-0.04397558,-0.05686989,-0.017434418,0.04417593,-0.03719872
-0.031482633,0.059471484,0.03526784,0.04806229,0.03780155
0.06557886,0.06612413,0.041608945,-0.0229773,0.0023086087
0.0027049412,-0.018260404,-0.06351909,-0.02805091,0.021739641
-0.057655364,-0.038784277,-0.015356737,-0.018048186,-0.03018192
-0.06497501,-0.057700813,0.035010237,-0.021400472,0.01405884
