-0.20969126,-0.21071,0.17981128,0.14916228,-0.18866655
-0.19875969,-0.22533606,0.19329832,0.1960158,-0.1704487
-0.18949263,-0.20356007,-0.19518684,-0.22291061,-0.18690678
-0.16377091,-0.18699181,-0.18296622,-0.14997126,-0.15129091
-0.1473942,-0.15119065,-0.16367945,-0.18891491,-0.23002869
-0.18237771,-0.16244838,0.18936783,0.21155018,-0.22160134
-0.18894184,-0.14367887,0.14695592,-0.19404554,-0.16772595
-0.23043847,-0.205039,-0.20707074,-0.15799852,-0.19464232
-0.18630457,-0.15166035,-0.17737107,-0.20291872,-0.16561489
-0.20629877,-0.14903747,-0.2009583,-0.14804961,-0.2011891
0.21191362,-0.14795424,-0.20396611,-0.19095252,0.16589136
-0.16479069,-0.20299129,-0.15420812,0.1586494,-0.20327047
-0.19812724,-0.15079927,0.21160398,-0.18987522,-0.16535689
-0.22696942,-0.19134143,0.22760232,-0.19805788,-0.21251181
-0.20873575,0.22283603,0.19414964,-0.17671779,-0.20842314
0.2100549,-0.1882316,-0.14317338,-0.15908429,-0.22638035
-0.15084942,-0.21739644,0.17276233,-0.18090135,-0.22344011
-0.18987602,-0.21078448,0.17615077,-0.18792483,-0.19497721
-0.17215261,0.17525463,0.19352919,-0.18815134,-0.20246476
-0.22847076,0.2105797,-0.22512023,-0.18254638,-0.16018465
-0.14672342,-0.21112774,-0.14987083,-0.2114485,0.16102882
-0.18096901,-0.2054044,-0.21628745,-0.17525542,-0.15101409
0.2144105,-0.17176309,-0.16331251,-0.15091468,-0.20735933
0.22301735,-0.17550611,-0.15747769,0.14412305,0.1980536
0.18540892,-0.18863027,-0.22023232,-0.19249108,-0.19774136
-0.20290488,-0.15047814,-0.22748037,-0.18318424,-0.16748476
-0.17915457,-0.15687299,-0.17347224,-0.15976164,-0.16661261
-0.2173752,-0.22610462,-0.20996904,-0.21360344,-0.22115462
-0.17789389,-0.22254199,-0.22027172,-0.20305975,-0.2298415
0.15957892,-0.19752306,-0.18483211,0.2066875,0.22738102
0.17875119,-0.2141014,-0.21520416,0.15528338,0.21641323
-0.14812382,-0.17645921,-0.17643717,0.20221777,-0.15608968
-0.1626298,-0.15787321,0.20286603,-0.18191202,-0.19929479
-0.15987007,0.20047513,0.21535735,-0.1450337,-0.15414272
-0.14641249,0.22130957,-0.19848102,-0.20444167,-0.17801577
-0.15976192,0.15035304,0.20111859,0.2080953,-0.2091339
-0.21019265,-0.20820513,0.23155703,-0.18981099,-0.21273303
-0.16574457,-0.21810244,-0.23053034,-0.1580466,-0.18766905
-0.18405598,-0.16197027,-0.19351237,-0.191549,-0.195321
-0.16416553,-0.19650918,-0.18473175,-0.21771316,-0.20720401
0.15018816,0.2185797,0.22507359,0.2055795,0.20422621
-0.20846677,-0.17293945,0.20602794,0.22940019,-0.21797143
-0.21449745,-0.21004145,-0.15155737,-0.1880177,-0.15214823
-0.20423023,-0.19423708,-0.1807572,0.17570414,-0.1534011
-0.15580882,-0.22333987,-0.20756169,0.2169957,-0.15911445
0.18836941,0.22398388,0.19209635,-0.23087926,-0.20248795
0.21893902,0.17784932,-0.2207652,0.17744653,-0.21418512
0.20608154,-0.1733834,-0.20819339,0.19958223,-0.15607429
-0.15348579,-0.18094467,0.2036774,0.16932549,-0.21927355
-0.16799042,-0.17408463,0.22415009,0.18721601,-0.16037475
-0.16058794,-0.18631941,-0.21414419,-0.22534636,0.2182144
-0.23069513,-0.16770941,-0.20630449,-0.19189191,-0.16388765
-0.23199394,-0.15619563,-0.18539463,-0.15984766,-0.17690904
-0.16498995,-0.20002574,-0.20787436,-0.16749729,-0.22913893
-0.21993464,-0.18736345,-0.14838389,-0.17671584,0.16795051
0.025728043,0.020623403,0.017234912,0.17162715,0.035090834
0.016288523,-0.044622682,0.019894041,0.024843449,-0.026275115
0.026412325,0.04448996,0.014118744,0.030601125,0.008629633
-0.17574576,-0.21355231,-0.018339446,0.02521491,-0.03422696
0.22022207,-0.16431235,-0.015531646,0.21951464,-0.22076418
-0.19083877,-0.23210746,-0.16638395,0.19359112,0.21719788
-0.21054693,-0.15462233,-0.23223642,-0.15046595,-0.16875575
-0.17494945,-0.2218896,-0.21133076,-0.19514397,-0.16406009
-0.15534198,-0.14643666,-0.17771246,-0.19871041,-0.22598207
-0.18764934,-0.18139513,-0.20569244,-0.16941902,-0.21852605
0.007053382,-0.00043820878,-0.03212719,-0.041280326,-0.12137346
0.04265874,-0.016211709,0.011205087,-0.014180026,0.008434948
-0.037307322,0.020735074,0.035955172,-0.0022471976,0.0027792354
-0.03689603,-0.027134947,-0.034971032,0.0411139,-0.0021863524
0.014600024,-0.0055994145,0.021100294,0.032962516,-0.033147473
0.15749015,0.17481475,0.19058686,-0.19601934,-0.16844077
0.20798156,-0.17806369,-0.22614011,0.16007546,-0.1645185
-0.20440774,-0.21832949,-0.19760463,0.22206838,-0.17633238
-0.20599991,-0.14984876,0.17994827,0.22436287,-0.14405006
-0.22160067,-0.1971269,0.22185029,-0.23041949,-0.15602258
-0.15148787,0.22928356,0.17078389,0.2248646,-0.17708775
-0.15100966,0.2057405,0.18908788,0.14375989,-0.215067
-0.15090764,0.20525654,0.17438407,0.23081245,0.15476316
-0.15722688,-0.1431488,-0.20422083,0.19993167,0.21553366
-0.19826424,-0.17792131,-0.16571738,-0.20047516,0.16225004
-0.17386164,-0.22649817,-0.22698985,-0.18697263,-0.20955056
-0.17477205,0.19659449,-0.22372918,-0.21338229,-0.14424217
-0.19081897,-0.19376998,-0.20785609,-0.17096435,-0.17077427
-0.17029318,0.1714209,-0.16510318,-0.15881966,-0.14557323
-0.23026603,0.20401268,-0.203723,-0.20026627,0.15483564
-0.17494617,-0.2233949,0.16135566,0.18556301,-0.17123745
-0.16790108,-0.15945646,-0.23078224,-0.20908114,-0.18012895
-0.21961647,0.16339244,-0.20577759,-0.16532187,-0.16806816
-0.2047422,-0.2103029,-0.17865416,-0.17454872,-0.1477189
-0.1556486,-0.19987619,-0.19123438,-0.16342707,-0.17751662
-0.16595455,-0.14643927,-0.17224313,-0.19070996,-0.23135321
-0.20831452,-0.16672434,-0.14698376,-0.17258441,-0.21885867
-0.22377752,-0.14466698,-0.20120953,-0.19905671,-0.19660446
-0.16207209,-0.14756544,-0.17204632,-0.15858537,-0.14855567
-0.2307793,-0.20549254,-0.2111812,-0.16500245,-0.15577118
-0.18154632,-0.1574936,-0.22962452,-0.19584447,0.19150546
-0.19161816,-0.15326583,-0.20527269,-0.15101308,-0.20034698
-0.1852367,-0.18005207,-0.14986292,-0.1964968,-0.19076405
-0.15582886,-0.14386334,-0.21257436,-0.17508467,-0.18845141
-0.2298121,-0.22609691,-0.19923623,-0.19769952,-0.18077874
