-0.019483496,-0.03704665,-0.051796664,-0.0018908178,0.030173918
-0.032597445,-0.029273165,4.1698244e-05,0.09954207,-0.006942557
0.081006415,-0.017528916,0.007928912,0.10122522,0.10382664
0.017474547,-0.03686612,0.100162394,-0.037240844,-0.057453804
-0.08041718,-0.013234549,-0.051625386,-0.0005940596,-0.06636031
0.09019705,0.1178285,0.005274107,0.07253409,-0.0055492218
0.011191042,0.0020001947,0.08811343,0.11518034,-0.05664957
-0.13907045,-0.08493662,-0.17098789,0.031786583,0.072219625
-0.07475726,0.16874117,0.15122454,0.03633145,-0.25877377
-0.15214421,-0.051352113,-0.07394848,0.12411493,0.073846005
-0.13157994,-0.12809545,-0.10136729,-0.019891776,-0.029763946
-0.07072955,0.0047982456,-0.030839132,0.0077542504,-0.018951312
0.012842999,-0.052488547,0.066546485,0.10043558,-0.03494942
0.093585946,0.2525047,0.24658123,0.00544247,-0.069501586
0.019948542,0.15405115,0.08824781,0.14184783,-0.06841566
-0.06324337,-0.08664222,-0.043714542,-0.0010306546,-0.074237406
0.048478886,-0.0053142034,-0.08156912,-0.01943212,-0.069107525
-0.075303346,0.0554964,-0.07708234,0.008281775,-0.11119784
-0.017036539,0.11854482,0.047188006,-0.030182619,-0.06948738
0.023867706,-0.033383068,-0.056351174,-0.15501305,-0.17253289
-0.14497676,0.013297174,-0.09729059,-0.035034716,-0.017517012
-0.0552146,-0.12699792,-0.22772044,-0.16387157,-0.15579797
-0.007256924,-0.22395918,-0.16829023,-0.13927901,-0.16385204
-0.088552855,-0.23803616,-0.072874114,-0.10169924,-0.16213436
-0.18091114,-0.0670329,0.031922948,-0.049678627,-0.2415565
-0.042626992,0.040975917,0.14101249,0.08389824,0.0013776898
-0.037733614,0.012319411,0.014966975,0.035730403,-0.15676919
0.05142193,-0.042951036,-0.046392098,-0.06718338,0.013221474
-0.03960066,-0.02880284,0.05285036,0.013782902,-0.081459716
0.01377248,0.023371885,-0.036063056,-0.13199155,-0.055164214
-0.08887266,-0.10079677,-0.041005947,-0.08025691,-0.06096826
-0.046915237,-0.12181639,-0.1134936,-0.0323681,0.073171474
-0.04525104,-0.15873194,-0.03453372,-0.06663404,0.00029290706
-0.0011863282,0.027441066,-0.04122248,-0.026085002,-0.07788821
0.08878666,0.14354132,0.043614883,-0.055664945,-0.12577087
-0.03498718,0.12771305,0.188382,0.0791881,-0.09473415
0.021638002,0.026494563,0.04826383,0.0014746683,-0.12701458
-0.06927898,-0.065583035,-0.027449448,-0.07537564,-0.014002605
-0.074699454,0.017398864,0.16348049,0.016447939,0.025151446
-0.02612734,-0.014919135,-0.13837796,-0.21361078,-0.09146195
-0.04877999,0.10957617,0.016651988,-0.00096049363,0.020329941
0.024160178,0.080378756,-0.02181052,0.008667055,-0.19197607
0.008931452,0.17480204,0.07015168,-0.03492223,-0.08027857
-0.025259856,0.028576707,-0.15707818,0.04988329,0.028194074
-0.01622132,-0.099658504,-0.23115891,-0.057770614,-0.025989946
-0.113603614,-0.1430043,-0.07062193,-0.16015096,-0.25381836
-0.12614591,-0.18496679,0.010359516,-0.042790122,-0.019558918
-0.12782349,-0.30779004,-0.17716984,-0.18985546,0.018816723
0.054228615,0.20774786,0.124184616,-0.008346985,-0.1798304
-0.011806363,0.20010059,0.26458403,0.093264386,-0.0909871
0.0039310744,0.031388354,0.13310269,0.09778804,0.034666017
-0.029694002,0.103436895,0.011554676,0.018977955,-0.044102162
-0.07431136,-0.018637447,0.11409993,-0.0024450778,-0.08480904
-0.06945648,-0.08433109,-0.095276035,-0.09188808,-0.032478914
-0.085849114,-0.14157392,0.006020764,-0.16344218,-0.1486172
0.017653387,-0.103799045,-0.22932902,-0.076939255,0.018662496
-0.09820202,-0.09177926,-0.056657817,-0.05883479,-0.106193624
0.11465614,0.2931246,0.050913993,-0.006750856,-0.16873498
0.029737733,-0.023518544,0.007482294,0.00062157953,-0.022329891
0.17569582,-0.0019220281,-0.13125324,-0.0731552,-0.115238115
-0.1254475,0.04450319,0.047117434,-0.066235274,0.0020737476
-0.0044393404,-0.08152236,-0.05466441,-0.0626872,-0.018485408
-0.066632174,-0.1811581,-0.04634612,-0.027164102,-0.020652294
-0.037661154,-0.15892747,-0.11528763,0.038942896,-0.124419354
-0.07085819,-0.16395664,-0.08862784,-0.16566633,-0.21354048
-0.025147557,-0.048527427,-0.11184647,-0.019740775,-0.009208101
-0.2104348,-0.012592344,0.045671184,-0.008846882,-0.043883797
0.029298158,0.15760666,-0.01602399,0.005829207,-0.09871214
0.09476016,-0.12330701,-0.1967345,-0.07691461,-0.09027495
0.012453984,-0.12343253,-0.11239204,-0.0730022,-0.082084544
0.033784304,-0.02008402,0.04404202,-0.008917637,-0.03932231
0.10539833,0.0076883733,0.04781375,-0.02507545,-0.014351258
0.0259535,-0.053211246,0.05883387,0.09703129,0.03502001
-0.069676034,0.013804563,0.120103166,0.054562848,0.007873327
0.17420721,0.17102559,0.030385189,-0.03939372,-0.09596345
-0.041128546,0.08269245,0.03335793,-0.027690675,-0.028909836
0.037345152,0.026251737,0.031798787,0.010050747,-0.006547525
-0.07932251,-0.0016193214,0.026942667,0.06761572,-0.08492984
-0.016053148,-0.010949461,0.0128910225,0.006050685,-0.08246988
0.029154774,-0.075775295,-0.16779663,-0.12011988,-0.1382572
-0.1757566,-0.12872264,-0.10097037,-0.022766186,-0.132715
-0.10873922,-0.13498603,-0.16219698,-0.09761634,-0.105703086
-0.09859756,-0.027374865,-0.015039164,-0.030493468,-0.14999156
0.06517494,0.18786554,0.039656937,-0.05788977,-0.19334072
0.06665039,0.06342302,0.18850888,0.079376236,-0.08163348
-0.038359284,-0.17354666,-0.10113412,-0.03582213,-0.014656417
-0.08410578,0.07292957,0.009611374,0.038960278,-0.08893828
-0.03960789,0.1740168,0.02331222,-0.0313312,0.051445566
0.08450936,0.036457337,0.11534297,-0.12865677,-0.014397685
-0.006247172,-0.0151671795,-0.19439393,-0.10694649,-0.16616143
0.055147745,0.14701633,0.057847034,-0.0022478495,-0.065571286
0.017353408,0.027456103,-0.0056430893,-0.10375856,-0.19900769
-0.15713888,-0.087419644,-0.14556144,-0.04828869,-0.012270217
-0.17238513,-0.1845532,-0.17152278,-0.068380386,0.04144488
-0.027565107,-0.03783968,-0.016683608,-0.056565236,-0.026592849
-0.03340433,0.06288162,-0.063034214,0.02599239,0.14106336
-0.056813717,-0.08296918,0.025330853,0.018513376,0.006444716
-0.063707724,0.10426616,0.008680417,0.011209469,0.055554114
-0.07366616,-0.08452776,0.02725777,0.15230459,0.015638499
-0.021073103,-0.035191152,0.027787248,-0.00081775157,0.07094386
