-0.056624737,-0.056838423,0.0010807136,0.0030511105,-0.05178851
0.028859584,-0.010651776,0.04925943,-0.044943243,-0.061113864
0.034296624,0.061166316,-0.03093118,0.022295332,-0.052585524
0.035607923,0.008971322,-0.06821091,-0.045624346,0.0016032564
0.064760506,0.01928815,-0.025189687,-0.024247471,-0.020169206
-0.043192614,0.046323143,-0.040664673,-0.12823522,-0.015300387
-0.029179651,0.15583304,0.0061595,0.05500477,-0.06360012
0.23554745,-0.0072412016,-0.055565417,-0.08372262,-0.10351926
-0.18394384,-0.0793193,0.038448635,0.08495018,-0.061819993
-0.08480197,-0.03227689,-0.085518606,-0.025092177,-0.08576984
0.022369498,-0.105845876,-0.10062278,-0.09513275,-0.12752682
0.03611144,0.08386524,0.044927426,-0.025386445,-0.003279956
-0.04507196,0.0037008717,-0.0025228001,0.044193853,-0.037064712
0.0011381515,0.0481392,0.021370301,0.0022148928,0.030480783
0.0006618095,-0.019875465,-0.043842692,-0.02122638,0.007524484
0.023023274,0.072421245,0.024655612,-0.04558493,-0.11440318
-0.0117570385,-0.058488492,0.033733424,-0.08945949,-0.064226456
0.042908017,-0.0068440987,0.00033599,-0.06455469,-0.0031129597
0.13910432,0.0964959,0.036324605,0.02893998,0.02963721
0.08214477,0.022323586,0.08202036,0.052797,0.012924284
-0.010335684,0.013058418,-0.08719895,-0.044054065,-0.11419506
-0.05394276,-0.10843638,-0.08356396,-0.19161539,-0.12863651
-0.16216628,-0.13004427,-0.17226079,-0.1217083,-0.19200706
-0.16782977,-0.11320474,-0.102746435,-0.08559245,-0.039521966
-0.018927248,0.052371405,-0.06195723,-0.07256153,-0.043954838
-0.06170885,-0.06631928,-0.13203864,-0.11464736,-0.0495738
-0.09691371,-0.04892523,-0.07854327,0.02772788,-0.017862858
-0.20542373,0.081332505,0.021796634,0.04555994,0.0041678655
-0.15970573,0.07779358,0.05216129,0.0029367965,0.011609224
-0.072349265,0.07375652,0.14520156,0.09686335,0.10891509
-0.1149341,-0.09325552,-0.046193812,-0.00087470113,-0.011035637
-0.13795617,-0.14718832,-0.04904986,0.0386415,-0.042506166
-0.192631,0.009501198,0.05708375,0.006247731,-0.0142183425
-0.17048308,-0.039013274,0.06037373,0.025630094,-0.020827511
-0.09567755,-0.014234713,-0.013061816,-0.036498185,-0.0265271
-0.14613551,-0.094782524,-0.09624404,-0.11825639,-0.13081756
-0.11903553,-0.118870236,-0.10495944,0.026854314,0.0057244804
-0.2378327,0.03588663,0.055907812,-0.012866716,0.006893437
-0.14084013,0.051196948,0.10388118,0.061018918,0.0689311
-0.010507703,0.11978147,0.11596742,0.11200916,0.046719547
-0.09278935,0.080779746,-0.0058830497,-0.021121364,-0.018268773
-0.09806952,0.04617677,-0.012126078,-0.093235716,-0.06103176
0.2425576,0.083952,-0.15567803,-0.15059035,-0.13068216
0.26163054,-0.1668799,-0.09795228,-0.14762357,-0.059694864
-0.06896663,-0.19391897,-0.083012134,0.029126525,-0.038406458
-0.009815823,-0.07089527,-0.041235693,0.020497346,-0.060700327
-0.13351363,0.005354989,0.08579318,-0.01645718,-0.07324756
-0.1080407,0.101195626,0.16357134,0.028409563,-0.039149266
-0.16233043,-0.18638946,0.006690191,-0.037372485,0.032160122
-0.079983085,0.07333212,0.07104169,-0.03253788,0.027239619
0.1148301,0.0451623,0.00391943,0.033011314,-0.011267354
0.29190558,0.009215753,-0.0025852697,-0.07916318,-0.0461455
0.038631182,0.035093367,-0.056635156,-0.06146075,-0.021930939
-0.016815089,0.06303036,-0.065114744,-0.071459465,-0.097560786
-0.057394322,-0.023446696,-0.09506157,-0.07822852,-0.036773212
0.078847446,0.045095697,0.013264441,-0.03197839,-0.08913079
-0.025573159,-0.0006649952,-0.060032073,-0.00822891,-0.041951742
0.07464765,-0.065941334,-0.022724554,-0.021313105,-0.0694988
0.043923214,-0.039963756,-0.037018444,-0.045212436,-0.04704995
0.012893294,-0.043947853,-0.032797907,-0.07177271,-0.11804901
0.053318284,-0.06092508,-0.034030188,-0.069118306,-0.07059451
-0.022350756,-0.037001483,-0.0975006,-0.10262318,-0.041764032
-0.054588743,-0.08766416,-0.05366543,-0.05764846,-0.07319782
-0.094731376,-0.0016985469,-0.031223802,-0.012457198,0.0072936765
-0.0035971862,0.026919689,0.09178687,-0.021455938,-0.06709137
-0.014990429,0.027695155,0.08994674,-0.0572324,-0.01908849
0.15351649,-0.013880756,-0.0148416255,-0.11508703,-0.118981555
0.0965773,-0.02714071,-0.07460594,-0.14286157,-0.05833232
0.09857618,-0.08958213,-0.09936929,-0.08809013,0.012844739
-0.009333452,0.0073205326,-0.02380324,0.033037767,-0.0022379635
-0.032898504,-0.08735,-0.06285877,-0.00713597,-0.076095045
-0.013237467,-0.018794343,-0.00371685,-0.010470109,0.002002636
-0.052102268,0.014903645,0.085346185,0.057970576,0.015305999
-0.0043380875,-0.0073736147,0.12225575,0.069022134,0.06632609
-0.14137009,-0.060577027,0.07453634,0.027656473,0.04943501
-0.0116989305,0.014514426,0.04244818,-0.06690827,-0.07096295
-0.031549558,-0.053825725,-0.021990092,0.018786514,-0.02307889
0.06502784,0.004824024,0.008140318,-0.01470095,0.0034213127
0.15210785,0.013468742,0.018484777,0.020291518,0.033216164
0.02057599,0.0513842,0.01902972,-0.029527005,-0.06880977
0.08628086,0.07414302,-0.07667561,-0.1778611,-0.15862441
-0.13319127,-0.041490022,0.05587543,0.014009398,-0.12596291
-0.17045262,-0.049298976,0.024448572,-0.020927425,0.005037382
-0.018147726,0.082751535,0.0066766436,0.005249997,0.041207682
-0.04941337,0.16731443,0.07562596,-0.038474694,-0.013251789
-0.11591017,-0.012027222,-0.0032880416,-0.13753672,-0.121281445
-0.0230198,-0.10293812,-0.097995356,-0.05443942,-0.055964116
-0.1732341,0.021254368,-0.109927654,-0.047556058,-0.009781684
0.032336716,0.037443724,0.0461338,0.036859132,0.008609597
0.10632775,0.058365185,0.18251695,0.03593183,0.08900169
-0.086512804,-0.006870668,-0.062294334,0.13399358,0.07699985
0.015939921,0.076255426,-0.051432237,-0.056659784,-0.038844984
0.13552107,0.045990277,-0.10962412,-0.10542693,-0.09653144
-0.054620028,-0.20615895,-0.063124694,-0.05438851,-0.05601435
-0.021027286,-0.15696572,-0.012792405,-0.030238153,-0.006179874
0.053057477,0.036612842,0.009528246,-0.041110422,-0.08390244
-0.044841707,-0.0585622,-0.04768035,0.027310476,-0.04547915
0.044814523,0.10856728,-0.045231275,-0.008134626,-0.062577486
-0.06973228,-0.077552415,-0.0016458859,-0.009566031,-0.00015508967
-0.08524344,0.028975312,0.031463332,0.018478064,-0.010015708
