-0.034981724,-0.037182245,-0.009804431,-0.042737696,0.0019133566
-0.07856547,-0.06352394,0.023384472,-0.059594996,-0.05325428
0.053535227,0.0764396,-0.03895474,-0.06889472,-0.071756326
0.07111926,-0.036861453,-0.015480563,-0.046562415,-0.035870336
-0.0060871462,0.07504442,-0.003239009,-0.0134240035,-0.0458297
0.022946056,-0.07378183,-0.015941145,0.032219067,0.053069502
-0.14960338,0.012588759,0.2910545,0.2345303,-0.14948538
-0.06720798,0.21763341,0.23466164,-0.09453776,-0.14650597
-0.25912422,-0.23167092,-0.22079548,-0.25930056,-0.2173904
-0.3742033,-0.113625124,-0.021869825,-0.13200563,-0.24262114
0.0056221746,-0.06122188,-0.0289194,-0.07962179,-0.047657155
-0.050375853,-0.075374946,-0.017169883,-0.017257083,-0.054251418
0.021568416,-0.013880698,-0.016395997,-0.073650144,-0.10300102
-0.03900764,-0.045621656,-0.046009343,-0.016675858,-0.06897836
0.01178414,0.053073943,-0.04620612,-0.08339932,-0.14270248
0.017619083,0.050211985,0.023746626,0.038678512,-0.052963722
-0.04270623,-0.021999298,-0.1359647,0.011723879,0.00074111874
-0.044160802,-0.091643624,0.056032155,0.026928438,-0.030336957
-0.07669589,0.035202403,0.03387217,-0.049480487,-0.057358008
-0.03504592,0.08887344,0.008406952,0.040264662,-0.08147495
-0.08411197,0.04856623,0.16818826,-0.019881155,-0.032026514
0.08603937,0.0253194,-0.011701204,-0.12744083,0.0049283705
0.12140684,-0.08539787,-0.14996602,-0.11607769,-0.03971866
-0.01858236,-0.07802533,-0.07115103,-0.11818155,-0.03755466
-0.25144434,-0.10643501,-0.14039052,-0.059915967,-0.12218436
-0.12456387,0.11127781,0.035450533,-0.08829263,-0.13794947
0.038920615,0.0841042,0.025024857,-0.0654072,-0.06709288
-0.028725054,-0.12073383,-0.0677247,-0.11840631,-0.11232769
0.091776,0.068327956,-0.0684367,-0.09645225,-0.08974315
0.051913816,-0.027162343,0.027461275,-0.05370874,-0.13689293
-0.12261239,-0.04277356,-0.0086507285,-0.104069166,-0.118356176
-0.07619936,-0.15727963,-0.13595098,-0.16631335,-0.12836531
0.17549877,0.037127838,-0.078540996,-0.016444666,-0.036801808
0.2241413,0.18925743,0.10830753,0.043268338,-0.09653453
-0.07137797,-0.08702452,-0.122988,-0.0680304,-0.026394319
-0.027316105,0.121534914,0.09654039,-0.06759148,-0.10433105
0.0733349,0.09820402,-0.08392175,-0.0724173,-0.10589036
-0.038040634,-0.122931,-0.077047974,-0.10053559,-0.06987517
0.026833186,0.12199483,-0.0546315,-0.13713972,-0.18131095
0.006694038,-0.06081831,0.116634004,-0.045193773,-0.101249866
-0.040842213,-0.099916026,-0.016816335,0.13002819,0.06168186
-0.111721836,-0.17302456,-0.09099394,0.090900764,0.09918125
-0.10464115,-0.067422524,-0.0068692868,0.074833505,0.0075927917
-0.06191192,0.16856973,-0.10740554,-0.11394924,-0.043271895
-0.0495001,0.03453538,-0.030448578,-0.09044423,-0.11446487
0.19031489,0.051352356,-0.10178937,-0.13059591,-0.14288245
-0.18115798,-0.25696227,-0.13875131,0.09207242,-0.020654542
-0.08918003,0.1436849,0.22551824,0.16239448,-0.10846948
-0.013232698,0.056734953,-0.006159514,-0.14334562,-0.14436539
-0.39002535,-0.27977484,-0.21495697,-0.19588277,-0.1667328
-0.101239644,0.012128854,0.29775703,0.18570226,-0.11255413
-0.15005724,0.1032462,0.21781687,-0.057545744,-0.051842444
-0.026393136,-0.12837422,-0.17048466,-0.116025075,-0.083460495
-0.14992186,-0.23431647,-0.18794824,-0.12620455,-0.12317681
-0.0545744,0.11394707,-0.060659084,-0.06443139,-0.21125887
-0.008436298,0.010857464,-0.13295278,-0.049667288,-0.006991334
-0.13840243,-0.12084146,-0.03224954,0.007610104,-0.06893261
-0.007583597,0.032725703,0.08320617,-0.0638785,-0.061596062
0.06077968,0.13322498,0.015979452,-0.0762032,-0.05097917
0.116925396,-0.09874506,0.056777272,-0.04747467,-0.04295077
0.014625965,-0.018230591,0.120396815,0.07859924,-0.13560124
0.05239205,0.09243241,-0.024220765,-0.09304798,-0.07463196
-0.02142511,-0.029097833,-0.046525903,-0.054656833,-0.12136648
0.02595868,-0.022868132,-0.046350263,-0.07007986,-0.05508068
0.058255717,-0.011047558,-0.015043606,-0.11809828,-0.13239148
-0.12825347,-0.10320524,0.024490317,0.077764876,0.01581848
-0.0964858,0.12088817,0.18060702,0.21914141,-0.099677384
-0.12086656,0.04335749,-0.039598797,-0.09205224,-0.12693545
-0.020734329,-0.0489588,-0.14171124,-0.13671911,-0.10414045
0.012616731,-0.100568324,-0.056262348,-0.083828785,-0.12932217
-0.018214284,-0.0037678618,0.06114881,0.006184515,-0.14560658
0.06937909,-0.01521543,-0.07663838,-0.10848254,-0.05862722
-0.017959442,-0.030406248,-0.034250237,-0.11480606,-0.053703945
0.061969724,0.077315405,0.04709895,-0.053823937,-0.076651044
0.087876745,-0.015142577,0.034766592,-0.077686526,-0.101217516
0.0022863385,0.14155313,-0.061225176,-0.08685581,-0.07880719
-0.044487007,-0.0062169298,-0.098835096,-0.037660815,-0.072321415
-0.019083535,-0.11336356,-0.062432464,0.025472032,-0.03707481
-0.015578185,0.061386377,-0.0027593612,-0.010949607,-0.11500219
0.08260419,-0.0067212824,-0.032435432,-0.021646153,-0.08562612
0.07033509,0.0932907,0.0054069795,-0.038609393,-0.059675176
-0.06831602,0.02344486,-0.086973585,0.04721056,0.022581264
-0.038599532,0.035025008,0.0014491577,0.05499185,-0.0075930567
0.092131235,0.097750925,-0.0033842595,-0.023293769,0.0021408808
-0.1244177,-0.08400726,0.012626479,-0.11252561,-0.06908914
-0.05196614,-0.016789386,-0.12037645,0.12404053,0.11051645
-0.08845197,0.025917504,-0.07186258,-0.182427,0.08519827
0.1548551,-0.07935437,-0.03661694,-0.03917505,-0.059050713
0.14158353,0.1578045,0.23427488,0.008444135,-0.15821493
0.007832198,0.13371718,0.12503572,0.16127235,-0.026161231
-0.04013667,-0.14485946,-0.07309283,0.029260663,0.09329359
-0.14141853,-0.110026985,-0.020385785,0.26422665,0.19839272
-0.12928846,0.050247148,0.119528756,0.121390946,-0.11024454
-0.1443159,-0.049912605,-0.030804131,-0.1435149,-0.111004956
-0.2808207,0.014483308,-0.06146632,-0.077677384,-0.12435899
-0.0043319855,-0.0013724591,0.040261235,0.043339305,0.025634218
-0.05159389,-0.04550342,-0.0039278073,0.068585455,0.014311655
-0.11921513,-0.07369514,0.04934676,0.0054883948,-0.011529923
-0.048630044,-0.06442431,-0.11168811,-0.04732972,-0.07568122
-0.08953533,-0.02635683,0.10728677,-0.027636755,-0.0325288
