0.0064564208,0.0269081,-0.0069455113,-0.008779566,0.007103831
-0.037166238,0.007074423,-0.018137671,0.023635248,-0.009635069
0.036628716,0.00414397,-0.038663045,-0.035706498,0.03547341
0.07079413,0.0029160522,0.028986057,-0.090944014,-0.02406616
0.03534273,-0.046574216,0.06519552,-0.06907949,-0.012206466
-0.12046137,0.10919272,0.08901726,-0.051435977,-0.15374087
0.091372676,0.056760196,-0.0625646,-0.12539788,-0.014801912
0.00024799566,0.04882213,-0.12776162,-0.1223123,0.002760741
-0.06925757,-0.0840591,-0.12027359,-0.14327179,-0.12749207
-0.106375605,-0.1800591,-0.2554429,-0.14702104,0.05073204
-0.04444428,0.024342839,-0.16734637,-0.0426658,-0.039582442
0.005903448,-0.11885926,-0.13180809,-0.09752883,0.014154863
-0.023051847,0.014214251,-0.060509723,-0.011926216,0.009320882
-0.01479346,0.0051099346,-0.09442215,-0.023525838,-0.018792115
-0.045032497,-0.06827262,-0.08071678,-0.1535367,-0.014240938
-0.09364548,-0.055494186,-0.058105238,-0.013727303,0.014574825
-0.06282925,0.025645606,-0.13118836,0.018163776,-0.030829076
-0.0048010345,-0.01753642,-0.08158852,0.034472913,0.06788505
-0.02916848,-0.020660607,-0.008522887,0.012828979,0.027588567
0.015168463,0.0681973,-0.0048894878,0.08070775,-0.050955888
0.04289084,-0.13493395,-0.03485713,-0.0850533,-0.09788289
0.042539243,-0.035909273,-0.06519105,-0.062322564,-0.11033456
0.13918185,-0.10380347,-0.020831274,0.025454182,0.019894632
0.15196514,-0.18046397,0.040908776,0.11026177,0.026713572
0.18907356,0.008534478,-0.07254081,0.03967787,-0.051721826
0.07662714,-0.000102331316,-0.08771442,-0.03846231,0.08492168
-0.041861836,-0.01847145,-0.12698999,0.0721316,0.08255775
-0.055158824,-0.111835614,-0.07903015,0.12670058,0.055950668
-0.034938432,-0.043941945,-0.028555742,0.089156486,0.01276886
0.0148729775,-0.019137781,0.039251056,-0.019484509,-0.10103165
-0.01699292,-0.063880436,-0.059398398,-0.01337876,0.0068263933
0.036124036,0.036041558,-0.006149547,0.026954848,-0.027607577
0.018662894,-0.03488585,-0.039746273,-0.048231654,-0.060329814
0.034726236,0.005655729,-0.039322715,-0.06628316,-0.09778493
0.0047862693,-0.00038858393,-0.098935515,-0.060899694,-0.123901784
0.024467561,0.07893464,-0.034192376,-0.0066116415,0.05559763
0.011468302,-0.024726108,-0.14573225,0.124818124,0.19494276
-0.06458458,-0.0779288,-0.06269681,0.12685174,0.05503338
-0.037758,-0.009673176,-0.02014712,0.027441371,-0.013034946
-0.007851743,-0.031025602,-0.049533468,-0.07668949,-0.110996544
-0.034666426,-0.07385441,-0.008699477,-0.017265553,-0.0667557
-0.04623936,0.005215907,0.11859719,0.01046158,-0.015307588
-0.11951836,-0.049938135,0.032302488,-0.042348236,0.03233485
-0.04821998,0.025890302,0.08534499,-0.067963354,0.09533345
-0.041191105,0.1797723,0.045230485,-0.050266333,0.06965074
-0.21872424,-0.09572234,-0.029646225,-0.12657157,-0.18809351
0.11494556,0.1389932,-0.10881463,-0.08735921,-0.1351022
0.11974222,0.057013966,-0.17993179,-0.24099077,-0.07240504
0.04065023,-0.011277319,-0.17192414,-0.17719086,-0.12540346
-0.08758602,-0.04276081,-0.10343603,-0.16664629,-0.05119177
0.09011847,0.11355111,0.025296759,-0.06606193,0.047421787
-0.07362292,-0.0042231847,-0.088120386,0.009492334,0.103924796
0.081334084,0.15537138,-0.06688532,0.03260713,-0.001874987
-0.05337517,-0.12137978,-0.034889285,-0.05609662,-0.04997471
0.05686555,-0.12677322,0.042214636,0.037242707,0.16221364
-0.06712186,-0.016873617,-0.057491355,-0.019584509,-0.041250255
-0.030142471,0.069593936,-0.045828875,0.042815577,-0.035885528
-0.17888725,-0.029894993,-0.0070432415,0.025525736,0.012107565
-0.09950483,0.019730065,0.022486968,0.082251884,0.08077356
0.020148907,0.19192666,0.06366789,0.19585672,-0.004733574
0.14340982,0.051523138,-0.08291081,-0.07444671,-0.06527941
0.02005045,-0.04595767,-0.05193164,-0.015604926,0.05833858
0.013083167,0.03313332,-0.09276654,-0.004822739,0.09176099
0.010191035,0.091003135,-0.02610938,0.036762275,0.08115437
0.0097463885,0.10262172,0.060387414,0.096486285,0.031098805
0.03761485,-0.04742852,0.05896,-0.0011566705,0.030384783
0.065136924,0.05273439,0.08695516,-0.03349873,0.05480291
-0.024812493,0.083606705,-0.09589845,-0.014887525,0.13461505
-0.04780936,0.20226412,-0.08440224,0.07895082,0.18410636
0.023631033,0.18071595,-0.019339247,0.058718577,0.013073491
-0.054998733,-0.0887092,-0.01781362,-0.07888936,-0.0018453012
-0.07634951,-0.067353025,-0.011252292,-0.007431512,0.012212958
-0.038936343,-0.07271114,-0.011135102,-0.024591196,0.06282684
-0.040498182,-0.04195886,-0.017110666,-0.039038666,-0.013413831
-0.047978237,-0.041035973,-0.013649046,-0.07661727,-0.08808515
0.032808643,-0.048072997,-0.043017242,0.006878122,0.021466535
7.9276775e-05,0.033330534,-0.052467216,0.045242134,0.042365998
0.015512202,0.0021599492,-0.032831438,0.0032638835,0.10256716
-0.06560381,0.07586747,-0.051270664,-0.031819206,0.008103128
0.02375059,0.17297347,-0.042256195,0.024239914,-0.059633974
-0.10312088,-0.10913376,-0.059494253,-0.030897086,-0.050010685
0.012154093,0.11414929,-0.1487297,-0.108256765,-0.06455009
-0.034965638,0.15542065,-0.12841693,-0.067868896,0.009786243
-0.068005756,-0.0077011487,-0.10608039,-0.103279814,0.0025498269
-0.009824511,-0.028948002,-0.10824644,-0.10353582,-0.10841241
-0.25336868,-0.067263365,0.014633758,0.029648725,-0.12844455
-0.12561855,-0.05431674,-0.10503518,-0.14974914,0.031024894
-0.08012531,-0.07095285,0.028623696,-0.15072873,0.073478006
-0.008717572,-0.108439825,-0.011815707,-0.14128022,-0.020071803
-0.060871545,-0.06882025,-0.02781144,-0.13039127,-0.04511468
-0.045252632,0.094726264,0.014776214,0.009126624,0.011829635
-0.07920455,-0.0049465415,0.044356417,-0.003750526,-0.035815615
-0.023200426,-0.108133905,-0.03369807,-0.03783617,-0.025915772
-0.06052435,-0.07292168,-0.0092075225,-0.08535172,-0.017307542
-0.05738871,-0.029061992,-0.0400361,0.0027473057,0.043122325
-0.12771115,0.012015737,-0.010380084,0.031450674,-0.098755
-0.0069055906,0.018151883,-0.08838468,-0.04788191,-0.051495463
0.029787691,0.021852382,0.018864002,-0.08034928,0.019114278
-0.0082195895,5.977887e-05,-0.007657918,-0.058014505,-0.045234554
-0.042471394,-0.004257418,-0.09720012,0.0031032455,-0.04552842
