-0.026995929,-0.13289563,-0.06442834,0.0052582263,-0.058380976
-0.008922595,-0.09430463,0.017309623,-0.03625664,0.01614338
-0.0029876493,-0.03152319,0.17337562,0.07207981,0.07659131
0.06908829,-0.058426622,0.21900998,0.087184615,0.048133075
0.091431975,-0.06631763,0.009699111,-0.056832362,-0.054677784
-0.08209507,-0.019284513,-0.034806024,-0.04757859,-0.10783538
-0.08621748,0.121602684,-0.12947433,-0.13170604,-0.24806479
-0.19938062,-0.2238689,-0.057307847,-0.0110399425,0.04260794
0.07205543,-0.034532752,0.28917417,0.14703137,-0.072781354
-0.035910364,-0.04245263,0.15694362,-0.021994866,-0.061525807
-0.048798013,-0.024363654,-0.0131572345,0.008112043,0.064395815
-0.112532,0.011038736,-0.013243274,-0.053015165,-0.024108576
0.06327898,0.12434236,0.05865879,-0.059446678,-0.12775312
-0.027213588,0.007561023,0.10346796,-0.02793901,-0.12503602
-0.07725773,0.05841762,0.08656262,0.031335406,-0.18074943
-0.012533233,0.03226311,0.016203448,-0.045254875,0.08029129
-0.113443,-0.20173953,-0.025398234,0.013447465,-0.045843467
0.028973611,0.10208843,0.028956516,-0.012115841,-0.27590284
-0.12245687,0.18096447,-0.13719906,-0.04536923,-0.194748
-0.06987972,0.02697942,-0.048973013,-0.1057225,-0.1618035
-0.04864757,-0.07032448,0.18747479,0.07230044,-0.16111307
0.045178164,0.01687797,-0.030931152,-0.15490675,-0.13033193
0.09475184,0.03718741,-0.11885673,-0.15716,-0.1797584
0.01240223,-0.13020238,-0.1468679,-0.18645166,-0.18751764
0.012675631,-0.124016024,0.14641596,0.09525888,-0.20322433
-0.13017696,0.050053358,0.012006313,-0.04508396,-0.028939927
0.009611674,-0.056083024,-0.09849221,-0.08739737,-0.02129145
-0.038663767,0.08236376,0.10195009,0.055983853,0.1170132
-0.098186105,-0.0016255049,-0.05359716,-0.06697385,-0.06962703
-0.06681753,-0.04600222,0.00984305,-0.04146613,-0.09300691
-0.10010066,-0.027712764,0.03033899,-0.025980731,-0.032975852
-0.0640379,-0.09830309,-0.059933122,0.026377099,0.115179226
-0.2193033,0.029294759,-0.025256079,-0.10077448,0.024962772
-0.06841761,-0.018421074,0.04321828,-0.060372654,-0.14311415
-0.10878282,0.22221713,0.2662707,-0.012812216,-0.06421252
-0.10873593,0.0379978,-0.016335698,-0.09962936,-0.076207764
-0.02884366,-0.034296717,-0.031248497,-0.014080846,-0.05634604
-0.14972009,-0.04196284,0.023122603,0.029330794,0.06925971
-0.004538253,0.025960779,-0.09705364,-0.039089233,-0.088240094
-0.17654343,-0.099086344,0.037665375,-0.08556883,-0.08425304
-0.14649339,0.01749258,-0.09257666,0.042438645,0.25629878
-0.053527404,0.14595692,-0.04914995,-0.012681735,-0.037396293
-0.035537083,0.13466029,-0.14661346,-0.104394026,-0.019013245
-0.15028225,-0.06796344,-0.20794585,-0.14334242,0.05976468
0.031412084,-0.09947335,-0.22027482,-0.18916099,-0.031365212
-0.040218584,-0.16192272,-0.1356825,-0.030485045,-0.13091786
-0.09134503,-0.17936216,0.06230647,-0.061672717,-0.09735204
-0.33881512,-0.22901103,-0.0908709,-0.23244095,0.07449379
-0.13477826,0.15107366,0.1110454,0.009397097,0.005246409
-0.19703501,0.10425763,0.3174816,0.044728592,-0.13184458
0.07220513,0.03499715,0.15114307,-0.15539424,-0.23478349
0.09202353,-0.12600137,-0.04386475,0.0004965851,-0.085618176
-0.0048302123,-0.112699084,0.10898298,0.18135233,-0.07454338
-0.09668864,-0.21191603,-0.03799991,0.027181955,0.00026883447
0.011472528,-0.19147725,-0.18939269,0.21373557,-0.06747456
-0.10639929,-0.10269494,-0.24967808,0.05313566,0.043917105
-0.05422801,-0.00022959361,0.13792337,0.021751119,0.0105835665
0.18760012,0.12970014,-0.045700874,-0.11809102,-0.087752946
-0.10346633,-0.08893841,-0.1438106,0.010974432,-0.013502196
0.050226294,-0.08945774,-0.12831192,-0.056378875,0.071525864
-0.10773117,0.051803224,-0.042930335,0.17643774,-0.1630811
-0.11782286,-0.086911134,-0.015404695,0.114390634,-0.018950352
-0.06891445,-0.07939556,0.123454295,0.016154839,0.014313991
-0.018689103,0.07988842,-0.08458505,-0.004038755,-0.25965744
-0.109528266,-0.20000264,0.024922486,0.17298484,-0.061411854
-0.31251794,-0.021199903,-0.1294937,0.04121417,-0.08176773
-0.15299362,0.092553675,0.034999277,0.071039766,0.0034397845
0.10349041,0.19768101,0.08861766,0.09289652,-0.084143534
-0.05118385,-0.1187886,-0.1446027,0.03287413,0.03184405
0.07156877,-0.07385735,-0.26005396,0.088435374,0.045865722
0.041921295,0.035408553,-0.021759393,-0.03349335,-0.06747759
0.13088812,0.17976204,0.16472282,0.090116434,0.010793749
-0.17099448,0.021356247,0.04251546,0.08783495,0.041393213
-0.08141599,-0.03372513,0.122582,0.07353626,-0.122839496
0.053867135,0.052822463,0.2183281,0.05809011,0.037136763
-0.065002665,0.0023633777,-0.089223765,-0.0044209063,0.08711726
0.012048265,0.021157037,0.041757297,0.010438569,-0.036922026
-0.111740485,0.004644194,-0.041161,-0.046536848,-0.023585789
-0.14048466,0.0027602578,-0.07242274,-0.020111298,-0.07465144
-0.06074323,-0.053827308,0.031712346,-0.034702085,-0.02950128
-0.11721674,-0.073122256,-0.11070084,0.024000088,0.045439616
-0.22946241,-0.06373788,-0.006305956,0.008701234,0.00867865
-0.0013013338,0.088416964,0.10484588,-0.047411423,-0.16980138
0.019391667,0.16588973,-0.011823367,-0.042152528,-0.2982924
-0.05263282,0.10965705,0.068547755,-0.029768921,-0.118498914
-0.06608017,-0.23154822,0.07843608,-0.18447673,0.1859815
0.20111774,-0.027464876,-0.012835231,-0.061879113,0.14342487
-0.028438494,0.32906857,0.2840694,-0.015508063,0.004564885
-0.026089953,0.0053147753,0.1843468,-0.4831768,-0.16296473
0.10670117,0.09534486,-0.057440665,-0.29089373,-0.1179694
-0.027252784,0.060233098,0.013554962,-0.036341004,0.0020912942
-0.116553254,-0.053187586,-0.0049269227,-0.17291956,-0.20580691
-0.18095127,-0.10925288,-0.21857764,-0.16521338,0.19598849
-0.0380197,-0.06938787,-0.12309181,-0.08072692,0.1496599
0.088387996,0.14479242,-0.013023153,-0.14457306,0.121229224
0.039017122,-0.01191996,-0.005744339,-0.023648903,0.038978156
-0.028977629,-0.008200565,0.028073628,0.061343104,-0.06409338
-0.0064994446,0.026837444,0.013906802,0.119049706,0.14082435
0.013076799,-0.13928594,-0.13329245,0.019282985,-0.04225444
-0.0669221,-0.0077901166,-0.03252258,0.03723335,0.015335916
