0.02785423,-0.017261123,-0.032909386,-0.025816927,0.013846781
0.013288803,0.043752037,-0.018244123,0.032408156,-0.033216745
0.0106421225,-0.04055441,-0.025563419,-0.039783444,-0.0200839
-0.022888592,-0.024550848,-0.037458953,0.00014225086,-0.039787658
-0.034454934,-0.0443014,-0.034760002,0.026098548,-0.036212783
-0.025363801,-0.00835685,-0.019155659,0.012434075,-0.049675796
-0.032756865,-0.009302651,-0.042990465,0.025786096,0.022828314
-0.029022122,0.043687865,-0.03507553,-0.047673136,0.011009262
-0.019592864,-0.038178798,-0.017569503,-0.038859174,-0.0021014027
-0.004684231,0.027748717,-0.01784874,0.006652186,-0.007848654
-0.025560059,0.03837649,0.01491242,0.018041596,0.0075471094
0.03451727,-0.042259566,0.0308325,-0.038581375,0.04050467
-0.022696806,0.02228196,-0.027586821,-0.0146142375,0.018003106
-0.011905953,0.042419832,-0.021545889,0.028223881,0.0026551315
0.038381167,-0.024467938,0.033602852,-0.023011241,-0.031840663
-0.012661187,-0.0028635885,0.043579895,-0.020578533,-0.012413072
-0.010147284,-0.00115508,-0.013152303,-0.031914216,0.01463673
-0.018073753,-0.034296587,-0.024529293,-0.015430797,-0.037941918
-0.042043038,-0.045211405,-0.016630914,-0.042637676,0.015482541
0.019378768,0.028495751,0.008953929,-0.03272215,-0.018253714
-0.022098592,0.0053065997,-0.015467766,-0.008553712,0.03464939
0.025310459,-0.044619225,-0.04605299,0.031550057,0.06312748
-0.036138512,0.041071326,0.0054289047,-0.024563227,0.026782423
-0.022787152,0.037806354,-0.035426795,-0.024718098,-0.0009977248
0.006137187,-0.033716008,0.011423015,-0.023660114,-0.021516321
-0.028399687,0.028009063,-0.01398271,0.029189851,-0.014673406
0.004190592,-0.0059356056,-0.0416315,0.04373832,-0.019946432
0.034116156,0.022837175,-0.016661735,-0.0056022927,-0.0080185635
-0.03466614,-0.026957607,0.022990236,-0.0026299832,-0.042349473
0.0559551,-0.023642652,-0.029829204,-0.030843364,0.003145142
-0.039834972,-0.03701725,0.001764082,0.0030416027,-0.039745573
-0.048576202,-0.046423204,0.019279808,-0.029571665,0.015185545
-0.0017775574,0.01245828,-0.039535798,-0.0072204396,0.02341796
0.026030093,-0.029092418,0.024043463,0.045357957,0.0046494603
0.0005011015,0.005661307,-0.020483064,-0.0059087067,0.03353052
0.015167576,-0.022109933,0.020745281,-0.02331691,0.03878876
-0.003392282,-0.039109904,-0.029571062,-0.022946993,-0.01098444
0.023257192,-0.04166025,0.041699097,0.015889393,-0.045090504
0.035156168,-0.042990714,-0.005469835,-0.02843719,0.02032013
0.039977364,0.030822799,0.033103377,-0.0108267935,0.041180614
-0.030821798,-0.03628003,-0.04084794,-0.0027310827,0.007998822
0.00955769,0.0074360543,0.028293647,-0.033603087,-0.02640466
-0.049680937,0.017062029,-0.0047971783,-0.03415661,-0.007894407
0.024380267,0.0073154494,-0.014217367,0.0025214811,-0.011664563
-0.0179279,0.04176819,0.027291335,0.02948592,-0.026904052
0.003312097,-0.04166044,0.025370486,-0.031728495,0.008025559
0.035279796,-0.047179766,0.019263545,-0.056482535,-0.03329477
-0.0026858158,0.010713127,0.00546758,0.028684735,-0.02819602
-0.03334917,0.01533789,-0.019657541,0.049798224,0.026678283
0.020364026,0.005620458,-0.010899009,0.021702321,0.069141336
-0.021928463,-0.011838444,-0.010434877,0.004011151,-0.02596476
-0.04380967,0.026460795,-0.036724813,0.033062954,0.029054284
0.010372032,0.0072552003,-0.015144039,-0.023331909,0.036448315
-0.03057167,-0.010827493,-0.006641996,0.0007384324,-0.0035037308
0.023549946,-0.044109285,-0.046756737,0.0055648666,-0.012393632
-0.027640764,-0.018217474,-0.039745748,0.03815939,0.0050867232
0.03865591,0.013403153,0.031107627,-0.029047014,-0.0048760287
0.0053411634,-0.027228389,0.025095547,-0.035126407,0.048790652
0.015457433,-0.031159889,-0.016389208,-0.038566858,-0.04255273
-0.0085086,-0.014279441,-0.04535932,0.0042546755,0.00180541
-0.016761323,-0.0022903762,-0.041029852,-0.043189052,-0.02806614
-0.036362316,0.027037168,-0.034928057,0.023077821,0.024900999
-0.031550154,0.034983944,0.0102629475,-0.034592204,-0.020101508
0.036061738,-0.013389677,0.007821144,0.04375632,0.035591416
-0.008515712,0.00069571583,0.0020000436,0.025675898,0.02208812
-0.010996463,-0.03801911,-0.00032861368,-0.0030531362,-0.007808844
0.025708908,-0.03761044,0.014829086,0.0037623798,-0.035821877
-0.03203372,0.037624568,0.0038969573,0.0025746957,0.053830214
-0.033493172,0.020078983,0.0017536334,-0.021192037,0.04036288
0.040164012,0.014434067,0.022392629,-0.026402583,-0.03748377
-0.0011156922,-0.04162752,-0.01421333,-0.033858445,-0.03447856
0.005298052,-0.034576714,0.014144686,-0.0224071,0.0043499353
-0.035705995,0.02495775,-0.015564005,0.016958693,0.016818676
0.011835517,-0.0018205567,0.0013321311,-0.027472762,-0.0076481514
-0.021402339,-0.012769143,0.01646951,-0.042705107,-0.042237718
-0.031278383,-0.020094972,-0.039638277,-0.027005732,-0.01855627
0.022722458,-0.034658633,-0.015697181,-0.026102016,0.029584222
0.030038992,0.0032453395,0.024158139,-0.03195545,0.02012668
0.0004375524,-0.024352903,-0.016976735,0.032795276,0.017072862
-0.03964312,0.039843522,-0.024848439,-0.032062054,-0.038451456
-0.0015175464,-0.02403715,0.012095484,0.00902332,0.009138334
-0.00018509394,-0.008624638,0.027551606,-0.008450702,-0.018237425
0.017804122,-0.0038808356,-0.036468945,-0.020050708,-0.046705835
0.009748949,-0.021352293,0.037433643,-0.00047089768,-0.036897678
-0.025884684,-0.037335277,0.002668055,-0.03314478,0.031303175
-0.018550055,0.01208924,-0.039736364,0.029597772,-0.037409753
-0.0034578575,-0.04251544,-0.031761486,0.027658962,0.016633363
-0.013565549,-0.042958,-0.022925768,-0.01646118,-0.0059194295
-0.047088753,0.022880675,-0.03633329,-0.023599664,-0.03740971
-0.013602613,0.025369743,-0.00012986263,-0.018510988,-0.00935959
-0.027927717,0.0005018183,-0.018072614,-0.041668463,-0.017121814
-0.045479268,0.0153690055,-0.041252162,0.011220651,-0.03626127
0.03942445,0.01435663,-0.0142907845,-0.04119154,0.0060612457
0.003400995,0.0046553737,-0.044902887,0.02134136,-0.030408606
-0.05010901,0.01830041,0.019447895,0.0012218788,0.034842588
0.03509681,0.0056829927,0.0046656923,0.011372513,-0.01366397
-0.026191678,0.017070651,0.01826927,0.040760808,-0.02852966
-0.009790035,0.013059903,-0.007273969,-0.04171944,-0.04078865
-0.025867708,-0.014460544,-0.04076698,0.048995312,0.020654554
-0.038683306,-0.012490123,-0.046985142,-0.042306166,0.010611002
