0.0046615154,-0.08599189,-0.09315108,-0.10568992,-0.0867481
-0.05690969,-0.00013278636,0.010397896,-0.12711959,-0.08940259
0.06403889,0.102544665,0.10872987,-0.0027937454,0.025432896
-0.053298146,-0.038764846,0.13065307,0.074077524,0.0016409346
-0.2792797,-0.2387389,-0.08487025,-0.17147703,-0.13265598
0.011076805,0.120189406,0.09824483,0.084743485,0.15237223
-0.079045676,-0.01060571,0.000516785,-0.07918487,-0.06338385
-0.14160843,0.10361786,0.13287635,0.10510231,0.10021573
-0.022528814,-0.032012474,-0.036452822,-0.15126798,0.04476514
-0.032245297,-0.06068883,-0.06654532,-0.09031501,-0.1476585
-0.11878374,-0.0049221227,-0.032088965,0.0022533445,0.053962544
-0.01920722,-0.08008485,-0.061696984,0.011170442,0.051603604
0.027983518,-0.13036662,-0.15782805,-0.10604929,-0.071048595
-0.14619127,-0.08822719,-0.10714931,-0.14621705,-0.14986904
-0.11108578,-0.052509416,-0.10311471,-0.03954449,-0.06352197
-0.14644355,-0.05241428,-0.07333956,0.045359626,-0.040091824
-0.015127326,0.050865058,-0.024203595,0.056265935,-0.11097872
-0.06403238,0.066403635,-0.07572401,-0.101052925,-0.07282227
-0.044741727,0.04119255,-0.049117588,-0.14740352,-0.18608816
-0.058938246,-0.030083459,-0.117372945,-0.06570256,-0.037123207
-0.03919242,-0.012464683,-0.056846943,-0.06528962,0.0073578465
0.017885894,-0.025148485,0.016989829,-0.04884538,0.00040331218
-0.05519674,-0.0052935923,-0.041630387,-0.076567136,-0.023624202
0.021678716,-0.0061825747,0.008491203,-0.026590372,0.046835575
-0.0024936153,0.0123872645,-0.016696788,0.00071396894,-0.0010644215
-0.029417519,-0.03247248,-0.010981817,0.042817816,0.0076152007
-0.037208535,-0.01772789,-0.034323517,-0.0017413308,0.0362253
-0.071422786,-0.044488654,-0.01684915,0.02540598,0.058072995
-0.019889485,-0.052708436,-0.051159997,-0.05858419,-0.040910795
0.03380501,-0.021988533,-0.024918832,-0.03560813,-0.04699982
-0.037520263,0.036466025,0.0088058775,-0.03426532,0.017010583
-0.006680806,0.027576955,0.03557315,-0.019164084,-0.0011840464
-0.03252991,-0.03615176,0.029710004,-0.034048997,0.02528816
-0.03758282,-0.049026355,0.041402962,-0.017234633,-0.0054319054
0.050741393,-0.025376245,-0.017870862,-0.02848629,-0.024833178
-0.026053296,0.04917477,0.00049626204,0.024632443,0.045286253
-0.08561795,0.026386866,-0.021309353,0.04136585,-0.013535502
-0.090698354,0.101881444,0.05617031,0.043724284,-0.018956533
-0.043271903,0.008282099,-0.06847222,-0.014747505,0.03637478
-0.028519174,-0.08558682,-0.04759497,-0.033813372,-0.07520813
-0.021570425,-0.15086922,-0.09306267,-0.0667917,-0.05058021
0.04517564,-0.08350444,-0.107050106,-0.08846996,-0.09610626
0.045539707,-0.031391375,-0.006804444,-0.011452996,0.08990292
0.040179417,0.13131416,0.13833463,0.08275315,0.0015144183
0.07066552,0.1618944,0.06178617,-0.019460166,-0.079570904
-0.003050148,-0.038035203,-0.041682992,-0.06480774,-0.14973645
-5.8678703e-05,-0.077097625,-0.08661475,-0.13703364,-0.07821463
0.0774873,0.09583772,-0.012065777,0.02949387,0.056025364
0.070487104,0.13987267,0.19034202,0.14456804,0.10251716
0.0029869014,0.2022042,0.10475546,-0.0041926024,-0.06639919
-0.07203772,-0.035564046,-0.040032096,-0.026703162,0.08520948
0.08167999,0.0073584244,-0.0036423875,-0.015598765,-0.0935326
-0.031883914,0.016325695,-0.052631833,-0.03789888,0.07747347
-0.01785075,-0.0506611,-0.057229184,-0.029175531,-0.009973446
0.0035357822,0.040466845,0.0018423221,-0.0564555,0.0022589436
-0.015620887,-0.042643107,-0.012922085,-0.024694132,0.024418045
-0.007010068,-0.026911546,-0.018322239,-0.009873525,0.034222163
0.004212286,-0.035175085,-0.011613333,0.041151326,-0.038279027
-0.016855914,0.03934882,-0.018212823,0.03359413,-0.02988191
0.033823542,0.030066427,-0.008401925,-0.041365314,-0.015969725
-0.047255103,0.058037646,0.032741167,0.039639127,0.20284592
-0.08259663,0.040051647,0.06892676,-0.108233504,-0.115671344
-0.08182481,-0.095625885,0.012754495,0.14599127,0.1877521
-0.06568216,-0.08552904,0.047769107,0.016655222,-0.049449727
-0.017258454,0.030011745,-0.047510732,-0.06408541,-0.06264059
0.0057268427,-0.033108685,0.03061102,-0.03967028,0.018181045
0.037019677,0.0056051197,0.023987943,0.0354865,0.020422209
-0.013431638,0.009723995,0.03617129,0.0104860775,-0.035541996
0.038914535,0.043339618,0.02595152,0.024312012,0.025214463
-0.027144453,-0.013382046,0.019329948,0.011390065,0.019004323
-0.00017052579,-0.07494445,-0.014759676,-0.05014522,-0.011189816
0.078576595,-0.058081504,0.016213201,-0.03746072,-0.0026839895
0.11324866,-0.0017497559,-0.020923825,-0.03028011,-0.1186621
0.060394213,-0.012653675,-0.050620258,-0.06682804,-0.07821609
-0.028623438,-0.096021466,-0.078706615,-0.049283657,-0.043540325
0.086321525,-0.015030489,-0.09196119,-0.041563485,-0.11885262
-0.034129053,0.07899263,-0.08032755,-0.03209767,-0.13070898
0.04440083,0.22433436,-0.024565967,-0.044204302,-0.09387146
-0.03517213,0.12125288,-0.041856024,-0.014345211,-0.02283752
-0.0521429,-0.0048705344,-0.024989972,-0.12768875,-0.071298055
-0.08697062,-0.032940675,0.009939814,-0.05992376,-0.11537332
0.076659605,0.003992435,0.014428366,-0.026978256,-0.108471945
0.12135489,0.016220368,-0.062027145,-0.16434315,-0.15944159
0.036801033,-0.08929236,-0.065560564,-0.14614959,-0.17426574
-0.10594466,-0.07460387,-0.10078496,-0.07099882,0.037781075
-0.06619908,0.07038711,0.008889187,0.044639573,0.041111927
-0.010039801,-0.010667105,-0.07487816,-0.061438978,-0.08596224
-0.06313301,0.020075085,0.021402854,0.07417294,0.08398067
-0.07747168,-0.074665114,-0.056714408,-0.088642985,-0.034876
-0.012956304,0.03448306,-0.027245594,0.018797556,-0.0013388469
-0.037570328,-0.035590705,0.105238184,0.120198764,0.007981017
-0.043393712,0.068194084,-0.048263013,-0.050836712,-0.065552734
-0.040016633,0.006681331,-0.08702654,-0.03817119,-0.047704425
-0.034155056,-0.045455754,-0.119424626,-0.06647829,-0.16188584
-0.0132344905,-0.054327317,-0.06465523,-0.106212206,-0.121944085
-0.022472724,-0.008208272,0.073494084,0.07524042,0.1255206
-0.044131897,0.0005294169,0.04262274,0.08620913,-0.027875489
-0.08729455,-0.083114035,-0.054628845,0.06106163,0.075628854
-0.089241154,-0.106274836,-0.109267026,-0.08356482,-0.10485329
-0.020312695,-0.121839024,-0.07066907,-0.13235684,-0.11441741
