0.04962066,-0.037513345,0.0016442067,0.009839421,0.006550405
-0.04875061,-0.030339193,-0.018742966,0.030651417,-0.036247946
-0.07982506,0.010511012,0.014502221,0.004213546,0.0027271262
-0.055890083,0.03376997,0.059188675,-0.020649299,-0.024491366
-0.011353454,0.058635794,0.049129296,0.03591331,-0.08593001
-0.088164024,-0.006665165,-0.01730385,-0.13613369,-0.018941533
-0.15170936,-0.11832234,-0.103528276,-0.10567873,-0.042780306
-0.07472264,0.03842119,-0.14162484,-0.114337526,-0.10380135
-0.009418373,-0.029744096,-0.10591127,-0.15407883,-0.20226721
0.10581965,0.082902856,-0.11736606,-0.14003132,-0.040989656
-0.03694349,-0.07796182,-0.13862576,-0.0544899,0.018048083
-0.10341616,-0.070218846,-0.15569,-0.04977745,0.019076183
-0.10631226,-0.04839925,-0.026122553,0.09069397,0.09342197
-0.050841633,-0.076407574,-0.033014864,0.03194374,-0.031024909
-0.009069539,0.049183782,-0.019207671,-0.013424952,-0.05324896
0.052532528,-0.11821676,-0.09107375,0.014040418,-0.017298443
0.124421306,0.010464754,-0.04805724,-0.028670624,0.046181757
0.08191977,0.06856483,-0.07815255,-0.03616419,0.10222321
0.0441474,0.05360735,0.04250887,0.008734873,0.11315958
-0.008145745,0.07229979,-0.01554512,-0.0048980108,-0.008061514
-0.082356304,-0.054092832,0.039451078,-0.081999704,-0.14987755
-0.02450378,-0.046330474,-0.049050048,-0.048018992,-0.2101233
-0.025018573,-0.05122756,-0.053780265,0.11096146,0.04839318
-0.013775551,-0.101881176,0.03630184,0.21430872,0.08050358
-0.014884011,-0.17363471,-0.04795451,0.118832044,0.07094961
0.12842631,-0.12568891,-0.1608771,-0.0856462,0.06280862
0.027323311,-0.12190285,-0.09644386,0.06843819,0.10389158
-0.11250097,-0.06866637,-0.056687336,0.04799808,0.040265612
-0.044293653,-0.029712392,-0.02533931,-0.06846343,0.010913788
-0.090250395,0.045855083,0.08943236,0.11372864,-0.02621781
-0.0007791828,0.071153864,0.033431903,0.020010453,-0.055416718
-0.05608463,-0.03274314,-0.01566239,0.042071495,-0.0047796736
-0.05000713,-0.060861636,0.006070224,-0.04523821,-0.089299604
-0.04326981,-0.07622434,-0.03246002,-0.053106412,-0.1118409
-0.10253855,-0.0950246,-0.02576393,-0.051668473,-0.15873948
0.11552439,-0.11056398,-0.21864277,-0.056390963,0.061511878
-0.0013445581,-0.16106342,-0.17073722,0.14330828,0.17203842
-0.07296164,-0.0662141,-0.046369568,0.033253577,-0.020813715
-0.09093629,-0.05012914,-0.14324431,-0.042676937,-0.023558397
-0.032247506,0.0642295,0.087089166,0.0600821,-0.032941904
-0.045834225,-0.03093276,0.053667635,-0.005077435,-0.014424505
0.11601045,-0.024788829,-0.04030173,-0.058063556,-0.07686288
0.013316504,-0.057262298,-0.031779747,-0.0777651,0.07859171
-0.042059753,0.1451961,-0.01638448,-0.05859478,0.022314055
0.047877915,0.12546448,-0.043139424,-0.103969105,0.013856696
-0.153902,-0.079518214,0.023241222,0.01062367,-0.16141666
-0.16433147,-0.15327367,-0.1003845,-0.12692373,-0.07454655
-0.17588586,-0.1749889,-0.08810393,-0.23120877,-0.1696921
0.11981118,-0.047561307,-0.18188599,-0.101173386,-0.11528964
0.15132502,-0.062025,-0.12398953,-0.14656655,-0.10202566
-0.035379447,0.015103825,-0.08979524,-0.014889099,0.009036573
-0.06668142,-0.10249028,4.5448032e-05,-0.056013554,0.006704936
-0.0762035,-0.1603895,-0.0061535398,-0.07309964,-0.06542554
0.017810851,-0.0341233,-0.06182177,-0.09293206,-0.11799228
0.03378669,-0.054494374,-0.0017054421,0.021112237,0.075257644
-0.017850008,0.0019113017,0.00415498,0.02050562,-0.07178621
0.11808493,0.047154807,-0.0728459,0.007016002,-0.057529505
0.01701742,0.015843343,-0.045180786,-0.0636166,-0.0033031923
0.03099431,-0.07329084,-0.025672778,0.008955315,-0.012625447
0.16914079,0.11779952,-0.07159296,-0.05032817,-0.015203904
-0.05078925,-0.016367286,-0.07559164,-0.02316905,-0.039858133
0.05109342,-0.025154484,-0.031665463,0.03980579,-0.020500228
-0.03794091,-0.03744558,-0.03168033,0.014598471,0.13117671
0.064932995,0.0021611287,0.004428257,0.09602188,0.08584904
0.108643726,-0.05269256,-0.06200575,0.09873657,0.1046143
-0.03273381,0.064486325,0.02343245,-0.013072741,0.0076916516
-0.025014581,0.021673644,-0.06556318,-0.03827207,0.009518513
-0.006510195,-0.059911218,-0.09696392,0.0275085,0.07825989
0.09659227,-0.05824165,-0.0746531,0.017358335,0.09158794
0.04930362,-0.07554175,-0.05965782,-0.06408898,0.10994677
-0.015402304,-0.030958144,-0.03424804,-0.033039305,-0.009206128
-0.09325815,-0.13104923,-0.07850244,-0.0067579392,0.052711826
-0.06751356,-0.047614444,0.007977287,0.007805228,-0.04399377
-0.08904469,-0.116415955,-0.053390697,-0.049936388,-0.03045862
0.022165088,0.00239151,0.0779508,0.047035716,-0.040743377
-0.055413757,-0.0822303,-0.085591696,0.010646688,0.050439116
-0.055812668,-0.01912539,-0.019039731,0.10516111,0.09379241
0.0045830365,-0.0056065274,-0.009904307,-0.0424669,0.032055
0.0025554486,0.045041032,-0.079015695,-0.066727065,0.05717956
0.074713975,0.08014211,0.056219526,0.0003520044,-0.030201249
-0.07431701,-0.107477136,-0.106436394,-0.0074338904,-0.0847384
0.05301237,-0.06668577,-0.0748926,-0.099273525,0.012754361
-0.026247052,-0.070733555,-0.04814779,-0.029039536,0.102548316
0.19348285,-0.070493795,-0.025019147,-0.04610837,0.07930538
0.09951486,-0.12198449,-0.07176338,-0.064059205,-0.06325672
0.16506803,-0.13834836,-0.08521711,-0.14747953,-0.04322411
0.124127,0.12756574,-0.110517554,-0.13246909,0.10381118
0.022142101,0.29064614,-0.032533646,-0.115187354,0.013680547
-0.20680954,0.14998199,-0.022139665,-0.1041948,-0.044718392
-0.15067433,0.041978702,0.16582546,-0.025928343,-0.067583114
0.020635217,-0.01144211,0.035326697,0.066054195,0.023561684
0.012828537,-0.06743721,-0.006925032,-0.04898012,-0.059017554
0.0018155396,0.041983176,-0.081812836,-0.053229395,0.029677618
-0.0103802085,0.14496191,-0.08307178,-0.047413826,-0.01835887
-0.045968175,0.09298122,-0.012985156,-0.07315339,-0.06779345
-0.08575803,0.01066948,-0.0044610705,-0.10934545,-0.046217952
0.02693554,-0.047821395,-0.02861317,-0.048020158,-0.057232585
-0.02623133,-0.01636865,0.0094552515,-0.109329015,0.05211996
0.030494094,0.04141122,-0.08437334,-0.04924542,-0.019041242
-0.053965166,-0.044769317,-0.0182453,-0.05887073,-0.03930278
