-0.025997795,0.042266354,-0.0018766627,0.00808209,0.04549903
-0.04135657,0.007362692,0.04604646,0.05476754,0.041407738
-0.025185313,0.05711158,0.016146172,0.0031959882,0.024050018
-0.004191256,0.09854553,0.10722936,-0.03640758,0.060836516
0.08490599,0.07790843,-0.043147225,0.040425807,0.012611375
-0.023252308,-0.06952927,-0.18402109,-0.20178428,0.0023685922
-0.09608657,0.179921,0.13068007,0.031705223,-0.097797245
0.0073363064,0.04770204,-0.066157095,-0.05691483,-0.06738651
-0.26590666,-0.0794803,0.14676349,0.06946421,-0.010017626
0.035948265,0.12283258,0.11259389,0.0849692,0.04867837
-0.058813058,-0.08372992,0.003556739,0.062116805,-0.010803619
-0.10566169,0.035976853,0.19824195,0.066886954,-0.07301383
0.05572411,0.03733396,0.030975522,-0.05540779,-0.026415912
-0.038821086,0.05309049,0.04232332,0.008602181,-0.007873367
0.078539304,0.020844365,0.055963952,0.0367093,0.038968332
0.026384223,0.07378448,-0.08085517,-0.024209173,-0.06263481
-0.031814188,-0.06752645,-0.015189683,0.05388025,0.046460077
0.012851241,-0.10698641,0.05277666,0.09378252,-0.0500248
0.06401305,0.08670244,0.018921852,-0.04562242,-0.12167693
0.02319417,-0.04028307,-0.02737323,0.017661572,-0.035590425
-0.03483974,-0.18193643,-0.21773568,-0.060803507,-0.1200699
-0.11365318,-0.30103767,-0.22938208,-0.023320528,-0.08579021
0.040257726,-0.26339206,-0.0854841,-0.11472415,-0.006709661
0.16417454,-0.13170104,-0.09272767,-0.083173916,0.014590406
-0.095152065,-0.16811037,-0.10995207,-0.051029734,0.05627186
0.01957734,-0.022506963,0.1264023,0.011650389,-0.07016342
0.0371157,-0.029376393,-0.040909294,-0.07453264,-0.04646629
-0.18225934,-0.11300249,-0.13473725,-0.090659,-0.057503123
-0.12074369,-0.08736417,0.03778448,-0.023283906,-0.01082774
-0.06882782,-0.13391204,-0.099781886,-0.04805105,-0.017264519
0.092329115,-0.011839986,-0.087751605,-0.10973943,-0.070274636
-0.1184424,-0.18381932,-0.0681008,-0.048847683,-0.02781635
-0.21286939,-0.214757,-0.11880598,-0.114184946,-0.041231357
0.25192133,-0.076494835,-0.1324433,-0.10771707,-0.0064582694
0.105330676,0.1225567,0.042469602,-0.042901974,0.051053192
-0.02844355,0.12058909,0.19742815,-0.043359816,-0.17138298
0.027514195,-0.0666034,-0.14994614,-0.16446769,-0.109410726
-0.14254738,-0.081244156,-0.14761053,-0.08525164,0.0060244086
-0.101402424,-0.1262813,-0.0042548096,-0.08150514,-0.057442725
-0.18479568,-0.10210547,-0.11430319,-0.04067165,-0.08515034
-0.056427706,-0.06420171,-0.13167602,0.044831555,-0.07921338
-0.071960606,-0.2039571,-0.15836364,0.13234524,0.09174336
-0.071006715,-0.0133512225,-0.10919162,0.20062509,-0.020357013
0.044398967,-0.027079197,-0.028531615,0.123063,-0.028951561
-0.08736766,-0.07794445,-0.1236403,0.0032761267,-0.0636794
0.09163239,0.03219585,-0.06815626,-0.109288424,-0.16116002
-0.21422817,-0.2372689,-0.08166654,0.046238538,-0.057487912
0.053817105,-0.037444253,0.14941894,0.07981168,-0.12546223
0.23260856,-0.008138854,-0.116048105,0.005956555,-0.087760516
-0.13532732,0.022280157,0.020439724,-0.09582095,-0.006016758
-0.058869958,-0.08929124,0.09330261,-0.014848008,-0.025533462
0.024130818,0.09767324,-0.040249754,-0.103300154,-0.069189295
0.06328699,-0.088508986,0.08569074,-0.014589782,-0.012301572
0.043500632,0.047781546,0.031015681,-0.024824928,-0.067411706
-0.07193856,-0.05730348,-0.048815895,-0.06255857,-0.04858423
-0.011894925,-0.00497749,-0.049585853,-0.017341252,0.012744311
-0.07356302,-0.115261406,0.012901664,0.09693153,0.073256075
0.18719158,0.22399239,-0.097032756,-0.061369367,-0.06906593
0.028243152,0.01582488,-0.019436264,-0.0910768,-0.026632385
-0.06278315,-0.109907694,-0.108060606,-0.09954064,-0.0028146133
0.08843724,0.06429986,-0.03963097,-0.048973016,-0.035530098
-0.011202675,-0.088486046,-0.07872108,-0.046341248,-0.03234032
-0.033493515,-0.027329044,0.012794358,0.071976826,-0.015171016
0.30018222,0.16160679,-0.04829344,0.0003954398,-0.0013300538
0.011675877,-0.0717753,-0.029654512,-0.05221524,-0.008802973
-0.05658929,-0.024511306,-0.08820653,-0.11853276,0.051780336
-0.034983892,0.04448196,-0.08163658,-0.055094626,-0.015555364
0.22691885,0.09343581,-0.08117578,0.02737795,-0.05178549
0.01600591,-0.007628341,0.011243919,0.047265667,-0.0013546031
-0.09939803,-0.121144935,-0.041006304,-0.004309456,-0.08540696
0.044032753,0.11278467,0.20182134,0.006535091,-0.08832834
-0.08858025,-0.09857023,-0.10243249,-0.108974844,-0.01679119
-0.17491151,-0.028733788,0.047156967,-0.011780129,0.016854897
0.11096834,0.02745943,0.060998727,0.025983538,-0.008507367
-0.059552014,-0.0740687,-0.0014473217,-0.112335935,-0.04508595
0.062411148,0.1548323,0.027289035,-0.08844894,-0.0473377
-0.074155584,-0.15671086,-0.04953242,0.07409116,-0.0003815912
-0.068894096,0.0904017,0.031307522,0.08192643,-0.043170016
0.009363122,-0.0006565693,-0.01701309,-0.034968685,-0.05569395
-0.047371794,-0.09880686,-0.10785779,-0.042244222,-0.057691086
-0.031407297,-0.059590716,-0.05284504,-0.039213303,-0.0037087821
-0.11474026,-0.18633062,0.17466772,0.12757577,0.06805939
0.14953071,-0.008344773,0.019270496,0.04475462,-0.09865804
0.015741954,0.086411096,-0.12474577,-0.055860415,-0.012085855
-0.054085437,0.008126532,-0.088262774,-0.13232309,-0.08208551
-0.05958571,0.004293784,0.0047065127,0.08492976,0.04785845
-0.06488583,-0.32921752,-0.03958755,0.27021158,0.023972128
-0.18099329,-0.03611553,-0.1495123,0.030641735,0.03684469
0.034261737,0.2164779,0.030371862,-0.003795835,0.03299232
0.058616694,-0.025050996,-0.25823107,-0.057738323,-0.05225286
-0.12266873,-0.08801917,-0.1531296,-0.073102266,-0.014152855
-0.121388786,-0.18655588,-0.2244203,-0.0012572662,0.07261476
-0.028812489,-0.04898363,-0.01933042,0.18256548,-0.01601763
-0.08799092,-0.07417985,-0.06752051,0.04938582,-0.030461023
-0.12973772,-0.095510885,-0.042989213,-0.004806333,-0.01573281
-0.05575296,0.020095889,-0.06298018,0.032452457,0.02068932
0.07161676,0.009045666,0.12709175,0.054915227,-0.06781928
-0.048173234,0.034694068,-0.0055900137,-0.0053347778,-0.07601651
-0.12265187,-0.06519451,0.006834004,0.004999806,-0.019971393
-0.019023782,0.09883279,0.093806624,0.037478365,-0.007647114
