0.04317074,0.010155858,-0.033903074,-0.046356868,0.02553282
0.010474856,0.007891048,-0.021804484,-0.026937857,-0.0059718424
0.04081817,-0.03376425,-0.001826068,0.029875163,-0.036312215
-0.009889303,0.030419035,-0.009317661,0.002092376,-0.049799424
-0.015598557,0.02929022,0.035139326,-0.00023631171,0.016926756
-0.010362331,-0.04498545,-0.01564203,-0.012743164,0.011701506
-0.030620381,-0.028284533,0.007691179,0.027898794,-0.0206706
-0.040446214,-0.037884396,0.037837815,-0.015703006,0.02032371
-0.009886323,-0.030778809,0.03997114,-0.025404397,-0.046323717
0.0005883547,-0.0047981213,-0.025502138,-0.00986258,0.03254291
-0.03804825,-0.03630519,-0.0007773052,0.009395485,0.02868004
0.029525379,-0.008742806,0.029237852,0.015214899,-0.010455233
-0.022162251,0.008324714,0.005888229,-0.014915989,0.003975069
-0.008137706,-0.029145362,-0.013660253,0.0015056612,0.01630906
-0.045322113,-0.02501626,-0.009676279,0.023599273,0.038857143
-0.03100716,-0.041741636,0.022305481,0.03467654,-0.027199283
-0.041171577,0.010962348,0.013039335,-0.026653623,-0.015560662
-0.0035875563,-0.015398184,0.018130913,0.02929986,0.05441579
0.03902244,-0.008454014,0.0505373,0.02099332,0.06873977
-0.021668239,0.011864524,-0.047267877,-0.039274696,0.02578175
-0.02946977,-0.017041571,-0.035328355,0.02096406,0.021955641
0.02065896,-0.014130922,0.0047668926,-0.030931422,0.011195306
0.033438083,0.013652877,0.009292204,-0.019096725,-0.013250619
-0.009812601,0.005168214,0.027397024,-0.015027581,-0.033364706
0.027137857,-0.012232181,0.0032666281,-0.01802046,-0.027247265
0.026872128,0.04530046,-0.031146115,0.017378021,-0.0045493376
-0.027600653,-0.026184168,-0.015739469,-0.0006335684,-0.002554086
-0.038771324,-0.035881825,0.016664714,-0.008863156,-0.024501806
0.0023853744,-0.03214737,0.017685741,-0.025052154,-0.055674788
-0.018182471,0.0044362107,0.029315932,0.0050795977,-0.041653764
-0.049681723,0.01928172,0.03060983,-0.051869407,-0.015876906
-0.03022186,-0.028026067,0.028767826,-0.0442434,-0.039480664
0.038965266,0.022254443,0.053100705,0.06497982,0.08047568
0.0027863528,-0.0036241151,-0.053643696,-0.047827214,-0.011113121
-0.055425216,-0.021120958,-0.032985415,0.019555729,-0.025223734
0.028936643,-0.017483821,0.01992916,-0.025332676,-0.052740425
0.04632771,0.0062770927,-0.033340085,0.018659702,0.005920504
0.043864246,0.03675846,-0.0112367505,0.023982514,-0.008187072
-0.033134207,-0.006061128,0.034423467,-0.012421262,0.029423071
-0.032452296,-0.020458782,-0.029497258,0.0130407475,-0.030397305
-0.020832043,0.028099477,-0.032368403,0.007901789,-0.04360637
0.022175875,-0.025004841,-0.032298565,-0.05348228,-0.05480288
0.027628537,0.002226139,-0.044328157,0.0072851274,0.007013176
0.015830237,0.019130714,0.00766459,-0.058882702,-0.03870129
-0.04475589,0.029828323,0.023233902,-0.012582522,-0.032310102
-0.019235238,-0.015458828,-0.037881535,0.004266305,-0.0063230265
0.036621213,0.0522828,0.05609911,-0.053291563,-6.355778e-05
0.0022247727,0.0580725,-0.034742888,0.025919247,-0.037541978
-0.0352415,-0.02477628,-0.015043532,0.008000989,-0.034066685
-0.02535151,-0.062454637,0.015333706,-0.06735628,0.04519579
0.03376844,-0.025022037,-0.041189853,0.03543176,-0.048916046
-0.036915667,-0.018931154,-0.03806509,-0.035167944,-0.0185836
0.028167745,-0.042600803,0.006512665,-0.02522087,0.008169828
-0.05044104,0.014496509,-0.013660459,-0.02283259,-0.043013204
-0.026704986,-0.04327056,0.020118201,0.020387795,-0.013970724
-0.025408454,-0.030529285,-0.052915342,0.009055545,0.0356762
-0.02037304,-0.020629905,-0.033267114,0.0015219958,0.026152324
0.04463293,-0.03625077,0.055892874,0.010882534,-0.019009124
-0.010471609,0.016833568,0.007322413,-0.0042669945,0.07200364
0.018365506,-0.021937318,0.02609937,0.035823133,-0.0042396444
-0.026079563,-0.034217793,-0.020730099,-0.03757465,0.029955357
0.031097729,-0.047764134,-0.013827779,0.0051493226,-0.0142979575
-0.009478337,0.018579973,-0.014449134,0.0042887623,0.031642642
0.04965401,0.010413819,0.041957825,0.038666952,-0.002471377
0.043195598,-0.04054938,-0.021628145,0.032926586,0.037862882
0.039249685,0.0013332348,0.031729326,-0.0560498,-0.03025061
0.018234797,0.0061770105,-0.01844962,0.03839731,-0.037079196
0.009945519,0.036319602,0.045341976,0.05650677,-0.0064561972
-0.006821834,0.022766264,0.018019438,0.011650943,0.0018054636
0.0100523755,-0.030183354,-0.004264415,-0.053952493,-0.057280857
0.002218714,-0.032527115,-0.021461738,-0.034416478,0.04337029
-0.011366484,0.018453585,-0.014638538,-0.008460961,0.024753084
-0.029233843,0.013984178,-0.02499565,0.040999316,-0.0021627015
-0.0048980727,0.005617891,0.0073312297,0.011595073,0.021226184
-0.005692009,-0.01528214,-0.02084494,-0.030746708,-0.009767319
-0.020865185,-0.03076734,0.013208576,-0.024894249,-0.032102633
0.035802774,0.038651135,-0.047739614,-0.019306995,-0.023444716
0.03512587,-0.058035087,-0.038276915,-0.012227083,-0.023660164
-0.019352905,0.026300745,0.016805647,0.002185378,-0.019806877
-0.01113484,0.034672037,-0.01657562,-0.017037999,-0.005303113
0.0057548783,0.02593424,0.020307722,-0.031188035,0.022969443
0.05021665,-0.030618696,-0.0066161253,0.008177653,-0.036741093
-0.0053448775,0.021807795,0.021730201,-0.01210941,0.049974475
-0.008609578,0.0014192687,0.025468715,-0.0073048486,-0.0013199332
-0.046766903,-0.023847478,0.03271572,0.043288983,0.042345267
-0.03107863,-0.011323544,-0.08018088,-0.03624439,0.029461784
-0.005234952,-0.007526452,0.002826265,-0.0020345652,-0.015966166
-0.04828914,0.03810065,0.00027880675,0.010823587,-0.05487955
-0.0055540437,0.093253896,0.062402204,0.06400957,0.08184282
-0.011582193,-0.0020565002,0.032137945,0.025802216,0.026703706
-0.041344143,-0.043693464,0.009474408,-0.0014250091,-0.0035832655
-0.045279607,0.038713064,0.020173853,0.027030919,-0.069314435
-0.043396447,0.002755058,-0.000753786,-0.024524292,0.0070750085
-0.00020589553,0.044226494,-0.023763545,0.0019709137,0.019180711
-0.031594113,-0.028007928,-0.025553454,-0.04138995,0.039593816
0.014532729,-0.029410759,0.009896926,-0.024786724,-0.03316336
-0.027202694,0.018264817,0.037376795,-0.0067857564,-0.022371968
-0.008011573,0.0062617376,-0.026013467,0.007342785,-0.03369383
0.030122558,-0.014585638,0.025113398,-0.024450121,0.03405056
0.021894325,0.041093834,-0.028171932,0.02305381,0.013223112
