-0.028160084,-0.06488956,-0.032915026,-0.0051489393,-0.049046643
-0.0075674853,-0.005025979,-0.040981952,-0.023074841,-0.0026286459
0.01736737,0.071870506,0.086469494,0.054266594,0.043682538
-0.010977478,0.030750262,0.027090784,0.025830483,-0.026449176
-0.012821404,-0.04881985,-0.029336754,-0.0021385453,-0.061205786
-0.009571846,0.03794625,0.04184355,-0.027458005,-0.06679904
-0.028609883,0.014457085,0.022119777,-0.026193691,-0.044678673
0.018767018,0.021347828,-0.021183627,-0.07217689,-0.107373945
0.010706012,-0.046429228,-0.0010288525,-0.021852247,-0.062963136
-0.013861723,-0.081848934,-0.033799417,-0.055569522,-0.035070922
0.11269382,0.023724204,-0.055711884,0.01680252,-0.019626347
0.050663106,0.004213134,-0.0031567856,-2.9592502e-05,-0.093321346
0.045448374,-0.00012464928,-0.01256623,-0.049834237,-0.069964685
-0.079047054,-0.04175283,-0.019727562,-0.094830185,-0.047056586
-0.038271114,-0.082256675,-0.06967799,-0.06137087,-0.08900294
-0.05683007,-0.038770087,-0.049454425,-0.0053643645,-0.016311556
-0.046553254,0.028028348,0.0019459748,0.011707649,0.013638589
-0.072349705,-0.05653724,-0.026752492,0.0017294445,-0.032706264
0.00662195,0.02702304,0.05132686,0.030976849,0.015066396
-0.009441972,0.005024494,0.056565847,0.0027976648,-0.00732219
-0.011292722,0.0074244523,-0.046512194,-0.053578068,0.00065576646
-0.01721821,0.00052077527,-0.066820495,-0.032142878,0.014337712
-0.07001194,-0.07210427,-0.053951014,-0.039148554,-0.020492205
-0.0470003,-0.0052629365,0.016949302,0.030057572,-0.009316834
0.030210422,0.019859591,0.006462612,0.028481975,-0.008899475
0.04097138,0.062575,-0.022120483,-0.022877187,-0.024146535
0.0534462,0.019811621,-0.053560708,-0.0054210816,-0.02009879
0.062040225,1.549095e-05,-0.04845275,-0.008673904,-0.09600949
-0.01480457,0.021870278,-0.002596755,-0.05949982,-0.06616719
-0.10463437,-0.124632,-0.059967116,-0.06295442,-0.09500769
-0.06849766,-0.099617295,-0.13000624,-0.09983724,-0.078515075
-0.06854155,-0.112966895,-0.098794684,-0.14578156,-0.032750454
0.034712918,0.04903498,0.014931373,0.079401515,0.102543846
0.15342706,0.19663717,0.22826241,0.099164,0.10363628
-0.006912921,-0.034336887,0.020787466,-0.0221396,-0.022162078
-0.021753887,0.0016335184,-0.03808548,-0.03548807,0.0066902665
0.02991195,0.019785577,0.022899382,-0.0063628918,0.035170194
-0.014480023,0.031594496,0.053681117,0.023717199,0.00307089
-0.051813446,0.021049682,-0.03109338,-0.07108053,-0.021624468
-0.02809531,0.05017544,-0.030706154,-0.015608335,-0.00093518605
-0.010322117,-0.019644337,0.00677758,0.040338375,0.07676927
-0.0395125,-0.068499476,0.0047689457,0.036941644,0.07358663
-0.03811091,0.033531476,0.023804035,0.05063551,0.10264757
-0.06462576,-0.03344574,0.025015885,-0.01737072,-0.021230655
-0.13381667,-0.06982748,-0.027941955,-0.04122456,-0.11392598
0.0048797107,-0.043501623,-0.044903617,-0.052951302,0.014329071
-0.09795326,-0.0809103,-0.11788945,-0.1108381,-0.0001868382
-0.019888459,-0.017670242,-0.032967396,0.021564426,0.10391419
0.059821054,0.040706754,0.061496943,0.14980352,0.15744226
-0.006540304,0.04283827,0.04538884,0.087010615,0.06232203
-0.00086369214,-0.041532323,-0.07083712,-0.05520392,-0.03683687
-0.0904269,-0.106675714,-0.07214814,-0.05140568,-0.044626065
0.08303852,0.038570963,0.035540655,0.047050897,0.09284662
0.07489449,0.15329102,0.16199207,0.078190535,-0.03203582
-0.041988954,-0.042461526,-0.03986092,-0.099881984,-0.058429975
-0.02397765,-0.0153587265,0.047859207,0.058284972,0.050093245
0.016139507,-0.06542325,0.05977305,0.03711985,0.027585471
-0.08227912,-0.05250825,0.0133305965,-0.054826528,-0.004904145
-0.009234784,0.067055486,0.0028670325,-0.010044459,-0.016729005
0.04986169,0.029575944,0.06102785,0.034473,-0.0025247508
0.041582905,-0.032255176,-0.017804984,0.059880808,-0.029118188
0.025116613,0.031516466,0.006666179,-0.021242078,-0.06797439
-0.02223887,-0.051540807,-0.07399583,-0.054053307,-0.0373602
0.021287207,0.00722265,-0.020349529,-0.06969219,-0.03676847
-0.05947062,-0.012078333,0.04655114,-0.00979015,-0.022762537
-0.06387553,-0.05844617,-0.027634498,-0.05721954,-0.010142235
-0.061940946,-0.0021627885,-0.026735527,-0.037926618,-0.037473556
0.027548399,0.013800063,0.023819452,-0.023332126,-0.01317729
0.11256854,0.114693336,0.09893934,0.018004257,0.014505743
-0.04405857,-0.013800451,0.04304918,-0.037198085,-0.02057872
-0.03190776,0.008446913,0.0339434,-0.033070453,0.056906868
0.020354323,0.028860465,-0.012999068,0.017903477,0.059957318
-0.0093773315,-0.114330664,-0.10756953,0.0047084223,-0.026679758
-0.04800321,-0.089065485,-0.06516979,-0.06675837,-0.04106959
0.0070030186,-0.016000474,-0.0038997752,-0.021549111,0.006099933
0.037840582,0.041316573,0.05037735,-0.01132357,-0.054114763
-0.024769433,0.036344923,0.09053422,0.050442424,0.0034513164
-0.0337529,0.04255266,0.059637588,-0.07488002,-0.0045562475
-0.007190569,-0.056975476,-0.080540024,-0.062475223,-0.117038764
-0.012994164,-0.000575065,-0.040607717,-0.030687638,-0.058300972
0.019227095,-0.105979316,-0.066442624,-0.07109581,-0.039208308
-0.08014021,-0.08536788,-0.084599495,-0.012300325,0.018015306
-0.08246234,-0.039986372,0.04136116,0.0916951,0.11578454
-0.012402095,0.01516895,0.076391675,0.06711947,0.06767679
-0.03476086,-0.08216078,-0.10095316,-0.05163327,-0.05061807
-0.0053408896,-0.04100828,-0.075649135,-0.02714566,0.058807082
0.04420576,0.04663649,-0.00019568845,0.05348452,0.0038894343
-0.18928751,-0.18848564,-0.0650188,-0.049159795,-0.024191253
-0.023427613,-0.018085022,0.014583224,0.021323692,0.079176605
0.011882368,0.05557353,0.1177736,0.10353504,0.05286438
0.0251401,0.026532402,0.012006548,0.053144738,-0.046714727
0.019041048,-0.006995077,-0.018151365,0.027540728,-0.021350905
-0.040475227,-0.09905037,-0.05877578,-0.08073516,-0.020038754
-0.063486814,-0.056283426,-0.056959815,0.014224216,-0.009688244
-0.002944673,-0.02694214,-0.026476653,-0.043849997,-0.08137125
0.042224385,-0.0045267805,-0.020667272,-0.06560326,-0.004532638
0.004581241,0.02364431,-0.041982427,0.013280504,-0.08480761
0.032801505,0.07999789,0.03423421,-0.044803802,-0.009416061
0.004016351,0.002852664,0.020344757,-0.019961206,0.0024627491
0.01445082,-0.064392686,-0.027150832,-0.06769389,-0.023964161
