-0.056422822,0.010406356,0.012967839,-0.03159316,-0.06057174
-0.08539521,-0.029854484,-0.1981256,0.06374974,0.087560676
-0.10447056,-0.09813794,0.04445852,0.14545365,0.061031923
-0.08301537,0.15836695,0.10548499,0.02786612,-0.11212697
0.07665849,0.070377916,-0.079848744,-0.1230933,-0.08563199
0.0040276665,-0.10507366,-0.037302837,0.0684844,-0.004211691
-0.13382085,-0.020662708,-0.0039380174,0.03111074,0.009683543
0.025069837,0.06505163,-0.0046545225,0.06093814,-0.047989663
0.03415605,-0.020085726,-0.0659137,-0.10672161,-0.055471357
-0.06591112,-0.012259011,-0.008968594,-0.08680682,-0.12207811
0.04490773,-0.011361072,-0.05614324,-0.08085409,-0.015234259
-0.02167686,-0.040280264,-0.087284826,0.07924694,0.18386897
-0.10995516,-0.09138712,0.11656164,0.15282229,0.029161029
-0.0073068156,0.14994963,0.08447214,-0.08750452,-0.095738046
0.04758271,0.035792395,-0.09885932,-0.024787666,0.06686801
0.06289677,-0.013040314,-0.14234783,-0.052432835,-0.029872391
0.03726665,-0.077900894,-0.05438799,0.021832053,7.5611e-05
-0.059984647,0.03541745,0.12296217,0.09020235,-0.086555876
0.06546445,0.054783583,0.0064564883,-0.110084035,-0.018403871
0.03752268,-0.03696533,-0.15414943,-0.026913665,-0.014069013
-0.035233926,-0.021642543,0.016535338,0.0061171628,0.011323724
-0.012915398,-0.038296476,-0.03309039,-0.023138462,0.008764953
-0.024289193,-0.013688212,-0.030582106,0.009797251,0.0019327324
-0.080753356,-0.043340664,-0.03308539,-0.04537822,-0.029232237
-0.026443146,-0.024761721,-0.023274563,-0.023235913,-0.020150846
0.03694808,0.0017441662,-0.0687952,0.036651254,0.02918966
0.007283462,-0.04994233,0.06317582,0.06457738,-0.050417908
-0.03398109,0.06694543,0.055033658,-0.054148205,-0.038186274
0.0053265933,0.05252002,-0.086352386,-0.06887453,0.034880824
-0.006295625,-0.115857296,-0.029750282,0.031409755,-0.015315314
-0.0136042405,-0.011553933,0.007227067,0.05025655,-0.004795865
0.043766093,-0.02632555,0.032643396,-0.0019457757,-0.018882047
0.032569785,0.043224446,-0.009922438,-0.039500583,-0.01584741
-0.0010942314,-0.030679049,-0.0382511,-0.009253431,-0.0015401581
0.017161915,-0.019164648,-0.011201381,0.016558945,0.01998081
0.04865846,-0.07404453,-0.047561947,0.011704425,-0.0526986
-0.013999099,-0.026131863,0.07058533,0.045288384,-0.043050352
-0.0020111832,0.036080208,-0.05649785,0.06329198,-0.0053191045
0.022922598,0.0405978,-0.027475005,-0.029308131,-0.069618896
-0.05242121,0.057838637,0.011501161,-0.026416974,-0.0043051806
-0.017007485,0.016284587,0.020735417,0.0022840512,0.04363016
0.05482095,-0.03794199,-0.018302044,0.022349525,-0.0035423809
-0.014314176,0.0066094096,0.0016167344,-0.023526467,-0.027460238
-0.0076936223,0.018780796,-0.030196967,-0.008407919,-0.003258416
0.06735744,0.040415652,-0.01303439,-0.0033906167,0.06071806
-0.014099098,-0.009519454,0.07037263,0.0041144113,-0.062628545
0.05196839,0.028605903,0.038700357,-0.05674447,-0.050190598
0.02877245,-0.015846845,-0.031616382,0.12702493,0.040254757
-0.051695254,-0.0038774426,0.10312336,0.053662274,0.035709027
0.013807692,0.060110338,0.055285417,-0.022674352,0.03709717
-0.014217049,-0.03333115,0.003109061,-0.0072351336,-0.032852963
-0.056691047,-0.04331256,-0.02092147,0.040488005,-0.012409265
-0.030240463,-0.00395313,0.023857124,0.05298557,-0.07947773
0.027109034,0.018769573,-0.013393894,-0.08570391,0.011844821
0.043457866,-0.0374639,-0.07478748,0.046839677,-0.0059124776
0.01273942,0.024649547,-0.02550788,0.017205914,0.040046357
0.018682199,-0.0019903774,-0.041777026,-0.016312229,-0.02996172
0.0436156,-0.0081396885,-0.014606119,-0.044749845,-0.03805003
-0.016091155,0.017160317,-0.007133271,0.0234788,0.043495186
-0.02766683,0.014135843,0.0031719494,-0.03965102,-0.009036234
-0.017831907,-0.0184663,-0.10481616,0.061755158,0.010871122
-0.09893321,-0.07887111,0.05598326,0.02741241,0.06336623
0.0046247845,0.12664652,0.025707638,-0.023890074,-0.010086405
0.06804535,-0.051564645,-0.100815065,-0.089549445,0.023627732
0.051227253,-0.07627328,0.03692372,0.007909306,-0.060418162
0.019476708,0.0023971712,0.025933823,0.021677243,0.030117186
0.040741768,-0.016725041,0.013898966,0.017314302,-0.03536691
-0.03869734,-0.010299125,0.019938828,0.03411431,-0.0175367
-0.018473106,-0.039649032,0.026830912,-0.021759119,0.015077969
0.016187312,-0.0034732448,0.03959851,0.0316348,-0.007835313
-0.010101925,0.0029537105,-0.07391543,-0.10136193,0.03017337
-0.041222136,-0.005702538,-0.060844433,-0.020413714,0.048658665
-0.028209096,-0.043622978,-0.08461322,-0.036170535,0.10800431
-0.061076768,-0.053705577,0.054655466,0.088973925,-0.027596865
0.043121308,0.09651135,0.055256758,-0.051392872,0.004220387
0.018515449,0.0046108803,-0.022052601,0.06647315,-0.049497854
-0.019180099,0.0038853257,0.023584032,-0.005588212,-0.103050284
0.052096892,-0.041113377,-0.042538755,0.054177962,-0.05152444
-0.01588288,-0.010442718,0.005544762,0.047337282,-0.046337824
0.014107504,-0.0035612038,-0.03198235,-0.052913677,-0.03325997
-0.03832186,-0.12937492,-0.012714613,0.015342812,-0.07730881
-0.041323915,-0.06642744,0.0068440395,-0.041597698,-0.094018325
0.019376826,-0.031089751,-0.05215959,-0.08839918,-0.029017445
0.015258082,-0.0006368504,-0.13169496,-0.0051375325,-0.052137844
-0.0110046845,-0.096131735,-0.05361454,-0.059444673,-0.025464857
0.012285728,-0.028994804,-0.06936509,0.04623781,-0.01085413
-0.047750007,0.04358585,0.1144828,0.07857072,-0.040426612
0.056856975,0.0754259,0.072746195,-0.054511137,-0.024886968
0.054746743,-0.04194117,-0.11882331,-0.049252078,-0.02177404
0.0032534604,-0.050851263,0.03088364,0.013636444,-0.0020507951
0.028794652,-0.0875358,-0.11438629,-0.036384962,-0.0123979105
-0.09729324,-0.05900645,0.1491138,0.16070873,-0.011324942
-0.010055667,0.098790884,0.111677326,-0.05289273,-0.094967395
0.104164116,-0.026346214,-0.12390617,-0.05542992,-0.040073466
-0.01727347,-0.13816744,-0.09671264,-0.061008096,-0.053317998
-0.030886622,0.031913936,-0.0781006,-0.10496417,-0.025011556
-0.002643078,-0.11446863,0.1446114,0.19647236,0.048098184
-0.070640646,0.26072168,0.24057445,-0.014478851,-0.102571525
0.14962737,0.17273252,-0.043977123,-0.042100668,0.0034651656
0.0047256188,-0.15373082,-0.06136125,-0.012028801,-0.037507195
