0.007779112,-0.021940883,0.034704596,0.034233876,-0.019702438
0.0005673925,0.016226392,0.06080612,-0.0023060048,-0.00834416
0.0329816,0.028671013,-0.014758505,0.00065913284,-0.009195555
-0.006181089,0.008591717,0.0135746645,-0.040461134,0.0057426533
0.026804164,0.017682841,0.017407913,0.019218072,0.066062726
-0.054790173,-0.011785909,0.055457745,0.017253071,0.022286024
-0.041859932,-0.014536404,0.02313584,-0.009770802,0.03241878
-0.018077612,0.02844366,0.049520854,0.021007668,-0.027455978
-0.017538778,0.061207972,-0.0456309,-0.042114094,-0.0122888675
0.031545315,0.01002474,-0.012741001,0.025595684,0.028211262
-0.013530049,-0.020660413,-0.007500732,-0.021369094,0.013182028
-0.004410671,-0.01662914,-0.026983235,0.011243445,0.027016962
0.004255642,-0.00095390296,0.0109369615,-0.051635917,0.04906513
0.026458837,0.035040047,0.028865965,-0.05223563,-0.013694721
-0.005970374,0.040168606,0.025907572,0.023244683,0.016423909
0.0013590773,-0.00339095,-0.02241724,-0.0012290417,-0.02213518
0.037117936,-0.011596429,0.012924224,-0.0527516,0.035804402
-0.04291375,-0.01417244,0.03152244,-0.0370179,-0.043789793
0.05553258,0.055602398,-0.02876647,-0.06786407,-0.02023921
0.040457133,-0.05139004,0.029641211,-0.016706157,0.006496658
-0.020253919,-0.037426177,-0.0052515427,0.028266545,0.009304596
-0.010566484,0.029846326,0.021314837,-0.04413993,-0.05511178
0.039596442,0.0068079303,-0.014430112,-0.04302811,-0.012129124
-0.027691165,-0.033310615,0.006054131,0.016409922,0.0033403633
0.025490869,0.025405029,-0.022108056,-0.0070421123,0.038762346
-0.001158853,0.021257857,-0.0040360577,0.020051884,-0.018829655
-0.026077885,0.053172857,0.056678154,-0.024602205,-0.06125375
-0.007108087,-0.002658599,-0.03664372,0.038706142,0.015136218
-0.0021143768,0.028973084,0.032749742,-0.01689941,0.037362874
0.018211542,0.037109047,-0.059439067,0.014053514,0.018865062
-0.002445548,-0.037364203,-0.091288954,-0.07640352,-0.0003685317
0.008153748,0.009907232,-0.022456456,0.011368824,0.01620354
-0.009398869,0.05531592,0.086176306,-0.04664525,-0.012195156
-0.019331543,-0.05991498,-0.021770868,-0.018231,-0.07268141
-0.017244693,-0.069108285,-0.041775223,-0.018023841,0.02356363
-0.020425318,-0.03691098,0.010938232,-0.021595828,-0.01879618
0.006139783,0.029525785,-0.039368153,0.02416557,0.044900637
-0.03694003,0.041766264,-0.02529421,0.011757365,-0.010341754
-0.03691397,-0.03612061,-0.009069671,0.045962866,0.010144568
-0.0034518635,0.022082118,0.024233319,-0.046544287,-0.010355908
-0.05227264,0.018350134,-0.033913925,0.027681367,0.0031309617
-0.052516975,-0.03633904,0.0129793435,-0.00043752656,-0.011868438
-0.051716153,-0.07079348,-0.0040063704,-0.055951294,-0.033258185
-0.014420954,-0.05726735,0.018922523,-0.025975503,-0.0004916214
-0.054505188,-0.015235211,0.02274057,0.0043716975,0.030225204
0.0365633,-0.029899186,-0.047912385,-0.062381163,-0.060633983
-0.015491623,0.012143102,-0.044443935,-0.020988697,-0.036575317
-0.043310598,0.0027946178,-0.046132427,0.0017045802,-0.018573305
-0.0063274787,0.017541157,-0.034163613,0.0043271133,0.007550931
0.0034703277,-0.0053399988,-0.034676965,0.027161006,0.009264659
-0.038539656,-0.028175311,-0.010735564,-0.040283006,-0.031177267
-0.021106277,-0.027984146,0.0051438035,-0.027021255,0.021807944
-0.042765684,0.032309,0.013795115,0.06233931,-0.031606305
-0.0075571276,-0.058277957,-0.043522794,0.012384839,0.022400476
-0.019540606,0.035843194,0.062282827,0.06105275,-0.002523296
0.0150684435,-0.06591588,-0.029866483,0.04408666,-0.014579558
0.0051458,-0.030396383,-0.028500468,0.008285324,0.045334924
-0.035226252,0.009022876,-0.0095637115,-0.017603617,-0.021560224
0.0075772656,0.05098087,0.03601966,-0.05075703,-0.0012310987
-0.012811191,0.020711185,-0.05250023,-0.044055764,0.004251135
-0.0251114,-0.036791913,-0.01883163,-0.0022564055,0.021296663
-0.010584369,0.031968985,-0.017375568,-0.024869045,0.039750412
-0.028401062,0.037774988,-0.0027991198,0.006365568,-0.029126145
0.014565087,0.037993874,-0.004512274,0.034580413,-0.032229695
-0.039704535,-0.014862943,0.024728099,-0.024749413,0.0043385043
0.014210812,-0.052881833,-0.030363895,0.0045398814,0.02101026
-0.03126517,0.034565356,0.0019685363,-0.048732016,-0.019220868
0.01198169,0.039748378,0.044938695,-0.030574547,-0.045595735
-0.015521825,-0.056972176,-0.04104139,0.0010715831,-0.0066823736
-0.020711867,-0.060138654,-0.04303409,-0.04395921,0.01736382
-0.042993937,0.038774963,0.027224885,0.00055130664,-0.00087139796
0.006942952,-0.015532099,0.023712333,-0.05347576,-0.024181282
-0.029713184,-0.039309487,-0.00925835,0.01725818,-0.0017443377
-0.026756452,0.021295669,0.0023293272,0.01570989,-0.028904688
0.036603283,0.0077616614,-0.0007924017,-0.025217686,0.04239464
-0.017170373,-0.04458704,0.039747905,0.061331198,0.014252901
-0.038508702,0.009076151,-0.027316349,-0.0116063235,0.010261751
-0.012806114,-0.05829383,-0.004923863,0.03000117,0.034907058
0.019713903,-0.044662833,-0.043782968,-0.034930635,0.035426196
-0.051158823,-0.03849128,0.058473993,-0.0067029693,-0.019881723
-0.015297715,0.0068801036,0.0013827966,0.011550779,0.019311382
-0.016748596,-0.030476654,-0.042678945,-0.005216633,-0.005130434
-0.058667716,0.02776252,0.080695815,-0.030777564,-0.011448916
0.019460058,-0.02857886,-0.051469747,0.027234929,0.022057675
0.007577978,0.016025461,0.041799113,0.101293586,0.042762317
-0.0010415763,-0.060965188,0.041242667,0.002731815,0.016153913
0.0026099144,-0.06728881,-0.07262584,-0.08309124,0.00014070523
-0.011311719,-0.009209372,-0.040923987,0.038247343,-0.008349238
0.072518714,0.06870255,0.11488558,0.024137577,0.002592919
0.053395685,0.074246235,-0.027426189,-0.02335039,-0.015409833
-0.009236666,0.05906849,0.0077497517,0.011400832,-0.026521688
0.0052059395,0.02447115,-0.06380758,-0.02499198,0.00048293822
-0.043979898,-0.044264674,-0.027351977,0.040723946,-0.011092233
0.0066107837,0.058071304,-0.0033355032,0.020492285,0.018199896
0.029516006,-0.027134186,-0.040223844,-0.016392054,0.041840818
0.005561596,-0.008122132,0.027943952,-0.017667666,0.023803554
0.0038255895,0.041108783,0.025290057,0.04577017,0.06778185
0.010249756,0.027182676,-0.029768752,0.054992866,-0.026908033
0.00903172,-0.0027896066,-0.046815082,-0.056716193,0.042815913
-0.008450635,0.00034853435,-0.016276762,-0.030513635,0.010302519
