-0.0035112875,0.016578548,0.00028309823,-0.045188554,-0.0038877104
0.033006966,0.02398499,-0.048847564,-0.0045415326,0.02555038
-0.045210365,-0.05819158,-0.024261737,-0.01556024,-0.0119236065
-0.019533057,-0.008484052,0.03593693,-0.032265227,-0.023560422
0.014351636,-0.00054453616,0.025957396,-0.013642828,-0.024942348
-0.03739163,-0.010387884,0.030018963,-0.012560245,0.015429903
0.0068696286,0.011185103,-0.020422954,-0.025838843,-0.042107787
-0.03233606,-0.054422636,-0.032495275,-0.023331549,-0.034232013
0.00044617517,0.030171296,-0.0106196115,0.0030502505,0.03468869
-0.011946865,0.012870312,0.033611953,0.019851634,-0.0031489867
-0.018708395,-0.043502044,0.029538266,0.014709963,0.029869284
0.018511565,0.016152875,-0.007563385,0.016549528,-0.0040340214
0.054970153,0.021400167,-0.048239946,0.018233962,0.051099617
0.041518565,-0.021794844,0.012571701,-0.01909511,0.038583998
-0.030747153,0.0127401855,-0.0225135,0.00096971286,0.057737604
7.6299715e-05,0.016456354,0.02370687,-0.04786282,-0.028779535
0.022641186,-0.03493678,-0.0073559578,-0.01763322,-0.009855682
-0.032216266,-0.00069506135,0.01824805,0.030558098,0.029802108
-0.03805704,-0.030341502,0.039246824,-0.02622082,-0.036787193
0.021039799,-0.016778998,-0.03176061,-0.030006925,0.021448823
-0.033091832,0.045259763,0.039558366,0.03458041,0.020847421
0.039818224,-0.024238752,0.0070464956,-0.037162136,0.02876693
0.027886556,-0.035249405,-0.022341425,0.02487181,-0.035558365
-0.037385926,0.009275282,0.04174791,0.051465437,-0.03185751
0.0145034855,0.008777769,-0.02995295,0.028433815,0.011604918
-0.023872271,-0.05378944,-0.043196075,-0.022231193,-0.016792236
0.025909064,0.030075911,0.04810728,-0.002702315,0.028885955
-0.032404367,-0.0140946815,-0.04743668,-0.039094307,0.010835828
0.034420576,-0.049435165,-0.04034888,0.02492296,0.04326579
-0.04238474,-0.003724511,-0.0062314565,0.032676935,-0.012672377
0.005735732,0.03219255,-0.019083802,-0.0031713455,-0.0038280308
0.055479083,0.027685517,-0.009716124,-0.028772498,0.016902847
-0.041226372,-0.078997724,-0.0024726703,-0.020619188,-0.056858186
-0.05367701,-0.0083513735,0.002057223,-0.018118361,-0.047855597
-0.008026408,-0.04284381,0.04358287,-0.04223756,-0.028241713
0.03569093,0.0122848125,-0.013092162,0.0069558313,0.019181913
-0.0031063207,0.0021614241,-0.0013710832,-0.0073996736,-0.035943963
0.0040784637,-0.05091609,0.0018148888,0.0043410496,-0.019966034
0.017051697,-0.051686946,-0.011522162,-0.031840153,0.0047340537
0.029388996,0.02455834,-0.012422191,0.042235494,0.046661474
-0.06897594,0.0024159937,0.019182008,0.09274258,-0.04714301
-0.0070873857,-0.034718543,0.07723412,0.07189573,-0.015712118
-0.008263687,0.06416014,0.046724178,0.015538995,-0.03941967
-0.038870603,0.024042135,-0.0047986265,0.0023216163,-0.015646927
0.02287795,-0.03193387,-0.03974881,-0.0029249173,-0.020028155
-0.016884927,-0.015394811,-0.04959098,0.008324716,0.023169385
-0.012277957,-0.023580631,0.015037219,0.09230802,0.032132607
-0.00575791,-0.013113469,-0.0066634784,0.026444793,-0.019219896
-0.06426132,-0.023651697,0.020844014,0.022863137,-0.014710381
-0.052320376,0.016581988,-0.055228595,-0.038231377,0.013682693
-0.00048726,-0.010553082,-0.05860937,-0.018879533,-0.04372674
0.035146233,0.029186673,-0.016421605,0.026736816,0.030712387
0.002005457,-0.05381152,-0.05166781,0.005814403,-0.03196731
-0.039981138,0.030458203,-0.027986541,-0.057585023,-0.018758893
-0.013404568,-0.027464788,-0.005901268,0.031881616,-0.027289
0.047441263,-0.014646673,-0.009948188,0.02280125,-0.069088556
0.0224306,-0.042907093,0.005287486,-0.01940209,-0.053151235
-0.03031253,-0.048744086,0.018445553,0.014802931,0.015126269
-0.056190714,0.012418029,0.016378965,-0.016690934,-0.02774259
-0.013185981,0.0069053182,0.010012648,0.048941717,0.027195087
-0.0134239895,-0.019429909,-0.037369497,0.0059569688,0.013641912
-0.03761465,-0.032757252,0.009870212,0.039659735,-0.00080854
0.0058531743,-0.05539561,0.029244047,0.036737703,0.015358628
-0.06642399,-0.005633318,0.020315543,0.054531313,-0.014265713
-0.05699277,0.018710671,-0.024818437,-0.030458339,0.04627142
0.044212688,-0.03928153,-0.03558906,-0.011790709,0.005318581
-0.02399679,-0.027273532,0.007781774,-0.0014130682,-0.03855192
0.007070586,-0.049771924,0.026075069,0.00030499723,-0.025468487
0.020201629,-0.048046153,0.018819097,0.0019706634,-0.014425515
-0.037648674,-0.023448007,0.03220632,-0.03380316,0.018218452
-0.027039513,0.0053277574,0.008806771,-0.003834125,-0.002597982
-0.0049728407,0.03295665,0.01575207,-0.027982518,0.04254197
0.050822977,-0.013555475,-0.036534008,0.040202845,0.01397639
0.00814711,-0.004559334,0.003961894,0.009529717,-0.0018407095
-0.0019631803,0.00341743,-0.00085644884,0.036951963,0.043927833
-0.0028964067,-0.057153735,0.062124047,0.013325011,-0.011494746
-0.05965609,-0.028077234,0.04990322,-0.001519205,-0.010120961
-0.013644556,0.055136364,0.07438802,-0.030560128,-0.0029186523
0.029660305,0.067182,-0.0021546537,-0.024350166,-0.006671753
0.036158953,-0.009701846,0.024086019,-0.031255104,0.0153774535
-0.018892687,0.023313452,0.0075375154,0.0030037686,-0.010282127
-0.026710717,0.013773962,-0.015018949,0.03477091,0.0023945381
-0.044235658,0.014628279,0.0013273169,-0.008710244,-0.0015641134
0.03182432,0.046727672,-0.0036132468,-0.059085626,0.0011004666
-0.028341006,0.013717899,0.010524953,-0.036592584,-0.028574245
0.06060207,0.0033879683,0.019385692,-0.027624775,-0.08497449
0.006931802,0.0297756,-0.036481507,-0.048415612,0.03504425
0.067830175,-0.061919115,0.0011065298,0.024293477,0.0029577813
-0.01703715,0.017446755,0.021808103,0.011883009,0.015638644
-0.0024410237,-0.0026328429,-0.025375111,-0.023677578,0.0024471837
-0.03813549,0.04016454,-0.054486353,-0.045074604,0.037240263
-0.031683117,-0.0047989707,-0.0022283783,-0.013264038,-0.010860359
0.030658444,-0.05790018,-0.017776422,0.047291774,-0.026844302
-0.011275695,0.048934754,0.041456576,-0.01627094,-0.007324557
-0.0011911143,0.03834147,0.035861798,0.039132897,0.009518056
-0.04645505,0.0013341896,0.016151456,0.0021838688,-0.02751468
0.0012753637,0.027517954,0.0041576996,-0.051060766,-0.045447562
0.019035049,-0.06676164,-0.057606492,-0.0010806948,-0.05748397
-0.04085047,0.045769293,-0.034857128,-0.010011,-0.0036126561
0.026985528,-0.018654827,0.004699794,0.025692029,0.0013559328
