0.011358029,-0.040905178,0.015917258,0.0244937,-0.014274361
0.00045526933,-0.03306464,-0.030772483,-0.058964,-0.035939664
-0.024461504,0.033764012,-0.04561558,0.0075252648,0.052053895
0.013530399,0.039900184,0.01740718,0.040676214,0.01428306
0.03416526,-0.0075368495,0.019397143,-0.05104472,-0.07416396
0.0156045025,0.0012850227,0.07043851,0.035828613,-0.005222127
0.008834426,0.010672083,0.075105615,-0.039382577,-0.039026376
0.045095675,0.016536836,-0.055250075,-0.024599716,0.037548803
0.027697552,-0.004988388,0.086637385,-0.03287106,-0.0067722662
0.080471426,0.023580913,0.03151977,0.029287929,-0.031410825
0.04652752,0.03887811,-0.006707028,0.047060527,0.03105478
0.059144545,0.034727395,0.028046057,0.022977114,-0.02136377
0.033819076,0.009208715,0.011867383,-0.08344006,-0.069086425
0.04889164,-0.014629842,-0.06704346,-0.05317583,-0.023777558
0.037542623,0.02312192,-0.06515784,0.01989224,0.02321756
-0.043796234,-0.01636493,-0.02979468,0.010691156,0.06872273
-0.0017974825,0.010836909,0.054541323,-0.03335746,0.022594072
0.04330164,0.049946614,0.0025103327,-0.024644013,0.028150635
-0.036799423,-0.041353036,0.0004217698,0.056365862,-0.039444398
-0.029036527,0.048637353,0.010261749,0.029448971,-0.06331342
-0.0112455115,0.0048747356,-0.02094953,0.013188933,0.004541754
0.0017465461,0.035654068,0.014079547,-0.031061769,0.0066176513
0.027553055,0.007885891,0.026055962,0.020689089,0.013519146
-0.011715484,0.006262118,0.007429943,-0.009822494,0.034549613
0.012404881,0.030463286,-0.0024512385,0.050213426,0.010524844
-0.038195312,-0.0027619891,0.041353703,0.02317057,-0.023621658
0.026318792,0.020586995,-0.037387885,0.050010204,-0.020525191
0.02038647,-0.05937589,0.05006902,-0.026030144,-0.037480175
0.040880516,-8.750008e-05,-0.030478723,-0.08326694,-0.0053509576
0.036146376,0.02103473,-0.041886937,-0.035210896,-0.0047944123
-0.012643194,-0.021187058,-0.017496625,-0.04431486,-0.058566663
-0.058739144,-0.01329978,-0.03752039,-0.1547487,-0.07656411
-0.018685937,-0.11192196,-0.11003297,0.07367292,0.05470965
-0.09295446,0.0111207375,0.014274051,0.04443668,0.03372636
-0.004597525,0.007494169,-0.005069195,0.011783292,-0.03288543
0.013032903,-0.0094864415,-0.013051243,-0.020246303,-0.03456969
0.02008215,0.016976029,-0.045004264,0.02911349,0.030761065
0.014774125,-0.0038296946,-0.00029096685,0.032256007,-0.049556516
0.040863868,-0.014019236,0.04378223,0.02669187,-0.034688335
-0.001533435,-0.0024150212,-0.008011931,0.060989745,-0.019654732
-0.018073449,-0.0048391144,0.03932907,0.048346728,-0.040062573
-0.03087417,0.014712124,-0.022988228,-0.034418054,-0.034959823
0.030319516,0.0047519887,-0.07932608,0.030654775,0.013025317
0.060280018,0.00095061393,0.045325786,0.016170857,-0.05491532
-0.016462324,-0.028818771,-0.10802514,-0.03457015,0.00813721
-0.017271785,-0.032652378,0.021237819,0.05310119,-0.011078586
-0.053688418,-0.036617007,0.042048506,-0.065584786,-0.015124772
0.009037118,0.05906845,-0.06279403,-0.026993984,0.082939535
-0.0057271444,-0.040457416,0.038199753,0.010077805,0.044351473
-0.08020337,0.009139775,0.0018577918,0.01016737,-0.018942086
0.054332986,-0.046983268,0.045029275,0.039511915,0.009689259
-0.063957654,-0.0045341626,-0.04137166,-0.056992043,-0.04746272
-0.0807435,-0.07198774,-0.00831605,0.045495547,0.068732515
0.002440343,-0.017842872,0.04771818,0.056393255,-0.0077846963
0.02082639,0.04639217,0.02187279,0.009967646,-0.040119477
-0.024791367,-0.061182484,-0.08462108,0.0108150225,0.06511359
-0.04140368,-0.00769549,0.00091342133,0.08437639,0.010361413
-0.05009133,0.042403683,0.06877488,-0.0011367209,-0.045591038
0.022720745,-0.007294894,-0.002216568,0.04568031,-0.013683169
0.0076864734,-0.013326816,0.030913837,-0.005860288,-0.008454936
-0.021123998,0.02632111,-0.03163237,0.04552897,-0.066488616
0.036823884,0.023545085,-0.0022253795,0.022262745,-0.0037332494
0.05855026,0.056765795,-0.046915777,-0.023284841,-0.05058885
0.04591871,-0.0038913044,-0.03152061,-0.022550667,-0.035918705
0.02454911,-0.021472093,-0.032737512,0.03024618,0.0045645866
-0.03259289,0.018185442,-0.005645491,-0.06549805,-0.06296151
0.0035331687,0.06560436,-0.019979384,-0.08405449,-0.06704218
0.020330684,-0.050429914,0.039385486,-0.0048145307,-0.017735025
0.010200043,0.04045751,-0.0031668507,0.021403294,0.012695042
0.025278848,0.027400756,0.002097208,-0.0075820573,0.025343984
-0.044648986,0.031011663,-0.023537263,-0.06959205,-0.0251749
0.027699865,-0.009793695,-0.038373165,0.06961264,0.029060649
0.0388256,-0.015130589,0.05252302,0.08151634,0.008478704
-0.043709736,0.035568524,0.0136648705,-0.0720095,0.056505166
0.036488295,0.032064762,-0.033506438,-0.030693902,-0.004404587
0.018639024,0.041957613,0.019719781,-0.028920397,0.04065243
-0.009483085,0.0076382584,-0.05503828,-0.06715197,-0.041579157
-0.022027025,-0.0033579767,-0.06516261,-0.12732472,-0.06574829
-0.04723897,-0.03643749,-0.023887387,-0.06983655,-0.09399976
0.053082377,-0.006282838,-0.09156294,-0.05594664,0.008994471
0.012907355,0.0023717985,0.06091833,0.07068461,-0.029175507
-0.054851066,-0.04724849,0.038565215,-0.0242401,0.034115378
-0.029185137,0.008775277,-0.0016347222,0.16809581,0.09681947
-0.02099952,0.0023231774,0.115750335,0.09144319,-0.042326074
-0.037913654,0.009100633,0.00020431652,-0.04572678,-0.007943842
-0.11611349,-0.09868017,-0.094363414,-0.024608724,0.0991049
-0.047775544,-0.035034064,0.061889622,0.21361513,0.10414534
-0.0730822,0.086935595,0.13211125,0.009221857,-0.0053073214
0.05477504,-0.009851775,-0.026204417,0.0178913,0.030521568
-0.060498122,-0.07437722,-0.018691175,0.021172622,0.0151705835
-0.040799983,-0.06183849,-0.02436975,0.060571127,0.04404804
-0.020362671,-0.060846806,0.081287615,0.044384323,-0.002638788
-0.0015820923,0.094075225,-0.04016733,-0.0028867433,0.01753843
0.032813847,-0.0700759,-0.027998416,0.0029191046,-0.031056635
-0.022541681,-0.06407643,-0.012602391,-0.016530225,-0.026279157
0.061207425,0.0044011464,-0.008477173,0.033588264,-0.022558361
0.031862613,-0.014649118,0.026231198,-0.05062765,-0.05576461
-0.036156345,-0.006890066,-0.022704985,-0.030685825,0.033279136
-0.0003998537,0.042410713,-0.010225244,-0.005245506,0.008223296
0.047363687,-0.015492595,0.07037807,0.00040970146,-0.033600025
