-0.022359708,-0.0111312885,0.07541684,0.009592927,-0.030374324
-0.060632646,-0.05771805,0.038018227,0.04015322,-0.053889148
-0.016074263,0.06446085,0.0374345,0.018883148,-0.02100101
0.026786197,-0.035249695,-0.034922767,0.024287067,0.01551861
0.03293315,-0.067573115,0.017747415,-0.009523851,-0.065301366
-0.06980102,-0.010112338,0.04847777,0.0021396193,0.016096769
-0.0051887757,0.0134322075,0.042719617,0.015853714,-0.039584678
-0.015696919,-0.04062327,-0.018954743,0.0016992931,0.040437236
0.006271437,-0.036314428,0.0071198395,0.024362452,-0.011811746
-0.037952837,-0.030023178,0.012290621,-0.020094924,-0.0036248665
0.015512342,-0.052721467,0.031651314,-0.05731666,-0.024374137
-0.00017247509,0.015533166,0.055457696,-0.0011287712,-0.022972915
0.07025813,0.012915563,-0.004521795,0.014227413,0.039377492
0.106706284,0.013625894,-0.035524867,0.055566575,0.039113134
0.016361043,0.015013056,0.024311705,0.015830986,-0.013217789
-0.0031666774,-0.0032255056,0.0071900873,-0.013175268,-0.022410547
-0.046491507,0.056667246,-0.00992903,-0.024025237,0.03683189
0.07659898,0.060666367,0.014056423,0.012998848,-0.02586571
0.07743337,-0.049348306,-0.035557643,-0.022305114,0.033944078
0.017560747,0.012850396,0.029872093,-0.05228491,-0.067514025
0.014260239,-0.011281189,0.020972095,-0.036309388,0.039962146
-0.038889498,0.014134715,0.015768768,-0.029026464,0.035796974
0.013498966,-0.024721166,-0.023993025,0.0319324,-0.01550725
-0.008854221,0.01628515,0.018256307,-0.0233197,0.033132847
0.005578629,0.012352797,-0.024773497,0.018324004,-0.0054271207
0.01544404,0.011094683,0.015519995,-0.009994416,0.035851825
0.047002044,0.044968367,-0.02514915,-0.03954497,-0.019032858
0.050056193,-0.018622447,-0.03684725,0.025617175,-0.0111911595
-0.038428117,0.0039433227,0.016341005,-0.04141654,-0.007656427
-0.043317065,0.012525153,0.018730642,-0.0037569688,0.030485706
-0.009999892,-0.018515985,0.01877872,0.010042222,-0.019561103
-0.030726641,-0.015068813,0.011412822,0.016975755,-0.022592094
0.04974839,-0.04355976,-0.0008287835,0.009869008,-0.03295797
0.043119386,-0.027814485,0.0288478,0.004385595,-0.026496386
0.040682446,-0.003264736,0.015726354,0.045093276,-0.04448722
0.0065738815,-0.0035836569,-0.015864126,0.010926949,-0.018685468
-0.04495063,-0.0108909365,0.030157633,0.016758401,0.0006379137
0.025907857,0.0065180096,-0.013633403,-0.0002893817,0.027925193
-0.012205537,-0.0051722187,0.039936367,-0.018756852,0.023500241
0.04222802,0.017200876,0.018892169,-0.00657188,-0.011216611
-0.04162926,-0.018695228,-0.024780102,-0.0148480125,-0.023168063
-0.010027222,-0.0328747,-0.038476642,0.008569035,0.041708827
-0.020949591,-0.03415036,-0.018739672,-0.018305732,-0.044045154
0.040251903,0.029958257,0.026407527,-0.018309291,-0.026359992
0.045299437,-0.03560649,-0.036413714,-0.037343483,0.013845243
-0.024549484,-0.05161218,0.00706432,-0.036424376,-0.0018636914
0.026763288,0.009738492,0.039934665,-0.0022677113,0.030224696
-0.01638638,0.012836115,-0.014734386,0.02310473,0.01563227
0.02712324,0.031921666,0.015499797,-0.053332906,0.055902675
0.03970552,0.010619191,-0.0150396405,-0.032424204,-0.0031016886
-0.052509163,-0.025779039,0.014214029,-0.005666017,0.045233857
-0.024244469,-0.03027735,-0.06023769,0.0056074816,0.010688952
0.04185206,0.07331958,0.04052498,-0.03928386,-0.0012289713
0.03349414,0.013272932,-0.0005554167,-0.02518728,-0.048789397
0.03310231,-0.016541667,0.016620545,-0.028661152,-0.025538966
0.015943224,0.041395377,-0.010613626,0.019375332,0.018006409
-0.0071518766,0.008891037,0.014855758,0.03992941,-0.016881494
0.034390967,-0.0028686542,0.017651338,-0.036258068,0.030064104
0.03767472,0.010423408,0.0013761963,0.011672781,-0.03532167
-0.038526237,0.033335432,-0.04024993,-0.010016766,-0.027354514
-0.07742671,-0.041128427,0.040918563,-0.016537044,-0.05400328
-0.047375977,-0.025458423,0.012339768,0.04281211,-0.046854157
-0.0066756154,-0.024556901,0.059329886,0.045265153,-0.003403601
-0.04043026,-0.005648406,0.00883593,0.0014836021,-0.042598173
0.012786824,0.0009054855,0.003252486,-0.04101255,-0.038248736
0.022474268,0.029433459,0.024241377,-0.010875476,0.0101949675
-0.015315232,0.03798296,0.025397595,-0.040355545,0.021722872
0.043906644,0.011948914,-0.035469703,0.0287745,0.0023991195
-0.011998943,0.019517992,0.03472335,0.020295545,-0.03526057
0.018664312,-0.027596515,-0.04176861,-0.02218261,0.02351913
0.0147730615,-0.016568867,0.0322989,-0.04461334,-0.03910632
-0.03964343,-0.056724276,-0.0134483,-0.036411118,-0.047973715
-0.009657943,-0.036916956,0.002935856,-0.011255286,0.0075269486
-0.027177967,-0.014621739,-0.062966436,0.030923357,0.008423412
-0.004355124,-0.01883847,-0.008998423,-0.012514432,0.05031525
0.016853387,0.06607182,0.014102714,-0.008616232,0.0109024905
-0.018524975,0.03683681,-0.045430016,0.0071800635,0.023081888
0.0069449977,0.012715745,0.05500175,-0.027584782,0.009476924
-0.06386591,0.04688254,0.013832034,-0.05145669,0.023195596
-0.018998822,-0.022521341,0.057870775,-0.02766916,-0.02824396
0.001324254,0.037503384,-0.042258553,0.008817889,-0.041091
-0.0036513428,-0.006809731,-0.04705223,0.0044904347,0.015608206
-0.018014211,-0.019888427,-0.01695858,-0.034151264,-0.044281345
-0.058137666,-0.048940506,-0.0014584883,0.016090073,0.024255417
-0.059996437,0.028021412,0.036607232,-0.030177327,-0.013441511
-0.06957298,-0.007241214,-0.018172098,0.01633829,-0.050684486
0.011336038,0.0135814,-0.029696029,-0.010445624,0.04099566
0.054729298,-0.03616476,-0.021497538,0.023065293,0.025656255
-0.051627703,-0.030709213,-0.013453882,-0.009759007,-0.016465303
0.0021795866,-0.020964175,-0.030698242,0.0031554261,-0.05441515
-0.030528966,-0.03155576,-0.028157841,0.013324912,0.0012900407
0.0607475,0.10053579,-0.04163465,-0.058378384,0.008294994
0.03873533,-0.025933174,-0.038766947,-0.030526469,0.013534572
0.024489297,0.022002503,0.033180624,-0.0329056,0.009826065
-0.030652309,-0.038246725,-0.014367866,-0.018369379,-0.017771766
-0.048941318,-0.015035475,-0.014650964,0.034911104,-0.027795866
-0.047942013,0.04481166,-0.021549689,-0.010304939,-0.019107746
0.12526952,0.039470367,-0.0628065,-0.025158305,0.005250519
0.05229,-0.0075027775,-0.031027885,0.008661414,0.016107904
-0.019425148,0.032142706,0.03589664,0.005191547,-0.029595135
