-0.071896665,-0.064476766,0.0071777855,-0.03272147,-0.009981667
-0.053807173,0.014931947,0.016194033,0.014164352,0.04532589
0.022376612,-0.0011866265,-0.0047607236,0.029952154,0.031308528
0.05529362,0.08947278,0.097824566,0.008119909,0.03491972
-0.050177556,0.055953916,0.063085936,0.060711697,-0.021410322
-0.035956036,-0.071857944,-0.053592257,0.016353855,-0.035883866
0.010543947,-0.075013444,-0.013391514,-0.013573046,0.010892326
0.05608199,0.069968306,0.0062550614,-0.06446515,-0.0022848623
0.037632998,-0.04544625,0.041782506,0.048623897,0.016532646
-0.04304936,-0.06568553,-0.008372037,0.021655109,0.0047111055
-0.017450986,0.022459434,-0.0024931317,0.010251704,0.0060014245
0.05568565,0.039546985,-0.042361252,0.038734905,0.02764529
0.059354573,0.0057543465,-0.06929616,-0.03488719,-0.017143987
0.022851069,-0.08226128,-0.0374718,-0.02552563,-0.0163073
-0.08785008,-0.032855123,-0.051159877,0.023235321,-0.054650847
-0.012752903,-0.02075097,0.0017665235,-0.050191246,-0.022730226
-0.04065845,0.014653006,0.0005633208,0.014047138,-0.05657584
-0.05464317,-0.033788927,0.028507365,0.015135413,0.034052614
-0.0042129452,-0.031713698,-0.011286253,0.0062033893,0.04897783
0.04115442,-0.025710903,-0.03154498,-0.0230186,0.005199662
0.0012593871,0.023984585,0.01795581,-0.04441118,0.037299015
-0.0243198,-0.016728578,0.0071769254,0.020443212,0.015782733
-0.068515025,-0.027661415,0.01945835,-0.0015538306,0.024467658
-0.001926504,-0.06659987,-0.057722602,-0.008936159,0.0033809987
-0.0383561,-0.04046879,-0.028703975,0.026003651,0.014473665
-0.047974844,-0.024481839,0.03819105,0.0028148247,0.02935024
-0.0410308,-0.0006778043,0.0089551965,-0.03387344,0.028063001
-0.043809716,-0.0020676986,-0.026714664,0.03401279,0.030904507
-0.01657817,0.0011671166,-0.04534933,-0.007899561,0.03961945
-0.064456366,-0.0014624203,0.039839894,0.006136371,0.0033992156
-0.014945651,-0.07194752,-0.06739264,-0.034820378,-0.01075697
-0.027820248,-0.07880163,-0.061540782,-0.010059961,-0.06989767
-0.024916714,-0.08335535,-0.09558516,0.00057979045,-0.01745363
0.001662173,0.02164088,0.032774605,-0.013088346,-0.027810834
0.063257635,0.12583716,0.10143649,0.08871117,0.047585692
-0.043295614,-0.029421302,-0.011105248,0.032759175,0.041416794
0.03512166,0.013836458,0.023215529,0.0008486258,0.062029086
-0.028654154,0.0023524018,0.0408376,0.02245379,-0.03158043
-0.04920587,-0.008587095,0.018554093,0.0072760773,0.0048319427
1.1280255e-05,0.0030967768,-0.018053742,-0.012008042,0.025565187
-0.022900788,-0.026008734,-0.045383178,0.026766805,0.03793751
0.041642003,0.023385098,0.04460557,-0.037311696,0.00488087
-0.007023948,0.027766544,-0.010708969,0.005616071,0.07890503
-0.01636322,-0.026957644,0.01475258,0.0045746868,0.0062838346
0.04501307,0.02517013,-0.05641105,-0.06516605,-0.056498844
0.054541,0.04504691,-0.04839925,-0.0443385,-0.010427456
0.03580348,-0.016493145,-0.035309885,-0.0163463,-0.025515517
-0.05295004,-0.107716136,-0.042431988,-0.018876504,0.01777355
-0.065714605,-0.08124715,-0.02306529,0.02012282,0.031387582
-0.007785199,0.0022201224,0.03012059,-0.02371445,-0.02274611
-0.06943236,-0.046197865,-0.044104934,0.0037732413,-0.0058150645
-0.07477757,-0.03923109,-0.02623344,0.025611637,-0.02989703
-0.026250765,-0.041049343,-0.013444496,0.014456408,-0.0062309946
-0.012413428,0.048292678,0.030205183,0.005977492,-0.042105436
0.034974657,0.09655651,0.048350904,0.013556545,0.04100649
-0.015944095,0.00018842611,-0.047315348,-0.031280637,0.029515477
0.018243834,-0.077717975,-0.045324005,-0.013430164,0.02047234
-0.04588257,-0.036051556,-0.0008872202,0.020214472,-0.011992237
0.027665524,0.009041758,0.00537352,-0.01656831,0.029253146
-0.03274627,-0.006059146,-0.031062867,-0.034534015,-0.02244188
0.0078277,0.05942128,-0.036910195,-0.032748774,0.012639657
-3.6681926e-05,-0.003288398,0.0050744168,0.026383141,-0.048323296
-0.016358366,-0.015353636,0.021701196,0.050175734,0.0013914428
-0.06592701,0.012474999,-0.021522896,-0.030831374,-0.009727116
-0.04019935,-0.031166518,-0.00591173,-0.0278503,-0.05702787
-0.015713384,-0.048888084,-0.038377266,0.017278338,0.03494217
-0.027318804,-0.05174732,-0.038218085,-0.053638894,-0.0007094799
-0.09241699,-0.062087975,-0.029794656,0.056950856,0.016826969
-0.039042197,-0.014092056,-0.04398782,0.03411772,0.044714008
0.019305617,0.0028570509,0.05587901,0.014776266,-0.025107458
-0.006207717,-0.033172883,0.066332854,0.063719064,-0.03549115
-0.012100856,0.0093923025,0.0007678822,-0.029468706,-0.015619175
0.00885408,-0.0069105634,0.040716622,-0.0016052491,-0.023832943
0.0050542997,-0.016216744,-0.012563472,0.04032419,-0.0075339703
-0.031593487,0.00050096214,-0.030349616,-0.01997715,0.02537885
0.026656257,-0.0262632,-0.029979175,-0.020664947,0.01749688
0.03117802,-0.009631823,0.038668547,-0.018712949,0.03181892
0.102363974,0.035683382,0.03946646,0.048818085,0.055733677
0.07554029,0.030528612,0.0062684943,-0.022536797,-0.04395046
0.035675015,0.006328461,-0.068209074,-0.0072163716,-0.043275345
-0.014342934,-0.07139826,0.016084172,0.05256208,0.071406245
0.0010793245,-0.03038253,0.0010073627,0.038231038,-0.021043908
-0.07282365,-0.06441843,-0.04134619,0.042645935,0.009436235
-0.032070175,-0.022789178,-0.014565418,0.022119412,-0.021863487
-0.022702046,0.029470854,0.058492463,-0.012540811,0.0016076316
0.00944764,0.09059762,0.03710647,-0.016949682,-0.008758724
0.04092732,0.0063333074,-0.020399498,-0.02330837,-0.037022986
-0.0068287225,-0.031595882,-0.003264026,0.020679994,-0.021510072
-0.058839902,-0.06014188,-0.031041102,0.05163039,0.015664257
-0.057948627,-0.04118155,-0.05591237,-0.06886219,-0.09573811
-0.02815546,0.069424964,0.037239116,0.011145016,-0.04619567
0.014709165,-0.025479479,0.010559815,0.034683518,0.014007291
-0.05599921,-0.0030128625,0.017184338,-0.041750554,0.031794302
-0.08172581,-0.024510862,-0.010953274,0.013717382,-0.018085754
-0.08554073,-0.036329914,3.698359e-05,-0.009916462,-0.025558691
0.0301205,-0.034900196,-0.027483882,0.027675427,0.02971124
-0.048086207,-0.05737688,-0.03125265,0.031306244,0.025271721
0.02475026,0.021570893,0.035727855,-0.00021165187,-0.0035879815
-0.009333465,0.07184567,0.05415756,0.061133817,-0.03252898
0.023430534,-0.036387276,0.02208582,0.029794142,0.012133552
