-0.0107431775,0.1278255,-0.04267787,0.027538303,-0.057441916,0.05014655,0.041729596,0.18329777,-0.19166522,-0.028991202,-0.13439025,0.0035299943,-0.031614725,-0.03264451,0.015688282,0.0931512,0.1992019,-0.021512916,-0.12452179,-0.19083554,0.023957696,0.0027767492,-0.04207174,-0.055533268,-0.06535745,0.01077727,-0.039222322,-0.015875151,-0.022216406,0.02321642,0.13190739,0.009676161,0.030646758,0.047923476,-0.021342754,-0.039489597,-0.039614752,-0.0023093072,-0.059659943,-0.010215269,-0.002940322,-0.10687459,-0.058177575,0.0061498755,0.072795264,-0.022919336,-0.0213462,-0.0627794,0.07542434,0.15141383,0.01771431,0.19374041,-0.037157092,0.0027401543,-0.009495605,0.07131712,0.00840793,-0.03643979,0.009659653,-0.039393935,-0.030089589,-0.06499729,-0.03589991,-0.22727115,-0.1305264,0.1409505,-0.09198427,0.013047983,0.018948045,-0.025589095,-0.13960855,0.18331173,0.037107617,0.00198225,-0.053633336,-0.08238661,0.12566808,-0.1202358,0.00042982807,-0.013654951,-0.04614109,-0.043262832,-0.120300256,0.052896675,0.031151356,0.014825803,-0.07324471,0.044054136,-0.09685364,0.029018555,0.11663541,0.06780784,0.13821283,0.05541875,-0.06535057,-0.066621006,-0.08068145,-0.03990667,-0.034390606,-0.099517636,-0.03755955,-0.10798771,-0.05597493,-0.059069414,0.14286132,0.0021183342,0.03441187,0.024847694,0.06423736,0.087136514,-0.20410964,-0.09580731,-0.10886421,0.03928486,0.042520527,-0.010140502,-0.042378493,0.029535998,-0.047041144,0.07390726,-0.045662943,0.1696453,-0.0002910965,0.0069733937,0.124652736,0.121468574,0.009652953,-0.119771026,0.07322973,0.15500106,0.013030235,0.0811683,-0.057864197,0.03321429,0.056147072,0.11548526,-0.0059798155,0.13745993,-0.11386872,-0.01154369,-0.0092389835,-0.098893896,-0.0026788653,-0.08308874,-0.027891561,0.003566082,-0.033666365,-0.07801676,-0.034090858,-0.16165781,0.14006305,0.074049026,-0.053367447,0.19042903,-0.049060367,-0.0004942156,0.009904103,0.011033855,0.006998733,0.07156264,-0.12916821,-0.06311825,-0.25208384,0.13235989,-0.08193004,0.021029254,-0.013052368,-0.01386478,-0.07682473,-0.024245063,0.09835597,-0.037952203,0.00849718,0.0024512163,-9.43208e-05,0.038683724,0.04568469,0.022589957,-0.021831162,0.047834937,-0.06267614,0.023946252,-0.010193428,-0.0010901757,-0.0785006,-0.08104526,0.15906411,-0.15136379,-0.06967371,0.069368206,0.025767695,-0.07681664,0.16656314,-0.00677061,0.06430008,-0.08886024,0.0964339,0.04004723,0.050708957,-0.07789125,0.15563877,0.12857398,0.049394265,0.048328694,-0.02151197,0.17480123,0.071110025,-0.11250532,-0.007101044,-0.11621366,-0.111485004,-0.06630693,-0.05089324,-0.02776505,0.04784801,-0.061412055,-0.0525576,-0.059759635,0.08876221,0.006094669,0.0015711068,0.056280285,-0.22314659,-0.17100208,-0.062261727,0.14077803,-0.15812159,-0.031154763,-0.018566687,-0.103240795,-0.029529093,0.028885256,-0.0009419561,0.05869112,0.04234858,0.07180253,-0.03934844,0.13047703,-0.049226098,-0.021874426,0.05838879,0.07120499,0.050548825,-0.106064245,-0.019037737,-0.0031075038,0.006612549,0.04792272,0.10724438,0.048478767,-0.004160594,-0.030818889,-0.008954104,-0.062684014,-0.034045186,0.0002777709,-0.086238965,0.027250795,-0.0374927,-0.0024213688,0.053813245,-0.04300526,-0.09183522,-0.123785965,-0.10869125,-0.033123273,-0.048072845,0.008193044,-0.049998492,0.03185334,0.013679093,-0.013310674,0.046278216,0.013501918,-0.05342559,0.03052251,-0.19844152,-0.015422717,0.14228275,-0.021903079,0.04288899,0.1215236,0.045142803,0.14004754,0.03473818,-0.011140976,-0.0048255483,0.11991269,0.0028635268,-0.055199645,0.06792269,-0.04603204,-0.12195695,0.029171597,-0.06048261,-0.031361133,-0.06583167,-0.106423475,0.11267107,0.05716221,0.09094985,-0.034041684,0.06660444,-0.14022061,0.0070302575,-0.04505595,0.020542216,-0.10864613,-0.012515212,-0.019915236,-0.06875282,0.03702628,-0.0551324,0.008740582,0.111784205,0.026910564,-0.030177744,0.019490484,-0.11689532,-0.041590508,0.011951635,-0.0035811302,-0.06560884,0.01352494,0.09412025,-0.13584736,-0.07341085,0.10664219,-0.027292384,-0.07871524,0.032210864,-0.016375912,-0.08518277,0.055337697,0.11736305,-0.046958443,-0.069957964,-0.02884237,0.0094470745,0.010124265,0.061433982,0.03980304,0.12621659,-0.027087864,-0.014714004,-0.02040015,0.03918063,-0.05958405,-0.05555395,0.06398936,-0.026347922,-0.07812429,0.046997994,-0.09923209,-0.039776515,-0.07204067,0.07538707,0.12685302,0.03184748,0.03145981,0.123478316,-0.06743401,-0.0744332,-0.11862543,0.059232246,-0.0687966,-0.03698215,0.092957,-0.09574762,0.00083783304,0.18373851,0.024680123,-0.0632264,0.14632364,0.097319864,-0.066668265,-0.026324227,-0.14337675,0.12644185,-0.031197313,0.02885309,-0.040326178,-0.09877931,-0.08058632,-0.01946986,0.030243564,0.031653576,-0.04225305,-0.08424045,0.012156792,0.13407966,-0.013553346,-0.0689536,0.029532934,-0.10858605,0.037831362,-0.0473319,-0.002105605,-0.086190134,-0.08915399,0.04568958,-0.015488269,-0.027019337,-0.18112592,-0.036163382,0.14354499,0.13432936,-0.010854021,0.110462755,-0.080226995,-0.06265102,-0.11187953,0.010491422,-0.0500654,0.15426925,-0.017643208,-0.11360553,-0.0003343039,0.08401579,0.010843449,-0.095693104,0.108323924,-0.004332895,-0.034949053,-0.12936062,-0.029938707,0.046902817,0.09373876,-0.091521576,-0.016952964,-0.006940114,-0.017110055,-0.0026285788,0.117804915,-0.051966425,0.105508946,0.052400302,0.03226475,-0.12077512,-0.09428084,-0.010682064,0.096317485,0.10976063,-0.017360026,-0.061711606,-0.0775069,0.024390593,0.019918095,-0.04948866,-0.019281307,-0.117484756,-0.016014384,0.2708943,0.04387475,0.011791648,0.003173331,-0.039037567,-0.06103427,-0.029354975,-0.06690667,0.104200795,-0.07866939,-0.024799464,-0.03619227,0.005136401,0.071295835,0.23542412,-0.059195753,0.1113097,-0.0054804636,-0.020537691,-0.035116494,-0.031012142,-0.06783541,-0.04517361,-0.09479372,0.030922022,0.023584725,-0.05091314,0.0866982,-0.0020941978,0.011860568,0.021622945,0.060321033,-0.05059046,-0.07986361,-0.074586466,0.0024149339,0.04470932,-0.026584927,0.09565186,0.022376204,0.07446549,-0.031606182,-0.030439166,-0.08326637,0.060141113,0.09189142,-0.07621756,0.034642816
-0.059417214,0.063452385,0.08952936,-0.04233019,0.101561934,-0.020070879,-0.02811044,-0.10058265,0.068655334,0.0020520545,0.15028843,-0.02504691,0.0092166485,-0.07755586,-0.01872774,0.093737945,-0.10001031,0.16473737,-0.12185169,-0.08032283,-0.06256945,0.11277603,0.03744556,0.10257795,0.0516826,-0.035115562,0.10451875,0.019321753,-0.052491203,-0.012297451,0.12347232,-0.02125275,-0.06768666,-0.0063826125,-0.06709258,0.046644133,0.0029590067,-0.09393577,0.13090727,0.009410087,-0.07974336,0.033309713,-0.08750184,-0.025423467,-0.020212907,0.02237544,0.0029119956,-0.006012386,0.03683327,-0.12812455,0.11517329,0.011616833,0.07606102,0.12807131,-0.08668281,-0.029184615,0.007249584,-0.09110137,0.0016921852,0.14507899,-0.038243204,0.12329839,-0.055485107,0.007449556,-0.17663652,-0.16592664,-0.11186272,0.11482331,0.011065203,0.046922054,0.048602436,0.008864105,0.104623824,-0.04019292,0.008536584,-0.030994283,-0.069076486,0.10502647,0.009349596,0.0066531496,-0.041578304,-0.016138174,0.15771076,-0.12320035,0.01159213,-0.037384853,0.14103617,-0.014645773,-0.0013987193,0.029490015,-0.09521716,0.090139486,0.057227414,-0.07271895,-0.026627107,0.041089855,-0.017967543,-0.03818263,-0.07220383,-0.19471402,0.08614134,-0.1178048,0.13145076,-0.06520607,0.019442793,0.040481996,0.02976708,0.038296115,-0.13292333,-0.14825898,0.010488241,0.054858156,0.14849013,-0.039011434,0.04439053,0.026782561,-0.04123629,-0.017371897,0.0563879,0.052729774,0.13755703,-0.093615,0.02723067,0.019369956,0.034619868,0.15568414,-0.072776884,0.07898771,-0.070608474,-0.19991566,-0.1045804,-0.13381131,0.108271085,-0.07506701,-0.047085285,-0.0043987827,0.013115232,0.10511644,0.11663999,-0.02583874,-0.025793875,0.006979946,0.014330397,-0.0079837125,-0.15768072,-0.08094459,-0.1399673,0.0060310774,0.041146755,0.0155520225,0.0024986474,-0.029046632,0.1659063,-0.0825254,0.069668844,0.07017496,0.19524223,0.0145578245,0.10148026,-0.024764892,0.09961419,-0.03588843,0.033519164,-0.031985495,-0.07784634,-0.0714531,0.029246517,0.03083464,-0.0349832,0.0049578804,-0.07504849,0.1936018,0.027584843,0.09758581,-0.0021095725,-0.02358196,-0.015129852,0.18365927,-0.07630929,-0.12769547,-0.013722772,-0.014142868,-0.03396185,-0.0047235377,-0.021007882,-0.039825458,-0.02419345,0.022236584,0.029419579,0.047123052,-0.026342867,0.0028770813,0.10296055,0.04341889,0.053977568,-0.043090515,0.017334122,0.13228114,-0.035170246,-0.064199865,-0.10432148,-0.047838897,-0.21825281,-0.010783605,0.0129988715,0.078988254,0.017070109,-0.048023913,-0.00411085,0.0031142668,-0.11004058,0.06248594,0.100868985,-0.01645747,0.033814255,0.027273236,0.0018315736,-0.027733592,-0.04833993,0.048303224,0.043954115,0.08364491,0.12834185,0.014459775,-0.025999784,0.09267498,-0.05138061,0.03340272,0.10102059,-0.0866504,0.05913195,0.0063177324,0.028363382,-0.0076440023,-0.021394653,0.05256488,0.006517158,0.17685291,-0.004697382,0.19229138,0.079756685,0.073436975,-0.0021497621,0.08673974,-0.060421508,-0.010180959,-0.0035744295,0.09082473,0.070793524,0.014077632,-0.0016582246,0.018680476,-0.06054825,0.018743306,-0.080108,-0.0017992529,-0.0052956175,-0.0056037395,-0.2542893,-0.007134731,-0.07696984,-0.0395657,-0.10910434,0.09549329,0.14918864,-0.021276994,0.021999234,-0.028587101,0.023892194,-0.07274833,-0.023718325,-0.0062449994,0.03725915,-0.09341334,-0.039129954,-0.03669045,-0.14980413,-0.025001476,-0.042389326,0.069519594,-0.07790993,0.0012051361,-0.025238326,0.06781241,-0.006121765,0.0152576985,0.089279175,0.09052948,-0.06626002,0.056706876,-0.055055942,-0.045902032,-0.123745605,0.05393773,0.06882136,-0.032377016,-0.05768554,0.024870435,-0.08245684,-0.081295416,-0.09214303,0.17287229,-0.00838157,0.042155597,0.13687383,0.0068925554,0.015510811,-0.011120233,0.10424675,0.050983652,0.06066187,-0.06406886,0.10467649,-0.01606423,-0.028473746,-0.06519423,-0.006108623,-0.07707934,0.15089326,-0.037833672,0.060835436,-0.043172546,0.055269122,-0.033994876,0.03909946,0.027341615,-0.08544343,-0.061491083,0.03451537,0.0874728,-0.050097268,0.0067086103,0.03139649,-0.11730704,0.037917543,-0.01619302,0.012022914,-0.040110238,0.16285917,-0.014706158,0.07820891,0.02529737,-0.0018491333,0.037576772,0.03596171,0.08747554,-0.023790587,-0.01631735,-0.03404724,-0.09421584,0.040422123,0.09498811,0.005321965,-0.020191817,0.12873912,-0.039405912,0.0045111743,-0.022315813,-0.038475536,-0.03304096,0.11159923,0.024908874,0.009867531,0.040988155,-0.017208992,0.0038524596,-0.018779943,-0.14109558,0.0062653534,-0.011700114,0.26414186,-0.07963853,0.06554411,0.07210316,-0.06129301,0.18159099,-0.033062004,0.034399908,-0.042259928,0.09784452,-0.017188773,-0.11139553,-0.010155018,-0.0038261246,0.021355983,0.11730309,0.004670868,-0.059309114,0.056585964,-0.03115302,-0.14383094,0.01960817,-0.059510365,-0.008335992,-0.023280712,0.0012573185,-0.016014013,0.05580134,0.10219207,-0.18341382,-0.06525489,0.008300452,-0.004243493,0.15688792,-0.008357818,0.08320352,-0.124167316,0.006065615,-0.13149509,0.08992798,-0.009570647,-0.18635389,-0.0029943876,-0.0333657,-0.01322483,-0.04179179,-0.11499173,-0.014499426,-0.07479817,0.010216598,0.07022648,0.23251447,-0.07320571,-0.041056067,0.02053599,-0.033407938,-0.08532561,-0.11560687,0.038963843,-0.023800839,-0.08243803,-0.021825476,0.075724214,0.13550396,0.0052742525,-0.12283058,-0.05922566,-0.11087104,-0.03935939,-0.09221183,0.0067572827,0.011549072,-0.13801372,-0.09221652,-0.066364504,-0.04061438,0.0010660186,-0.027756626,0.008048195,0.0067481254,0.047315452,-0.010987699,-0.057435222,-0.05557874,0.016210714,-0.1121201,-0.04459539,-0.066484295,0.09573362,-0.05457227,-0.06551797,0.057758614,-0.03661148,0.21637535,0.0024552864,-0.0046546264,-0.06741386,-0.026397565,0.10995556,0.035637733,0.12395063,-0.031208908,0.013992212,0.09923195,0.0040690075,-0.011546519,-0.0074982154,-0.020582775,0.047833126,0.07594537,0.07490595,0.027511667,-0.08369513,-0.10819374,-0.13216025,-0.03386643,0.14205125,-0.039307028,-0.024890121,0.015540355,0.13996889,0.0475185,0.062024873,-0.03408361,0.015446301,0.018663626,-0.030981954,-0.063188896,0.07229995,-0.08490623
0.17977688,0.17164806,0.021139944,0.14342315,-0.053294946,-0.056930736,0.068548806,-0.13500158,-0.07273913,-0.091801226,-0.20253588,0.13682985,0.08878765,-0.10850486,0.04573897,0.18347633,0.040826768,-0.024327548,-0.12539656,0.20653796,0.06552206,0.021110611,0.040298227,0.10876651,0.051195778,-0.048476014,0.059182618,0.042455684,-0.022053625,0.048115294,0.15770258,0.019120995,-0.19189705,0.23237169,-0.001388703,-0.01064392,-0.057093825,0.032420702,0.0009869917,-0.0490486,0.07958666,0.067362644,0.044732206,-0.0017809893,0.025136478,0.039604966,0.07946666,-0.16670898,-0.013502814,-0.10340756,-0.07400579,0.05507875,0.09024952,-0.039714042,0.1404422,0.009074275,-0.045096375,0.03510197,-0.017393315,0.010942939,0.035254817,0.026678551,-0.06691248,0.012372619,0.25910556,-0.07062066,-0.010676563,-0.087519065,-0.04765336,-0.06069081,-0.061604597,0.09534116,-0.0691233,0.07882989,0.004324072,-0.03512781,0.017850596,0.17390175,0.04497382,0.12212633,0.03657824,0.095756605,-0.09600316,-0.11716153,-0.031722534,-0.06261675,0.22217774,-0.005536031,0.0046012215,0.12634708,-0.057374053,-0.063111424,0.02529869,0.11655461,0.07117404,-0.07822087,-0.021658031,0.039531022,-0.0006485628,-0.26600975,-0.26276007,-0.10681056,-0.06014111,0.0022334233,0.04149925,-0.023794401,-0.02249171,0.08175503,-0.05035696,0.16172828,-0.099184774,0.08479842,-0.26254478,0.06960229,-0.037077773,-0.044186503,0.065357745,-0.0076187477,0.06884978,-0.020891543,0.17332168,-0.11377627,-0.019650923,-0.052117154,0.07114106,-0.18295296,-0.055189397,-0.07924975,-0.023818346,-0.024610424,0.053867117,0.07591486,-0.063225225,-0.0041372133,-0.027028056,0.14614281,0.04982021,-0.009178571,0.019106502,-0.0403864,0.029357664,0.039223067,-0.029478457,0.010477132,0.15963699,-0.10374459,0.21322767,-0.1536111,0.042781573,-0.10876605,-0.051449973,0.035310205,-0.04340021,0.21225317,0.03203941,0.04343936,0.12119061,-0.19566938,0.0191537,-0.010413773,0.07080166,-0.013370587,0.124222256,-0.06340199,-0.052938778,0.12291148,0.00561908,0.10287111,-0.012917703,0.0322625,-0.08775148,0.14054467,0.006478135,0.003432694,-0.012362145,-0.12676682,-0.0369025,0.15884268,-0.048175644,-0.042580448,-0.0008528513,0.19093476,0.035375107,0.049073722,-0.053728603,-0.044243056,0.15833695,0.10195818,0.10494997,-0.15876718,0.05132265,-0.085729994,0.04224236,-0.03819365,-0.0107724145,-0.06964669,-0.08112977,0.09038878,0.04625731,-0.040300857,0.205561,0.03513112,-0.09671558,0.10761375,0.15599583,-0.03573069,0.057953905,-0.09478776,0.05481794,0.096669555,-0.029739672,0.009230582,-0.022266168,0.12996604,0.086335756,-0.010933464,-0.18626446,0.12920564,0.15711458,-0.023067458,0.039086778,-0.10496151,0.03937686,-0.23781365,0.037513025,-0.05727814,-0.056609876,0.012010969,-0.0012819864,0.09932866,0.20044036,-0.04049428,-0.06276269,0.055887967,-0.045257714,0.08817321,0.026626414,-0.04635225,0.10359115,-0.16381577,-0.05114527,-0.0628761,-0.048340492,0.10683663,0.014490162,0.0054913224,-0.030718794,-0.19750993,0.069720216,-0.0043042684,0.032118995,0.102187626,0.074468784,0.077447094,-0.10174637,0.022765798,0.16458829,0.049341504,-0.013922642,-0.07692702,0.05715594,0.051717713,0.029983552,0.12128939,0.14041309,0.02418122,-0.17437592,-0.013174092,-0.02188617,0.10608315,0.091596685,0.07162898,0.055190414,0.050922804,-0.1123948,-0.046039168,-0.12738602,-0.027751768,0.2072801,0.08974713,0.13416481,-0.08103297,0.06630649,-0.098962516,-0.06320972,-0.008951015,0.06672569,-0.07532959,-0.0145954015,0.039301652,0.06252019,0.039721504,-0.050091464,-0.13488576,-0.25778404,-0.050363842,-0.07160742,-0.05625186,0.05626778,0.005000608,-0.058546178,0.021042924,-0.16684513,0.014340355,0.13412718,0.010769047,0.017164793,0.07775151,-0.06349709,-0.049624614,-0.052306216,-0.056699164,0.0094214855,0.18406713,0.012037087,0.25276273,-0.0038379547,0.24023813,0.016070796,-0.0087948125,-0.059526492,0.04253974,-0.09237814,-0.018662395,-0.0022018852,-0.26649487,-0.13545367,0.23493192,-0.013664369,0.021373933,-0.019280577,-0.009089279,0.0651569,0.06452946,-0.062362384,0.045053054,0.10453979,0.07012665,-0.0791047,-0.037162393,0.025021946,-0.123856895,0.099339284,0.02396047,-0.098441966,0.07346915,-0.14918649,-0.024588808,-0.004357842,-0.10222064,-0.052344542,0.0462892,-0.047583725,-0.13096702,0.015689278,-0.0627345,-0.061656445,-0.018601235,0.0114991525,0.024241412,-0.148153,0.047122475,-0.025811907,-0.014066752,-0.017123837,0.067715965,-0.02790925,-0.051884785,0.061005816,-0.06647177,-0.25732723,0.0040555825,0.12141457,-0.086199954,0.03192912,0.06286339,-0.08492485,0.00019256903,0.05890168,0.047809992,-0.019362634,-0.10342598,-0.10748418,0.032508634,0.009470575,-0.1058393,0.037575185,0.057380036,0.015043494,0.032623913,-0.016262472,-0.03548615,-0.03441509,0.00037064368,0.046614062,0.004702419,-0.06258616,-0.04647433,0.113786556,0.17652474,0.09499835,-0.031041894,-0.03139931,0.08625519,0.023870097,-0.043694414,-0.07136073,-0.0179172,0.04965422,0.076776765,-0.0018128314,-0.15547138,0.14207655,0.103808835,-0.046129063,0.035587694,-0.08206018,-0.04307788,0.021823518,0.1542812,0.05203886,-0.23063232,0.0036873743,0.0128301615,-0.005884673,-0.0067122043,0.016295986,0.079059444,-0.0459853,-0.006301804,-0.07165305,0.14137803,-0.024258882,0.02125963,0.12734872,0.0988848,-0.10580818,-0.24668469,-0.22245467,0.107653245,0.10536656,0.024973998,-0.042326145,0.026720153,0.0061791474,-0.028504355,0.0031261775,0.038711227,-0.09744051,-0.020884918,-0.07895405,0.040198375,0.030433578,-0.13264231,-0.005730251,0.0085949525,0.03149315,0.15911983,0.022458483,-0.003605047,-0.1214751,-0.20921287,0.0074774376,-0.12145552,0.088514484,0.005918128,-0.092638515,-0.09472162,-0.2234542,0.07496745,-0.030560365,0.035874307,0.041650992,0.18108809,0.2162976,0.042089853,0.069139786,-0.10198667,0.08762308,0.04466167,-0.058964506,-0.017144682,0.028494611,0.18298733,-0.04683432,-0.039979916,-0.03464462,0.12137039,-0.06148934,-0.10627181,-0.012217532,0.0138388965,-0.118556246,-0.0061280094,0.05405581,0.052989963,-0.0066977157,0.001165063,-0.06541281,0.02934039
-0.048269786,-0.07860194,0.15352486,-0.055366237,-0.12811202,0.06374289,0.115263164,-0.08765193,0.08297872,0.18075827,0.051800694,0.11239191,-0.07594772,0.17967126,0.07353729,-0.17508568,-0.0051360787,-0.12338224,-0.0023434847,0.12025957,0.00064705545,-0.08129964,0.010685725,0.15677701,-0.123671986,0.05802285,-0.04360311,-0.042240556,0.06075973,-0.004352662,-0.20677571,0.024184017,0.008309859,0.048146367,0.115991205,-0.027640237,0.04544612,-0.18581186,-0.09707851,-0.14738977,0.044671092,-0.20014943,-0.12787378,0.022245822,0.025502006,-0.004205736,0.010482062,0.13804774,-0.096044816,-0.09488045,0.093687795,-0.13102031,0.06162036,0.028264834,-0.028671013,-0.035836037,-0.03137602,-0.07750815,0.13979359,0.08386895,0.028217198,0.11569298,0.1832557,0.12641227,-0.031235704,-0.050101157,0.11254815,0.011729306,-0.023358138,-0.046581198,0.1993867,0.023041926,-0.09467674,-0.06457544,0.055719815,0.021673644,0.12008696,-0.11739327,0.024357473,-0.06935617,-0.05143089,-0.03925169,0.037052583,0.055681523,-0.009470737,0.09670523,-0.16911395,0.05682544,-0.08457359,-0.09454339,-0.023307601,-0.048856582,-0.11574567,-0.013564834,-0.011388002,0.02328791,-0.11451128,0.016280038,-0.14292638,0.1940502,0.10025143,-0.035507027,-0.002544293,-0.002423779,-0.08475213,0.040802393,0.01111675,0.025812836,0.1406847,-0.07227572,0.26717907,-0.049475227,0.093200006,0.012157886,0.007535166,-0.038303304,-0.005541436,-0.056766503,0.036974154,0.09915309,-0.12640654,0.08809934,-0.030681433,0.019175751,-0.08906142,-0.06321584,-0.013530475,-0.08092012,-0.025853798,-0.036985315,0.050641935,0.05906841,-0.021405945,0.055090632,0.07965919,0.056565102,0.06035028,-0.12686655,-0.04755613,0.03594501,0.024855914,0.06872867,-0.039376184,0.14584047,0.1269562,-0.019855762,0.018678539,0.07446773,0.06359609,-0.18033092,-0.20847727,-0.002425367,-0.058511984,-0.07213404,-1.31124725e-05,-0.017159596,0.07833972,0.17747095,0.11924531,0.05954688,-0.14249071,0.0009996549,0.117764674,-0.121638864,-0.000142535,0.06672563,-0.030535473,0.051495146,0.036097877,0.059575148,0.089840904,-0.20137335,-0.020061314,-0.038047478,0.017157739,0.13737242,-0.04241619,-0.15155804,-0.13592884,0.04680799,0.038631793,-0.050612118,0.011765414,-0.050259423,0.008478027,0.03455568,-0.007947616,-0.06776518,-0.10592906,0.09776169,-0.03551875,0.13492876,-0.061513316,0.032659236,-0.03838656,0.023536187,-0.1399624,-0.014422644,-0.029805506,0.09577873,-0.081901535,0.025020797,0.014159411,-0.056827873,-0.04158455,0.03785871,-0.01065862,-0.018696435,0.038223643,0.07202799,0.1393993,-0.080953404,-0.012490241,-0.09210905,-0.054863766,0.036309164,0.09551258,-0.015645396,0.02728076,0.003862564,-0.10396592,0.23176633,-0.04699948,0.058303397,-0.024579369,0.0586665,0.10956191,0.025261225,-0.07067795,-0.022874694,-0.12393137,-0.018783828,-0.14471553,0.059782635,-0.011464663,0.21553087,0.0028989867,0.04461109,-0.024142422,-0.12964547,0.098192066,-0.0636264,0.0357375,0.050003108,0.076383255,0.111022174,-0.035164703,-0.07309493,-0.15240157,0.036950473,-0.065142825,-0.0320579,0.035925455,-0.08624185,0.0702212,-0.050476834,0.0010851737,-0.03168208,0.091865405,-0.037084796,-0.11514145,-0.05816846,0.078761026,0.28185502,-0.017731363,-0.019209996,-0.09223956,0.030621463,-0.03269714,-0.029344264,-0.08673512,0.09199572,-0.14945905,-0.020930123,-0.06965511,0.02200187,0.0574035,-0.071769,-0.009789093,-0.03557448,0.15957488,-0.13377766,-0.08847166,0.18408212,0.05397792,-0.04841366,-0.03611815,-0.14213109,-0.10871609,0.04351407,0.08813291,0.022623565,-0.052209157,0.02244773,0.06948293,-0.02853188,0.18485564,0.14568214,-0.06898816,-0.003318688,-0.11134084,-0.230758,0.0020432596,0.02648008,-0.025883894,-0.07460631,-0.013922959,-0.08451052,-0.061416846,-0.22472773,-0.086910225,0.092476994,0.050573822,-0.036566466,-0.21378887,-0.0073838793,-0.027124938,-0.07382617,0.0888788,-0.0097035,-0.099208854,0.026345853,-0.0038309463,-0.012488579,-0.1447647,0.13477232,0.07879305,-0.067492865,-0.040033367,0.055510484,0.0075043235,0.031283088,0.15257932,0.1012321,0.047794994,-0.084950894,0.19025084,-0.11544756,-0.15953445,0.024218237,0.022728788,-0.011212612,0.07546978,0.020247951,-0.03906888,0.14895178,-0.08591678,0.12557952,-0.05637744,-0.020307831,0.06761183,-0.1470252,-0.08488039,0.06796575,-0.12520325,-0.010867059,-0.041801635,-0.06119811,0.012681746,0.030456107,-0.16106968,0.0008365588,-0.06896,-0.040159002,0.07483093,0.06760384,-0.036191024,-0.021622386,-0.10012696,0.03585138,-0.16761407,-0.16062564,0.034722053,-0.074896686,-0.115428075,-0.0034081053,0.038166154,0.15743457,-0.027996138,0.032215282,0.10036854,0.0059237164,0.11218561,-0.17741561,-0.011845601,-0.14497061,-0.037756655,0.05433109,-0.14244862,0.027950196,0.29388276,0.059226666,-0.078101166,-0.03169627,0.064924486,-0.038179535,-0.038999345,0.023008289,-0.03590709,-0.024658725,-0.025449913,-0.04229989,0.021684527,0.16925065,0.0034338606,-0.031901047,-0.06418511,-0.03668882,0.09825967,-0.08103249,-0.051862646,-0.048378948,-0.09776455,0.100420535,-0.016216423,-0.014686859,-0.10503354,-0.014450899,-0.05099893,-0.014128823,0.07571416,-0.22063655,-0.07804563,-0.0398989,-0.068681255,0.029908575,-0.019418336,0.13086891,0.12425255,-0.010743253,-0.030158322,-0.05675954,-0.1242654,-0.15880287,-0.014626267,-0.08370251,0.09975978,-0.17638958,0.13917856,-0.16504039,0.04442714,0.021887677,0.062878944,-0.16768382,0.008269143,0.17902525,-0.035302974,0.013724951,-0.11616237,-0.12384275,-0.005544418,0.08909845,-0.10635767,-0.07974182,-0.013851138,-0.0043723527,-0.07411814,-0.119300194,0.14883819,0.027371906,0.12232077,0.14862482,-0.011437323,-0.09874573,0.07178779,-0.0066779954,-0.03855306,-0.009813868,-0.023892833,0.01782586,-0.027438305,0.037934147,0.05320114,0.0047952365,0.19965592,-0.084476225,0.1365569,0.07193827,-0.018731363,-0.057389792,-0.07777451,0.04313841,0.058855943,-0.0044878507,0.1713905,0.012702399,-0.15393755,-0.09219616,-0.0102776345,0.07311547,-0.020019166,-0.037537273,0.020488169,-0.06794196,0.038599446,-0.01654085,0.021374492,0.04503663,-0.014722105,-0.01019502
-0.03934715,-0.12942652,-0.14935383,0.16043139,0.20781541,-0.1067492,-0.13419619,0.02653748,-0.12037153,-0.03973232,0.0004293393,-0.027645992,-0.0088074915,0.16534935,-0.056007966,-0.11309081,-0.03710496,0.20949998,0.13162164,-0.08387285,0.009811906,0.010137674,-0.0033026428,-0.020730747,0.0899386,-0.055158302,0.09260162,0.03790328,0.06728329,-0.058895875,-0.04091469,-8.674429e-05,0.043480314,0.019371439,0.03969338,0.10905819,-0.04125783,0.20240058,0.030568521,0.29930967,0.0011349,-0.10073224,0.03244667,0.03426754,-0.14553665,0.021295384,-0.046253454,-0.06922561,-0.04184721,-0.044044707,0.07523044,0.11257779,-0.087020956,-0.024911642,-0.038819626,-0.011547569,-0.0467938,-0.041333027,-0.06366284,-0.014809404,-0.015009929,0.0966307,-0.08617061,0.044630785,0.041197676,0.0018439715,-0.18066458,0.058508474,0.004281375,0.08883644,-0.1336005,-0.06668896,0.104504555,-0.06866269,0.06891792,0.13236965,-0.14837044,-0.14083843,0.04710441,0.046159606,0.0123677235,0.0014735943,-0.04298472,0.028706662,0.009288525,-0.1050427,0.17793657,0.0022581764,-0.009175212,0.08636436,0.15082456,0.015883498,0.09881095,-0.07736399,0.09533893,0.031397138,0.07223146,0.021719338,0.08757012,0.08358739,0.020050913,0.15831567,0.113223284,-0.16042702,-0.13248383,0.022353608,0.023013033,0.04365665,-0.18876383,-0.102060415,-0.094135,-0.08555978,-0.10001236,0.018165238,-0.04677231,0.00777848,-0.03555193,-0.044480924,-0.046032414,-0.01348585,-0.0019826947,0.05781277,0.031857952,-0.03110824,0.06640719,-0.00038881146,0.14230625,-0.0869777,0.023253012,0.005117578,-0.032927502,-0.12238272,-0.1672786,-0.0155256465,0.03536449,-0.03621617,-0.059370436,0.05673756,0.12974016,-0.017700914,0.032752518,0.080681585,-0.04005166,-0.23665778,0.040520206,-0.06908505,-0.19313858,0.08315653,-0.034891527,-0.01989977,0.013337527,-0.06660406,-0.036118418,-0.013693707,0.05168079,0.3382709,-0.15632948,0.05565892,-0.09848585,-0.050648127,0.025194954,-0.07093057,-0.06631434,-0.03133009,0.23120369,-0.12439567,0.0033348193,-0.033853658,0.10624227,0.031111492,-0.104798116,0.11411252,-0.0078093074,-0.025123026,-0.033776496,-0.071162514,-0.037600692,-0.12212468,-0.012960497,-0.010526295,-0.02274749,-0.0094510475,-0.021600397,0.099612415,0.14565372,0.0012644948,-0.19971357,0.029240254,0.22318472,0.029381141,0.0068312497,0.077861935,0.10770089,0.052150294,-0.06536867,0.15397464,0.1230757,0.005412113,-0.045531705,-0.13731402,-0.024147168,0.06023687,-0.0062700026,-0.02618594,0.0023952492,-0.09707506,0.023568729,-0.08063092,-0.04299104,-0.13029748,0.1486463,0.10590165,-0.07464517,0.1335765,-0.03475237,0.026718063,0.080529965,0.070939094,0.012220761,0.003110411,-0.031683307,-0.19481768,0.027586227,0.020593405,0.060457163,-0.025956636,0.010502886,-0.045937587,0.012580785,0.17570671,-0.02828708,0.06731743,-0.04134091,-0.07248806,-0.04175182,-0.15425706,-0.03638921,-0.32477716,-0.02671533,-0.056823514,0.020549243,0.028706422,-0.043547474,0.13761604,-0.052412216,-0.08757702,-0.03923205,0.012134684,0.0015601696,-0.024731709,0.06950585,0.06173551,-0.037747346,0.023487857,0.039192382,-0.021985129,0.039940074,0.11743224,0.055142857,0.00028961615,-0.016330535,0.039222237,0.031136217,-0.24334385,-0.042487465,-0.027212542,0.06970739,0.03306782,-0.008262354,-0.15114729,0.01684994,-0.095653564,-0.16957012,0.0712973,0.2447715,0.013269617,0.19159333,-0.02046031,-0.04605399,0.011501792,-0.09929469,-0.04382662,-0.027129086,-0.036419567,-0.086814985,0.049560316,-0.11675894,-0.032362085,0.16212185,0.046356577,0.07508336,-0.0330699,0.09897259,0.023539448,0.2054268,0.06477503,-0.017624183,0.11982849,0.0664936,0.1030723,0.08403315,0.17717633,-0.02790662,0.06993436,0.18312585,0.021281073,0.0072885836,0.005557277,-0.050958302,0.14663592,0.11911236,-0.0407258,-0.16649362,-0.14345902,-0.041315496,0.031029532,4.1105104e-05,0.16088092,-0.0667501,2.496499e-05,-0.08265971,0.022238323,0.0021899631,0.029823136,0.115210235,0.005400947,0.031120775,-0.028464714,0.037724447,-0.09595571,-0.025348075,0.0429723,-0.034425855,0.13154474,-0.0796919,0.09617243,-0.13129033,0.0957681,0.08097918,-0.0025341036,0.02451609,-0.025273643,-0.13236079,0.015273503,-0.031496536,-0.037388593,-0.02508341,0.036249027,0.06398763,-0.03958992,-0.080891274,0.13625015,0.0016447591,0.060517963,-0.04913806,0.0020219346,-0.030152408,0.03756678,0.048014976,-0.025309768,0.015559687,0.011176893,0.010875391,0.026410013,-0.12442352,-0.047310635,0.016767798,-0.09148481,0.1155932,0.04633824,-0.23617195,0.018591382,-0.016474854,-0.07663948,0.036465988,0.05785893,0.071809016,0.009569192,-0.027996048,0.0893454,0.032310415,0.033953775,-0.032861315,0.1255992,0.012718927,0.11545875,0.024084015,-0.12387747,0.07721252,0.00047654758,-0.06635054,-0.050332326,0.05614753,-0.050445855,-0.03451304,0.01568219,-0.012151327,-0.05015784,0.01945907,0.06098398,-0.004881692,0.0409585,0.024618497,-0.15382175,0.02843565,-0.09933525,0.17080496,0.028855441,-0.18106164,0.015994778,-0.044283796,0.12400585,-0.009860968,0.117184974,0.05313189,-0.0043368526,0.16045506,0.03944012,0.06792592,0.14577979,0.03886808,0.0864581,-0.1042408,0.038263753,0.15100403,-0.024824448,-0.09963484,-0.13567314,-0.10733567,0.017525598,0.058479454,0.042482976,0.019964771,-0.046058938,0.116242856,-0.17851713,0.014976552,-0.117594525,-0.09559752,-0.010494033,0.039290555,-0.09277996,-0.15024042,0.031436376,0.031550188,0.01641234,0.027220124,0.024334298,0.015748441,0.18679768,0.1199046,-0.050353855,-0.13617925,0.1179911,0.013042723,0.06818525,0.0077310973,0.019490985,0.08260653,0.11114717,-0.09348998,-0.017118284,0.009788534,-0.017508099,0.13790458,-0.002778207,-0.010544147,0.02689383,-0.016752282,0.0536378,0.019267932,0.024178524,-0.03835239,0.048549835,-0.20796864,0.008190808,0.04743032,0.08062068,-0.06519195,-0.14159726,-0.016688202,-0.013905169,-0.09807389,-0.04115106,-0.018152049,-0.09635687,0.18623155,-0.07052187,-0.039290134,0.029451573,0.10429433,-0.06435244,-0.060909007,0.10690989,0.018888637,0.029968552,-0.03629237,-0.03972665,0.11994029,-0.05425916
-0.07268178,-0.051633693,0.11855218,-0.02518993,-0.012259042,0.053847678,0.1516159,-0.0028947555,0.11104821,0.052843507,-0.11553767,0.0031155164,-0.006166441,-0.032427303,0.024853913,0.057802442,-0.13116941,-0.12271493,0.0910365,0.023632592,-0.073448166,0.075197384,0.026089545,-0.10469973,-0.16688599,0.04421708,0.040899526,-0.045390554,0.099983476,-0.011140351,0.047896553,0.03378598,-0.009887815,-0.005174925,-0.093870826,-0.04799062,0.018721132,0.033102185,-0.054504633,0.011768248,-0.018732483,0.15908267,-0.097957835,0.026772467,-0.032548584,0.050041575,0.1931095,0.15874006,0.117297195,0.06388232,-0.18096973,-0.23216642,0.003357902,-0.012742365,-0.0032403062,0.015509502,0.034404356,-0.0011326016,0.07241726,-0.02385486,-0.019996272,-0.04593283,0.028737102,0.13386583,-0.13171647,0.05768389,0.013937505,-0.1278736,-0.021031562,-0.07764553,0.062755585,0.0672095,0.2165079,-0.05767651,-0.032444637,-0.055449136,0.09782457,0.04248404,-0.031980284,-0.014668392,-0.0133449985,0.05545723,-0.007462504,-0.008633121,-0.02134839,0.15878773,-0.080523476,0.0042154286,0.12867682,0.07991762,0.109546356,0.0101918215,-0.023451764,-0.06814883,0.05483781,0.07613975,0.03171362,0.03348509,-0.00700853,0.2622599,-0.07869953,-0.043880194,-0.0789168,0.104562305,0.19215861,-0.008834206,0.039968003,-0.079952404,0.050956793,-0.15899955,0.21593386,-0.03563729,0.051723845,0.0024822508,0.029076513,0.0064884615,-0.041303065,-0.025362877,0.15084593,-0.081882305,-0.04735911,-0.044431746,-0.072815135,0.062970296,-0.12391786,-0.0027415028,-0.0050385627,0.14554748,-0.090202905,0.055332914,-0.052218154,0.10952935,0.12913729,0.02637815,-0.03893224,-0.1372881,0.07301025,0.009979245,0.037529603,0.0043237605,-0.0143279815,0.03709332,-0.011330948,0.06832248,-0.18834466,0.03866979,0.079381794,0.01897098,0.022809958,0.2269122,-0.06338304,-0.041108638,0.009965677,-0.015754862,-0.041262656,-0.015991122,-0.12519822,-0.072500356,0.058819417,-0.08621563,0.1447096,0.10402512,-0.00520381,0.08824253,-0.105763495,-0.11972818,0.037337076,0.09633231,-0.08363501,-0.014352485,0.09935185,-0.019977633,-0.0007129914,0.049792,-0.022565486,0.03723945,0.043973185,-0.021661641,0.17148294,0.04047263,-0.03147715,-0.08883465,-0.042179782,-0.022080434,-0.041021124,-0.034845196,-0.012471853,0.035001874,-0.1662917,-0.15474236,0.001150764,-0.14094792,0.039173484,-0.09404826,-0.059275523,0.12811151,0.11573339,-0.024461621,0.025622051,0.010040839,-0.13661803,-0.016487721,0.21418208,0.0053773397,0.013004643,-0.011604336,0.009296273,-0.16048431,0.021163903,-0.06887623,0.057189222,0.0003575711,-0.02011668,0.009949087,0.029387703,0.06335847,0.053904776,-0.049745925,-0.044817347,0.03113154,0.062121414,-0.017556766,-0.015190475,0.15870295,0.0040711574,-0.19193254,0.14292727,-0.0121699795,-0.034948226,-0.065421626,0.054510355,0.046952665,0.15740824,-0.015412226,0.0829614,-0.060786523,0.034136113,-0.021248994,0.03602272,0.17450291,-0.09296929,-0.08274596,-0.026750004,-0.18744095,0.017833674,-0.054553553,-0.04151474,0.007060341,-0.0060906825,0.027163258,0.088441595,0.011774853,0.058157153,-0.09056092,0.04930682,-0.01635175,-0.21023026,-0.04756441,0.20756428,-0.0572801,-0.005969191,0.093799956,0.07731235,0.07711472,0.11470361,-0.01662076,0.016166806,-0.013148414,-0.059997894,0.11539954,0.013008231,0.029450038,0.03531417,-0.051063325,-0.014452233,0.0027915502,-0.038904797,0.030547349,-0.09358143,-0.040033873,-0.11116596,-0.10232881,0.043929636,0.052801594,0.01942456,-0.012235088,-0.036690786,-0.082002625,0.008565295,0.059563722,-0.05220558,-0.04919595,-0.05934618,0.053137325,-0.022219302,-0.021351801,0.13492228,-0.09041128,0.056097828,-0.06523118,-0.14434806,-0.067028664,0.15907015,-0.25343478,0.060999922,-0.047821544,0.04079402,-0.023475211,-0.026181966,0.11960812,-0.038057305,0.006151493,-0.13739249,-0.07283403,0.058226824,0.054341957,0.010351372,-0.08485549,-0.016920673,0.005417454,0.001568487,0.00017776771,-0.030667875,0.042125706,-0.025313035,0.056983646,0.044651136,-0.06422533,0.021757351,-0.0743113,-0.15441905,0.036411714,-0.26176637,-0.11316834,-0.27233815,0.08696536,0.084388874,0.028532378,-0.25734276,-0.028606748,0.05573896,-0.15498194,-0.12818955,-0.07699801,-0.01264545,0.004990433,0.11171611,-0.027037263,0.06325748,0.11984674,-0.036804102,-0.10614002,-0.02840993,-0.091956586,0.048672568,-0.006433585,0.04252553,-0.04737808,0.083892725,-0.029679071,0.08669425,0.07501622,0.13352019,-0.019963676,0.08450378,0.026085975,0.04236534,0.10861606,0.06042329,0.009350769,-0.003836164,-0.029096741,0.10382607,-0.12496736,0.09713921,0.07026456,0.016840104,-0.20989968,-0.09918831,-0.0745303,-0.041713078,0.0018706449,-0.12705688,-0.060573906,0.032055337,0.03560389,-0.092191264,-0.0042097038,-0.085350774,-0.03554809,-0.025015416,0.11381713,0.039162498,0.031441346,0.17233765,-0.020931035,-0.010722926,-0.021641213,0.00030057193,0.11463199,-0.028819667,0.017429437,-0.01367442,0.06407382,0.034505535,0.04944682,-0.19598119,-0.020312818,-0.070991166,0.078685515,-0.06440248,-0.06669317,0.019419497,-0.1818554,-0.045847304,0.0140054915,0.054027442,0.012012173,-0.09824345,-0.02569002,0.044139504,-0.029276593,0.073603235,0.0034919921,-0.029379103,-0.045627803,0.15313248,-0.05409876,-0.06094005,-0.024225885,0.041342914,-0.06844824,-0.036124196,0.050342094,-0.056587145,0.13077301,0.06530516,0.1519424,0.13277572,0.084737875,0.05631327,0.10604457,0.114751585,0.10038785,-0.07909008,0.14203545,0.026020605,-0.066780455,0.044056766,0.07141296,-0.036714714,-0.17546132,-0.23259923,-0.009752067,0.025736365,0.03884334,-0.0070866058,-0.01602093,-0.009291022,-0.048263937,0.022365179,0.24239023,0.0024591638,0.063059695,-0.06967756,-0.023872359,-0.01710804,0.0050515695,0.13745798,-0.11356984,-0.005846036,-0.07841198,0.056145754,-0.194105,-0.12094256,0.019699037,-0.00736192,0.008393545,-0.048694808,0.0036646847,0.15496677,-0.074134134,0.05437661,-0.059512943,0.03349559,-0.040152453,-0.07541217,0.042089276,0.02924983,0.161055,-0.013776521,-0.029583171,0.051256154,-0.10288324,0.04561604,0.028261945,-0.08619686,-0.016585428,-0.06411201,-0.022318205
0.07748893,-0.122186035,-0.10733193,-0.021302218,0.17569654,-0.11831615,-0.15217744,0.09081946,0.049327224,-0.00243265,-0.06491109,-0.05754632,0.022524638,0.108570345,0.07580645,-0.025040474,-0.009118566,0.07177601,-0.118413195,0.074273884,0.038902413,-0.010002954,-0.0027277817,-0.10047523,-0.024440793,0.036572758,-0.033137947,-0.022445155,-0.03445541,0.026665071,-0.037810836,-0.029396007,-0.0366968,-0.097875156,0.08372711,0.18953323,-0.01657711,-0.12651524,-0.07883209,0.027098803,0.009915283,0.1470458,-0.0063941465,0.005514266,-0.07716237,-0.032186117,-0.15038086,-0.12603644,0.043016743,0.14793941,0.0019887104,0.084472276,-0.0045552193,0.025011836,0.036301013,-0.002620482,-0.0320292,0.0057628537,-0.022080181,-0.066368,-0.011674548,-0.013113121,0.045379885,-0.06012478,-0.11854938,0.18497099,0.07696784,0.07233708,-0.0056874063,-0.031154262,0.10193449,-0.0101677375,-0.06343668,-0.07270152,0.025320163,-0.008635057,0.08312736,0.03295275,0.040089488,-0.09709338,0.026175242,0.025934821,-0.14220499,0.1606493,0.030770576,0.15411259,-0.056789987,0.061138615,0.06903537,-0.081197165,0.012973591,-0.00981501,0.065510415,-0.108350694,-0.16120337,0.023050705,0.105586424,-0.04429859,0.029489882,-0.14244817,-0.15364389,-0.13378806,0.07244059,0.08201154,-0.035066,0.029683158,-0.041000783,0.03079538,0.15679537,-0.06202645,-0.114832185,0.11477078,0.05876611,-0.028808024,-0.010212126,0.029273842,-0.014865049,0.016268883,-0.19015321,-0.06498391,0.04228283,0.19241172,-0.0056426246,-0.080488324,0.120936856,-0.047534093,-0.034261856,0.25490227,-0.003854104,0.07047052,-0.15816215,0.17972545,0.01438268,-0.024533443,-0.013479052,-0.17538379,-0.025581175,-0.0406075,-0.08006652,-0.033000667,-0.024410471,-0.059128795,-0.051775753,0.016489673,-0.060138457,0.06916586,0.04589109,-0.06089788,-0.004793449,0.11504173,0.0006351668,0.06611538,-0.09336742,-0.0098071825,-0.03659706,-0.046039976,-0.12390712,0.048076693,-0.06008262,0.023311978,0.044118397,0.07509767,-0.06067527,0.1850482,-0.007899132,-0.0022954035,0.031063387,-0.028093245,-0.17063905,-0.0666147,-0.005570973,-0.061278775,0.022730408,0.0050223274,0.039160624,-0.13807824,-0.005703648,-0.07822831,0.045676917,-0.04682935,0.015608964,-0.14179297,-0.018562675,-0.05974073,0.009497801,-0.009851164,0.11691719,-0.01622927,-0.084060684,-0.06879974,0.007678447,-0.062753074,-0.056617886,-0.07163678,-0.08665226,-0.039999202,0.13322894,-0.118140966,-0.031552948,0.07983925,0.12713729,-0.013598808,0.14954314,-0.06728221,0.1045663,-0.10522496,0.019372009,-0.15216856,0.02747117,-0.005996229,-0.12669824,0.094307885,-0.03365091,0.111559704,-0.030315151,-0.022908812,0.011174626,-0.098817945,0.052764483,0.044008948,0.012270141,-0.07471204,-0.04155596,-0.043451056,0.05686995,0.02361793,-0.06438295,0.028437128,-0.032824017,-0.10653081,0.02209683,0.042012744,0.13273335,-0.01858422,-0.005709854,-0.12193284,0.042213082,-0.09710935,0.04564897,-0.14034328,-0.008057167,0.21695745,-0.039572198,-0.0062931604,0.021380244,0.023283934,0.04628007,0.17405044,0.065263666,-0.02688996,-0.020695012,-0.018062789,-0.022900801,0.027576102,-0.060102154,0.051013727,-0.11068863,-0.11714645,0.009337423,-0.02258083,-0.11624116,0.0058658356,-0.17950639,0.014039761,-0.12694263,-0.030330682,0.07285991,-0.02414193,-0.058413733,0.16344415,0.02610739,-0.14043479,0.16204406,-0.035096623,-0.027217839,-0.036400788,-0.15602522,0.030463263,0.0061697704,-0.06584254,0.06762751,0.14194773,-0.09906024,-0.0050015566,-0.011885501,-0.02529414,0.0836533,0.18607117,-0.079554975,-0.01831191,-0.06837019,-0.026298186,0.12649423,0.07467508,-0.09212289,0.05430709,-0.07264519,-0.021529578,-0.04318739,-0.12213886,-0.08835978,-0.18234327,-0.05213284,-0.10744216,-0.030779555,0.039050225,-0.042092033,0.03470146,0.01744105,0.10687395,0.22642036,0.004651748,-0.02850777,0.06394499,0.020734701,0.0065216436,-0.036021307,-0.092540435,0.059589475,0.016398476,-0.0056460337,-0.029505007,-0.065755785,-0.022294374,0.05311512,-0.14232199,-0.09477649,-0.081589274,-0.02257154,-0.022310093,-0.09323999,0.03284313,-0.051564474,-0.045310173,0.01573861,0.02611489,0.13563308,-0.008807019,0.046705343,-0.001206971,0.027796023,0.114178695,-0.05934541,0.011696788,-0.029455008,-0.0806274,0.057512313,0.015714968,-0.02266174,0.043810856,0.05963555,-0.021753283,0.02952932,-0.052167807,-0.037320875,0.06423636,-0.113022484,0.041206017,-0.04734203,0.005129141,0.10429096,0.028931022,0.23064643,0.040685453,-0.07170188,-0.040471997,0.011220867,0.027211994,-0.023975722,-0.05109263,-0.091710865,0.20060223,-0.046186242,-0.09483722,-0.064115405,-0.005363994,0.17787069,-0.11320175,0.16177279,-0.08109466,0.05242844,-0.05374702,-0.15944743,0.042941928,-0.054069065,0.09296033,0.019925833,0.05548881,0.08219441,0.0058383876,0.08851483,-0.067959085,0.036584824,-0.042791586,-0.051694214,-0.023710724,0.059370045,0.0445222,-0.15727603,0.20922166,-0.049575504,0.004454442,-0.03285501,-0.100626215,-0.025042038,0.036710136,0.16986108,-0.01788685,0.044055037,-0.038320057,0.021285292,-0.06255162,0.031429052,-0.10323996,0.15995595,-0.027277201,-0.07845772,-0.0147111155,-0.16114481,0.027688902,-0.08096851,0.071211405,0.087115414,0.008622387,-0.22056104,0.0014166902,-0.060052633,-0.095974594,0.1935708,-0.026922403,0.05516846,-0.1410137,-0.058595877,-0.014716401,0.032917075,-0.07758439,-0.17285421,0.26503134,-0.10222438,-0.16041918,0.0012776296,-0.13187455,-0.035891082,0.10196696,0.022584919,-0.11846917,0.019707642,0.04481755,-0.026136603,-0.14877374,-0.017921792,-0.024918577,-0.07973218,-0.07080277,-0.0022336182,0.10639564,0.005371876,-0.15207098,0.021405157,0.0633799,-0.15950948,-0.035789385,-0.05113949,0.028396646,-0.09045931,0.010690218,-0.08558422,0.00821628,0.017325986,0.028778808,-0.03431436,0.014479318,-0.010242106,-0.27411515,0.08198103,-0.05208716,-0.101229005,-0.017173938,-0.062713064,0.021486338,0.07842181,0.08323864,-0.0016437946,0.06367651,0.002727548,0.11088542,0.16081467,0.23681536,0.051505025,-0.07573416,0.021230275,0.034654967,-0.016209355,0.08492192,-0.033152543,0.047881622,0.10568888,0.044217024,-0.13082016,0.060730867
-0.0021994018,0.07936603,-0.08821635,0.051567525,-0.109401375,-0.08268489,-0.076064564,0.10737458,0.07200424,0.001467452,0.12884717,0.05360282,-0.015593451,0.058528196,-0.08202977,0.044691563,-0.005196801,-0.19261916,0.25924194,0.069564946,0.045790683,-0.015401796,-0.027127987,0.08678442,-0.06647886,0.018862078,-0.026399733,-0.009884669,-0.008189337,-0.007488822,0.04560951,-0.042457536,0.08063255,-0.0328514,-0.008238256,-0.059765417,-0.024054337,0.018458547,0.14584556,0.0012799727,-0.04355543,-0.16698167,0.024703464,-0.0069578863,0.2161214,0.0047061765,-0.020499777,0.02653539,0.13124296,0.17822331,0.024787834,-0.1656501,-0.06607351,-0.022318382,-0.2019389,0.07082068,0.045958105,0.01642989,-0.022220325,0.024617974,0.009820414,0.11948853,0.011809459,-0.094996855,-0.13115487,-0.15399252,0.013922691,-0.0077647436,-0.05011462,0.0595143,-0.04281656,0.032839116,-0.0335416,0.15745324,-0.00026377957,-0.04462979,-0.29070726,-0.05132395,0.034679312,0.114252724,0.011355175,-0.0392324,0.014308914,-0.0976028,0.038901974,-0.067490675,-0.0781708,0.0082484875,-0.0539454,0.037866075,-0.11365847,-0.015881946,-0.089434594,-0.030006075,-0.11882656,0.06574112,-0.06831148,-0.034545418,0.059951473,-0.04372044,0.16661862,0.023208858,-0.02008604,-0.06825211,-0.09418146,0.04361737,-0.015795462,0.0945439,-0.076595955,0.0057206145,-0.26751733,-0.02134475,0.023461968,-0.013270733,0.0009862975,-0.018923452,0.0123895975,0.03551576,0.085094765,-0.05870165,-0.11343662,-0.013255039,0.06277792,-0.041553684,-0.02465642,-0.010389397,0.023132054,-0.17240837,0.13591702,-0.2651485,0.10273035,-0.2560661,0.005015069,-0.04075539,-0.02487834,0.023021536,0.0019803608,0.13583258,-0.08526362,0.061062064,-0.028686374,0.07770149,0.050692298,0.055593055,-0.034177773,0.08274052,-0.01689185,-0.140981,0.023487058,0.09838548,0.036055222,-0.017079407,0.08723891,-0.22086462,0.027278446,-0.18608008,0.15836172,0.11185605,0.16037099,0.004048791,0.18096009,-0.02068212,0.13103728,-0.066796884,-0.08684563,-0.08077698,-8.737739e-05,0.007564815,0.1338199,-0.005344922,-0.038693253,0.15832369,0.014558706,0.08881227,-0.060818575,-0.047568113,0.08430843,0.13894065,0.10995663,0.0063696527,-0.02725199,0.18075587,-0.007047465,0.019502787,-0.09976059,-0.1717249,-0.15224627,-0.1657207,-0.026067333,-0.016593393,-0.017149433,0.027787222,-0.085952595,-0.035852958,0.068895094,-0.07647205,-0.06907904,0.21355489,0.02204872,0.027462525,0.13958858,-0.018694302,-0.18038125,0.028042197,-0.036859628,-0.0237572,-0.05171915,0.2047268,-0.05124961,-0.006767689,-0.118283175,-0.063781925,0.022821352,-0.11329296,-0.010920349,0.055760883,0.0819682,0.043184873,-0.12511326,-0.041421656,-0.0414462,0.10467403,-0.0046503632,0.06332914,0.114190355,0.04166643,-0.1753663,-0.02010166,-0.061934035,0.2564015,0.004132942,-0.03474796,-0.069609135,-0.005681361,-0.008100923,0.11315814,-0.018150726,0.122094795,-0.00594418,0.13770223,0.0010920585,0.015519202,-0.03229132,0.0076568136,-0.016082495,-0.07606281,0.027840143,0.111987494,-0.07080767,0.003139144,0.041636117,-0.023884695,-0.032495,-0.05982379,-0.02307788,-0.049981494,0.008885767,0.1611551,-0.29222715,0.11085227,0.026555937,-0.072405,0.088605836,0.06280508,-0.059348464,-0.06749719,-0.13857354,0.0227415,0.14633015,-0.20749654,0.027589766,-0.001057815,-0.1284254,-0.12575719,0.11993953,0.043128252,0.097509995,0.07660354,-0.09308925,0.05347255,0.029920915,-0.0515427,0.11960902,-0.09980019,-0.06496122,-0.020740042,0.07177572,-0.14254954,0.09830038,0.03510893,0.027493333,0.016957553,-0.11359004,-0.023438718,0.17868328,0.029477388,-0.014942634,0.077724166,-0.12480215,-0.07384947,0.1614631,0.16488016,0.049854662,0.083364606,-0.08263003,-0.0023615288,-0.03243982,0.055954263,0.005612217,-0.0988656,0.0025418268,-0.05141652,0.045519814,0.27956995,0.17772333,-0.087203786,0.03641312,-0.12939611,0.10143436,0.027413175,0.0027637102,-0.021508645,0.0076297335,-0.04736491,-0.15701884,0.038547345,0.017929986,0.15592888,-0.03258928,0.04267806,0.1787885,0.013417188,0.08044258,-0.2001446,0.11652419,-0.020961665,-0.14280939,-0.072151005,-0.032111134,-0.07348928,-0.057631448,0.07487775,-0.084457174,-0.09079859,-0.010428487,0.019748483,0.04916169,0.056013152,0.114769,0.12296391,0.07700389,-0.17026167,0.10239332,0.15126397,0.10616762,0.1956123,-0.0050513763,0.09070439,-0.10172306,0.037960086,-0.0947472,0.006680508,-0.0046607237,0.08502218,0.074334964,-0.063160054,0.00047827684,-0.030298688,-0.071196266,0.06881133,0.16880186,-0.1427751,-0.11700095,-0.01707137,-0.005458693,0.025273252,0.001417758,0.1188892,0.022563063,0.04486682,0.095317096,-0.037010986,-0.0074111605,0.12473757,-0.030483732,-0.070256546,-0.015520125,0.019572612,0.09991013,0.011078431,-0.09534912,-0.16412845,-0.07608392,0.032338407,0.11034878,0.08405742,0.053484466,-0.013018188,0.044516187,-0.0054935343,-0.05163278,-0.038123094,0.04055437,-0.117638856,-0.011131418,0.07967834,-0.013056486,-0.02527541,-0.012303612,-0.104064375,0.015933225,0.06451253,-0.083486296,-0.03610788,-0.00594992,-0.0342743,0.030014817,0.06620871,0.1329797,0.019385843,0.07399804,0.08288527,-0.05714497,-0.051702138,-0.032660812,-0.03317592,-0.10205604,-0.04615665,0.021704433,0.01523702,-0.0013686448,0.12833989,0.12933221,0.06122995,-0.010708113,0.08237953,-0.042853598,-0.09885551,0.058039553,0.13674916,-0.07562455,0.06258391,-0.2103355,-0.05933016,0.05310337,0.009870265,0.03904228,-0.05393281,0.14687489,0.17124157,0.01724851,0.053371456,0.027117092,0.10698933,0.04312814,0.06526895,-0.07599472,0.048712995,-0.06768673,-0.1432847,-0.040730536,-0.1362944,-0.056545448,0.050122764,-0.16593273,-0.006845881,-0.017079432,0.07094986,0.22953628,-0.018743705,0.0010005579,0.103045,-0.02397861,0.15126717,-0.018435813,0.098503046,-0.043719944,0.0011763367,0.10638729,0.02095958,0.025676368,-0.06622247,-0.050485417,-0.05387819,-0.034593962,0.09280391,-0.092308074,0.021624625,0.04882907,0.060705494,-0.020154702,0.01779792,0.04395966,-0.014073311,-0.057417087,-0.0393467,-0.023001028,-0.06090645,0.14457473,0.0336144
0.1236998,-0.014585809,0.02480255,-0.025367033,0.11293139,0.11718475,0.032068904,0.027069192,0.047819514,-0.0698647,0.08821925,-0.03572121,-0.07891192,-0.011959599,0.0739146,-0.034633122,0.16796704,0.07046859,-0.12691426,0.13109547,-0.024886556,-0.11933156,0.05103347,0.09774209,0.13241303,0.026522731,-0.13679224,0.0070645497,-0.04666713,0.029340543,-0.1593922,0.03157336,-0.006956337,-0.12850651,-0.13465545,-0.07243733,-0.04665992,0.07372925,-0.11469946,-0.14096044,-0.07032704,0.23266079,0.18465905,0.010872718,-0.0059235212,-0.022987384,0.04274886,0.14237453,-0.2899114,-0.021848084,-0.108841516,-0.018947989,-0.07060551,-0.10855995,0.0707275,-0.053964302,-0.01163842,0.10154424,0.03131924,-0.0816257,0.02894371,-0.12006909,0.11757089,0.15519753,0.2391732,-0.037173834,0.031804316,0.012147131,0.06983258,-0.021221062,0.12817137,-0.17183307,-0.14625157,0.06471874,-0.018014222,0.041011784,0.12133743,0.108062945,-0.04706066,-0.1482777,-0.040111482,-0.14299934,-0.065674014,-0.13338771,0.06511928,-0.17505503,-0.10405864,-0.05369683,0.09639158,-0.076574504,-0.13396768,-0.0029261834,-0.117741875,0.124562226,0.08853687,0.0010607811,0.012260171,-0.03853032,0.00036648728,-0.00079959084,0.06975965,0.09878086,-0.08140325,0.05813154,-0.023629742,-0.0019794945,-0.0027302045,-0.17863443,0.05624668,0.16501902,0.14029825,0.16127647,0.17715317,-0.027119668,-0.029685734,0.024520218,-0.001635444,0.0029387113,-0.18328263,-0.12053264,-0.03224064,-0.07621626,-0.017307997,0.06554574,-0.2471817,0.035236724,-0.063320465,0.09738676,0.0015200287,0.052590825,0.059504285,0.17137176,0.006297016,-0.077957176,-0.01894599,-0.07508979,-0.082739025,-0.13439113,-0.08421814,0.068151236,0.01233217,0.008434529,0.040397674,0.0068679373,0.11612959,0.1096751,0.10400541,-0.042858057,0.070985354,0.06950902,-0.15479916,0.065965764,0.05219169,0.11374593,-0.08165757,-0.1358218,-0.121506445,-0.103050955,-0.1573253,-0.087799475,-0.098008856,0.0461389,-0.025223376,-0.16992635,-0.12335155,0.115149476,-0.018388044,-0.09471416,0.102857046,-0.047464542,-0.06098959,0.054113064,0.02637713,0.019558461,-0.031149235,-0.021805711,-0.019423375,-0.08626827,-0.026773069,-0.026440322,0.033001553,-0.11507245,-0.03492162,0.059606317,0.19013683,0.09741346,0.04583283,0.105652384,0.022464784,0.07484688,-0.05152853,0.14368361,-0.011425393,0.013765461,-0.067551695,0.10598449,-0.12650721,-0.1114063,-0.0031592539,0.13140279,-0.13610287,0.00019081327,0.0505468,-0.049968526,-0.03960625,0.01911308,-0.0074436064,0.12764838,0.003842195,0.06674892,0.1010341,0.18705574,0.02204091,-0.16603081,-0.03963308,0.011049057,0.02007784,0.155761,-0.1330607,0.03819262,-0.06769173,-0.13250639,0.005145283,0.044442266,0.0014393831,-0.11099728,-0.03862176,-0.041059043,0.03285207,-0.1533746,-0.15661561,-0.025193056,0.11899443,-0.008435046,-0.08839685,-0.048501186,0.010657694,-0.016091883,-0.05094321,-0.1790676,-0.047503274,-0.049253363,0.01515154,0.07253397,0.012517844,0.074204296,-0.01665169,-0.06051,-0.054604374,-0.0736164,0.024964182,0.068994075,-0.03247555,0.07064377,0.011420057,-0.007186051,0.11486327,-0.062954724,0.08846328,-0.04523538,0.047635667,-0.1064877,-0.098719515,-0.09367352,-0.16235918,-0.018837519,0.1395107,0.0019820274,-0.025388312,0.09753324,0.048014246,0.0668624,0.23095231,0.13017781,-0.13599196,-0.044459503,0.1336873,0.002512101,-0.0648868,0.0028053315,-0.017688278,0.17985274,-0.09747733,-0.12434549,0.11593103,0.054965615,-0.122866005,0.12249238,0.07553247,-0.114764266,0.087122045,0.11208829,0.03393207,0.15408078,-0.22735359,0.03328941,-0.10350496,-0.058873486,0.14526252,0.05574843,-0.036902495,-0.013771302,0.119546294,0.05178943,-0.121494636,-0.0108984895,0.0024285382,-0.021822851,-0.08334886,0.015992105,-0.034396432,0.040097687,0.039536327,-0.1451807,0.15436602,-0.07893397,0.031114891,0.041757204,-0.14271307,0.023667011,0.051598832,-0.015052508,0.083337165,0.029088542,0.11496001,0.12806003,-0.089617535,-0.017303655,-0.053317964,-0.14594753,-0.14586514,0.03918063,0.13251008,-0.01865029,-0.11662729,0.07948979,0.122063406,0.047135778,0.06373381,0.08351981,-0.08722965,0.07967577,0.14091396,0.038776435,0.14178084,-0.16200021,0.13110672,-0.0589953,0.05700371,-0.058664195,0.16678336,0.23668233,-0.0015895371,0.09124158,-0.15133885,-0.07713316,0.03729063,-0.022716053,0.10553381,0.050089266,-0.024465576,0.018699616,-0.059573174,-0.04623036,-0.06802727,0.02511157,0.009542083,0.15612957,-0.008374834,-0.047235653,0.09471724,0.01786121,-0.12553646,0.34054953,0.03341471,-0.10670708,0.072826974,0.051528998,-0.035376515,-0.10414143,-0.008349639,0.069410145,0.229198,-0.09008906,-0.026030399,0.008607119,-0.058979668,0.100494154,-0.06710494,0.0148584135,-0.23684387,0.041501515,-0.0069823773,-0.017632004,-0.32867032,-0.11408906,0.015501314,0.04043104,0.17421098,-0.14712983,0.030454658,-0.06154335,-0.030256929,0.09109583,0.019218601,-0.11716057,-0.11033989,0.038806558,-0.012988321,-0.026094321,0.13103326,0.08670237,-0.07078676,0.010054528,-0.069418006,0.006474171,0.17333865,0.0015553373,0.023696195,-0.119154625,0.058600787,-0.07171974,0.06561622,-0.0031159443,0.17958066,0.07449406,0.09249353,0.12467041,-0.03718805,-0.038849924,0.112345204,-0.06618811,0.15577227,-0.21225345,-0.054813728,0.04432718,0.02422674,0.19284841,0.1678491,0.12270229,-0.06409156,-0.013970465,0.21251172,-0.07526249,0.16165,-0.102569416,0.025690202,-0.03039685,-0.036842514,-0.15156716,-0.09870649,-0.09335414,0.06937364,0.044817578,-0.0065540737,-0.06325362,0.08521445,0.04655896,-0.05654382,0.064549334,0.15384197,-0.014254673,-0.060330544,-0.08846173,-0.031053877,0.031540446,0.021184156,0.08544803,-0.351773,-0.114681594,-0.09272035,-0.040029712,-0.098733015,0.06560897,0.04242624,0.07057652,0.05863281,-0.04004665,0.017984612,-0.009879973,-0.0060332734,-0.08287781,-0.053866405,0.10802399,0.09492061,-0.06702498,0.012135169,-0.09540059,0.031252936,-0.18359868,-0.1398595,0.020431053,-0.042463,0.012073924,0.0019396923,0.114089005,-0.05244239,0.010110453,-0.106206104,-0.03393264
-0.12042871,-0.051244244,0.008054119,-0.18044198,-0.17657566,0.030293856,-0.0030119454,-0.093395874,-0.047951367,0.002569034,0.04593083,-0.14197117,0.037257563,-0.2681957,-0.15900761,-0.11620101,0.019586558,-0.017673282,0.17977479,-0.2575018,0.026564196,-0.004614119,0.047224868,-0.18635412,0.24231867,0.04748239,0.13962533,0.019238891,-0.11106214,0.06545653,-0.14099973,-0.013171868,0.049753573,0.055506773,0.09261573,-0.12669809,-0.0319952,0.08622439,0.077493,0.12673105,0.054399077,-0.057143062,0.04676632,0.05145305,-0.06770106,-0.036721665,-0.009799131,0.021337168,-0.097902305,-0.20130257,0.038594905,0.06867426,-0.010237719,0.08872318,0.082720935,0.027242161,-0.037639674,0.14605758,-0.080282,-0.12809543,-0.047776036,-0.14832297,-0.07903056,-0.10687236,0.11375441,0.060189694,0.009986804,-0.06380727,0.026469335,-0.07470593,-0.072232954,-0.013858585,-0.010166534,-0.02630621,-0.03376804,0.15314092,-0.0072237244,-0.057469085,-0.03529411,0.12686604,0.025513314,-0.017373746,0.18852238,0.068924725,-0.08931547,0.04148403,-0.04054134,-0.028610196,0.028213972,-0.0050584814,0.010225195,-0.054306645,-0.006943333,-0.06042167,0.0044790125,-0.08024793,0.1312889,0.01591936,0.07930848,0.07903559,0.10697872,0.23302026,0.031050785,0.105528496,-0.013143317,-0.028659659,-0.020097183,0.034961894,0.005991358,0.08273269,0.08556883,-0.018854354,-0.10397855,-0.0054360116,-0.035319813,-0.006501607,0.019910662,0.06494643,0.06588246,0.11670728,-0.032256465,-0.06574505,0.05410465,-0.039487794,0.15619399,0.055339307,-0.006501346,-0.06972725,-0.022999318,0.10614416,0.0845583,-0.16365975,0.03212693,0.011867369,-0.050417982,0.012907915,-0.016732914,-0.120341994,0.16738497,0.019894863,0.025336543,-0.114100516,0.08174201,-0.05635036,0.08838451,-0.1245859,-0.032724433,0.35555667,-0.037070625,-0.084300674,0.21297537,-0.05284369,-0.026516872,-0.11431605,-0.0059015825,0.025708294,-0.06287803,-0.075926796,-0.20971785,0.12248292,-0.12214186,-0.025848629,-0.025231974,0.024837665,0.2638564,-0.14094813,-0.0306581,-0.14543264,-0.00047559966,0.055837985,0.13286103,-0.25931498,-0.024363128,-0.03738153,-0.004716361,0.10515448,0.0030986227,-0.024480484,0.076904476,0.06970755,0.020542698,-0.13359146,0.0138414,-0.059736848,-0.058660652,0.13895978,-0.16148598,-0.02129696,0.08828423,0.02693803,0.053394657,0.07373264,-0.09736494,0.08507771,0.03341987,-0.009167088,-0.13976188,-0.10536532,0.039554957,-0.015201886,-0.13040195,-0.099008,0.020193947,0.0017189285,-0.09143322,-0.07262804,-0.100614354,0.26806685,0.016595285,0.0747051,0.024173073,-0.17515436,0.030693004,0.08318689,0.03883885,-0.041394945,-0.08523275,-0.059121013,-0.04451557,0.040356338,0.035859037,0.05431088,0.17309181,0.058119617,-0.07520446,-0.08122281,0.17693383,0.04562538,-0.08571498,0.04062995,0.015129889,0.003806035,-0.08363802,-0.04994228,0.051293474,-0.16692705,0.04367297,0.059506193,0.03256866,0.19697583,-0.060030174,-0.0030081277,0.044292614,-0.14184588,0.040662143,-0.08863618,-0.051485937,-0.10285365,-0.0016974966,-0.030316494,-0.06704448,0.015688702,-0.06887967,0.008704195,0.090990685,-0.04456252,0.047499213,0.033508852,0.13005452,0.060866337,0.13991036,0.045890924,0.097983055,-0.24259464,0.025759913,0.08999541,0.09069664,-0.021038692,0.0035033133,-0.06279247,-0.093279034,-0.04876675,-0.0427454,0.026308862,0.2033637,0.0480115,0.11518383,0.05046126,-0.04144315,-0.07468136,-0.122360274,-0.04745966,0.051192384,0.038688485,0.06417679,0.030744048,-0.10033864,0.020634588,-0.030953456,-0.030281886,-0.16708156,0.018129759,0.2517877,-0.20647602,0.18779677,-0.03442679,0.10483296,0.00439001,-0.104532026,-0.03230211,0.16463566,0.013722701,-0.14870775,0.16792037,-0.14697966,0.090213686,0.04176663,0.02879937,0.048396844,0.11541556,-0.10159874,0.045482356,-0.01237621,-0.07927563,-0.17544828,-0.05126093,-0.0062823077,-0.13050136,-0.0024552366,-0.03958464,0.030486917,0.032056402,0.18516041,0.04506135,-0.0242918,0.1536495,0.18817805,-0.19115071,0.01074942,0.16790004,0.22797512,-0.01761517,-0.0051397816,0.10883744,0.21778801,-0.03528945,-0.14126657,-0.102830276,0.1927846,0.013705032,0.03952286,0.046898954,0.026141796,0.07619425,0.04075197,-0.12118692,-0.15167326,0.012470252,0.033142872,-0.03769794,-0.09882487,0.04567622,-0.03169299,0.055746797,0.07380456,-0.0843378,0.032974873,-0.078867614,-0.031433783,0.020130713,0.036262654,-0.06696104,-0.26597488,-0.0874077,0.069618076,0.011980207,-0.0025151821,-0.05770237,-0.044485886,0.04797316,0.070643626,0.04241255,0.0036352132,-0.108406864,-0.13433032,-0.11718318,-0.34397662,-0.02950598,-0.1166761,0.009665935,-0.050616033,0.1254821,0.07564619,-0.09131133,-0.022909088,0.013719281,0.07163658,-0.114223905,0.08923021,0.028518489,-0.08105409,0.020670721,0.14768086,-0.040234413,0.033444468,-0.0016144164,0.044395305,-0.008318937,-0.06360554,-0.11249717,0.01550453,0.045062862,0.008380832,-0.058679283,0.032993194,-0.043339133,0.0793414,0.043169633,0.04945885,0.04425388,0.023996515,0.2089031,-0.07126064,0.017150726,-0.060072545,-0.0051972363,0.077657305,-0.0058466094,0.13231218,-0.075962014,-0.031123187,0.04460988,0.12163331,-0.006031556,0.17472999,0.011654171,0.14029343,-0.0786251,-0.030862985,-0.04505107,-0.04305564,0.0035384628,-0.16780128,0.039897416,0.059282627,-0.02481896,0.12290163,0.011354004,0.10383993,0.038313095,-0.21607928,-0.03326601,0.079388976,0.09614312,-0.044426434,0.033814218,0.009919764,0.04237152,-0.029813705,0.06459711,0.12232717,0.1133977,0.15918581,0.100658685,-0.012495835,-0.11170768,0.105166204,0.035025593,-0.11508785,-0.0014323397,0.11342284,0.07894927,0.013228633,0.028635103,0.12336984,-0.04598808,0.06105342,0.07085734,0.0065754363,-0.011128905,0.0045032687,-0.05088578,-0.036398083,-0.013038957,-0.034002844,0.00038790522,-0.15766552,-0.064580224,-0.0500691,-0.06709659,-0.060540345,0.026810443,0.07404399,-0.14940646,0.07606612,0.16096598,0.02047598,-0.053752195,0.009196329,0.11676095,-0.101959005,-0.030032376,-0.022414498,0.16145465,0.027413564,-0.018713856,0.008519193,-0.08843456,0.19947925,0.09015429
