0.013405482,0.024742829,0.03553937,0.0043008607,0.023629073
-0.00075766374,0.021867234,0.031698905,-0.013753089,4.755764e-05
0.005191524,0.02158609,0.059947606,0.029259108,0.05946012
0.010118018,-0.012331351,-0.0010711726,-0.032115716,-0.01222301
-0.045623798,0.0012117318,0.00820789,0.015757252,-0.049894113
-0.021877449,-0.034572557,-0.055891864,-0.052021474,-0.0064104656
-0.03642387,-0.05074265,-0.032545563,-0.029583173,0.013998889
0.02102114,0.019079164,-0.034700003,-0.0012607871,0.017013768
0.021835387,0.015182166,-0.03279103,0.0035854592,0.04323582
0.050830863,-0.034009043,0.059977826,-0.0034307875,0.06685782
0.01703662,-0.06870522,-0.088837214,0.03470786,0.08145031
0.007683679,-0.01016585,0.022569766,0.05688609,-0.03263058
-0.04203461,-0.041242227,-0.0087885475,-0.007160334,0.0016508484
-0.005116801,0.035479575,-0.0037357977,-0.007550051,0.07987909
-0.04392832,-0.057963785,-0.06532224,-0.038344402,0.02746785
0.036225963,-0.05096068,0.029342286,-0.027641892,0.024813082
0.032368097,-0.01716169,0.009017849,-0.012696617,0.007680302
0.017609378,0.030137595,0.0059102313,0.0011527843,0.062263634
0.06812212,0.028703129,0.0032654519,0.0018253869,0.040418305
0.013364429,-0.040141635,-0.014099902,0.047251564,0.02836878
-0.051111255,0.03180687,0.063677505,0.042199682,-0.027366247
0.03281998,0.0359428,-0.030469824,-0.009607635,-0.0020145152
0.05790975,0.039837368,-0.06513387,0.023464851,0.0031523127
-0.0027818053,-0.00995238,-0.013160986,-0.03658032,-0.040771063
-0.03853453,-0.017704805,-0.015684681,-0.0036636519,0.03844838
0.043965384,-0.009063118,0.010992196,0.0568019,0.050104506
0.07366458,-0.0561333,0.03489919,0.096698456,-0.050681803
0.051065188,0.02423667,0.07338198,-0.005521581,-0.022662776
0.068635836,-6.68368e-05,-0.034266893,0.0047964086,-0.102583215
-0.028471522,-0.0042105485,-0.04095633,0.01754595,-0.026495636
-0.014190803,0.013831738,0.024059054,0.06634452,0.051111657
0.036947384,0.027043246,0.033751514,-0.044783995,-0.0015819225
-0.014209983,0.018968944,-0.032228626,-0.05155582,-0.017100085
0.054174576,-0.040135283,-0.030139795,-0.0056068935,-0.05685319
-0.044417575,-0.025730733,0.00878934,0.03474526,0.035829213
0.011330429,0.018970335,-0.0017179915,-0.03675106,0.04079811
0.025648406,0.028036332,-0.06543717,-0.06313816,0.005117174
0.014921883,0.0076523917,-0.011587746,-0.024825512,0.06941967
0.002015732,-0.016825208,0.03174325,-0.03790371,-0.043329377
0.03608015,0.029281734,0.056554496,0.01335318,-0.021729393
-0.022121338,0.004730156,0.0045958976,-0.06058637,-0.07130592
-0.037902463,-0.020679198,-0.013329931,-0.09226068,-0.06327394
0.030714445,-0.057770155,-0.106768444,-0.013545502,-0.031258438
-0.009070069,-0.036063995,-0.014710721,0.0051341327,-0.07840397
-0.01773227,-0.035491146,-0.021367703,-0.012759927,-0.024475615
-0.03439432,0.04121829,0.005422044,-0.0019094911,0.016507274
-0.023087343,-0.048866287,-0.0069527877,0.014966207,0.020453818
-0.030972656,-0.053613685,-0.047183864,0.009022446,0.030576719
0.030320728,0.040668797,-0.012187028,-0.0027097655,0.035078924
-0.0035489383,-0.015477773,0.050976105,0.03382978,-0.021944774
0.008360402,-0.05032566,-0.062271968,0.0018865239,-0.026863841
-0.0023171324,0.020299193,-0.07188757,0.028925633,0.06163898
-0.03270262,-0.03000008,-0.00035617256,-0.05275464,0.040317185
-0.010570163,-0.039061286,-0.054932635,0.0117177935,-0.003921472
0.03676803,0.014716407,-0.0083913235,0.07247064,0.023594571
-0.00969938,-0.04275126,-0.01693428,0.010952468,0.011478662
0.04485877,-0.02570641,-0.019563366,-0.022638183,0.08998962
-0.02252974,-0.022712778,0.04580737,0.04481207,-0.00507456
0.00047641844,0.0059507415,-0.026684938,-0.01862233,0.046960875
-0.021606022,0.03144422,0.013398241,-0.033294667,0.036247388
0.047216017,-0.050176013,0.02982696,0.02985705,0.0040792953
0.038659282,-0.03576723,0.03058562,0.008281359,0.016429901
-0.021962969,-0.0061263433,0.08370172,-0.022930903,0.007169258
0.013185837,-0.0013124602,-0.027069863,-0.008410624,0.014543808
0.014955655,-0.0470714,-0.002487851,-0.023953099,-0.053588286
0.041042596,-0.02018191,-0.008288652,-0.025091339,0.03778219
-0.0031805497,0.016111717,0.014019813,-0.0038896066,0.04419054
-0.043811273,-0.01664935,0.0027878208,-0.0032015964,0.0007695155
-0.0279325,0.005180458,-0.013337139,-0.0614818,0.027439121
-0.03331292,0.0149217425,-0.05952275,-0.03731577,0.03294999
-0.026642868,0.018042147,-0.027710443,-0.033075463,-0.026848394
-0.015212228,-0.03608763,-0.064289734,-0.057062708,-0.058699533
0.03182107,-0.061852876,-0.061202776,-0.008491328,-0.0014173551
-0.051031057,-0.05331409,-0.03427994,9.2313916e-05,0.02149174
-0.025025003,-0.011103092,0.018833252,0.017192874,0.038123265
-0.011408245,0.017637065,0.024347086,0.0010208226,0.004953594
-0.0061308965,0.03367366,0.024024546,0.049721632,0.053685904
-0.004148897,0.008371742,0.025212005,-0.0010867793,-0.02102894
0.020534897,0.027501862,-0.0031804265,-0.027266048,-0.0015991906
-0.05398114,-0.069982395,-0.031259023,-0.0024131886,-0.04753854
0.01876966,-0.011157998,0.049796913,-0.0057426216,0.023800412
0.052978277,0.0205987,-0.03433501,0.03916911,0.062036086
-0.010817777,-0.0077018347,-0.05137212,0.0002977979,0.0071558338
-0.008367087,-0.029280368,0.0032297259,-0.0022876158,-0.002855593
0.0042658723,-0.041869078,-0.020029267,-0.04149272,0.05174057
-0.012321707,0.022158653,-0.025313025,0.018349903,0.015122761
0.007815419,-0.008476032,0.023498539,-0.06516189,0.028946783
-0.012831895,0.010130933,0.007496015,-0.039852004,-0.036990125
-0.0213665,-0.039439708,-0.056601137,0.0040313806,-0.06852401
-0.015298546,0.008272388,0.008131324,0.030664513,0.03589144
0.02978945,-0.021142147,0.011158484,0.012065058,-0.052521788
-0.028406108,-0.03202039,-0.048106544,-0.06320519,-0.042158082
0.031997897,-0.009644545,-0.0015746666,-0.04294672,0.05326073
0.043455496,0.0256394,0.05844628,0.02861294,-0.024337396
-0.03220204,-0.007262902,0.059133977,-0.0043489956,0.0032033152
0.008195114,-0.030136311,-0.043022987,-0.02990125,-0.044500373
0.006856549,0.018837782,-0.024685077,-0.009001693,0.0039240923
-0.022103488,0.011339066,-0.043002523,-0.033262383,-0.011761409
-0.0139854485,0.009940921,0.0055252775,-0.06433346,0.041970164
-0.02324699,0.0038657952,0.04269192,0.01601912,-0.022523617
