0.03623402,0.05934458,0.030025035,0.011839825,0.02619653
0.044617124,-0.0037024298,0.045873385,0.033724334,0.001433381
-0.033691727,0.018424211,0.051372536,-0.00582897,0.020913
0.024450123,0.0114067355,-0.035569478,-0.013190692,-0.022825934
0.0151162455,-0.043999128,0.012482742,0.0007133892,-0.005383262
-0.034300417,0.038511388,-0.003440019,0.024688644,-0.0010393126
-0.030668702,-0.016136253,0.002074471,0.0112535795,-0.018535146
0.003985907,0.05341779,-0.012712653,0.025451083,-0.013334654
0.024790319,0.03305816,-0.00013331065,0.053164277,0.033088792
-0.021922063,-0.010238076,0.002288634,0.017815687,0.026699867
0.12413987,0.039118297,-0.1520132,-0.072039515,0.028321909
0.09760296,0.15111223,0.09593857,0.04510943,0.039492216
0.016419109,0.027114356,0.08120756,0.07733839,0.019488053
-0.0069497735,-0.031190002,-0.074071,-0.107093886,-0.02159617
-0.013852072,-0.032688517,-0.026009547,-0.07721763,-0.09737839
0.028990576,0.0027654355,0.0017579474,0.03929387,0.00020061451
-0.041739043,0.0074774045,0.075060934,0.04759956,0.022105705
0.028878206,0.002673852,0.009469832,-0.038553808,-0.041851413
-0.006924009,-0.05269532,-0.028902467,0.008271616,-0.0026663386
0.016347373,-0.026899321,-0.0632763,-0.072060086,-0.019160563
0.005523228,-0.034776557,-0.04581965,-0.00084701343,0.017134555
-0.03272236,-0.076811485,-0.060856592,-0.049665242,0.055995557
-0.035720292,-0.043033496,-0.13980056,-0.04360409,-0.04852368
-0.05800066,-0.07016832,-0.021677751,0.007981866,0.013735189
0.044192698,0.02994084,-0.027676735,-0.035718158,-0.003352678
-0.10555304,0.055984497,-0.117568456,-0.041104667,-0.054945745
-0.07147782,-0.10570983,-0.17075184,-0.074474454,0.016468087
-0.02715661,-0.10146413,-0.08986873,-0.051018853,0.028477758
-0.0070318617,-0.08491878,0.082611784,0.00022509834,-0.07310968
-0.056997426,-0.010892069,0.15630274,0.016958704,-0.033442363
0.05256635,0.010694635,-0.038307425,-0.079484604,-0.031401694
-0.03165262,-0.068449974,0.024193406,0.00065341976,-0.019851815
-0.0031207206,-0.0340542,-0.06876678,-0.05114645,-0.04647049
0.05361765,0.021377372,0.02651992,0.06416254,-0.03591247
-0.018663883,0.059876584,0.021901041,-0.040451,-0.00037746795
0.027178299,-0.026210954,0.03216043,0.014860285,0.018577378
0.009155918,0.015669487,0.0054671606,-0.03681686,0.0069741695
-0.0089865085,-0.056383956,-0.062538125,0.07679829,0.060544457
-0.03065633,0.025730694,0.03044932,0.0016667575,0.026687391
-0.00799627,-0.020295057,-0.021932457,-0.0049976995,-0.03711266
-0.057342287,-0.016105726,-0.02706865,-0.031631418,-0.047354493
0.004820562,-0.13039552,-0.07865039,-0.08933032,-0.03408657
0.14994103,0.12274516,0.0039753234,-0.1160077,-0.037671745
0.026272986,0.1313373,0.17626867,0.052413963,0.0826133
-0.010911018,-0.017657433,-0.044444896,-0.09807806,0.03541685
-0.0057999627,-0.023790618,0.030217366,0.014445816,-0.04236241
0.0077461055,-0.023731606,-0.031122036,-0.02252287,0.022449397
0.021776563,-0.026795456,0.006288417,0.017779633,-0.020295491
0.014468017,0.039112,0.049698576,0.038432047,0.016400559
0.04230814,-0.008757538,0.004927882,-0.070935,-0.026381059
-0.017398156,-0.061997686,-0.00954977,-0.068311535,-0.009172186
0.025527872,-0.09309455,-0.044799786,-0.08347649,-0.06216132
0.11269246,0.099306114,-0.015335997,0.038482737,0.01265369
0.028142687,0.111238554,0.08574731,0.08899355,0.031421505
-0.031398784,0.0010511944,0.0036954621,-0.037620995,-0.0035865356
-0.022756446,-0.059824087,0.047837164,0.0041894135,0.044049967
0.044817362,0.10574571,-0.060659576,-0.021704892,0.0056841504
-0.0070417104,-0.0010943206,0.034306686,0.090761356,0.09568507
-0.014154918,-0.010018715,0.0013924385,-0.03388027,-0.030637445
0.035381466,0.006230629,-0.0019362986,-0.060199972,0.026486674
0.054393657,0.07378308,-0.015714547,-0.030521695,0.005269573
0.06694463,-0.060238823,-0.09454176,-0.01293915,0.019196171
-0.08482192,-0.03664314,-0.07258425,-0.043690577,-0.0064185616
-0.056597397,-0.09982124,-0.024921115,0.0037815021,-0.0522795
-0.012770702,0.052543133,0.0207411,-0.006317174,-0.017095964
0.09690358,0.0032523721,0.026052393,-0.02758681,0.005871404
0.02776558,-0.005757962,0.05569306,0.06368403,0.0062724655
-0.046006616,-0.039467283,0.008231828,0.04537131,0.0027676243
0.013664054,-0.018878032,-0.043217156,-0.077161096,-0.03221433
-0.043783683,0.024273373,-0.02044661,0.015109824,-0.02626343
-0.022078438,-0.05342243,-0.026286421,0.0017666538,0.018711342
-0.06533523,-0.101692624,-0.025192522,0.0057943696,-0.010670567
0.011003708,-0.02590077,-0.0073128906,-0.015366751,-0.02337281
0.07112065,0.083040796,0.057290588,0.005945664,0.043074545
-0.008925447,0.029527891,-0.030372575,-0.057420947,0.044241246
0.058052875,0.083531454,-0.0029442136,0.010565867,0.015787857
0.07036889,0.053105302,0.0071985936,-0.01063337,-0.014614161
-0.0912373,-0.12249764,-0.04921897,0.0015429573,0.006469758
0.0047380114,-0.08932464,-0.05747541,-0.0055494625,-0.06620097
-0.03166786,0.0048814244,0.021573765,-0.0042997375,0.019550025
0.023608726,-0.0033572388,-0.05336173,0.03678488,0.027901025
0.008097624,-0.00036275963,-0.019447006,-0.052531213,0.03104575
-0.04638494,-0.031053375,-0.07709846,0.020990435,-0.024867032
0.012053018,0.00028202828,-0.016691007,-0.04831414,0.004228319
-0.04851586,0.04888814,-0.038621232,-0.0032152333,-0.017409964
-0.017558776,-0.045896877,-0.031677794,0.044192333,-0.043235447
0.004411603,-0.041841786,-0.09460898,-0.058574494,-0.03381203
0.030455176,0.0020081887,0.0154147325,0.0145000145,-0.029986434
-0.008364191,-0.07708213,-0.020245101,0.029222507,0.06944186
0.026870329,0.024032485,-0.033734642,-0.010316224,-0.033011496
-0.05881805,-0.039632026,0.014595571,0.009795313,-0.00529613
0.022391217,-0.0011413718,0.049384534,-0.0023091368,0.0070015807
0.15745391,0.0974649,0.028972602,0.0015006443,0.016432434
0.077731304,0.08467445,0.104136996,-0.04263264,0.062384807
-0.06167284,0.013620568,0.0017261978,-0.008603335,0.011001318
-0.049209338,-0.06551639,-0.030144908,0.023170698,0.021889264
0.0082580205,-0.028271124,-0.05013888,-0.0701191,-0.026694369
-0.05294923,-0.045733072,0.014071725,0.055262033,0.014937674
-0.05471293,0.015753862,-0.0039102137,0.06883861,0.036756463
0.01952003,0.03069635,-0.024371192,-0.02749587,-0.041018985
