0.04395586,0.0331844,-0.014958479,0.0010849892,0.020028392
0.0026924054,-0.017622173,0.007501226,-0.04385686,0.0013944852
-0.059860736,-0.04857913,-0.023380976,-0.039131716,0.004373367
-0.015329191,-0.026189914,-0.067135,-0.046967737,-0.054086845
-0.018359499,-0.012692785,-0.06285852,-0.052526362,-0.05695366
0.02437371,-0.03159936,0.06593894,0.0054422515,0.05651235
-0.033545658,-0.009827381,0.057218578,0.05327177,0.048331164
-0.025638962,-0.05856672,-0.004292871,0.03318526,0.048692137
-0.06756772,-0.090525895,-0.009361127,-0.08188973,-0.02238761
0.007479396,0.024533771,-0.028893858,-0.074048996,-0.06928394
-0.03535474,-0.073561996,0.06155476,-0.02770726,-0.02145661
-0.13108744,-0.043290872,-0.03733339,0.018289454,-0.08172754
0.040279806,-0.039433047,-0.052861236,-0.117713355,-0.15500486
0.10233519,0.077030756,0.066924796,-0.031019937,-0.021049874
0.06295135,-0.0065140794,0.13947907,0.063870095,0.036798313
-0.026776701,-0.054753706,-0.034189694,-0.06565395,0.011398779
-0.020397218,-0.0232064,-0.00041857047,0.035289768,0.020111088
-0.028726855,-0.06890433,0.0012497377,0.008703525,-0.0682939
-0.026490169,-0.072918676,-0.0023941593,-0.061954625,-0.06938119
-0.075078525,-0.019617816,-0.04670446,-0.056396518,-0.017545756
0.013568916,-0.060154684,-0.011044589,0.0009561458,0.04300494
-0.029389212,-0.04114462,0.013970841,0.024159277,-0.0050834203
0.05294723,-0.012227062,-0.017251084,0.04341505,0.0629647
-0.02274891,-0.020183397,0.032138564,-0.049949773,0.01924651
0.03221352,0.016318541,-0.028036784,-0.06329844,-0.030371604
0.013740605,-0.0534698,0.06244517,-0.041055813,0.01599405
-0.07889004,-0.042806044,-0.007491215,-0.0035429562,0.06393656
-0.124995016,-0.13460551,-0.07275418,-0.08372838,-0.07161387
-0.034073193,-0.079814255,-0.17251438,-0.14229873,-0.14149463
0.045999303,0.012796222,-0.09251168,-0.020957725,-0.15893666
-0.041857705,0.018254116,0.04631334,0.06023782,-0.014192063
-0.04418058,-0.0014983611,0.05171632,0.059638187,0.056939587
0.058568176,0.060208425,0.040661555,0.053126987,0.0024738733
-0.016961282,-0.046623845,-0.027358456,0.011951323,0.025170429
-0.028581023,-0.006443022,-0.043502234,-0.032494474,-0.045305427
-0.0037026724,0.0342181,0.057897724,-0.004185009,0.102856085
0.016546154,0.018947706,-0.031515364,-0.023568716,0.031709954
-0.058481224,-0.015099684,-0.024642207,-0.032673463,0.025839414
-0.04894607,-0.035325862,-0.06557957,-0.035800017,-0.0550394
-0.008500287,0.038126305,-0.06474323,-0.09979691,-0.03269183
-0.040563967,-0.055795733,-0.0499635,0.016069062,-0.04326696
0.06378997,0.11023145,0.06781929,0.07666612,0.07748459
0.06844769,0.10055886,0.13346423,0.08150784,0.10464566
-0.026225561,-0.08820405,0.005452968,-0.011171503,-0.00045922818
-0.03605634,-0.0063785533,-0.045667946,-0.049881753,-0.019565651
-0.031225722,0.051086545,-0.03058426,0.036003485,0.03406975
0.021856213,0.022525357,0.0061984896,0.015878115,0.017622683
0.009986935,0.033694565,0.026725793,-0.05310826,-0.0123083
-0.069117665,-0.02718365,-0.043236513,0.011761711,0.016161762
-0.059090212,-0.03814721,-0.089544564,0.0025197489,-0.047869682
0.04556057,0.06448831,0.032748714,0.013623656,0.03709891
0.07976867,0.09220098,0.10840143,0.05372129,-0.01629041
-0.072177716,0.018538298,0.061901335,0.015092143,0.035247047
-0.078029,-0.10453282,-0.028366787,-0.089100584,-0.007454475
-0.03158428,-0.046040777,-0.06144447,-0.07806987,-0.06279388
-0.08270999,-0.007596639,0.018075762,0.024999175,0.06438844
-0.03195517,0.02081566,0.005497607,0.021335596,0.024061728
0.012670211,-0.055723898,-0.0720791,-0.07271856,-0.041920453
0.003226691,0.012997108,0.055379435,-0.040696293,-0.046103448
0.0020206424,0.04007893,-0.040619943,-0.05741752,-0.037141494
-0.057511378,-0.0008790861,0.036014356,-0.0052713985,-0.02680747
-0.046724893,0.001733805,-0.028218903,0.012552738,-0.005010022
0.023149215,-0.043916624,-0.07020198,-0.024831085,-0.008796523
-0.0019450845,0.019864757,-0.0015617782,0.002203491,-0.09124935
0.100854464,-0.02134337,-0.034888756,0.04145551,-0.021718517
-0.060363863,-0.010665122,-0.041002065,-0.053748738,-0.09268429
0.0064085354,-0.03423723,-0.058273364,-0.047598444,-0.09141704
0.06731428,0.0464765,0.0019382387,0.0034735869,-0.015769944
0.083457276,0.08234168,0.080017574,0.01789654,0.0636529
0.0776024,0.04623853,0.06528423,0.1135563,0.11190021
-0.021731626,0.050490767,-0.011986908,-0.040894046,-0.047686398
0.120015904,0.114817984,0.1201465,0.056328062,0.042051747
0.068679705,0.1054352,0.106261596,0.08891506,0.021482864
-0.029445244,0.011291786,0.013194737,0.01308932,0.054221556
-0.07430711,-0.005707307,-0.023413923,0.016536752,-0.009117274
-0.065836,-0.023422008,0.030180575,-0.052398223,0.013330664
-0.0020824298,-0.07699447,-0.015135443,0.024216464,-0.0087498175
-0.0067552393,0.047693245,0.012955655,0.029244741,-0.05516844
0.06650849,0.066627964,0.001281252,0.010004539,-0.015885236
0.05623555,0.01796107,0.06950193,0.056627817,0.034505725
-0.0022959297,0.019202977,0.01584914,-0.000405854,-0.02141874
-0.069293216,-0.022607977,0.0324675,-0.04038169,-0.037638035
0.0013372438,-0.03210076,-0.05822975,-0.024338005,-0.027163912
-0.017952504,-0.06746942,-0.051688727,0.0027358867,-0.013320654
-0.03398199,-0.0052289357,-0.034051888,0.0048913145,0.022835838
0.0279739,-0.016472742,0.018752657,-0.0021103013,0.039775558
-0.036505625,-0.03961085,-0.040078122,0.046484135,0.03992537
0.02423351,-0.08159024,-0.0068269363,-0.0033596987,-0.020327926
0.0034355524,-0.029343406,-0.08310662,-0.0912876,-0.048318926
-0.0039717047,-0.0114289345,0.01340094,-0.0006173048,-0.032702032
-0.012560346,0.028616026,0.03165101,-0.06871062,-0.044010308
-0.0061707143,0.053115062,0.0699601,0.013793347,0.026379514
0.055988625,0.0015954183,0.04145103,0.012896481,-0.0131490985
-0.043458592,0.00056354096,-0.011034887,-0.03835176,0.009699963
-0.07260174,-0.07025545,-0.012139353,-0.05796754,-0.06170335
-0.00086794334,-0.008446188,0.045721333,0.060290147,0.076215036
-0.056572914,0.04969973,-0.0039206427,0.09015471,0.0009416669
-0.0536543,-0.00427716,0.03629786,0.058444846,0.05436869
-0.092667215,-0.04054532,-0.039624467,-0.06785653,-0.08270232
-0.02035713,0.024936553,-0.03750974,-0.10003764,-0.02767352
