0.019297589,0.083085075,0.0058527905,-0.01302688,-0.0763208
0.08876137,0.11787044,0.082242705,-0.02125767,-0.0110633895
0.028257927,0.0709221,0.028928693,-0.108156465,-0.035945997
-0.08409031,-0.08247835,-0.11568491,0.023826594,0.04127301
-0.056405645,-0.05615886,-0.07836764,0.042557117,0.06303056
0.043299448,0.032276288,0.06681967,-0.035811126,0.011419508
0.07259619,0.07428071,-0.035875726,-0.041155662,-0.06088214
-0.030928312,-0.03728191,-0.10135255,-0.039870128,0.007468764
-0.06035542,-0.048659526,-0.043865673,0.012983531,0.04841849
-0.0807586,-0.0012005718,-0.06423802,-0.0041095996,0.06326417
0.01068797,0.060481813,0.00077829644,-0.00012451022,-0.019332798
-0.013997884,0.057166733,-0.026424961,-0.045825094,0.00754157
0.020703131,-0.029498016,0.00048014786,-0.03502714,0.06528158
-0.074622825,-0.017790353,-0.05943578,0.0008953194,0.024763865
-0.04071281,0.027449308,-0.015508201,0.050884437,-0.042281285
0.016575625,-0.0027912422,0.03841128,0.024136601,0.021400737
0.014026208,0.06866,-0.029166816,-0.008633843,0.0045533506
-0.042385947,-0.034028728,-0.07406566,0.016995227,0.00913254
-0.025347415,0.015577056,-0.02951853,0.07593052,0.028499922
0.012484734,-0.009491413,0.055369716,0.04597251,-0.035203803
0.034610562,-0.015393207,-0.03415483,0.014272143,-0.0036029373
-0.037975203,-0.0027307502,-0.01599256,-0.012489604,-0.013933799
-0.029705556,-0.024487052,0.0045489534,0.042999215,-0.028562544
-0.012974828,-0.019599885,-0.004408231,-0.006928971,-0.039828315
0.024550773,-0.036645323,0.042737857,0.0017278566,-0.012499653
-0.006104455,0.047907986,0.05288461,-0.025263328,-0.012706315
0.018804671,-0.00027967195,-0.045231756,-0.03396805,-0.006819021
-0.038774263,-0.053322155,-0.049247593,0.025429484,0.060655307
0.044773825,-0.015326664,0.02582273,-0.00839865,0.027709523
0.056297917,0.03395759,-0.011514065,0.023927998,-0.059693728
-0.005414078,-0.017039636,-0.051067416,-0.031779498,-0.03664422
0.011397286,-0.005878655,0.015628356,-0.013901997,0.035252523
-0.003304351,0.029112944,0.024592083,-0.036111042,-0.032798655
0.021446625,0.036257174,-0.044479106,0.004572531,-0.020187208
0.043902777,0.037670944,0.034188088,0.0187857,-0.0065847645
0.064227186,-0.0013159397,0.0058835447,-0.03392087,-0.032923255
0.009032794,0.02686438,-0.01886064,-0.055983018,-0.012612623
-0.013347579,-0.052974854,-0.009172099,-0.049972337,0.0033364356
-0.08557535,-0.08850161,-0.03147655,0.048968937,0.05546478
-0.0028189356,0.015752897,-0.056827936,0.02000117,0.072468124
-0.05247636,-0.044408806,0.012136779,0.0048021306,-0.034927417
-0.040357135,0.028414926,0.004837892,-0.008624027,-0.050239474
0.028090471,-0.040053595,0.010270402,-0.014345925,-0.007309654
0.029594779,-0.007811248,-0.02490123,0.018058583,-0.03772739
0.025198203,-0.011633194,-0.016433854,0.026388355,-0.004386244
-0.057842728,0.03658498,-0.017733088,0.042888954,-0.020952657
0.024691222,0.015422113,0.019116767,0.03459249,-0.01679303
0.026459008,0.075250365,0.07078829,0.008417562,0.01487461
0.01907746,-0.0022556584,-0.026008496,0.0033771321,-0.019344367
0.024267644,-0.05447125,-0.016114153,-0.010359393,0.027580597
0.045778837,0.023233315,-0.012211018,-0.037670914,-0.008409149
-0.013245237,0.05308466,-0.037144568,-0.011292715,0.010889498
-0.023986077,-0.07735699,-0.042046215,-0.032906074,0.018441686
-0.015846904,-0.00909645,0.03621257,0.019052548,0.040255725
0.004288257,0.041641094,0.008281757,-0.012368648,8.4011874e-05
-0.035250135,0.0016545791,0.020550605,-0.041938853,-0.023749657
0.028026883,0.0009818261,-0.0015391926,0.004561422,-0.020063208
0.036948524,-0.004370279,-0.016270852,0.023540184,-0.037249185
-0.008202773,0.004510606,-0.0138784535,0.024343157,-0.038162276
-0.012926608,-0.018807102,0.041383855,0.017886475,-0.033212904
0.0044199703,0.01890796,0.06821117,0.041109156,-0.033002295
0.08652576,0.03440866,-0.002047345,-0.010022135,-0.011426798
-0.05151268,-0.08623789,-0.066804804,0.0037040452,-0.05512039
-0.07621259,-0.09652209,-0.075712,-0.035736896,0.017174145
-0.01009132,0.022969086,-0.008341637,-0.06339307,0.050565552
0.025560053,-0.038575787,0.022565385,-0.030581696,0.034526374
-0.01945383,0.0092802085,-0.00047738035,0.020748056,0.006952135
-0.0324404,0.018116279,0.026376566,-0.023296343,-0.02902368
-0.030457973,-0.021760302,-0.0056334613,0.0033419686,-0.00031560476
-0.0118311085,0.0277428,0.0023620632,-0.02596792,-0.011835529
-0.019717943,0.003883241,-0.035825785,-0.0011380682,-0.07247942
0.0019567607,0.033504274,-0.021893026,-0.032455392,-0.058750194
0.012085112,0.022709917,-0.010909341,0.006944002,0.013060282
-0.055174917,-0.0080740545,-0.029753089,-0.038544454,0.045973685
-0.023312267,-0.038980685,0.013436746,-0.047680605,-0.0040014144
0.014556707,0.031180395,0.013729707,-0.039197724,0.04013315
-0.031118093,-0.010741703,-0.028635865,8.337635e-05,-0.0032547917
0.03458103,0.026140315,0.0134129645,-0.017688142,0.046593726
-0.072007686,-0.058877222,-0.007959926,0.01389862,0.011161942
-0.06750562,-0.007213531,-0.074104026,-0.020412985,0.02523233
-0.035186887,-0.024145301,-0.060823593,0.017000189,0.024743669
-0.011237297,-0.010322885,-0.07977079,-0.04464353,-0.025553087
-0.046331074,-0.0047463365,-0.025584474,0.01549743,-0.034089416
-2.6288577e-05,-0.020736264,-0.006469782,0.0744681,0.024609622
-0.032548312,0.02462,0.0049428553,0.00976037,0.028592037
-0.005165075,0.061751314,0.04021289,-0.034921657,-0.024359124
-0.015647264,0.032808103,-0.050476365,-0.061980046,-0.035780903
-0.07614935,-0.07028075,0.007944297,0.038781714,0.05410927
-0.0433813,-0.047590427,-0.010522558,0.029212395,-0.049014762
-0.003117419,-0.032270454,-0.0068716616,0.008485988,0.020518446
0.07742095,0.017786164,0.018117966,-0.03703278,0.009816477
0.014943743,0.0048634247,-0.0619603,-0.048608452,0.012085672
-0.050036315,-0.08606525,-0.01581797,0.06199831,0.025895676
-0.0052605313,-0.0062384033,-0.016634982,0.0125511745,0.022402257
-0.0041900594,0.025059838,-0.013691181,0.005640998,0.032728255
-0.011205842,0.021129614,-0.025133412,-3.8467017e-05,0.030788032
0.007926762,0.041504342,0.027679458,-0.049146052,-0.03705665
-0.072073214,-0.06073277,-0.06086045,-0.049890626,0.051350024
-0.03209687,-0.041231576,5.8644655e-06,0.09148393,-0.0017310405
-0.044774387,-0.02685542,-0.017480021,-0.027712544,-0.009362838
