0.028909352,0.01844158,0.042219307,0.010346736,0.023076806
-0.009489735,-0.03156742,-0.030513003,0.05277078,0.0045338995
-0.024701437,0.0017745289,-0.060498036,0.009058347,-0.03377318
0.005134032,0.015630135,0.035545025,0.017332938,0.012640787
0.03422604,0.030864071,0.070180036,0.029083658,0.048217364
0.04595617,-0.02616825,0.01638623,0.027866352,-0.004197651
-0.030352168,0.0057037,-0.041132707,-0.060233645,-0.053448185
0.029186606,0.06915756,-0.01992522,-0.01998044,-0.0015878938
-0.0027564787,-0.04938418,0.010827106,-0.013427102,-0.047544517
0.0039952337,-0.050180405,-0.03650908,0.036651522,-0.03727833
0.04690529,0.09225948,0.07988799,-0.032312565,-0.1570933
6.656999e-05,0.06502149,0.20988333,0.16310409,0.031134518
-0.08124771,-0.051442076,-0.055823095,0.084505156,0.13036883
0.0038063428,-0.020543145,-0.08922554,-0.03625235,-0.03794948
0.0016358113,-0.07274276,-0.03075572,-0.11616797,-0.08209707
-0.05690188,-0.02573662,0.053719655,0.04798135,-0.0061499598
-0.026290355,-0.07163902,-0.012966336,-0.018618071,0.055283703
-0.043864228,-0.058867753,-0.02344889,-0.016482843,0.051451217
-0.048061788,0.0077241743,-0.049484123,-0.017572673,-0.0153210405
-0.008452495,-0.043539215,0.0025695015,-0.07016007,0.043762047
0.03858173,-0.051224314,-0.035759497,-0.026870957,-0.045237523
-0.013685982,-0.056901243,-0.06659961,-0.05884535,-0.079042114
-0.0022068697,-0.04656096,-0.061956447,-0.05341642,-0.03463558
-0.028552962,0.015903225,0.032900397,0.015120406,0.008017968
-0.017868757,0.02759151,-0.0010287696,-0.0060651447,0.09345679
-0.06024742,-0.0727587,-0.11180891,-0.06149846,0.05026722
-0.03942583,-0.03407948,-0.040763777,-0.06399108,0.013689715
-0.0254336,-0.023339568,0.095399566,-0.016763782,-0.032536715
0.019381719,0.015809016,0.10308924,0.11883473,0.108364396
0.011601371,-0.020436822,0.022545826,0.025376104,0.10302269
0.029997805,0.031258628,0.012794152,-0.0006098928,-0.065411665
0.0599963,-0.024943952,-0.07098602,-0.02851188,-0.06192427
-0.021087592,-0.029116774,-0.025625307,-0.08398304,-0.09791357
0.01999394,0.030474685,0.059860285,-0.07028477,-0.0808805
-0.049948156,0.027117096,0.0136594055,-0.045758866,-0.032931466
0.04235616,0.06431516,-0.028404022,-0.020047026,-0.026455907
0.050461125,0.06517733,-0.033920653,-0.013674551,0.005042422
0.026694607,0.049615055,-0.044581678,-0.028557463,-0.04325913
0.046156786,0.015570485,0.075545266,-0.021572234,-0.046880793
0.035404537,-0.012067592,0.0017387257,0.024041317,0.044230726
0.015851738,-0.039500125,-0.052136358,-0.021841025,0.06421209
0.013117655,0.0120035475,-0.12657692,-0.123523325,-0.015934192
0.014508545,0.052306425,0.11730678,0.016377,-0.05073374
-0.055071916,-0.046581812,-0.0023502829,-0.021588378,-0.0055907015
-0.020307034,-0.026223335,-0.03074832,-0.018587472,0.015186464
-0.03358874,-0.049658027,0.022598768,-0.017439289,0.062305935
-0.022039197,-0.0006587538,-0.05228836,-0.027750544,0.02967649
0.026644617,0.046285488,0.06897156,0.0002679887,0.03779497
-0.050681047,-0.0011087644,-0.012742996,-0.003396842,-0.005388974
-0.038833458,-0.040374562,-0.04705664,-0.0024423336,0.05486844
0.043808926,-0.018007545,0.026260605,0.02080457,0.03863463
0.07151185,0.055315185,-0.027170543,-0.07521265,-0.024884572
0.0049716583,0.034828972,0.0011274897,-0.0017568567,-0.03627776
-0.031750035,-0.033102036,-0.0032227116,0.05520224,0.04784935
0.019473007,0.024425993,0.03019727,0.021054849,-0.041509025
0.012029567,0.03677841,-0.02902238,-0.056169372,-0.03380806
0.030196648,0.028150165,0.05092183,0.078195594,-0.052847344
-0.03490726,-0.010447542,0.0355644,0.048454944,0.02429901
-0.010230436,-0.0074218283,0.0012721092,0.016044458,0.0048742965
-0.02439903,-0.00653994,0.020290282,-0.008517048,-0.02759786
-0.010535521,-0.038438935,-0.048271593,-0.04257069,-0.062194366
0.0028712375,0.008714053,0.00011537844,-0.04974835,-0.06731264
-0.05878226,-0.06981416,-0.04883795,-0.03756356,-0.04430122
0.008353401,0.05089941,-0.021968389,0.011956443,0.0072805495
0.012900782,0.04892633,0.05327578,-0.012588012,-0.018859971
-0.030041963,0.008566089,0.06574062,0.061659995,-0.021072738
-0.029200424,-0.063842066,0.019346898,0.027207924,0.059753954
0.032002013,-0.064429,-0.029038318,-0.04288442,0.051607464
-0.05141061,-0.044970162,-0.068904705,-0.008563454,0.018868811
-0.0028727115,-0.056730397,-0.08682578,-0.08022906,0.017367667
-0.0009769206,0.016976649,-0.05217326,0.03361287,0.01290129
-0.029507294,0.030122193,-0.047293965,-0.034573287,0.03326171
-0.00554757,0.04784313,0.025600886,-0.031185308,-0.04952454
0.004193011,-0.09144704,0.02569711,0.02635946,0.01561273
0.0324847,-0.025577072,-0.0654579,-0.056329247,-0.021176456
0.0007241935,0.01686024,0.053899743,-0.020619672,-0.03185759
0.008300152,-0.024514731,-0.03333603,0.04304249,-0.013186358
0.0028701124,-0.06970484,-0.12291679,-0.07074776,0.009482026
0.05381125,0.03261751,0.030422041,-0.029773068,-0.09440657
0.03937699,0.0466329,0.043290332,-0.026214968,0.014638812
-0.033834074,0.004488228,0.0074318927,0.005919912,-0.029887142
-0.06448512,0.0028915734,0.065574,0.005486829,-0.041785173
-0.05221849,-0.037468005,-0.013002757,-0.005172637,-0.04576594
0.022157919,-0.04130343,0.014701177,0.021175034,-0.022864353
-0.0022850188,-0.03236037,-0.0020090952,0.05597272,-0.00620509
0.023432903,-0.00778308,0.02239751,-0.043414257,-0.03578793
0.04303573,0.042103536,0.053640284,-0.015948633,-0.07661206
0.042341888,0.009906822,0.046883468,0.0076907603,-0.057772685
-0.013878881,0.01111134,0.021789268,-0.027723273,-0.03733682
-0.0030157212,0.032277983,0.06362686,0.050529793,-0.0027597102
0.00068944314,0.022322522,0.04586625,0.013245931,0.050274763
0.017968351,0.008434848,-0.017201116,-0.02393345,0.036051773
-0.025233094,0.11789545,0.1372485,0.04006527,0.034278516
-0.050576925,-0.028682457,0.025385559,0.047195688,0.034134883
-0.020219246,-0.0064763785,-0.06446097,-0.073181786,0.008635583
0.040305078,0.051277526,-0.058366027,-0.019169249,0.015621493
-0.024244536,-0.002013145,-0.0077925893,-0.06229112,-0.06507508
0.0069102785,0.02130154,-0.06781239,-0.0730824,0.0034037547
0.017908476,-0.043919925,0.0187202,0.03642873,0.022327561
-0.018529592,-0.006599165,0.08499213,0.04232573,-0.042351663
