0.05275742,-0.0046977405,-0.018216599,-0.09710241,-0.1697214
0.051979557,0.03135281,0.064167015,0.023318334,0.09333262
0.011524991,0.0414277,0.034485456,0.078866445,0.05567686
0.05061233,0.0041270927,-0.09104208,-0.1681384,-0.098441415
-0.01029227,0.009568944,-0.025835553,-0.0007632582,0.04266245
-0.035303976,0.0016789879,-0.01876548,-0.057397824,-0.0708212
-0.024738485,0.10041066,0.12157602,0.17551154,0.11250097
-0.033140775,-0.0161437,-0.05321404,-0.0062893895,0.070962384
0.052196655,0.02995146,-0.015848896,-0.074235,-0.028522553
-0.069050916,0.0013763938,-0.022927834,-0.03311965,0.017621428
0.03984557,0.025167262,0.033724263,-0.04970178,0.008573387
-0.019896679,-0.05247194,-0.043514222,-0.061729513,-0.0039885244
-0.011418353,0.08026961,0.025045604,-0.014656165,-0.06928683
0.032516625,0.021135183,-0.06296966,-0.047928877,-0.035171047
-0.039897483,-0.008098831,-0.039359238,0.09716645,0.10889207
0.035961814,-0.028454691,-0.056097403,-0.07834745,-0.04257415
0.032734666,-0.004059386,-0.04213216,-0.04696952,-0.035284787
0.006209996,-0.02145824,0.028042719,-0.07107388,-0.12189071
0.0058314013,-0.0046127266,-0.033067875,-0.016536059,0.025761006
-0.054366656,-0.055786088,-0.030241689,0.0027374635,0.060532156
-0.053275082,-0.019652087,-0.028551942,0.008621456,-0.02852255
-0.04242553,0.010263546,-0.06900918,-0.05077669,-0.052151173
-0.017177297,-0.012773661,0.008941877,-0.058399078,-0.047443893
0.03212169,-0.0051105344,-0.03328536,0.017581854,0.03394839
-0.013238156,-0.036161486,-0.037211437,-0.033079244,0.009989348
-0.029295634,0.038048826,-0.011278696,0.07006661,0.12222533
-0.032430045,-0.041747473,0.0040290495,0.020435566,-0.006887978
-0.035139482,-0.029826088,-0.05533525,-0.01068754,-0.053272583
-0.011296716,-0.022352684,0.0044169747,0.047018133,0.029232042
-0.023239298,-0.02493198,0.030117024,-0.03573685,0.022106273
-0.011939449,0.028620224,0.024709497,-0.013811454,-0.007353589
0.03121138,-0.009662375,0.0013130356,0.0352963,0.013944979
-0.010483389,0.040418994,0.037699003,0.04910593,-0.030179847
0.03764426,0.039535847,-0.025779085,0.036280103,-0.023288636
0.020446986,0.011993359,0.028414866,-0.013590974,-0.009639423
-0.02550561,0.025309127,-0.024177438,0.010755166,-0.011641575
0.011365914,0.014913321,0.059767596,0.061178267,0.035687555
-0.009087764,-0.03772698,-0.074844554,-0.0024246334,0.013752615
-0.007912438,-0.03885455,-0.070611075,-0.044555787,0.0073753106
-0.016389998,-0.013581184,-0.059490684,-0.0022047376,0.037292942
-0.04736844,0.022021944,0.019729458,-0.009784634,0.011090166
-0.0024929552,-0.057692356,-0.015672302,0.009467456,0.024542619
-0.005096485,0.014454344,0.0121240225,0.031119322,-0.0133762825
0.03477647,-0.009797056,0.05517484,0.059919395,-0.020243058
-0.044888366,0.02316453,0.033285048,-0.0044834497,0.00075781095
-0.017715234,-0.037123926,0.011569206,0.0078685535,-0.05315453
-0.006675878,-0.033541653,-0.014678272,-0.08774488,-0.065335326
-0.04334302,0.026764091,0.06862609,0.12154194,0.0574115
0.017099973,0.03467307,0.03062545,-0.018368075,0.018192153
-0.030958666,-0.025069134,-0.023686362,-0.039507747,0.07244707
0.03972958,0.038128637,0.048588786,0.055949945,-0.017607016
-0.005303522,-0.03179015,0.0031922138,0.026831867,0.13604441
-0.033124182,-0.030442778,0.013224695,-0.08220182,-0.066496335
-0.04526333,-0.0488024,0.030559339,0.020942448,0.00836586
-0.06063445,0.0042546014,0.04258332,0.022719542,-0.03241653
0.0015635391,0.021765305,0.013013437,0.040224437,0.0402738
0.022783825,-0.031084232,-0.0023552894,0.008777925,-0.014915027
0.013370017,0.029129414,-0.024170877,-0.013691722,-0.034007
0.0069590956,0.026788263,0.04045245,0.0022955355,0.02913191
-0.043267008,-0.0009178985,-0.008511533,-0.020629093,0.041406877
0.017961817,-0.070885345,-0.11103599,-0.07341348,-0.0024052172
0.02897388,0.0739,0.17092584,0.18882339,0.21188173
-0.025039183,-0.03377384,-0.055949613,-0.04663136,-0.02636069
-0.01671949,0.037377372,0.052539248,-0.033221625,1.2503978e-05
-0.056500483,-0.019146355,0.082019486,-0.029172173,-0.074007615
-0.007571101,0.04030951,-0.019117609,-0.01188111,0.0025812753
-0.029279664,0.017439988,0.037654027,0.016173298,-0.0107368445
-0.008555738,-0.043839924,-0.03524693,-0.012249351,0.024807354
0.04159831,-0.0031350865,-0.004283141,0.03059934,-0.009378939
-0.030508285,0.025320467,-0.019334424,-0.03184797,0.0003851608
-0.031954892,-0.03375718,-0.01900028,0.008390194,0.029040564
6.959714e-05,-0.029327283,-0.054795705,-0.029290313,-0.041270524
-0.017289083,0.020457957,0.07044067,-0.0010825719,-0.030997502
0.038409803,0.021049311,0.029929727,-0.0049766456,-0.027925871
-0.00010433167,0.036942143,0.009010364,-0.052818574,0.04506754
-0.018573707,-0.07328641,0.010524009,-0.089528754,-0.086212784
-0.0017806831,-0.013078415,-0.019638773,0.010015394,0.0067816805
-0.040636048,-0.045111112,-0.031052178,0.11681842,0.07781563
0.0065678307,-0.038055837,-0.029945077,0.0010988509,0.029266324
0.060787816,0.042187788,-0.05557333,-0.03708069,-0.030379388
-0.02281482,-0.008077207,0.012287991,-0.05472916,-0.05620756
-0.036546323,-0.0073717637,-0.056491964,-0.03689619,-0.0971945
0.017575853,-0.0008548265,-0.039213516,-0.11127217,-0.07320818
0.0053078406,-0.048110273,-0.0038804514,0.037921477,0.0030243017
0.0025341613,0.0069337864,-0.02372678,-0.01890947,-0.0050802375
-0.00358232,0.006043989,-0.024171876,0.011471615,0.027353855
0.0020755376,0.025454983,0.099429935,0.1119943,0.0642892
-0.021999344,-0.04265164,-0.037920482,-0.0016848752,-0.011927623
0.027843999,-0.01014884,-0.0018870645,-0.002527697,0.008748379
-0.02552083,0.0020524552,-0.03110966,0.0016420477,-0.058824614
-0.028239287,-0.055124786,-0.0045133224,0.057052244,0.05653767
0.01606505,0.003308734,0.01753425,0.0055706017,-0.05507031
0.00066233333,-0.026208052,-0.098748766,-0.11531823,-0.012092797
0.029244822,-0.050018504,-0.066105485,0.010892087,0.04286039
-0.03883716,-0.045180634,-0.009729549,-0.019547012,-0.037099276
0.027346846,-0.026407134,-0.046125624,0.003908777,0.041681614
0.012236312,0.05935986,0.07307737,0.16166458,0.1403187
-0.017140301,0.051134013,-0.056019593,-0.08940145,-0.02988801
-0.0011159251,-0.036071498,-0.05400197,0.075057715,0.09786174
-0.06566302,-0.029802151,0.07154222,0.075193465,-0.018809471
