-0.0117548015,0.049191814,0.12139198,0.116727054,0.09755635
-0.026601272,0.028680187,-0.1189153,-0.16177294,-0.13266183
-0.12211878,-0.07564928,-0.068982914,0.007902797,-0.011377662
0.014991201,0.109197214,0.14936556,0.10453332,0.013879459
-0.0299796,-0.028423192,-0.10185456,-0.07045503,-0.04152002
0.04595576,0.05828568,0.006125089,0.011342401,-0.038415417
-0.07203755,-0.104114175,-0.087298624,-0.121028475,-0.07804735
0.007942691,0.10782343,0.07882202,0.07600683,0.0814926
0.015756631,0.0043369574,0.028795347,0.051123697,-0.00090836175
-0.10144269,-0.12003834,-0.019379115,-0.04943955,-0.0797696
-0.028533693,0.0056429147,0.04684288,-0.007779886,-0.012562438
0.04555656,0.015506978,-0.03012593,-0.029046474,-0.015532221
-0.030186828,0.040467583,0.03125916,0.008078852,-0.04276618
0.04022573,0.038555805,0.025918374,0.014041148,-0.06583856
0.031567466,-0.02482594,-0.066922896,-0.054250814,0.025867498
-0.01762511,0.021464696,0.030347664,-0.023529505,-0.005246345
-0.013431125,-0.0053157103,-0.0202454,-0.05722062,-0.033529755
-0.07071224,-0.050162915,0.060808904,0.008276302,-0.01980412
-0.030103238,0.089596264,-0.027701719,0.02310029,-0.067581154
0.014094245,-0.036808882,-0.0041072457,0.025475668,5.1854313e-05
-0.03160631,-0.03445733,0.021389667,-0.010349082,-0.039451577
-0.005053116,-0.014226868,0.030768396,-0.03317177,0.0036163195
0.024943782,-0.0141245015,-0.01854881,-0.039310154,-0.019309089
-0.036206104,-0.060475998,-0.005804111,0.012948198,-0.033539865
0.035898395,0.0060936566,0.031948164,-0.008820335,0.039912097
0.034867708,-0.04077105,-0.06617978,-0.09018714,-0.059258718
-0.051629663,-0.03609015,0.029371608,0.059927307,0.07052653
0.06919544,0.11574534,0.0741841,0.07068909,0.05391105
0.035154738,-0.07451951,-0.019903868,-0.045519583,-0.040011454
-0.05792389,0.008512945,0.027920827,0.075598694,-0.0104446765
0.03278639,-0.035565592,0.040945686,0.033298682,-0.049910106
-0.034195215,0.00965244,0.012071374,0.022147419,0.0016104514
-0.038056467,0.010907623,-0.052825958,-0.027215617,0.0061879205
0.016548837,-0.042349245,-0.0146584045,-0.038290553,-0.047548383
0.004162301,-0.007334562,0.0076146866,0.029318037,-0.055057827
-0.02348249,-0.0114215445,-0.034376603,0.041562274,0.043384045
-0.09982372,-0.0625838,-0.07736823,-0.042957958,-0.03011083
-0.028609518,0.03360172,-0.014719696,0.05706225,-0.02050079
0.0045361742,0.049683277,-0.0077706785,0.010583184,0.040411845
-0.031194074,-0.059467785,-0.042738296,-0.0524344,-0.057345685
-0.02551886,0.03929716,0.044010084,-0.008407647,0.02349255
-0.029909154,0.011570096,-0.04756349,0.019708475,-0.0497061
0.015035346,-0.019006833,-0.041898694,0.06328282,0.027582612
-0.026476298,0.020553213,-0.024565535,-0.034159057,-0.0035474072
0.0041161156,-0.00805922,0.036789253,0.01970431,-0.016328048
0.014896181,0.028943693,0.064476356,0.03166739,0.022441795
0.045327146,0.06356396,0.09066653,0.023526512,0.033001736
0.03403386,-0.011261422,0.0015228278,-0.053179335,0.0019914666
-0.067512006,0.029766314,0.068529144,0.11637487,0.024542222
0.051469315,0.056404114,0.051696055,0.026520846,0.020766642
-0.051061705,-0.028678436,0.00875089,-0.0017665093,-0.033524893
0.013292048,-0.03920215,-0.017553791,-0.04249674,0.023652604
-0.012199546,0.040368427,0.06252472,0.121314995,0.041635174
-0.026832461,-0.006705665,-0.0016401301,-0.050210766,-0.04066905
-0.047675,-0.02218439,-0.0073414887,0.032451887,-0.01881673
0.02526089,0.028163236,-0.0024180342,0.00024904287,-0.00667682
-0.00090175035,-0.032746736,0.022186467,0.04120172,0.022436978
0.021164358,0.04044206,0.031144733,0.010425619,0.029656056
0.031056514,0.009182616,-0.010889433,-0.026546616,-0.012271856
0.013387102,-0.034941126,-0.04073285,-0.006877059,0.0074817147
0.09563237,0.12594424,0.024708848,-0.028078338,-0.043737955
-0.066485964,-0.13313028,-0.14240795,-0.09694052,-0.032412667
-0.039329585,0.04112038,0.102928154,0.14575946,0.053945914
0.10240144,0.07200683,0.014051266,0.043085124,-0.0023635516
-0.12455431,-0.04423019,0.010485495,0.0030563138,-0.06820012
-0.0069693867,-0.033991467,1.6372094e-05,0.0012912002,-0.024404874
0.039041698,-0.029244244,0.029034976,0.028533919,0.04118708
0.013104891,0.029712344,-0.01554255,0.016035408,0.040578205
-0.04356603,-0.031637713,0.013251068,-0.010205439,-0.0075867367
-0.025518632,3.6417034e-05,-0.01402241,0.04258545,0.027382053
0.0045351787,0.0066342335,-0.02221921,-0.031638786,0.034656297
0.043535884,0.002324673,-0.029766358,-0.0005426611,0.022127645
-0.0075722407,-0.066692084,-0.010856591,-0.043000776,-0.014232824
0.033545446,0.033741567,-0.013411622,-0.010079032,-0.015575498
0.022010205,0.021572113,-0.03352564,-0.03148703,0.02590924
0.03520511,-0.018709483,0.04432519,0.090870276,-0.008077072
-0.04598508,0.023502788,-0.043495886,-0.009600629,-0.05781371
-0.040555585,0.03224497,-0.024159681,-0.023282565,0.014138171
0.036722377,-0.031671096,0.07224323,0.06468852,0.008331323
0.030996442,0.0022933977,-0.039194264,-0.041028377,-0.031057736
0.011085384,-0.016460897,0.0022948508,0.0034033377,-0.010466463
0.010011911,-0.009589821,0.03492063,-0.010228212,-0.039215095
-0.0020984346,-0.0138871055,-0.03070047,0.032298688,-0.06511153
-0.01149022,-0.060088743,-0.005897126,-0.035691023,0.021275535
0.026488913,-0.028583577,0.0044435184,0.008297767,-0.016747897
-0.008446556,0.026643634,-0.031437956,-0.06986846,-0.014552639
-0.032153398,-0.08152845,-0.017249906,0.008909238,0.0028249624
0.0011794475,0.0490008,0.058172897,0.073516935,0.00646338
-0.018595437,0.019705113,-0.055270694,0.0020044635,-0.041306037
-0.045288432,-0.040310256,0.015602059,0.02356206,0.017619638
-0.014131418,-0.011794493,-0.07070385,-0.085700214,-0.07139305
-0.07446006,-0.074542925,-0.014789056,0.0018559628,0.026335606
0.042104326,0.14123067,0.15153988,0.04667993,-0.0032663066
-0.019718723,-0.053360227,-0.059457477,-0.019500291,-0.009738606
-0.07113884,0.004455217,0.047284424,0.081501424,0.03745134
0.0464033,0.07428974,0.07366567,-0.041117013,-0.022866337
-0.042966347,-0.12386457,-0.09064212,-0.023406401,-0.0028023734
0.022182774,0.17665364,0.2128861,0.111208946,0.06432898
0.07909183,0.06321907,-0.029912246,-0.077524744,-0.047869653
-0.13016655,-0.13951953,-0.05051126,0.04417449,0.06783512
