0.014699088,0.012619726,-0.048960585,-0.012695374,-0.032354675
0.03776094,-0.013951463,-0.02722681,0.050091542,0.01706421
0.038057182,-0.0078416625,0.042713046,-0.011066904,-0.016196923
-0.026526496,0.017016584,-0.028605517,-0.02849347,-0.00063357915
-0.0076443837,-0.0067912885,0.01676439,0.017869558,-0.019131538
0.0038855902,0.0330029,-0.01275146,0.02175723,-0.0012521658
-0.010373628,-0.0015580648,-0.042932197,0.015733784,-0.037216257
-0.009714745,0.04679825,0.041207485,-0.028056625,0.0021632651
-0.02690962,-0.035285834,0.049059015,0.055660307,0.058423758
-0.025322555,-0.058394276,-0.04578234,0.02581798,0.034947462
-0.06083928,-0.12369889,-0.038535096,0.052757375,0.025449269
-0.03788124,-0.040163055,-0.0053304513,-0.015009459,0.03705965
-0.044677217,-0.065613836,-0.0341467,0.050451025,0.13654827
0.009020621,-0.042472243,-0.029379398,-0.08137729,0.12250385
0.079376,0.010691295,0.055335727,0.00016853579,-0.08083562
0.0004568722,0.019341774,0.050683577,-0.020718208,-0.049532726
-0.001359768,0.009114711,0.03591507,-0.008072791,0.03576557
0.009795567,-0.00019022808,0.0035748603,-0.01725749,0.017090375
0.029798621,0.0060215816,-0.037033986,-0.024953172,0.03817498
0.030675227,0.017046424,-0.0021784303,-0.0066883145,0.008619291
-0.010040355,0.0512308,0.042512383,-0.02101974,0.009610743
-0.0077345707,0.023231378,0.028331507,-0.04279749,0.0197595
-0.017871013,-0.025823606,0.0122621395,-0.015420101,-0.027068466
-0.019861968,-0.01112011,-0.014494323,-0.06550302,-0.019862106
0.02369298,-0.0007685835,-0.0372332,-0.032950997,-0.0037653912
-0.027842673,-0.03085742,-0.06859854,-0.012345837,-0.032635204
-0.020471215,0.057441905,0.03515139,0.061732784,-0.069759384
-0.077723265,0.017261073,-0.013281035,0.007178771,-0.0672243
-0.10814726,-0.062385354,-0.06367525,0.03494474,-0.072290465
-0.038078103,-0.06840506,-0.0848042,0.006438125,-0.064358294
-0.0027592268,-0.04309053,-0.025560994,0.031709794,-0.00910786
0.03579218,0.010737272,0.014153295,0.016711932,-0.039633844
-0.03840223,-0.020166932,-0.028194822,0.050747372,0.031916857
0.043531008,0.0015651532,-0.019527998,-0.018110147,-0.035158243
0.041738413,0.027704539,0.01582797,0.053664785,-0.038287748
-0.014180349,0.0010693341,0.03844544,-0.021120021,0.043906026
-0.0074797305,0.022058059,-0.0065051992,0.02825828,0.028194852
0.035642605,-0.031952012,0.06782736,0.012621709,0.021201786
-0.03220603,-0.0014908218,0.023775853,-0.015000488,-0.026061013
0.025439464,0.0053910515,-0.012583939,-0.009430095,0.0026123377
0.05623785,-0.0103086345,-0.0076164687,-0.040390026,0.028432267
-0.03168812,0.011446508,-0.049289066,-0.10904911,-0.022571126
0.03887947,0.004993608,0.028886285,-0.05568574,-0.0922617
0.0095027955,0.05121529,0.066817895,0.039540503,0.036234885
0.018119758,-0.046438333,-0.042095013,0.046479385,0.10333494
-0.031611864,0.006004525,-0.05510349,0.021133116,-0.040350616
-0.034337036,-0.01635045,-0.03551763,0.018359344,0.027621944
-0.050824896,-0.0016175123,-0.02451234,-0.022319417,-0.02605787
-0.030810932,-0.031461895,-0.0024036923,0.053699996,0.042681422
0.031987924,0.03163463,0.008142206,0.03185642,-0.039160777
0.054280184,0.025984066,-0.029147696,0.01840922,-0.016954543
0.022830317,-0.018531576,-0.037538122,0.0096353,-0.046609715
0.06071969,0.05771788,0.017149877,0.028891316,-0.0413859
-0.039707005,-0.04525863,0.10306555,0.033991106,0.004611879
0.012988457,-0.034733202,-0.036573417,-0.011997678,0.0086211935
-0.014987895,-0.0056579686,0.010240126,-0.013521247,0.033964816
0.01761395,-0.006367499,0.01204774,-0.03238061,0.031543605
-0.038936265,0.042582534,-0.037752926,0.04566278,0.048107885
-0.038761362,0.02710721,-0.057279196,0.02604471,0.031074803
0.021623453,-0.020192346,0.017190512,-0.03897759,0.006746824
-0.054178834,-0.0740746,-0.012027287,0.05889534,0.03633392
0.006972531,0.009920039,0.0019424589,-0.0039216843,-0.02185677
-0.013691365,-0.06315715,-0.013003514,-0.03153287,0.0034814
-0.06571901,-0.07999233,-0.06704009,-0.034104798,-0.003471018
-0.037555918,0.0045985593,-0.019798245,-0.015283876,-0.029800376
-0.07255603,-0.012277741,-0.038632136,-0.035557143,0.016734904
0.0024433178,-0.009202458,-0.020941995,-0.013223577,0.030439507
-0.009235372,0.0077620614,0.009345363,-0.017255498,0.010948
0.038303487,0.03974524,0.047560204,-0.08342731,0.005825844
0.048557557,0.079666816,0.050095517,0.023553886,-0.061140895
0.039612994,-0.0019029614,-0.0008606448,-0.026364554,-0.042087097
0.021907125,-0.034375556,-0.013256235,-0.051305827,-0.0362778
0.012925092,0.02277563,0.06504463,-0.01414213,-0.024194919
-0.022139896,0.03758293,0.11894078,0.09352051,0.008409413
-0.023759596,-0.056339126,-0.040217392,0.06267581,0.055432383
0.018735655,-0.041651797,-0.005102535,0.061631043,0.0031155786
-0.06307502,-0.06179453,0.015097591,-0.0050114407,-0.04390627
-0.060003698,-0.003610331,-0.06635572,-0.042020984,0.03260496
0.041254796,0.02008678,-0.08227209,-0.04301273,-0.081851415
0.019516943,0.03403607,0.07192652,-0.022178892,-0.00072964473
-0.020527989,0.000490456,0.0125884805,-0.01507889,-0.030082054
0.07121987,-0.02386033,-0.02097856,0.03574997,0.017126359
0.01644597,0.017094579,0.032841418,0.040297985,0.05556028
0.023262452,0.032934517,-0.0032699518,-0.0396625,0.044366937
0.022231046,0.01744308,-0.04173522,-0.056899227,0.02270682
0.026322303,0.049957667,0.005179473,0.04477106,0.01657639
0.04262795,0.030779587,0.0045436528,-0.04016912,0.018856928
0.04781227,-0.018699624,0.04121329,-0.031808715,-0.012774773
-0.057292376,-0.05965992,0.00091369683,-0.013450661,-0.03236394
-0.059980538,-0.04514736,-0.011715508,-0.06648973,-0.0075217877
-0.017676458,0.020299941,-0.009922659,0.014341757,-0.04880253
-0.014366985,0.046115227,-0.021238867,0.02814673,0.031430356
-0.033136908,0.016454829,0.01837926,-0.01965076,0.0003868881
0.017071525,-0.008388943,0.044749234,0.14395896,0.004115005
-0.015139531,-0.018682145,0.025472037,0.11699336,0.034649372
0.0012504741,0.0692166,0.039090104,-0.0011215135,0.007457566
0.022280637,0.023978317,-0.0017604652,-0.019420618,0.026257765
-0.010515177,0.024526559,-0.023185473,-0.01731472,-0.052951746
0.029559502,-0.0038533127,0.043377068,-0.008792612,-0.02109036
-0.017308729,-0.011955495,-0.025487188,-0.037436094,-0.016085254
